2.594428602606058121e-03 -1.287697702646255493e-01 -6.785594392567873001e-03 -6.320039927959442139e-02 -7.183799892663955688e-02 3.614306915551424026e-03 -2.435793429613113403e-01 -1.686988747678697109e-03 2.270841039717197418e-02 -2.559389770030975342e-01 -2.431473694741725922e-02 2.403264166787266731e-03 -4.992596432566642761e-02 -1.120265945792198181e-01 -1.895997226238250732e-01 -6.875773519277572632e-02 -4.143445286899805069e-03 -2.328776381909847260e-02 -1.757206320762634277e-01 -2.352442741394042969e-01 1.550758816301822662e-02 3.181136772036552429e-02 -2.556768059730529785e-02 -4.692768454551696777e-01 -4.371869936585426331e-02 -4.623243585228919983e-03 -3.457270096987485886e-03 -1.013291440904140472e-02 -5.334827676415443420e-02 -5.557636171579360962e-02 -4.349970445036888123e-02 -4.951736703515052795e-02 2.095499821007251740e-02 -5.726929157390259206e-05 -7.404500991106033325e-02 4.429640248417854309e-03 8.196178078651428223e-02 2.782485075294971466e-02 6.619985215365886688e-03 -1.936526678036898375e-04 -5.921696778386831284e-03 -3.956187367439270020e-01 -9.674181342124938965e-01 -1.658893772400915623e-03 -2.130565643310546875e-01 1.267965137958526611e-02 6.841155234724283218e-03 -2.137435367330908775e-03 -2.137606739997863770e-01 -4.471908882260322571e-02 -1.645789891481399536e-01 -3.364154696464538574e-02 -9.143362045288085938e-01 -1.353319361805915833e-02 -1.196825294755399227e-03 -1.022928953170776367e+00 1.065875403583049774e-02 -1.135217724367976189e-03 -2.847399003803730011e-02 -2.850668430328369141e-01 -1.258138287812471390e-02 3.185363020747900009e-03 2.739184349775314331e-02 -1.697504520416259766e-02 -8.970026974566280842e-04 -8.719108998775482178e-03 -1.465475838631391525e-02 -1.279878020286560059e-01 -7.758536934852600098e-02 7.153198821470141411e-04 7.773043960332870483e-02 -6.346752867102622986e-03 6.292644888162612915e-03 -4.084881395101547241e-02 -7.072409242391586304e-02 5.014318600296974182e-02 -1.782411150634288788e-02 -1.313267797231674194e-01 -9.187001585960388184e-01 -4.967825370840728283e-04 -1.705143786966800690e-02 1.106844563037157059e-02 -1.007658481597900391e+00 3.802262246608734131e-03 -6.313133835792541504e-01 -1.327335252426564693e-03 -1.263155817985534668e+00 -4.405741114169359207e-03 9.095236309804022312e-04 4.790998063981533051e-03 -5.547138452529907227e-01 1.952516962774097919e-03 6.907249800860881805e-03 -3.716535493731498718e-02 -1.737756580114364624e-01 -5.705920048058032990e-03 1.633002236485481262e-02 3.532802313566207886e-02 4.907119553536176682e-03 -1.634264481253921986e-03 8.211513981223106384e-03 -3.658904135227203369e-02 -3.143256064504384995e-03 -7.741025765426456928e-04 6.200432777404785156e-02 -3.393596271052956581e-03 -1.006728503853082657e-02 -6.628820300102233887e-01 -5.664649605751037598e-02 -9.082702547311782837e-02 7.118231803178787231e-02 8.321885019540786743e-03 -1.551541220396757126e-02 -1.325267553329467773e-02 4.427833482623100281e-03 2.701905090361833572e-03 7.553866133093833923e-03 -1.908805370330810547e-01 -1.146530270576477051e+00 -1.118860952556133270e-02 -2.042596101760864258e+00 -6.471368949860334396e-03 -1.079257950186729431e-01 -3.342559933662414551e-01 -4.740539789199829102e-01 -1.980789750814437866e-02 -1.220160126686096191e+00 2.020723000168800354e-02 2.289988845586776733e-02 -5.035292822867631912e-03 -2.768388204276561737e-02 -7.804424762725830078e-01 -1.301735080778598785e-02 -2.416186500340700150e-03 -5.892524495720863342e-03 -4.125740379095077515e-03 -1.427315291948616505e-04 1.299083232879638672e-02 -2.713585738092660904e-03 1.736634294502437115e-03 1.169115304946899414e-02 -4.378442764282226562e-01 -9.035740047693252563e-02 -1.030119895935058594e+00 8.056277036666870117e-02 -1.674788654781877995e-03 1.870030723512172699e-02 7.946162484586238861e-03 -3.250175341963768005e-02 -1.012112498283386230e-01 -7.663105726242065430e-01 4.666467383503913879e-02 1.636272855103015900e-02 -1.594628691673278809e-01 -1.889404607936739922e-03 -1.311133801937103271e-01 1.808601664379239082e-03 2.959990873932838440e-02 -1.738595403730869293e-02 -5.476950854063034058e-02 -5.490698968060314655e-04 -6.909703463315963745e-02 -5.824967622756958008e-01 -2.356246858835220337e-02 -4.669935703277587891e-01 -1.461936712265014648e+00 -5.251170322299003601e-02 1.845361851155757904e-02 -8.839987218379974365e-02 -3.527895733714103699e-02 2.780897729098796844e-02 -7.834222912788391113e-01 1.652382314205169678e-02 -5.151225486770272255e-04 -3.961747512221336365e-02 -9.393885848112404346e-04 7.470148266293108463e-04 -7.807537913322448730e-03 -1.597066223621368408e-02 -4.130665212869644165e-02 2.486671507358551025e-02 -1.384604722261428833e-01 2.507345564663410187e-02 8.798780851066112518e-03 -6.016932427883148193e-03 1.513373281341046095e-04 6.029191892594099045e-03 -3.898911876603960991e-03 -1.635163128376007080e-01 -3.741801157593727112e-02 -1.166691660881042480e+00 1.594965718686580658e-02 3.619045764207839966e-02 -1.171153411269187927e-01 -1.901916563510894775e-01 9.059233590960502625e-03 3.490418568253517151e-02 -5.949873011559247971e-03 -2.264559268951416016e-03 -9.810872673988342285e-01 -1.301362514495849609e+00 3.998941974714398384e-05 2.338601090013980865e-02 -9.389820098876953125e-01 2.012019045650959015e-02 1.039540162310004234e-03 -5.210448503494262695e-01 1.462702360004186630e-02 2.859114296734333038e-02 1.558420248329639435e-03 -4.344655573368072510e-02 -2.583515364676713943e-03 -1.569036208093166351e-02 7.782251387834548950e-02 3.591046202927827835e-03 3.585830330848693848e-02 -1.030980348587036133e+00 -7.954036444425582886e-02 -9.670694917440414429e-02 -4.858167171478271484e-01 -8.676383877173066139e-04 -4.153380636125802994e-03 -4.575982689857482910e-03 4.893483128398656845e-03 -1.105749130249023438e+00 -5.252259373664855957e-01 7.320157438516616821e-02 1.671154284849762917e-03 -4.468373209238052368e-02 -4.776427149772644043e-02 -5.831415653228759766e-01 -1.359162479639053345e-01 9.142158553004264832e-03 1.085629966109991074e-02 -4.280237015336751938e-03 -2.789651229977607727e-02 3.666701540350914001e-02 -1.994159258902072906e-02 9.135098196566104889e-03 -4.761382937431335449e-03 -1.589541435241699219e-01 -1.509785186499357224e-03 6.740367971360683441e-03 -5.316261574625968933e-02 -9.251179872080683708e-04 -1.033927649259567261e-01 4.202660545706748962e-02 5.148306488990783691e-03 1.187745854258537292e-02 2.060930430889129639e-02 -6.538902223110198975e-02 -1.383395195007324219e+00 3.221683576703071594e-02 -9.761306643486022949e-01 -3.334412276744842529e-01 3.102641785517334938e-04 1.776956394314765930e-02 5.398641806095838547e-03 -1.276687905192375183e-02 1.658811233937740326e-02 -5.871538072824478149e-03 -1.649116352200508118e-02 -1.133911032229661942e-02 -7.042185869067907333e-03 -3.845132291316986084e-01 7.105429656803607941e-03 7.822968065738677979e-03 -5.091077648103237152e-03 -9.709175676107406616e-02 -3.808766305446624756e-01 -1.027735788375139236e-02 -2.116078045219182968e-03 1.063077077269554138e-01 -1.113500669598579407e-01 -4.033482447266578674e-02 1.851423084735870361e-02 -7.812397181987762451e-02 -2.007757313549518585e-02 -2.874433994293212891e-02 2.527000382542610168e-02 2.744119428098201752e-02 8.676774799823760986e-03 3.387691080570220947e-02 3.517084987834095955e-03 2.815278479829430580e-03 -4.307144507765769958e-02 -1.006141662597656250e+00 -4.653825238347053528e-02 -1.752046108245849609e+00 -3.642127662897109985e-02 -1.038857037201523781e-03 -4.899995028972625732e-01 -4.196284711360931396e-02 5.651717074215412140e-03 -1.067219674587249756e-02 2.359864301979541779e-02 -1.781669072806835175e-02 -4.529051482677459717e-02 1.410976052284240723e-03 3.090888261795043945e-02 -1.703916490077972412e-02 -1.306317090988159180e+00 -1.053074598312377930e+00 3.713979618623852730e-03 -1.454285345971584320e-02 -1.992153236642479897e-03 -6.261428818106651306e-03 1.492184493690729141e-02 8.022457361221313477e-03 -1.302147388458251953e+00 3.237625118345022202e-03 -4.931148290634155273e-01 3.187078051269054413e-03 -1.852992735803127289e-02 -1.867850869894027710e-02 2.100076898932456970e-02 2.734633162617683411e-02 -6.291053257882595062e-03 1.475656288675963879e-03 -6.081193685531616211e-01 -1.267069816589355469e+00 7.550337910652160645e-02 -2.032614313066005707e-03 -1.239718794822692871e+00 4.784499853849411011e-02 -9.480004664510488510e-04 -1.048734545707702637e+00 -1.713447213172912598e+00 4.560587182641029358e-02 3.977744281291961670e-02 -1.400599721819162369e-04 -9.671953916549682617e-01 2.632717834785580635e-03 9.032513201236724854e-02 -1.296137925237417221e-02 -1.138199329376220703e+00 -1.474001049995422363e+00 -1.691967993974685669e-01 -1.600914634764194489e-02 3.641977161169052124e-02 -3.796609118580818176e-02 -8.021743851713836193e-04 9.807041846215724945e-03 -1.118692517280578613e+00 -1.494627118110656738e+00 -5.434939861297607422e-01 5.386274307966232300e-03 -4.055065568536520004e-03 -1.246911138296127319e-01 -1.110640019178390503e-01 -7.795698475092649460e-03 -8.333433866500854492e-01 2.137534320354461670e-03 3.558413684368133545e-02 -3.233176656067371368e-03 -2.814934775233268738e-02 2.074697287753224373e-03 1.456054951995611191e-02 2.821186324581503868e-03 1.214475929737091064e-02 -6.132535636425018311e-04 -1.378719806671142578e+00 -2.586048329249024391e-03 -1.329493429511785507e-02 -1.721623726189136505e-02 -9.161339141428470612e-03 -8.355038166046142578e-01 -2.937351167201995850e-01 1.196512021124362946e-02 -4.875981062650680542e-02 -2.741464599967002869e-02 -8.328912854194641113e-01 9.494531550444662571e-04 -1.072065353393554688e+00 6.453021615743637085e-02 -9.639983909437432885e-05 -1.554447114467620850e-01 -6.050756946206092834e-02 -7.501155487261712551e-04 2.877629362046718597e-03 -5.577514320611953735e-02 -7.367911338806152344e-01 -5.083877444267272949e-01 1.582295075058937073e-02 -9.389361366629600525e-03 -5.436596274375915527e-01 -1.354343403363600373e-04 -4.324474558234214783e-02 -4.903553798794746399e-02 3.224636660888791084e-03 8.348752744495868683e-03 3.533124923706054688e-03 -2.437477698549628258e-03 1.392349833622574806e-03 -6.554703693836927414e-03 -1.277792826294898987e-02 -7.297466043382883072e-03 9.119697846472263336e-03 8.924813568592071533e-02 -8.152287453413009644e-03
5.999548435211181641e-01 -3.239256516098976135e-02 7.355711460113525391e-01 2.612753212451934814e-01 1.030916422605514526e-01 8.297209143638610840e-01 -2.470593750476837158e-01 9.076550602912902832e-01 5.082191899418830872e-02 -1.208956316113471985e-01 5.148469209671020508e-01 7.231606245040893555e-01 7.425583153963088989e-02 -1.490109115839004517e-01 -4.882368072867393494e-02 5.040506720542907715e-01 3.543741703033447266e-01 6.271947026252746582e-01 -2.475712001323699951e-01 -2.407463043928146362e-01 6.824561953544616699e-01 3.580939173698425293e-01 8.250632286071777344e-01 -4.372374713420867920e-01 6.324318051338195801e-01 8.130615353584289551e-01 5.125221014022827148e-01 6.293627023696899414e-01 1.206825524568557739e-01 5.159563422203063965e-01 1.580758541822433472e-01 3.418247699737548828e-01 3.899705708026885986e-01 1.003343582153320312e+00 2.815334685146808624e-02 8.534679412841796875e-01 1.080853641033172607e-01 8.223128914833068848e-01 4.736346006393432617e-01 9.778901338577270508e-01 8.655673265457153320e-01 -3.409273326396942139e-01 -6.742215752601623535e-01 7.106095552444458008e-01 -1.487037986516952515e-01 7.184020876884460449e-01 2.861974537372589111e-01 8.766383528709411621e-01 -2.777579473331570625e-03 3.519735336303710938e-01 -1.855508834123611450e-01 1.360126882791519165e-01 -4.500767588615417480e-01 6.088973879814147949e-01 1.307046264410018921e-01 -3.039169609546661377e-01 5.518611073493957520e-01 9.649096727371215820e-01 1.338932514190673828e-01 -2.162657827138900757e-01 3.827337920665740967e-01 8.286619186401367188e-01 5.592513680458068848e-01 1.741955727338790894e-01 9.835679531097412109e-01 3.234407901763916016e-01 2.552120983600616455e-01 -6.189804151654243469e-02 5.684030652046203613e-01 8.262634873390197754e-01 6.358501315116882324e-01 5.400028228759765625e-01 8.288593888282775879e-01 6.176266670227050781e-01 2.447757869958877563e-01 6.969520449638366699e-01 7.417377233505249023e-01 -7.978359609842300415e-02 -3.260155618190765381e-01 5.538235902786254883e-01 5.450816154479980469e-01 8.429387211799621582e-01 -5.299260020256042480e-01 3.544397354125976562e-01 -4.562518298625946045e-01 9.976090788841247559e-01 -3.732251226902008057e-01 9.613916277885437012e-01 3.260326087474822998e-01 6.178733110427856445e-01 -3.616531789302825928e-01 5.201721787452697754e-01 6.367767453193664551e-01 3.029433488845825195e-01 1.420450061559677124e-01 5.946454405784606934e-01 6.960163712501525879e-01 8.011435270309448242e-01 7.285580039024353027e-01 8.926392197608947754e-01 5.018415451049804688e-01 5.099015235900878906e-01 8.644433617591857910e-01 5.635469555854797363e-01 8.665326237678527832e-02 6.625550985336303711e-01 6.269959807395935059e-01 -5.170377492904663086e-01 1.885393708944320679e-01 1.461263280361890793e-02 -7.510189432650804520e-03 4.668792784214019775e-01 3.293700218200683594e-01 3.147599697113037109e-01 4.073533117771148682e-01 8.158157467842102051e-01 2.206517606973648071e-01 1.885402798652648926e-01 -5.254822373390197754e-01 8.428831696510314941e-01 -5.831674337387084961e-01 6.706793308258056641e-01 -1.690288037061691284e-01 -4.234378337860107422e-01 -1.993059664964675903e-01 7.586143016815185547e-01 -5.701894164085388184e-01 7.327988147735595703e-01 7.683730721473693848e-01 8.595111370086669922e-01 5.815923810005187988e-01 -4.550647139549255371e-01 7.156309485435485840e-01 5.587161183357238770e-01 1.078140884637832642e-01 7.003107070922851562e-01 9.029871225357055664e-01 1.062896326184272766e-01 3.972829505801200867e-02 8.938723802566528320e-01 2.213650196790695190e-01 -4.633609652519226074e-01 -5.365777388215065002e-02 -7.585714459419250488e-01 5.069867372512817383e-01 9.205116033554077148e-01 2.987683713436126709e-01 8.314679265022277832e-01 1.646836847066879272e-01 1.158419176936149597e-01 -4.507378935813903809e-01 4.082866013050079346e-01 3.970273137092590332e-01 4.916273429989814758e-02 9.966750741004943848e-01 4.955068230628967285e-02 8.751401305198669434e-01 5.951020717620849609e-01 5.259827524423599243e-02 1.046978682279586792e-01 7.292893528938293457e-01 2.128151357173919678e-01 -3.682593703269958496e-01 4.393784403800964355e-01 -3.858034312725067139e-01 -4.387541711330413818e-01 5.599841475486755371e-01 4.111496508121490479e-01 3.468107283115386963e-01 3.734309077262878418e-01 5.157824158668518066e-01 -2.961237728595733643e-01 3.404437899589538574e-01 2.000313848257064819e-01 5.188820362091064453e-01 9.996456503868103027e-01 7.508292198181152344e-01 2.518855333328247070e-01 6.209989786148071289e-01 3.584836125373840332e-01 2.510896921157836914e-01 3.385478258132934570e-01 4.370033740997314453e-01 8.319453001022338867e-01 1.367488056421279907e-01 6.313964724540710449e-01 2.591308057308197021e-01 6.431280970573425293e-01 2.816102094948291779e-02 1.531023383140563965e-01 -6.249141693115234375e-01 1.852874010801315308e-01 6.015603542327880859e-01 2.511151134967803955e-01 1.321279676631093025e-03 6.018918752670288086e-01 2.908272743225097656e-01 5.333323478698730469e-01 7.100452780723571777e-01 -3.806780278682708740e-01 -6.105185747146606445e-01 9.216721653938293457e-01 1.219869107007980347e-01 -4.755690097808837891e-01 7.740247845649719238e-01 3.378169834613800049e-01 -4.984263181686401367e-01 5.701681375503540039e-01 7.100093960762023926e-01 -2.301432192325592041e-01 6.025709509849548340e-01 4.520277976989746094e-01 7.870008349418640137e-01 2.751624286174774170e-01 7.890514731407165527e-01 -6.711434572935104370e-02 -3.189139366149902344e-01 2.051881700754165649e-01 3.602030128240585327e-02 -4.453929960727691650e-01 7.525573968887329102e-01 9.209588170051574707e-01 7.682303786277770996e-01 6.433202624320983887e-01 -5.521210432052612305e-01 -1.591748744249343872e-01 5.043564438819885254e-01 3.991924598813056946e-02 4.759809374809265137e-02 1.367566883563995361e-01 -3.130817413330078125e-01 1.125089600682258606e-01 8.582134246826171875e-01 9.627056121826171875e-02 8.644742965698242188e-01 7.857569456100463867e-01 6.566278338432312012e-01 1.817452609539031982e-01 5.352119803428649902e-01 7.803354263305664062e-01 -1.973783671855926514e-01 5.645344257354736328e-01 9.221144318580627441e-01 2.172834128141403198e-01 9.834781289100646973e-01 -2.306260354816913605e-02 2.948143482208251953e-01 7.259525060653686523e-01 4.045878052711486816e-01 4.463970363140106201e-01 3.226753324270248413e-02 -5.416326522827148438e-01 8.501613140106201172e-02 -3.610039651393890381e-01 -3.639900982379913330e-01 9.581546187400817871e-01 2.311237752437591553e-01 6.943157315254211426e-01 4.789742231369018555e-01 5.994815230369567871e-01 1.032293200492858887e+00 3.607639372348785400e-01 3.414326310157775879e-01 9.111425280570983887e-01 -2.753526270389556885e-01 1.950480639934539795e-01 4.865856468677520752e-01 8.511651158332824707e-01 9.888629615306854248e-02 -3.740023970603942871e-01 1.220848411321640015e-01 2.014771848917007446e-01 1.123216375708580017e-01 4.410804510116577148e-01 -1.779705286026000977e-01 6.497532725334167480e-01 1.829862743616104126e-01 3.135364055633544922e-01 -1.337584760040044785e-02 4.128370285034179688e-01 2.502791285514831543e-01 7.287266254425048828e-01 -4.252346977591514587e-02 4.095015227794647217e-01 7.414921522140502930e-01 3.176632821559906006e-01 -4.854005873203277588e-01 2.052135020494461060e-01 -3.671945631504058838e-01 9.256675839424133301e-02 8.364267945289611816e-01 -4.748951196670532227e-01 2.876022458076477051e-01 4.343403875827789307e-01 7.630463242530822754e-01 3.807306885719299316e-01 2.082678377628326416e-01 -4.357001930475234985e-02 9.319227933883666992e-01 2.476660609245300293e-01 6.319382041692733765e-02 -5.845587253570556641e-01 -4.175613820552825928e-01 1.592749543488025665e-02 1.016932204365730286e-01 8.118288516998291016e-01 7.586377263069152832e-01 2.080052532255649567e-02 8.477141261100769043e-01 -4.953115582466125488e-01 4.836687445640563965e-01 -3.943315148353576660e-01 8.266387581825256348e-01 -5.144886672496795654e-03 5.287156105041503906e-01 6.972503066062927246e-01 5.788564085960388184e-01 6.763781309127807617e-01 1.389598548412322998e-01 -3.767613172531127930e-01 -4.363990724086761475e-01 5.262500643730163574e-01 6.555656790733337402e-01 -4.384566843509674072e-01 6.060251593589782715e-01 2.722212374210357666e-01 -5.031802058219909668e-01 -5.498551726341247559e-01 7.980591654777526855e-01 -2.876216545701026917e-02 8.501431345939636230e-01 -4.227943420410156250e-01 9.329484105110168457e-01 5.837977528572082520e-01 8.583410084247589111e-02 -5.644669532775878906e-01 -3.378561735153198242e-01 -2.940902411937713623e-01 3.723991513252258301e-01 6.826599836349487305e-01 3.790315091609954834e-01 2.949425280094146729e-01 3.237297758460044861e-03 -7.255340218544006348e-01 -6.370599865913391113e-01 -2.803310751914978027e-01 8.301908969879150391e-01 5.628216862678527832e-01 2.649789750576019287e-01 1.712824255228042603e-01 8.288137912750244141e-01 -3.298144042491912842e-01 5.179027318954467773e-01 3.009729385375976562e-01 5.208547115325927734e-01 5.073081254959106445e-01 5.552711486816406250e-01 8.485172986984252930e-01 4.463034272193908691e-01 4.474297538399696350e-02 7.338689565658569336e-01 -4.084698855876922607e-01 4.996066987514495850e-01 2.405479252338409424e-01 5.935597419738769531e-01 5.952514410018920898e-01 -3.531557619571685791e-01 -1.798212826251983643e-01 6.617086529731750488e-01 6.702912040054798126e-03 5.712197422981262207e-01 -4.223030209541320801e-01 8.876990079879760742e-01 -3.158057034015655518e-01 4.991501569747924805e-01 1.492038667201995850e-01 -2.461398392915725708e-01 -1.917374879121780396e-02 2.249090373516082764e-01 2.963746711611747742e-02 7.663699239492416382e-02 -4.201997816562652588e-01 -2.429469078779220581e-01 6.225818768143653870e-02 3.145883083343505859e-01 -4.729544520378112793e-01 4.042581915855407715e-01 7.227508425712585449e-01 -1.690302044153213501e-01 4.067998826503753662e-01 4.015688896179199219e-01 9.437868595123291016e-01 8.375084996223449707e-01 4.138755798339843750e-01 3.133293688297271729e-01 8.920009732246398926e-01 8.476320505142211914e-01 6.928118467330932617e-01 5.326471924781799316e-01 8.216863870620727539e-01
2.409934520721435547e+00 4.555953025817871094e+00 5.620547533035278320e-01 1.400583703070878983e-02 2.203023910522460938e+00 4.252719402313232422e+00 2.440253257751464844e+00 2.322026491165161133e+00 4.284254088997840881e-02 2.785378098487854004e-01 2.339128255844116211e-01 4.778341293334960938e+00 4.205260753631591797e+00 4.183530330657958984e+00 3.931528627872467041e-01 2.318706989288330078e+00 1.475804001092910767e-01 2.738738536834716797e+00 2.457647085189819336e+00 1.929608941078186035e+00 4.149766921997070312e+00 1.035081818699836731e-01 2.026308923959732056e-01 3.619691133499145508e+00 3.107780933380126953e+00 1.240976214408874512e+00 3.709642887115478516e+00 3.462260961532592773e+00 8.980444669723510742e-01 4.137043476104736328e+00 3.872879028320312500e+00 3.675628900527954102e+00 3.079073905944824219e+00 7.262865304946899414e-01 3.238108634948730469e+00 1.118563413619995117e+00 1.189794778823852539e+00 2.777430534362792969e+00 4.685254096984863281e+00 2.757806777954101562e+00 1.393331885337829590e+00 1.489468932151794434e+00 3.326444864273071289e+00 1.623442173004150391e-01 3.476193428039550781e+00 4.933662712574005127e-01 3.415269374847412109e+00 4.492049515247344971e-01 1.001624107360839844e+00 1.013811230659484863e+00 4.503787040710449219e+00 3.992305994033813477e+00 4.042946815490722656e+00 1.304585337638854980e+00 6.008123755455017090e-01 2.338854074478149414e+00 2.620049715042114258e+00 3.795002698898315430e+00 8.714318275451660156e-01 3.433325767517089844e+00 4.427134513854980469e+00 1.113345995545387268e-01 8.385646343231201172e-02 1.213882565498352051e+00 2.860994338989257812e+00 4.382991790771484375e+00 7.958826422691345215e-01 4.681608825922012329e-02 4.768568038940429688e+00 2.028162956237792969e+00 1.545125126838684082e+00 2.331506729125976562e+00 3.806126594543457031e+00 1.573335766792297363e+00 3.560349464416503906e+00 3.642327308654785156e+00 3.981542110443115234e+00 2.239391326904296875e+00 2.296103388071060181e-01 3.411691263318061829e-02 3.277531862258911133e+00 6.815044283866882324e-01 4.381938934326171875e+00 4.192726135253906250e+00 2.185081005096435547e+00 2.748945951461791992e-01 3.496288061141967773e+00 3.606135845184326172e+00 1.059107065200805664e+00 2.742031216621398926e-02 2.152866363525390625e+00 3.081877708435058594e+00 3.992781043052673340e-01 2.755902111530303955e-01 3.759057521820068359e+00 2.295424938201904297e+00 1.681338906288146973e+00 5.113906860351562500e-01 1.262217164039611816e+00 3.657783985137939453e+00 3.146605491638183594e+00 2.943983554840087891e+00 4.744696617126464844e+00 1.890512704849243164e+00 2.673497200012207031e+00 2.996213436126708984e+00 4.623434543609619141e+00 2.632853746414184570e+00 3.899786174297332764e-01 3.176877498626708984e+00 4.803494453430175781e+00 9.517979621887207031e-01 2.109189927577972412e-01 1.751538515090942383e+00 4.382152080535888672e+00 4.113030433654785156e+00 1.009777188301086426e+00 8.409162759780883789e-01 1.512155532836914062e-01 3.265054225921630859e+00 4.139545440673828125e+00 3.432362079620361328e+00 2.604370594024658203e+00 4.335638046264648438e+00 3.354441642761230469e+00 1.489144563674926758e+00 2.780731916427612305e-01 1.354946613311767578e+00 4.039302825927734375e+00 2.897668361663818359e+00 4.881248950958251953e+00 3.489792585372924805e+00 3.319673538208007812e+00 3.315116882324218750e+00 3.482753038406372070e+00 2.808647155761718750e+00 1.651920676231384277e+00 2.746760845184326172e+00 1.900301575660705566e+00 2.459759235382080078e+00 4.735291004180908203e+00 4.405522823333740234e+00 1.842846155166625977e+00 2.883991718292236328e+00 1.164512872695922852e+00 2.036861777305603027e-01 1.917877197265625000e+00 4.673377990722656250e+00 4.032779693603515625e+00 3.917338848114013672e+00 -1.214419864118099213e-02 4.012639522552490234e+00 2.736520767211914062e+00 1.024616718292236328e+00 9.578953385353088379e-01 4.288869380950927734e+00 4.319372177124023438e+00 2.018938064575195312e+00 1.118702292442321777e+00 7.378887534141540527e-01 3.245976448059082031e+00 4.562211036682128906e-01 2.544232368469238281e+00 3.905372142791748047e+00 2.336083650588989258e+00 2.566219329833984375e+00 3.616569042205810547e+00 4.507169723510742188e+00 2.956366539001464844e-01 4.276393890380859375e+00 3.587086200714111328e+00 1.128391027450561523e-01 3.309936046600341797e+00 4.956893920898437500e+00 1.546023488044738770e+00 3.214548110961914062e+00 3.721395730972290039e+00 4.016132354736328125e+00 1.344968080520629883e+00 2.190206527709960938e+00 4.667758464813232422e+00 1.920103430747985840e+00 9.476011991500854492e-02 3.877542018890380859e+00 3.767880916595458984e+00 4.830922603607177734e+00 4.862838745117187500e+00 3.462748527526855469e+00 1.325713157653808594e+00 2.341981410980224609e+00 4.587854385375976562e+00 2.010937213897705078e+00 2.558588981628417969e+00 3.491121530532836914e+00 3.449866294860839844e+00 4.859030723571777344e+00 3.561663627624511719e+00 2.437149286270141602e+00 3.087524175643920898e+00 9.414511322975158691e-01 3.815858840942382812e+00 3.469268083572387695e+00 2.360460281372070312e+00 2.576137065887451172e+00 1.205981373786926270e+00 3.850061416625976562e+00 4.049683094024658203e+00 3.998662233352661133e+00 8.329111933708190918e-01 2.928548157215118408e-01 1.623578071594238281e+00 4.293265819549560547e+00 1.625388383865356445e+00 3.706005096435546875e+00 9.744536876678466797e-01 4.205736160278320312e+00 9.415586292743682861e-02 1.806328296661376953e+00 3.714396476745605469e+00 8.757125735282897949e-01 4.638931274414062500e+00 2.390734851360321045e-01 2.132858753204345703e+00 1.667623519897460938e+00 7.557929754257202148e-01 3.089384794235229492e+00 9.497678279876708984e-01 8.011382818222045898e-01 1.972897052764892578e+00 9.077835083007812500e-01 1.874805539846420288e-01 4.248733043670654297e+00 2.347519874572753906e+00 2.058180570602416992e+00 1.322171092033386230e+00 2.520453453063964844e+00 3.325766324996948242e+00 1.331680417060852051e+00 2.828756570816040039e+00 4.612775325775146484e+00 2.049112319946289062e+00 1.902742981910705566e+00 8.852363228797912598e-01 4.023787498474121094e+00 2.326042175292968750e+00 2.206749439239501953e+00 4.230370044708251953e+00 2.531979560852050781e+00 8.781074732542037964e-02 3.500778198242187500e+00 1.134251832962036133e+00 3.566008329391479492e+00 4.117991447448730469e+00 2.511510133743286133e+00 4.987368106842041016e+00 3.271387815475463867e+00 3.508422374725341797e+00 7.206639647483825684e-01 2.989588260650634766e+00 3.575245141983032227e+00 4.176718711853027344e+00 4.871859073638916016e+00 2.876523733139038086e+00 4.148795604705810547e+00 2.577458381652832031e+00 1.655993819236755371e+00 2.502077817916870117e+00 1.160463452339172363e+00 3.560445308685302734e+00 1.768024444580078125e+00 4.532522678375244141e+00 2.288280010223388672e+00 4.155938625335693359e+00 1.459580540657043457e+00 3.028211593627929688e+00 1.707457751035690308e-01 1.361449956893920898e+00 1.954487562179565430e+00 3.228380680084228516e+00 3.435846567153930664e+00 9.700720310211181641e-01 8.602893352508544922e-01 1.211834549903869629e+00 1.068126678466796875e+00 2.790616750717163086e+00 1.333011388778686523e+00 1.564880609512329102e+00 8.739182949066162109e-01 4.284957885742187500e+00 2.326506376266479492e+00 3.035278797149658203e+00 4.251320362091064453e+00 4.711841583251953125e+00 4.402163028717041016e+00 4.765332221984863281e+00 1.716919660568237305e+00 4.612481594085693359e+00 4.721175193786621094e+00 9.464955329895019531e-01 4.555092334747314453e+00 2.310863018035888672e+00 3.842194080352783203e+00 1.470859348773956299e-01 4.587887227535247803e-01 3.475115001201629639e-01 4.039552211761474609e+00 1.462817788124084473e+00 8.792355060577392578e-01 1.528805494308471680e+00 4.003920555114746094e+00 3.813001632690429688e+00 7.267357707023620605e-01 3.500164747238159180e+00 3.078452348709106445e+00 1.655203700065612793e+00 1.887889146804809570e+00 1.104488253593444824e+00 1.772255897521972656e+00 3.648279011249542236e-01 4.865715026855468750e+00 3.010418653488159180e+00 5.089317560195922852e-01 9.804183244705200195e-01 1.300468444824218750e+00 4.703142642974853516e+00 1.661507487297058105e+00 1.679328680038452148e+00 3.033489227294921875e+00 2.226063013076782227e+00 4.894870758056640625e+00 2.507223606109619141e+00 9.279212355613708496e-01 3.261759757995605469e+00 4.554024696350097656e+00 3.122307062149047852e+00 4.981566905975341797e+00 3.491413116455078125e+00 1.035437345504760742e+00 1.877371668815612793e+00 4.282071888446807861e-01 2.869180440902709961e+00 4.196895599365234375e+00 8.819339275360107422e-01 4.091503143310546875e+00 4.048484325408935547e+00 4.435893058776855469e+00 2.772528648376464844e+00 2.354503870010375977e+00 2.601912021636962891e+00 1.223941922187805176e+00 2.455528259277343750e+00 9.144323468208312988e-01 9.607374668121337891e-01 3.916209936141967773e+00 1.419192552566528320e+00 4.123622894287109375e+00 1.431918144226074219e+00 8.445097804069519043e-01 1.031944513320922852e+00 3.702723503112792969e+00 4.132050514221191406e+00 1.639641404151916504e+00 1.872719526290893555e+00 1.135319471359252930e+00 1.600244045257568359e+00 3.353009223937988281e+00 2.954196929931640625e+00 9.855805337429046631e-02 3.745707273483276367e+00 3.807212114334106445e+00 3.195706009864807129e-01 3.825062990188598633e+00 3.835998058319091797e+00 1.352998256683349609e+00 1.487946510314941406e+00 2.268271923065185547e+00 4.865297317504882812e+00 3.535087585449218750e+00 3.835101604461669922e+00 3.250318050384521484e+00 3.677156448364257812e+00 2.619571685791015625e-01 2.733843326568603516e+00 9.130175113677978516e-01 2.003036022186279297e+00 2.723468303680419922e+00 2.819321751594543457e-01 2.197160243988037109e+00 3.492079257965087891e+00 4.251255035400390625e+00 1.943057179450988770e+00 4.868464946746826172e+00 2.821802616119384766e+00 2.844784259796142578e+00 3.778908729553222656e+00 2.489181041717529297e+00 4.328863620758056641e+00 2.354624271392822266e+00 1.137276887893676758e+00 2.688179016113281250e+00
1.000000000000000000e+00 1.000000000000000000e+00 1.001377701759338379e+00 1.006223440170288086e+00 1.000063180923461914e+00 1.000000000000000000e+00 9.974917769432067871e-01 1.000000000000000000e+00 1.068846583366394043e+00 1.122495651245117188e+00 1.011211633682250977e+00 1.000000000000000000e+00 1.000000000000000000e+00 1.000000000000000000e+00 9.812017679214477539e-01 1.000000000000000000e+00 9.982275366783142090e-01 1.000000000000000000e+00 1.006468892097473145e+00 9.980980753898620605e-01 1.000000000000000000e+00 1.107695937156677246e+00 1.005123972892761230e+00 1.000052928924560547e+00 1.000000000000000000e+00 9.996632337570190430e-01 1.000000000000000000e+00 1.000000000000000000e+00 1.000171899795532227e+00 1.000000000000000000e+00 1.000000000000000000e+00 1.000000000000000000e+00 1.000000000000000000e+00 9.990495443344116211e-01 1.000000000000000000e+00 1.001478314399719238e+00 1.000048279762268066e+00 1.000000000000000000e+00 1.000000000000000000e+00 1.000000000000000000e+00 1.000124931335449219e+00 1.006438732147216797e+00 9.555886387825012207e-01 1.001824021339416504e+00 1.000000000000000000e+00 1.003633499145507812e+00 1.000000000000000000e+00 9.988130927085876465e-01 9.078223109245300293e-01 1.000083804130554199e+00 1.000000000000000000e+00 1.000000000000000000e+00 9.961449503898620605e-01 9.997917413711547852e-01 9.962428212165832520e-01 6.113100647926330566e-01 1.000000000000000000e+00 1.000000000000000000e+00 9.999761581420898438e-01 1.000000000000000000e+00 1.000000000000000000e+00 9.989731907844543457e-01 1.017184615135192871e+00 9.995422959327697754e-01 1.000000000000000000e+00 1.000000000000000000e+00 9.996529817581176758e-01 1.020504832267761230e+00 1.000000000000000000e+00 1.000062704086303711e+00 1.000856995582580566e+00 1.000000000000000000e+00 1.000000000000000000e+00 1.000321507453918457e+00 1.000000000000000000e+00 1.000000000000000000e+00 1.000000000000000000e+00 1.000000000000000000e+00 7.548573613166809082e-01 1.012809634208679199e+00 1.000000000000000000e+00 9.490066766738891602e-01 9.979029297828674316e-01 1.000000000000000000e+00 1.053004622459411621e+00 9.993355870246887207e-01 7.628393769264221191e-01 1.000000000000000000e+00 9.983495473861694336e-01 1.001940846443176270e+00 9.588515162467956543e-01 1.000000000000000000e+00 9.992337822914123535e-01 1.013151764869689941e+00 1.000000000000000000e+00 1.000044226646423340e+00 9.971830248832702637e-01 1.010477662086486816e+00 1.000576734542846680e+00 1.000000000000000000e+00 1.000000000000000000e+00 1.000000000000000000e+00 1.000000000000000000e+00 1.000109672546386719e+00 1.000000000000000000e+00 1.000000000000000000e+00 1.000000000000000000e+00 9.959713816642761230e-01 1.002020239830017090e+00 1.000000000000000000e+00 1.000000000000000000e+00 9.999230504035949707e-01 1.001248359680175781e+00 1.000031828880310059e+00 1.000000000000000000e+00 1.000000000000000000e+00 1.000134229660034180e+00 1.062724113464355469e+00 4.685901999473571777e-01 1.000000000000000000e+00 5.584874749183654785e-02 1.000000000000000000e+00 1.000031352043151855e+00 9.999336600303649902e-01 9.999420046806335449e-01 9.999520182609558105e-01 3.174375295639038086e-01 1.011524438858032227e+00 1.000000000000000000e+00 9.999943375587463379e-01 1.000000000000000000e+00 1.000030755996704102e+00 1.000000000000000000e+00 1.000000000000000000e+00 1.000000000000000000e+00 1.000000000000000000e+00 1.000116467475891113e+00 1.000000000000000000e+00 9.998400211334228516e-01 9.999780058860778809e-01 1.000000000000000000e+00 1.000000000000000000e+00 1.000445604324340820e+00 9.232892394065856934e-01 1.000447630882263184e+00 9.942536950111389160e-01 9.996088743209838867e-01 1.000000000000000000e+00 1.000000000000000000e+00 1.000000000000000000e+00 4.510603249073028564e-01 1.000000000000000000e+00 1.000000000000000000e+00 9.365391135215759277e-01 9.982247948646545410e-01 1.000000000000000000e+00 1.000000000000000000e+00 9.999502897262573242e-01 1.000483512878417969e+00 9.999089241027832031e-01 1.000000000000000000e+00 1.006612300872802734e+00 9.901183247566223145e-01 1.000000000000000000e+00 9.754797816276550293e-01 4.892016053199768066e-01 1.000000000000000000e+00 1.000000000000000000e+00 9.948630928993225098e-01 1.000000000000000000e+00 1.000000000000000000e+00 7.455933690071105957e-01 1.000000000000000000e+00 1.000000000000000000e+00 1.000574707984924316e+00 1.000000000000000000e+00 1.000000000000000000e+00 1.000000000000000000e+00 1.001169800758361816e+00 1.000000000000000000e+00 1.000000000000000000e+00 1.000000000000000000e+00 1.029446840286254883e+00 1.000000000000000000e+00 1.000000000000000000e+00 1.000000000000000000e+00 1.000000000000000000e+00 1.000000000000000000e+00 1.006230115890502930e+00 9.998997449874877930e-01 9.967424273490905762e-01 9.999749064445495605e-01 1.000000000000000000e+00 1.000000000000000000e+00 1.000000000000000000e+00 1.000000000000000000e+00 1.000000000000000000e+00 1.000000000000000000e+00 1.000000000000000000e+00 6.659614443778991699e-01 8.715819120407104492e-01 1.000000000000000000e+00 9.999001622200012207e-01 8.951714634895324707e-01 9.998633861541748047e-01 1.000000000000000000e+00 1.000076055526733398e+00 1.000000000000000000e+00 1.008644580841064453e+00 1.177734971046447754e+00 1.000009059906005859e+00 1.000000000000000000e+00 9.993329644203186035e-01 1.000000000000000000e+00 9.997891783714294434e-01 1.000000000000000000e+00 6.196093559265136719e-01 1.000140190124511719e+00 1.000000000000000000e+00 9.444057941436767578e-01 1.000000000000000000e+00 1.003751039505004883e+00 1.000000000000000000e+00 1.039213180541992188e+00 4.201745688915252686e-01 1.012196063995361328e+00 9.989875555038452148e-01 9.998261928558349609e-01 1.000019907951354980e+00 9.999113082885742188e-01 8.731055855751037598e-01 1.000000000000000000e+00 1.000000000000000000e+00 1.000000000000000000e+00 1.000164628028869629e+00 1.000000000000000000e+00 1.000000000000000000e+00 1.000080347061157227e+00 1.000000000000000000e+00 1.000000000000000000e+00 9.999155402183532715e-01 9.999891519546508789e-01 1.000275731086730957e+00 1.000000000000000000e+00 1.000000000000000000e+00 1.000000000000000000e+00 1.000000000000000000e+00 9.998171329498291016e-01 1.085806727409362793e+00 1.000000000000000000e+00 9.861430525779724121e-01 7.387093901634216309e-01 1.000000000000000000e+00 9.258627891540527344e-01 1.000000000000000000e+00 1.000000000000000000e+00 1.000000000000000000e+00 9.992930293083190918e-01 1.000000000000000000e+00 1.000000000000000000e+00 1.000000000000000000e+00 1.000000000000000000e+00 1.000000000000000000e+00 1.000000000000000000e+00 9.857723116874694824e-01 1.000138878822326660e+00 1.000000000000000000e+00 9.895706176757812500e-01 1.000000000000000000e+00 9.558222889900207520e-01 1.000000000000000000e+00 1.000000000000000000e+00 1.000000000000000000e+00 9.888585209846496582e-01 1.000000000000000000e+00 1.030840277671813965e+00 1.000093221664428711e+00 1.000007987022399902e+00 1.000000000000000000e+00 1.000000000000000000e+00 1.001678586006164551e+00 9.997659921646118164e-01 9.997174143791198730e-01 9.998907446861267090e-01 1.000000000000000000e+00 9.999080300331115723e-01 9.048243761062622070e-01 1.056144952774047852e+00 6.973978281021118164e-01 9.999662041664123535e-01 9.999948740005493164e-01 1.000000000000000000e+00 1.000000000000000000e+00 1.000000000000000000e+00 1.000000000000000000e+00 9.871582388877868652e-01 1.000000000000000000e+00 1.000000000000000000e+00 9.997411370277404785e-01 1.000000000000000000e+00 9.999959468841552734e-01 9.823698997497558594e-01 5.885295867919921875e-01 9.995751976966857910e-01 1.000377655029296875e+00 1.000000000000000000e+00 9.998928308486938477e-01 1.000025510787963867e+00 9.998859167098999023e-01 9.713039398193359375e-01 1.000000000000000000e+00 9.246023297309875488e-01 1.000000000000000000e+00 1.000000000000000000e+00 9.998662471771240234e-01 1.002270102500915527e+00 9.817484617233276367e-01 9.998770952224731445e-01 9.973406791687011719e-01 9.997242093086242676e-01 7.616000175476074219e-01 1.063484191894531250e+00 1.000196576118469238e+00 5.543182492256164551e-01 1.000000000000000000e+00 1.000038743019104004e+00 5.644382238388061523e-01 3.841864764690399170e-01 9.999989867210388184e-01 1.000000000000000000e+00 1.000000000000000000e+00 4.387026131153106689e-01 1.000000000000000000e+00 1.000000000000000000e+00 1.000000000000000000e+00 9.833807349205017090e-01 6.434581875801086426e-01 9.999161958694458008e-01 9.999756813049316406e-01 1.003180503845214844e+00 1.000000000000000000e+00 1.000000000000000000e+00 9.775415062904357910e-01 9.751502275466918945e-01 5.297139286994934082e-01 1.000004887580871582e+00 1.000000000000000000e+00 1.000000000000000000e+00 1.000000000000000000e+00 1.000378847122192383e+00 1.000000000000000000e+00 8.274585604667663574e-01 1.000023365020751953e+00 1.000000000000000000e+00 1.000165939331054688e+00 1.000000000000000000e+00 9.996705651283264160e-01 1.001977920532226562e+00 1.018982648849487305e+00 1.000000000000000000e+00 1.000000000000000000e+00 3.859952986240386963e-01 1.000230073928833008e+00 9.999451041221618652e-01 9.997702240943908691e-01 1.000100016593933105e+00 9.982412457466125488e-01 1.040966033935546875e+00 1.000000000000000000e+00 1.000000000000000000e+00 1.000113964080810547e+00 9.778072834014892578e-01 1.000000000000000000e+00 4.740092456340789795e-01 9.992361068725585938e-01 1.000011324882507324e+00 1.000000000000000000e+00 1.000000000000000000e+00 1.000000000000000000e+00 1.000000000000000000e+00 1.000000000000000000e+00 7.023407220840454102e-01 1.027727007865905762e+00 1.000400662422180176e+00 9.999414086341857910e-01 9.844086170196533203e-01 9.791027903556823730e-01 9.999154806137084961e-01 1.000000000000000000e+00 1.000000000000000000e+00 9.999732375144958496e-01 1.000000000000000000e+00 1.000000000000000000e+00 1.000015258789062500e+00 1.000000000000000000e+00 1.000000000000000000e+00 1.000000000000000000e+00 1.000000000000000000e+00 1.000079870223999023e+00 1.000000000000000000e+00
