4.061489365994930267e-03 -1.110250689089298248e-02 -4.189861938357353210e-03 -1.690502744168043137e-03 -3.070392608642578125e-01 2.033853158354759216e-02 -2.564286589622497559e-01 3.514598822221159935e-03 2.543895505368709564e-02 -3.069612979888916016e-01 5.556248128414154053e-02 -9.172520041465759277e-02 -1.181820034980773926e-01 -1.706453412771224976e-01 4.570667073130607605e-02 -3.013452887535095215e-01 -2.194660305976867676e-01 -2.838754095137119293e-02 -1.862536221742630005e-01 1.100882701575756073e-02 -8.270777761936187744e-02 -1.872693449258804321e-01 -1.312513947486877441e-01 5.329283885657787323e-03 1.151108182966709137e-02 1.402055379003286362e-02 4.770454764366149902e-02 -2.313493192195892334e-01 3.247174620628356934e-02 4.830801486968994141e-02 8.358632214367389679e-03 6.843829900026321411e-02 2.479399926960468292e-02 -3.660111427307128906e-01 6.923462450504302979e-02 -1.091852709650993347e-01 1.177538651973009109e-02 -2.792556211352348328e-02 -6.240003928542137146e-02 2.808419615030288696e-02 -1.061897650361061096e-01 6.753288209438323975e-03 1.474790461361408234e-02 3.367621451616287231e-02 3.825663402676582336e-02 -2.119671180844306946e-02 8.604836463928222656e-02 -8.472594618797302246e-02 2.560907788574695587e-02 4.270638525485992432e-02 -1.229108078405261040e-03 6.923854351043701172e-02 4.620007798075675964e-02 -8.693042909726500511e-04 8.283045887947082520e-02 -2.117419987916946411e-01 -1.862537302076816559e-02 8.079965598881244659e-03 -5.286216363310813904e-02 -2.074888497591018677e-01 -3.916049748659133911e-02 1.073902323842048645e-01 5.040572956204414368e-02 1.141398213803768158e-02 -3.915599361062049866e-02 -1.722788214683532715e-01 -6.046053394675254822e-02 6.210856884717941284e-02 -9.421959519386291504e-02 -2.791319414973258972e-02 1.756889745593070984e-02 1.336763240396976471e-02 1.076006097719073296e-03 -1.844038367271423340e-01 5.210337229073047638e-03 3.692859411239624023e-02 -1.098152697086334229e-01 -8.285485208034515381e-02 -7.400763034820556641e-02 4.398072510957717896e-02 1.299517229199409485e-02 1.842588558793067932e-02 -1.575673073530197144e-01 -1.396047789603471756e-02 1.764460653066635132e-02 -2.671648561954498291e-01 -3.086915314197540283e-01 -3.974782824516296387e-01 -1.631516814231872559e-01 -1.187435910105705261e-01 1.340461894869804382e-02 2.581231854856014252e-02 1.845583901740610600e-04 -2.244837880134582520e-01 -3.802840784192085266e-02 1.436157617717981339e-02 -1.649877615272998810e-02 9.808245114982128143e-03 4.880502447485923767e-02 4.925266653299331665e-02 -2.026002407073974609e-01 -1.248185262084007263e-01 1.717190630733966827e-02 1.213622186332941055e-02 -9.320849180221557617e-02 1.898579485714435577e-02 -1.586393862962722778e-01 -7.818321883678436279e-02 -4.740351345390081406e-03 -1.959256082773208618e-01 -4.500288516283035278e-02 -2.285768389701843262e-01 -2.552427053451538086e-01 3.999912738800048828e-02 5.993578955531120300e-02 1.590578467585146427e-03 -7.939994335174560547e-02 -2.737723886966705322e-01 8.182136714458465576e-02 9.486782550811767578e-02 -1.590247303247451782e-01 1.252569537609815598e-02 -1.152106095105409622e-02 -5.362123250961303711e-02 -6.000320240855216980e-02 -1.492606848478317261e-01 -6.746995449066162109e-02 1.157113835215568542e-01 3.808695822954177856e-02 1.484670583158731461e-02 6.588439922779798508e-03 1.415330730378627777e-02 -2.611130662262439728e-02 -3.517511188983917236e-01 7.190459966659545898e-02 -1.290021091699600220e-01 3.935866057872772217e-02 4.456785321235656738e-02 1.631634659133851528e-03 -3.972019534558057785e-03 1.723595149815082550e-02 2.399709261953830719e-02 4.841962084174156189e-02 -3.227210640907287598e-01 -5.562510341405868530e-02 -2.104504406452178955e-02 2.927793934941291809e-02 -2.832997357472777367e-03 -1.461767703294754028e-01 -4.087397828698158264e-02 4.557460080832242966e-03 5.048872530460357666e-02 -1.581864953041076660e-01 5.111210420727729797e-02 8.506359159946441650e-02 1.494109630584716797e-02 9.785581380128860474e-03 -4.573145508766174316e-02 5.199690535664558411e-02 3.288416191935539246e-03 6.817701458930969238e-02 1.322079263627529144e-02 -1.500284820795059204e-01 -3.011818975210189819e-02 2.866799198091030121e-02 8.870177902281284332e-03 3.765334933996200562e-02 -2.729677855968475342e-01 -4.804718494415283203e-02 -2.601785957813262939e-01 -2.738103270530700684e-01 -8.236405253410339355e-02 1.370315626263618469e-02 -1.714084111154079437e-02 -3.106237389147281647e-02 6.421305239200592041e-02 -2.291839718818664551e-01 2.915042638778686523e-02 -4.671009257435798645e-02 1.974085904657840729e-02 -6.883175671100616455e-02 -1.260420866310596466e-02 3.712724521756172180e-02 5.707526206970214844e-02 -6.425946950912475586e-02 1.999305374920368195e-02 -4.404395818710327148e-01 5.657539516687393188e-02 4.122260212898254395e-02 -9.479969739913940430e-04 2.617971599102020264e-02 -1.345463097095489502e-01 1.819252409040927887e-02 9.611715376377105713e-02 -1.030701622366905212e-01 -2.937555611133575439e-01 -2.504641413688659668e-01 5.850479006767272949e-03 -1.267249584197998047e-01 -9.550917893648147583e-03 -2.781724631786346436e-01 -1.667221933603286743e-01 -1.949359546415507793e-03 -1.165909767150878906e-01 -1.490903496742248535e-01 5.755063518881797791e-02 -2.073667757213115692e-02 5.279714241623878479e-02 6.069402024149894714e-02 -1.124293804168701172e-01 -6.033677980303764343e-02 -2.085418552160263062e-01 1.643390860408544540e-03 3.406013175845146179e-02 -4.952853918075561523e-02 -6.868339329957962036e-02 -2.603352963924407959e-01 2.986825257539749146e-02 -3.291299939155578613e-01 1.320319157093763351e-02 7.512123323976993561e-03 1.499379146844148636e-02 8.025220036506652832e-02 1.063558924943208694e-02 -9.648253023624420166e-02 1.247157249599695206e-02 4.037098959088325500e-02 -2.273460924625396729e-01 7.289674598723649979e-03 -2.858770489692687988e-01 -3.719342350959777832e-01 4.121739882975816727e-03 -3.413685411214828491e-02 -5.493215750902891159e-03 2.620228938758373260e-02 2.253544516861438751e-02 4.904470965266227722e-02 -6.204222887754440308e-02 4.100352898240089417e-02 -1.746808290481567383e-01 -1.773159354925155640e-01 1.112664490938186646e-02 -2.677537500858306885e-01 -2.693739235401153564e-01 1.096766665577888489e-01 3.848546370863914490e-02 -4.706681519746780396e-02 -5.916329100728034973e-03 6.445153057575225830e-02 2.920041233301162720e-02 -1.734080910682678223e-01 -6.202090904116630554e-02 1.004036329686641693e-02 -8.128456771373748779e-03 3.490449488162994385e-02 -1.868271455168724060e-02 -5.394230782985687256e-02 -3.672708198428153992e-02 -1.873524636030197144e-01 5.463321506977081299e-02 1.930672733578830957e-04 2.311048796400427818e-03 3.954006731510162354e-02 -1.821479648351669312e-01 1.647184789180755615e-02 1.369026210159063339e-02 -1.356934197247028351e-02 -2.691805735230445862e-02 -4.997088015079498291e-02 6.623265892267227173e-02 2.301008440554141998e-02 -9.165617637336254120e-03 -1.304229944944381714e-01 -1.116309762001037598e-01 6.494917441159486771e-03 -1.945871412754058838e-01 -1.763230711221694946e-01 -8.005181443877518177e-04 2.849913388490676880e-02 -1.488435082137584686e-02 1.839481107890605927e-02 1.134112291038036346e-02 -1.108957529067993164e-01 -2.532342635095119476e-02 -1.115283370018005371e-02 -7.615058682858943939e-03 -1.044567748904228210e-01 4.593938961625099182e-02 7.850366830825805664e-02 -1.111031621694564819e-01 4.018958285450935364e-02 -2.795843966305255890e-02 1.978551223874092102e-02 2.321982011198997498e-02 -1.159806177020072937e-02 -1.957394629716873169e-01 4.742318019270896912e-02 -1.899247467517852783e-01 4.279595334082841873e-03 -2.619834616780281067e-02 1.192142139188945293e-03 -2.493995428085327148e-01 -2.785515598952770233e-02 6.230376288294792175e-02 1.545170228928327560e-02 -4.480593372136354446e-03 5.346441641449928284e-02 -1.916300505399703979e-01 1.510275527834892273e-02 5.464388430118560791e-02 2.181331068277359009e-02 1.413391670212149620e-03 -1.602836847305297852e-01 -1.745519228279590607e-02 7.330331951379776001e-02 1.085570733994245529e-02 3.636639565229415894e-02 1.194431036710739136e-01 -6.999944895505905151e-02 -1.908250749111175537e-01 1.703533530235290527e-02 -2.700894325971603394e-02 -4.253662824630737305e-01 -1.415624320507049561e-01 -1.120536848902702332e-01 -1.461339294910430908e-01 6.387787312269210815e-02 2.568602003157138824e-02 4.662401601672172546e-02 -8.107946813106536865e-02 -5.731837451457977295e-02 -1.710809953510761261e-02 3.350580111145973206e-02 4.845492169260978699e-02 8.317478932440280914e-03 -2.490752786397933960e-01 3.943926841020584106e-02 1.672091707587242126e-02 2.513225749135017395e-02 2.992795407772064209e-02 -1.767101734876632690e-01 9.497951716184616089e-03 -8.336732164025306702e-03 -3.566248714923858643e-01 -1.666145771741867065e-01 -6.558725610375404358e-03 2.587150782346725464e-03 -1.376845967024564743e-02 -1.076935008168220520e-01 -2.361475378274917603e-01 -3.056058585643768311e-01 -1.955218166112899780e-01 -2.548987269401550293e-01 -1.446911832317709923e-03 1.394219114445149899e-03 1.482408959418535233e-02 -2.232682257890701294e-01 -1.490451581776142120e-02 6.530098617076873779e-03 1.849763840436935425e-02 6.392639130353927612e-02 -1.938098371028900146e-01 -3.331964612007141113e-01 3.175473958253860474e-02 -2.754007875919342041e-01 3.054651431739330292e-02 -8.342594653367996216e-02 -8.701810613274574280e-03 -5.189378187060356140e-02 -1.348547339439392090e-01 -1.589633971452713013e-01 -6.951218098402023315e-02 2.722249738872051239e-02 3.753305599093437195e-02 4.233374260365962982e-03 2.862392738461494446e-02 -1.905737668275833130e-01 -2.798832058906555176e-01 -2.000113576650619507e-01 6.410752981901168823e-02 1.917126588523387909e-02 -9.469088912010192871e-02 -1.889633946120738983e-02 -1.006690561771392822e-01 -2.292693220078945160e-02 -2.003339082002639771e-01 -4.137460887432098389e-02 -1.595574021339416504e-01 1.921686343848705292e-02 5.595345981419086456e-03 2.983692102134227753e-02 4.064556956291198730e-02 2.284860238432884216e-02 -8.062689565122127533e-03 -1.881148433312773705e-03 -4.927844181656837463e-02 5.690382421016693115e-02 3.334593027830123901e-02 -2.113735675811767578e-02 1.790378708392381668e-03 -1.983129829168319702e-01 -2.378024011850357056e-01 2.169659920036792755e-02 6.575991213321685791e-02 -5.291999783366918564e-03 -1.207575500011444092e-01 7.560920715332031250e-02 -5.491500720381736755e-02 -1.326189259998500347e-03 -1.154486555606126785e-02 5.978979542851448059e-02 8.270140737295150757e-03 -2.526085972785949707e-01 5.728700011968612671e-02 -2.794543281197547913e-02 3.975156694650650024e-02 -1.906478255987167358e-01 5.372465401887893677e-02 -1.402040757238864899e-02 -6.706763058900833130e-02 2.711435221135616302e-02 3.801973164081573486e-02 -7.551942020654678345e-03 -1.613149940967559814e-01 -2.983414530754089355e-01 -1.542588472366333008e-01 -2.897802926599979401e-02 -7.615794986486434937e-02 2.018593065440654755e-02 3.681701421737670898e-02 -1.804996579885482788e-01 -4.548958688974380493e-02 -5.582600459456443787e-02 6.796316057443618774e-02 -9.106823801994323730e-02 2.754707261919975281e-02 6.930791586637496948e-02 -1.217371691018342972e-02 2.544095041230320930e-03 4.523013159632682800e-02 -2.212420701980590820e-01 -1.944833993911743164e-01 -1.647581160068511963e-01 1.222154498100280762e-02 -1.765505969524383545e-02 5.626110360026359558e-02 -2.433546036481857300e-01 -1.106093171983957291e-02 -2.553315460681915283e-01 2.433343790471553802e-02 -2.128121256828308105e-02 -8.622690103948116302e-03 -1.037886831909418106e-02 -1.088207811117172241e-01 2.252216264605522156e-02 1.384974271059036255e-02 -1.388119906187057495e-01 1.208373531699180603e-02 1.257522404193878174e-02 3.040793910622596741e-02 1.118962243199348450e-01 2.141932398080825806e-02 -2.780459821224212646e-01 9.553994238376617432e-02 -6.540261209011077881e-02 -3.961474895477294922e-01 -1.656701564788818359e-01 7.270847912877798080e-03 -2.164935916662216187e-01 1.849272660911083221e-02 -2.520526051521301270e-01 -1.027827933430671692e-01 -8.552330732345581055e-02 2.583778463304042816e-02 -7.331164553761482239e-03 -1.634485721588134766e-01 5.609310418367385864e-02 3.852069377899169922e-02 6.175655871629714966e-02 4.023396596312522888e-02 -1.156473830342292786e-01 1.287198066711425781e-02 -1.073183491826057434e-03 1.641253381967544556e-02 -3.638241812586784363e-02 5.068801715970039368e-02 2.873367164283990860e-03 -4.151543974876403809e-01 1.573915407061576843e-02 -1.592310518026351929e-02 -3.466992080211639404e-02 -7.093928754329681396e-03 -1.778018772602081299e-01 -2.321063429117202759e-01 2.944365143775939941e-03 -5.910889059305191040e-02 3.751354664564132690e-02 -1.672604121267795563e-02 2.932761050760746002e-02 -3.160877153277397156e-02 6.616649031639099121e-02 3.113760054111480713e-02 1.740944758057594299e-02 1.709477230906486511e-02 2.062344737350940704e-02 5.874432623386383057e-02 2.952281385660171509e-02 -1.681969165802001953e-01 -1.298034638166427612e-01 -1.633907668292522430e-02 -1.044631749391555786e-01 5.885491520166397095e-02 -2.691877484321594238e-01 3.423848189413547516e-03 -1.446312218904495239e-01 5.051900818943977356e-02 -6.772056221961975098e-03 -2.110759168863296509e-02 -1.177242845296859741e-01 -2.642814218997955322e-01 5.753745511174201965e-02 -1.984249502420425415e-01 -1.706673651933670044e-01 4.140568524599075317e-02 1.660181954503059387e-02 9.505822323262691498e-03 -2.759156525135040283e-01 4.229697957634925842e-02 1.741326414048671722e-02 2.069803141057491302e-02 -1.101285442709922791e-01 -2.351811341941356659e-02 -4.218022152781486511e-02 -1.570547968149185181e-01 3.031834028661251068e-02 5.821570008993148804e-02 9.470288455486297607e-02 -9.888444095849990845e-02 1.723552308976650238e-02 -1.688706874847412109e-02 1.396288722753524780e-02 -6.889354437589645386e-02 8.928837627172470093e-02 -1.347259581089019775e-01 -9.153236448764801025e-02 -4.187972284853458405e-03 5.489655956625938416e-02 -5.787571426481008530e-03 -1.565388590097427368e-01 -2.362604588270187378e-01 -4.825583472847938538e-02 -9.026400512084364891e-04 4.849882051348686218e-02 -2.038416266441345215e-01 -2.257030457258224487e-02 -1.389110684394836426e-01 -3.241580352187156677e-02 -1.673421263694763184e-02 6.069552525877952576e-02 -2.164986915886402130e-03 8.895126171410083771e-03 -3.585431724786758423e-03 -1.316739171743392944e-01 -2.343238703906536102e-02 4.202616959810256958e-02 7.712993770837783813e-02 1.915303058922290802e-02 6.161316484212875366e-02 -1.212029065936803818e-02 3.728783875703811646e-02 6.321817054413259029e-04 4.277500882744789124e-02 -4.054010380059480667e-03 -9.727295488119125366e-03 2.450710348784923553e-02 -6.304691731929779053e-02 7.373486878350377083e-04 -1.063669323921203613e-01 2.063868008553981781e-02 1.410702615976333618e-02 -4.027245938777923584e-02 -9.202069602906703949e-03 -5.491864681243896484e-02 -9.511623531579971313e-02 -8.214146643877029419e-02 -5.045165121555328369e-02 -1.540832370519638062e-01 6.535387597978115082e-03 -7.929087616503238678e-03 -5.616456270217895508e-02 -4.032446071505546570e-03 -1.350439339876174927e-01 -8.164179325103759766e-02 7.878067344427108765e-02 -1.906320825219154358e-02 1.733227632939815521e-03 2.268297038972377777e-02 1.294790208339691162e-02 -2.684087753295898438e-01 -6.095212325453758240e-02 -2.103475481271743774e-01 -4.353030584752559662e-03 -2.473165839910507202e-01 1.034823507070541382e-01 -1.470714621245861053e-02 2.136799320578575134e-02 2.000851929187774658e-02 9.067775309085845947e-02 5.779306963086128235e-02 -6.117947772145271301e-02 3.601926565170288086e-02 3.214544802904129028e-02 5.742853879928588867e-02 7.906637340784072876e-02 -2.163496613502502441e-01 -2.751345932483673096e-02 2.525495551526546478e-02 5.063636600971221924e-02 -2.653044164180755615e-01 9.836001321673393250e-03 3.829517588019371033e-02 -3.191304206848144531e-02 6.050013471394777298e-03 -4.455618187785148621e-02 -2.777798473834991455e-01 6.065931916236877441e-02 -1.285638511180877686e-01 -1.981205539777874947e-03 1.698225922882556915e-02 1.946520060300827026e-02 4.756245762109756470e-02 -3.354452550411224365e-02 7.345410063862800598e-03 1.337230787612497807e-03 5.365666747093200684e-02 6.016846746206283569e-03 1.829539053142070770e-02 -2.590845525264739990e-02 -5.101631209254264832e-02 -2.241959273815155029e-01 2.515901252627372742e-02 -1.873935689218342304e-03 4.967272281646728516e-03 1.165876910090446472e-02 5.538640916347503662e-02 -9.523970074951648712e-03 -1.105151996016502380e-01 4.042413085699081421e-02 1.210567206144332886e-01 -1.678634732961654663e-01 8.084729313850402832e-03 3.524092212319374084e-02 1.538465544581413269e-02 2.461004443466663361e-02 6.824485026299953461e-03 9.279881487600505352e-04 -1.088893115520477295e-01 2.806324139237403870e-02 2.284965710714459419e-03 -1.647521704435348511e-01 -4.828970413655042648e-04 -1.001153364777565002e-01 -2.364306449890136719e-01 3.655815124511718750e-02 -7.963129132986068726e-02 -2.182476781308650970e-02 -1.416299939155578613e-01 3.088371083140373230e-02 -9.964341670274734497e-02 2.820350602269172668e-02 -3.285559713840484619e-01 -7.252162694931030273e-02 -3.352308869361877441e-01 -3.003614768385887146e-02 5.193322151899337769e-02 -1.318468749523162842e-01 1.062609441578388214e-02 5.062087439000606537e-03 -7.795759290456771851e-02 8.812352316454052925e-04 -7.658666931092739105e-03 5.452253669500350952e-02 3.984551876783370972e-02 -1.272319257259368896e-02 -2.887001037597656250e-01 1.386948861181735992e-02 2.713995054364204407e-02 -2.076049000024795532e-01 8.057747036218643188e-03 -3.074810840189456940e-03 -1.298981159925460815e-02 -2.067823261022567749e-01 -3.001090511679649353e-02 -1.375094354152679443e-01 -2.305282279849052429e-02 3.989641368389129639e-02 -1.554017812013626099e-01 4.190039820969104767e-03 -8.191686123609542847e-03 6.277330685406923294e-03 1.229737419635057449e-02 -1.564830243587493896e-01 1.622963882982730865e-02 -1.319846953265368938e-03 -2.495843768119812012e-01 4.820444807410240173e-02 4.709295555949211121e-02 -2.150064855813980103e-01 -6.056866422295570374e-02 3.739323094487190247e-02 -2.613031566143035889e-01 4.169799759984016418e-02 7.525309920310974121e-02 -5.596791580319404602e-02 -7.478470355272293091e-02 8.845881558954715729e-03 -1.891992390155792236e-01 -3.159969300031661987e-02 -1.919711474329233170e-03 -1.185116469860076904e-01 -3.027476370334625244e-01 -1.030340604484081268e-02 -1.459477245807647705e-01 -9.806977212429046631e-02 8.789892308413982391e-03 9.755466133356094360e-02 1.171657908707857132e-02 5.527409166097640991e-02 2.990701049566268921e-02 -2.369721233844757080e-01 -1.340651661157608032e-01 8.101127110421657562e-03 3.048153594136238098e-02 -5.048414468765258789e-01 -4.260680638253688812e-03 -9.356778115034103394e-02 -4.311675578355789185e-02 1.966558396816253662e-03 -2.550513446331024170e-01 7.460040505975484848e-03 -1.391036957502365112e-01 -3.284159004688262939e-01 -2.726384252309799194e-02 -7.646850496530532837e-02 -2.986678294837474823e-02 -1.215332671999931335e-01 -1.070183813571929932e-01 1.211965736001729965e-02 4.493268672376871109e-03 8.494972437620162964e-02 6.418185681104660034e-02 1.234990656375885010e-01 7.691069971770048141e-03 -2.122357338666915894e-01 1.402206253260374069e-02 5.110533908009529114e-02 -1.815642416477203369e-02 -2.111547142267227173e-01 2.336897514760494232e-02 -1.708773709833621979e-02 1.032880786806344986e-02 -2.140644043684005737e-01 -1.351666599512100220e-01 -1.730488389730453491e-01 1.669896580278873444e-02 -1.585330367088317871e-01 -2.588655054569244385e-01 3.840879723429679871e-02 -2.711493521928787231e-02 5.270114168524742126e-02 6.566636264324188232e-02 -3.717339932918548584e-01 4.070007428526878357e-02 -2.485728263854980469e-01 2.706541121006011963e-02 -2.034524083137512207e-01 -1.594095379114151001e-01 3.357318043708801270e-02 2.514357119798660278e-02 -4.282036423683166504e-02 -1.044238209724426270e-01 7.671592757105827332e-03 5.724661424756050110e-02 5.141461640596389771e-02 -1.950922757387161255e-01 -5.869027599692344666e-02 -1.187453195452690125e-01 -9.784410148859024048e-02 -1.287402659654617310e-01 1.281639467924833298e-02 -6.877029081806540489e-04 2.014626748859882355e-02 -7.183542847633361816e-02 -1.379894614219665527e-01 -4.374954104423522949e-02 5.236368626356124878e-03 -1.415757238864898682e-01 -1.402637660503387451e-01 9.028465719893574715e-04 -2.050194516777992249e-02 9.341955184936523438e-02 -2.668991088867187500e-01 -1.122798677533864975e-02 2.403889223933219910e-02 -2.770869061350822449e-02 8.386927656829357147e-04 7.822233438491821289e-02 4.244866315275430679e-03 -1.278121676295995712e-02 -8.752577006816864014e-03 2.477232366800308228e-02 -2.741539292037487030e-02 -3.677306771278381348e-01 4.147163033485412598e-02 2.525911852717399597e-02 5.213456694036722183e-03 -1.296796947717666626e-01 -3.875951515510678291e-04 -2.985377013683319092e-01 -2.600203268229961395e-02 -1.165590435266494751e-01 -2.777419686317443848e-01 1.523597631603479385e-02 -1.739371120929718018e-01 -1.988341808319091797e-01 -2.546739205718040466e-02 3.767106682062149048e-02 5.035271495580673218e-02 -6.089474633336067200e-02 -1.774141043424606323e-01 -1.174647286534309387e-01 3.219247097149491310e-03 -1.659489572048187256e-01 4.423944652080535889e-02 -2.419675234705209732e-03 3.167875111103057861e-02 2.245157584547996521e-02 -1.951279044151306152e-01 -1.206685975193977356e-02 -1.612424850463867188e-01 1.688154041767120361e-02 8.028230629861354828e-03 -2.010938152670860291e-02 -2.826013565063476562e-01 -2.610598802566528320e-01 -4.284519255161285400e-01 2.067086659371852875e-02 5.943660438060760498e-02 3.737442195415496826e-02 -1.024250015616416931e-01 5.459141358733177185e-02 3.806325420737266541e-02 -1.779752075672149658e-01 -1.118019316345453262e-02 -2.503536939620971680e-01 8.650281280279159546e-02 3.705733269453048706e-02 2.453902503475546837e-03 1.107038813643157482e-03 -2.862401902675628662e-01 1.506736036390066147e-02 -3.253408670425415039e-01 -1.825552880764007568e-01 -1.124462038278579712e-01 1.021219268441200256e-01 2.029584534466266632e-02 2.098090201616287231e-02 -2.572126686573028564e-01 -8.128692954778671265e-02 -7.889629155397415161e-02 7.762496825307607651e-03 5.903522670269012451e-02 3.017379343509674072e-02 1.294158864766359329e-02 -2.869338542222976685e-02 -4.229164123535156250e-02 2.316186437383294106e-03 1.234196592122316360e-02 5.716170370578765869e-02 -2.265151143074035645e-01 3.628746420145034790e-02 -3.115009963512420654e-01 2.293192781507968903e-02 -9.676369279623031616e-02 6.917103379964828491e-02 4.863149300217628479e-02 -4.015437141060829163e-02 -2.550183832645416260e-01 -8.986125886440277100e-02 3.415486216545104980e-02 2.206726185977458954e-02 -2.095568478107452393e-01 -1.995667964220046997e-01 -1.970633398741483688e-03 3.222600370645523071e-02 2.726737782359123230e-02 6.099056079983711243e-02 -2.578667104244232178e-01 5.796757340431213379e-02 7.691761106252670288e-02 -5.068256705999374390e-02 1.303216535598039627e-02 -1.090207695960998535e-01 -3.739182651042938232e-02 5.245465785264968872e-02 5.909873545169830322e-02 -3.407211899757385254e-01 -2.840657904744148254e-02 -2.533986866474151611e-01 2.097391709685325623e-02 5.111616477370262146e-02 -1.749347448348999023e-01 -1.061094924807548523e-01 -1.017426233738660812e-02 -4.241420924663543701e-01 3.713544085621833801e-02 4.622207023203372955e-03 -1.935415528714656830e-02 2.866703830659389496e-02 -1.502050012350082397e-01 2.159937284886837006e-02 -6.018312647938728333e-02 5.454357340931892395e-02 6.917091552168130875e-03 4.983015730977058411e-02 -7.523007690906524658e-03 5.615312606096267700e-02 8.526137471199035645e-02 -1.231721229851245880e-02 3.847613930702209473e-02 5.299596115946769714e-02 -1.218025386333465576e-02 -1.786557026207447052e-02 -1.348583102226257324e-01 -5.441661551594734192e-02 -3.886163830757141113e-01 -2.596924081444740295e-02 4.934631660580635071e-02 -4.549898672848939896e-03 -9.970248490571975708e-02 1.812504231929779053e-02 3.447314957156777382e-03 -1.358137466013431549e-02 -1.215399056673049927e-01 -3.157768025994300842e-02 8.849150687456130981e-02 -1.592168211936950684e-01 8.828535210341215134e-04 5.090746283531188965e-02 -2.902457714080810547e-01 2.611122094094753265e-02 -1.262555271387100220e-01 -2.112539559602737427e-01 -9.528746455907821655e-02 -2.306798845529556274e-01 -9.631562978029251099e-02 9.047069586813449860e-03 5.572002008557319641e-02 -3.366521596908569336e-01 -5.209545604884624481e-03 3.697993606328964233e-02 2.042180672287940979e-02 -1.690976880490779877e-02 6.265535205602645874e-02 7.608521264046430588e-03 2.552275173366069794e-02 -9.802372753620147705e-02 -2.397470325231552124e-01 4.866896942257881165e-02 4.160894453525543213e-02 1.211182679980993271e-02 2.219136571511626244e-03 -3.397600352764129639e-01 -1.233273968100547791e-01 -2.011273056268692017e-01 -8.427457511425018311e-02 -2.005831599235534668e-01 4.989032819867134094e-02 -4.425075650215148926e-02 1.794604957103729248e-02 3.781314939260482788e-02 6.388254463672637939e-02 -1.862679570913314819e-01 3.245008736848831177e-02 -4.892784729599952698e-02 -8.251002989709377289e-03 -7.176946382969617844e-03 9.186386317014694214e-02 4.231126978993415833e-02 4.658744670450687408e-03 5.752609297633171082e-02 -9.719270467758178711e-02 2.003639005124568939e-02 3.411889821290969849e-02 -6.419047713279724121e-01 1.017412096261978149e-01 -2.241672426462173462e-01 -1.629031747579574585e-01 -2.891448140144348145e-01 2.198579534888267517e-02 -2.395682781934738159e-01 5.376764107495546341e-03 3.584376722574234009e-02 -1.871899366378784180e-01 -3.263089358806610107e-01 -3.522421931847929955e-03 5.528442189097404480e-02 3.488553315401077271e-02 2.340467646718025208e-02 -2.600217796862125397e-02 -1.722093820571899414e-01 2.496219798922538757e-02 3.995078429579734802e-02 -3.067411482334136963e-01 4.244719073176383972e-02 7.746384479105472565e-03 -1.264424771070480347e-01 1.069064252078533173e-02 -2.899626195430755615e-01 -7.033159025013446808e-03 6.959671154618263245e-04 1.623945683240890503e-02 1.171986013650894165e-01 -2.776826545596122742e-02 2.480459399521350861e-02 -2.461590245366096497e-02 -1.726339943706989288e-02 -2.467467337846755981e-01 2.780950628221035004e-02 2.178774960339069366e-02 5.133144930005073547e-02 -1.586364954710006714e-01 1.205201447010040283e-02 -5.011969432234764099e-02 2.168392017483711243e-02 1.943603903055191040e-02 -2.205789089202880859e-02 2.945817820727825165e-02 -1.533206701278686523e-01 -1.398162730038166046e-02 -9.190790355205535889e-02 -1.662480384111404419e-01 5.059319548308849335e-03 -3.129484951496124268e-01 4.893670603632926941e-02 -9.911583364009857178e-02 1.957762055099010468e-02 6.992258131504058838e-03 -2.515147030353546143e-01 -5.970434844493865967e-02 2.705347165465354919e-02 1.132054487243294716e-03 8.233359456062316895e-02 5.850076675415039062e-02 1.415807474404573441e-02 -1.725312205962836742e-03 -1.298463195562362671e-01 -8.629205077886581421e-02 8.918215462472289801e-05 -1.741043031215667725e-01 -7.639426738023757935e-02 7.428066339343786240e-03 2.265952713787555695e-02 -6.455773860216140747e-02 -2.384870126843452454e-02 1.454494427889585495e-02 -4.683746024966239929e-02 -2.763605862855911255e-02 -2.195714786648750305e-02 -7.637017406523227692e-04 -1.635046005249023438e-01 -6.928185466676950455e-03 6.158651784062385559e-02 -2.791756987571716309e-01 -2.090170532464981079e-01 1.152803815784864128e-04 -2.832740917801856995e-02 1.057886146008968353e-02 -9.151044487953186035e-02 7.775113731622695923e-02 2.803782373666763306e-02 3.242638334631919861e-02 5.761372298002243042e-02 8.548884652554988861e-03 1.359927207231521606e-01 -1.132535934448242188e-01 -1.127668321132659912e-01 -4.064930975437164307e-02 3.759136656299233437e-03 1.318075321614742279e-02 -1.369679626077413559e-02 5.058087874203920364e-03 -1.675182431936264038e-01 -1.375224292278289795e-01 -1.826281994581222534e-01 4.076260328292846680e-02 4.160942882299423218e-02 -3.645158605650067329e-03 -1.437874734401702881e-01 4.559565335512161255e-02 2.996082790195941925e-02 -1.478810701519250870e-02 -1.732090711593627930e-01 7.519812323153018951e-03 -1.434442400932312012e-01 6.692966818809509277e-02 1.530843786895275116e-02 4.565166682004928589e-02 8.977618068456649780e-03 5.060046166181564331e-02 2.331559546291828156e-02 7.655455917119979858e-02 -1.710151880979537964e-02 -2.960460782051086426e-01 -2.261164486408233643e-01 -2.320504039525985718e-01 -9.564919024705886841e-02 -1.685583218932151794e-02 -3.178187906742095947e-01 -3.362336754798889160e-01 9.914836846292018890e-03 2.187704853713512421e-02 -3.592076003551483154e-01 -2.401919066905975342e-01 7.382317446172237396e-03 -1.503674834966659546e-01 -1.048284303396940231e-02 1.373334042727947235e-02 5.026430264115333557e-02 1.474743336439132690e-02 -4.919654503464698792e-02 2.779271686449646950e-03 -1.249206811189651489e-01 7.025021314620971680e-02 -1.719855517148971558e-01 1.445614732801914215e-02 -1.359845548868179321e-01 -1.929291784763336182e-01 1.384508446790277958e-03 5.442756414413452148e-02 5.764815956354141235e-02 -8.489359170198440552e-03 -1.615173369646072388e-02 2.384120970964431763e-02 2.238400513306260109e-03 1.181376632302999496e-02 4.437666758894920349e-02 -6.442196667194366455e-02 -1.772804418578743935e-03 7.465516030788421631e-02 -1.883383542299270630e-01 -2.550260126590728760e-01 1.139914691448211670e-01 1.253238692879676819e-02 -4.342763870954513550e-02 -3.194143772125244141e-01 -7.676842156797647476e-03 -2.714630067348480225e-01 -1.237733513116836548e-01 8.134857565164566040e-02 -1.551932990550994873e-01 3.047730587422847748e-02 -1.156107857823371887e-01 -5.793197453022003174e-02 8.584305644035339355e-02 -2.379584591835737228e-03 2.696879394352436066e-02 2.520404290407896042e-03 -2.381726354360580444e-02 -3.412279188632965088e-01 2.167533710598945618e-02 -2.954428317025303841e-03 -9.228170849382877350e-03 -4.084502160549163818e-02 -2.676542699337005615e-01 3.061047382652759552e-02 3.889948874711990356e-02 6.371763348579406738e-02 1.877530291676521301e-02 2.080657519400119781e-02 -4.377655684947967529e-02 -1.094657629728317261e-01 1.694306358695030212e-02 -7.797344028949737549e-02 1.082503795623779297e-02 -1.130121201276779175e-02 3.176860511302947998e-02 -1.006549894809722900e-01 2.838895469903945923e-02 5.164450965821743011e-03 -1.013421919196844101e-02 -2.408612966537475586e-01 2.426648139953613281e-02 -2.067080885171890259e-01 -1.030367314815521240e-01 -6.548088975250720978e-03 -1.572621464729309082e-01 -7.636364549398422241e-02 -1.581749320030212402e-02 4.567473381757736206e-02 -3.010612428188323975e-01 4.500683862715959549e-03 -9.631817229092121124e-03 7.395406812429428101e-02 8.528441935777664185e-02 5.290392786264419556e-02 1.016621384769678116e-02 1.429856754839420319e-02 -1.565567255020141602e-01 4.334683716297149658e-02 6.969510018825531006e-02 -5.606557056307792664e-02 3.972583264112472534e-02 1.106617003679275513e-01 2.486156858503818512e-02 -2.538420855998992920e-01 9.177123755216598511e-02 -1.195190008729696274e-02 6.526937335729598999e-02 -3.341321274638175964e-02 -2.088233679533004761e-01 8.803009241819381714e-02 6.763467192649841309e-02 -7.954489439725875854e-03 -2.026045136153697968e-02 -2.771811187267303467e-02 -4.854523390531539917e-02 -3.474839329719543457e-01 1.611044816672801971e-02 -1.942855417728424072e-01 -2.768011093139648438e-01 1.217797026038169861e-01 -1.723535358905792236e-01 5.833448469638824463e-02 2.716906554996967316e-02 6.759453099220991135e-03 -2.727991715073585510e-02 -2.746587097644805908e-01 -1.087463051080703735e-01 -5.974692106246948242e-02 9.539623558521270752e-02 6.423834711313247681e-02 -3.152919234707951546e-03 2.822341769933700562e-02 1.724541303701698780e-03 9.664901532232761383e-03 3.346804901957511902e-02 -1.235463377088308334e-02 1.312792673707008362e-02 -1.214796453714370728e-01 -2.011812925338745117e-01 1.187513116747140884e-02 8.092414587736129761e-03 3.819246217608451843e-02 -1.557926088571548462e-01 1.046837642788887024e-01 -2.785077393054962158e-01 -1.837348788976669312e-01 1.345167867839336395e-02 -1.467872993089258671e-03 -1.597260683774948120e-01 -7.918421924114227295e-02 -1.934720873832702637e-01 3.534281998872756958e-02 -2.880493365228176117e-02 3.471679612994194031e-02 4.168550297617912292e-02 -7.850266993045806885e-02 -1.724334806203842163e-01 2.482210472226142883e-02 9.218348562717437744e-02 -1.745557063259184361e-03 9.423369541764259338e-03 1.933646126417443156e-04 6.271266192197799683e-02 5.076488852500915527e-02 2.540412917733192444e-02 -1.194031722843647003e-02 3.009630367159843445e-02 4.420481622219085693e-03 -7.304795831441879272e-02 -3.384935557842254639e-01 -1.118185892701148987e-01 3.711895644664764404e-02 2.455643005669116974e-02 5.609492585062980652e-02 4.538141936063766479e-02 4.183222353458404541e-02 5.246948450803756714e-02 2.448011189699172974e-02 -2.452731430530548096e-01 -2.232410944998264313e-02 -1.580040343105792999e-02 5.517509952187538147e-02 -2.285066060721874237e-02 3.217403218150138855e-02 -2.302030622959136963e-01 -8.752619475126266479e-02 -2.836905419826507568e-01 4.143615812063217163e-02 2.071653679013252258e-02 -2.504407465457916260e-01 4.625084623694419861e-02 4.625580459833145142e-02 4.430897533893585205e-02 7.588475197553634644e-02 6.698104552924633026e-03 -1.854611039161682129e-01 4.491543769836425781e-02 -2.602285444736480713e-01 -1.750989407300949097e-01 -7.046300172805786133e-02 6.158107146620750427e-02 2.667495422065258026e-02 9.493387490510940552e-02 -2.508762478828430176e-01 -5.352159589529037476e-02 1.677385158836841583e-02 -2.334055863320827484e-02 -7.363453507423400879e-02 1.969775371253490448e-02 -1.557660400867462158e-01 4.014034569263458252e-02 -9.609923511743545532e-02 2.944463863968849182e-02 -2.122826874256134033e-01 -1.052478607743978500e-02 -2.172318100929260254e-01 -8.522448129951953888e-03 -5.393454805016517639e-02 4.537512734532356262e-02 4.406367614865303040e-02 -1.172728762030601501e-01 8.366511762142181396e-02 -2.664811313152313232e-01 -1.009915620088577271e-01 -2.008733153343200684e-01 8.310741744935512543e-03 -2.465259050950407982e-03 2.184055931866168976e-02 -1.158568542450666428e-03 -8.625636994838714600e-02 1.901625096797943115e-02 -2.317776083946228027e-01 -9.656253457069396973e-02 -2.810844779014587402e-01 -3.606079146265983582e-02 -7.102512568235397339e-02 -9.902954846620559692e-02 7.300104945898056030e-02 -2.546530663967132568e-01 -5.288505181670188904e-02 -3.204317092895507812e-01 3.394498676061630249e-02 3.696041926741600037e-02 -1.617423146963119507e-01 -4.386990517377853394e-02 3.957676142454147339e-02 1.178249046206474304e-01 -5.043246597051620483e-02 1.407759450376033783e-02 -2.067745923995971680e-01 -1.155903190374374390e-01 4.082889854907989502e-02 -2.610108628869056702e-02 -1.096579581499099731e-01 4.297396540641784668e-02 -4.430185258388519287e-02 -3.072180151939392090e-01 -2.821823116391897202e-03 2.128586545586585999e-02 1.499151438474655151e-02 -7.628680020570755005e-02 -6.223954260349273682e-04 -1.079550385475158691e-01 6.388226151466369629e-02 -3.142687976360321045e-01 -1.243408918380737305e-01 2.419046498835086823e-02 6.216575205326080322e-02 4.415323212742805481e-02 -2.231492400169372559e-01 -2.456846646964550018e-02 2.600827254354953766e-03 -2.116268314421176910e-02 -1.880684792995452881e-01 3.658636473119258881e-03 9.533794224262237549e-02 -1.140593960881233215e-01 -2.152888178825378418e-01 2.152966568246483803e-03 -6.832914799451828003e-02 9.518600068986415863e-03 3.479877253994345665e-03 -2.117907106876373291e-01 6.991364061832427979e-03 -4.486990720033645630e-02 3.318024799227714539e-02 7.814475893974304199e-02 1.576050370931625366e-02 3.030222468078136444e-02 -1.171112898737192154e-02 -3.952545300126075745e-02 -2.559196949005126953e-02 -1.773109845817089081e-02 3.087172470986843109e-02 -3.119159042835235596e-01 -1.249384060502052307e-01 -1.092365309596061707e-01 2.636429481208324432e-02 -2.995993494987487793e-01 8.177252486348152161e-03 1.348248915746808052e-03 -2.747658789157867432e-01 2.770433435216546059e-03 -5.979799479246139526e-02 -2.940437197685241699e-01 3.657605499029159546e-02 6.062322854995727539e-02 -2.977622486650943756e-02 3.558502066880464554e-03 -1.581373512744903564e-01 7.859218120574951172e-02 -1.009542196989059448e-01 -4.416276887059211731e-02 -3.033812642097473145e-01 2.041491121053695679e-02 1.976040191948413849e-02 -1.840993314981460571e-01 -1.656110286712646484e-01 1.646585948765277863e-02 -1.397718116641044617e-02 1.604689285159111023e-02 -2.089812308549880981e-01 1.744143478572368622e-02 -6.972724571824073792e-03 9.954583831131458282e-03 -2.423408031463623047e-01 -3.681235015392303467e-03 -1.760255992412567139e-01 -3.907457888126373291e-01 -8.290487341582775116e-03 -2.107613682746887207e-01 -3.027978353202342987e-03 1.738925930112600327e-03 2.732608653604984283e-02 -2.887363433837890625e-01 -3.612933307886123657e-02 -3.180224448442459106e-02 -2.697833478450775146e-01 4.424403421580791473e-03 -7.510908693075180054e-02 6.613093428313732147e-03 -4.571857675909996033e-02 -9.051570296287536621e-02 -8.256950229406356812e-02 1.472751144319772720e-02 -3.784489259123802185e-02 4.916748777031898499e-02 -1.971336454153060913e-02 -8.725932240486145020e-02 3.767779842019081116e-02 -4.497879445552825928e-01 -1.068676635622978210e-02 1.094292402267456055e-01 -1.216780617833137512e-01 4.704323410987854004e-02 -7.833602279424667358e-02 1.393566094338893890e-02 -3.822039067745208740e-02 -1.118256822228431702e-01 -1.395698785781860352e-01 4.058473557233810425e-02 1.248499564826488495e-02 3.345558652654290199e-03 1.267335005104541779e-02 -1.556383669376373291e-01 -3.677991405129432678e-02 5.388387665152549744e-02 -7.992040365934371948e-03 5.657724663615226746e-02 -1.115961819887161255e-01 -7.969433791004121304e-04 5.967874825000762939e-02 1.202678214758634567e-02 1.816526800394058228e-02 -1.050139963626861572e-02 -2.145159058272838593e-02 1.223132945597171783e-02 -1.436280319467186928e-03 6.835477799177169800e-02 4.060788080096244812e-02 -3.530223295092582703e-02 3.638198971748352051e-02 4.745782539248466492e-02 6.595540046691894531e-02 3.965247049927711487e-02 5.165345501154661179e-03 2.566435560584068298e-02 -3.799078240990638733e-02 5.744586884975433350e-02 5.913239438086748123e-03 -4.256827384233474731e-02 -5.921538174152374268e-02 -1.375446468591690063e-01 -2.816237807273864746e-01 1.578715629875659943e-02 -8.273072540760040283e-03 -2.589799091219902039e-02 -2.914759330451488495e-02 -8.785578608512878418e-02 -5.302019789814949036e-02 2.307172119617462158e-02 -7.791277021169662476e-02 -1.252419431693851948e-03 3.662589564919471741e-02 -6.933429092168807983e-02 -1.623673290014266968e-01 6.116825621575117111e-03 -8.058314211666584015e-03 -3.281089290976524353e-02 -5.136490985751152039e-02 -1.998181827366352081e-02 -3.146124780178070068e-01 1.867776736617088318e-02 -2.273233979940414429e-02 2.826545946300029755e-02 -2.181101143360137939e-01 -2.931277751922607422e-01 -2.627557888627052307e-02 1.041182316839694977e-02 -2.235387638211250305e-02 1.776377484202384949e-02 -2.914384305477142334e-01 -3.029228188097476959e-02 3.119483403861522675e-02 -1.825561970472335815e-01 -7.273199735209345818e-04 -1.277825087308883667e-01 -1.223613470792770386e-01 -2.383352518081665039e-01 1.156502403318881989e-02 -2.720956690609455109e-03 1.869414746761322021e-02 -4.618223465513437986e-04 7.166082970798015594e-03 -6.658460944890975952e-02 -1.173670664429664612e-01 -4.742158576846122742e-03 1.956845633685588837e-02 4.947317019104957581e-02 2.844623988494277000e-03 -5.828743334859609604e-03 7.749988138675689697e-02 -3.607020527124404907e-02 3.097405843436717987e-02 -9.311658143997192383e-02 -6.033165380358695984e-02 5.914951115846633911e-02 4.999162256717681885e-02 -3.946523647755384445e-03 -5.902405455708503723e-02 -8.119127899408340454e-02 -6.043579056859016418e-02 6.006157025694847107e-03 -6.966141518205404282e-03 5.415028706192970276e-02 -5.336228385567665100e-02 -1.800023019313812256e-01 -2.148585319519042969e-01 2.675695158541202545e-02 -1.908906549215316772e-01 7.924773730337619781e-03 -2.315255403518676758e-01 2.474757283926010132e-02 -2.071159780025482178e-01 -2.415091395378112793e-01 3.790853312239050865e-03 1.217123027890920639e-02 -1.028913855552673340e-01 -2.793873548507690430e-01 -5.538919568061828613e-02 8.346012979745864868e-02 -1.474852114915847778e-02 -1.064056456089019775e-01 -1.757538691163063049e-02 1.431047450751066208e-03 4.622706398367881775e-02 -2.462501525878906250e-01 1.106699369847774506e-02 -1.807953231036663055e-02 4.700573533773422241e-02 1.836925372481346130e-02 -1.090600062161684036e-02 -1.108911707997322083e-01 -7.242161664180457592e-04 7.051837630569934845e-03 2.990496717393398285e-02 -1.853924542665481567e-01 5.294131487607955933e-02 2.932639233767986298e-02 -2.743484824895858765e-02 3.383016958832740784e-02 3.145880997180938721e-02 6.191493943333625793e-02 -1.593647301197052002e-01 2.637754753232002258e-02 -1.479555219411849976e-01 -1.292810961604118347e-02 6.803502887487411499e-02 -8.300355821847915649e-02 -3.127278992906212807e-03 4.260806739330291748e-02 3.810796421021223068e-03 -2.019942179322242737e-02 -3.707075119018554688e-02 -2.158549241721630096e-02 -4.398817569017410278e-02 -2.505488991737365723e-01 4.413964971899986267e-02 -1.845273771323263645e-03 -1.523448675870895386e-01 1.263601612299680710e-02 4.954212531447410583e-02 -3.021303713321685791e-01 -8.307688869535923004e-03 -2.441225647926330566e-01 2.511603757739067078e-02 -4.122745618224143982e-02 -1.302067786455154419e-01 -2.326205186545848846e-02 -2.589933201670646667e-02 -3.125691786408424377e-02 5.607698578387498856e-03 3.527221456170082092e-02 6.537805893458425999e-04 -2.512481808662414551e-01 -2.236052155494689941e-01 9.917379915714263916e-02 1.399631612002849579e-02 7.370743434876203537e-03 -5.759603157639503479e-02 -2.605396788567304611e-03 3.664102032780647278e-02 8.095665834844112396e-03 7.158841472119092941e-03 2.826791442930698395e-02 -2.974598854780197144e-02 -1.900401711463928223e-01 -5.905441939830780029e-03 9.781802073121070862e-03 7.328544277697801590e-03 -1.676069200038909912e-01 -6.998909264802932739e-02 4.380560666322708130e-02 3.082575090229511261e-02 -7.711774110794067383e-02 -1.845179358497262001e-03 -1.147871371358633041e-02 5.284507572650909424e-02 -2.470932900905609131e-02 4.350834991782903671e-03 1.105882041156291962e-02 5.303067713975906372e-02 1.453215721994638443e-02 3.281972557306289673e-02 1.736294291913509369e-02 4.418825358152389526e-02 -1.331117451190948486e-01 -4.118718802928924561e-01 -3.880314528942108154e-02 -1.019769310951232910e-01 7.039729505777359009e-02 -8.410132676362991333e-02 4.943247884511947632e-02 -6.076483801007270813e-02 -2.008659839630126953e-01 1.972811296582221985e-02 -4.948398098349571228e-02 -3.100300133228302002e-01 -9.356611967086791992e-02 5.024364218115806580e-03 1.812939159572124481e-02 -3.213467597961425781e-01 -2.008720934391021729e-01 -2.298603393137454987e-02 2.558633452281355858e-03 3.094623424112796783e-02 -3.882404267787933350e-01 5.156777799129486084e-02 3.006741404533386230e-02 -1.504430267959833145e-02 -1.063847467303276062e-01 -1.728517562150955200e-01 2.305281348526477814e-02 -7.922174409031867981e-03 -1.361971348524093628e-01 -2.445376813411712646e-01 2.879349887371063232e-02 2.977032028138637543e-02 3.918765112757682800e-02 8.901870995759963989e-02 -1.446778625249862671e-01 1.413819193840026855e-02 5.418463796377182007e-02 -7.310479134321212769e-02 -5.608510598540306091e-02 -2.811506688594818115e-01 9.865989908576011658e-03 3.962532430887222290e-02 -1.394065171480178833e-01 3.570128930732607841e-03 -3.053294867277145386e-02 1.756630837917327881e-02 -2.810109220445156097e-02 -1.096003428101539612e-01 -5.037882179021835327e-02 -3.440969437360763550e-02 2.311361394822597504e-02 -3.732289075851440430e-01 -2.651014924049377441e-01 1.270672655664384365e-03 -1.989592313766479492e-01 -1.769122779369354248e-01 -9.577257186174392700e-02 2.902739308774471283e-02 8.139235526323318481e-02 -3.334418535232543945e-01 -2.357742339372634888e-01 6.260121706873178482e-03 -6.385828554630279541e-02 -2.513126134872436523e-01 1.374729257076978683e-02 -2.596271596848964691e-02 1.674899598583579063e-03 6.448918581008911133e-02 -5.897649377584457397e-02 -1.800769008696079254e-02 -8.200046606361865997e-03 1.525795087218284607e-02 -1.703383214771747589e-02 -1.566533558070659637e-02 -2.705558389425277710e-02 -2.983646988868713379e-01 -8.712876588106155396e-03 3.697230294346809387e-02 -4.097405355423688889e-03 -7.455629296600818634e-03 -5.041990056633949280e-02 -1.838150918483734131e-01 1.762452721595764160e-02 -3.185391251463443041e-04 -1.580702885985374451e-02 1.656168326735496521e-02 7.046348182484507561e-04 -1.316682994365692139e-02 -1.622190624475479126e-01 1.074893679469823837e-02 -4.207423925399780273e-01 7.874474674463272095e-02 2.128293737769126892e-02 -1.312171220779418945e-01 -5.757622420787811279e-03 -4.395161569118499756e-02 4.151741787791252136e-02 3.141723573207855225e-02 3.290417045354843140e-02 -1.188815161585807800e-01 2.332646586000919342e-02 -3.247324377298355103e-02 -1.772178895771503448e-02 -7.997167995199561119e-04 9.198120981454849243e-02 4.634269326925277710e-02 -3.352219937369227409e-03 -7.059229165315628052e-02 4.022585228085517883e-02 2.163838129490613937e-03 -1.023897081613540649e-01 -1.212322711944580078e-01 -1.644486039876937866e-01 -9.965335950255393982e-03 -1.769603602588176727e-02 -6.476742029190063477e-02 -1.431699376553297043e-02 -1.042472049593925476e-01 -2.304359897971153259e-02 -1.813035160303115845e-01 -1.696480438113212585e-02 3.203692287206649780e-02 -1.673353910446166992e-01 6.881333142518997192e-02 -4.628105089068412781e-02 2.014445327222347260e-02 5.583513528108596802e-03 -1.436606980860233307e-03 -5.030481144785881042e-03 -7.365786284208297729e-02 -1.006564572453498840e-01 7.072196155786514282e-02 3.863420709967613220e-02 7.535972632467746735e-03 5.871740635484457016e-03 3.783413022756576538e-02 -3.155258297920227051e-02 1.001825034618377686e-01 1.219053193926811218e-02 -3.704280126839876175e-03 -1.770785599946975708e-01 -2.144796699285507202e-01 -2.964766025543212891e-01 1.465137023478746414e-02 -2.703020721673965454e-02 1.887714490294456482e-02 -4.627887904644012451e-01 -1.974681206047534943e-02 1.381109654903411865e-02 1.100089550018310547e-01 -1.104068160057067871e-01 -2.410342544317245483e-02 1.016376726329326630e-02 5.172060336917638779e-03 5.711003765463829041e-02 -2.505632340908050537e-01 -1.251472085714340210e-01 3.946203738451004028e-02 -3.050966374576091766e-02 -2.310228049755096436e-01 -3.612491190433502197e-01 5.776209756731987000e-02 -1.567517966032028198e-01 -5.413686856627464294e-02 4.665004462003707886e-02 -1.414576321840286255e-01 -8.377972245216369629e-02 -5.274078622460365295e-02 -2.850114740431308746e-02 -3.153687715530395508e-02 -4.966767877340316772e-02 -6.068648770451545715e-02 -2.019504606723785400e-01 -2.092428803443908691e-01 -2.422762066125869751e-01 4.611327871680259705e-02 4.077981412410736084e-02 -2.978097647428512573e-02 -1.925171911716461182e-01 -1.699527502059936523e-01 -2.040986418724060059e-01 -1.941083371639251709e-01 3.719128435477614403e-04 -2.977927215397357941e-04 -2.397933229804039001e-02 -1.130328327417373657e-01 -3.257123231887817383e-01 -4.339418187737464905e-02 2.753252908587455750e-02 -1.205046474933624268e-02 9.727036207914352417e-02 -1.819765716791152954e-01 -9.101177752017974854e-02 -2.850465010851621628e-03 -6.308350712060928345e-02 5.228921025991439819e-02 1.850552111864089966e-02 4.574494436383247375e-02 -2.157059498131275177e-03 -1.836745738983154297e-01 2.016937732696533203e-02 8.508536219596862793e-02 -6.988597661256790161e-02 -4.813304170966148376e-02 1.356051396578550339e-02 -8.001103252172470093e-02 2.582412213087081909e-02 5.036758631467819214e-02 -1.089291740208864212e-02 3.362298384308815002e-02 6.853412836790084839e-02 -5.867845611646771431e-04 2.931896969676017761e-02 -1.265677213668823242e-01 4.325113818049430847e-02 4.246072098612785339e-02 -2.779911160469055176e-01 -1.097071077674627304e-02 5.161456018686294556e-02 2.665994502604007721e-02 -6.206795945763587952e-02 3.090044856071472168e-02 1.049554534256458282e-02 -2.014180421829223633e-01 -1.563900033943355083e-03 -8.074984699487686157e-02 -2.026802450418472290e-01 2.692670677788555622e-04 -4.188565537333488464e-02 7.003316283226013184e-02 2.146226167678833008e-02 4.884977638721466064e-02 2.742937393486499786e-02 1.321974955499172211e-02 -1.351243704557418823e-01 1.221268903464078903e-02 6.242565810680389404e-03 6.576204672455787659e-03 -4.278314486145973206e-02 -1.463721245527267456e-01 -1.047203242778778076e-01 -1.722402423620223999e-01 2.118911221623420715e-02 4.426797851920127869e-02 1.474774070084095001e-02 -1.007902175188064575e-01 -1.001496091485023499e-01 -6.562560051679611206e-02 1.774413324892520905e-02 8.554146625101566315e-03 1.465266104787588120e-02 5.392918363213539124e-02 -2.323326282203197479e-02 -3.096205741167068481e-02 -7.953465729951858521e-02 6.596350576728582382e-03 2.050385810434818268e-03 -1.455632746219635010e-01 4.935475811362266541e-02 -9.948743507266044617e-03 -9.987812489271163940e-02 1.616448862478137016e-04 -1.005598530173301697e-01 2.302384749054908752e-02 6.323437206447124481e-03 -1.145712807774543762e-01 -2.316793985664844513e-02 2.880666591227054596e-02 5.972218886017799377e-02 -9.931458160281181335e-03 -9.175551682710647583e-02 -1.659834235906600952e-01 -3.289598599076271057e-02 7.071009278297424316e-02 6.614542752504348755e-02 4.575085639953613281e-02 4.869270697236061096e-02 -1.826521009206771851e-01 -2.618686994537711143e-04 -1.229795962572097778e-01 8.607598394155502319e-02 -3.744359910488128662e-01 5.103601608425378799e-03 1.396008674055337906e-02 -1.932182610034942627e-01 2.460853569209575653e-02 8.198534697294235229e-02 -1.291740220040082932e-03 -4.324248805642127991e-02 -1.162667945027351379e-01 -4.993609711527824402e-02 -3.081178963184356689e-01 -3.044792823493480682e-02 7.550544291734695435e-02 3.999419137835502625e-02 4.643732309341430664e-02 -4.165516421198844910e-02 -5.379257723689079285e-02 -7.141406182199716568e-03 -2.539370059967041016e-01 9.591927751898765564e-03 -1.586292386054992676e-01 -1.311406791210174561e-01 1.627438515424728394e-02 6.711488589644432068e-03 2.308275364339351654e-02 -1.311180144548416138e-01 -3.658656030893325806e-02 5.721018183976411819e-03 6.448327749967575073e-02 1.425105147063732147e-02 2.716786786913871765e-02 4.184442106634378433e-03 3.325042501091957092e-02 -8.344385027885437012e-02 4.761178418993949890e-02 8.811565116047859192e-03 1.647115498781204224e-02 4.980083182454109192e-02 -1.744967512786388397e-02 -2.242857404053211212e-02 3.110939450562000275e-02 -2.010626345872879028e-01 2.169090509414672852e-02 -2.484398931264877319e-01 -5.945159867405891418e-02 1.355342846363782883e-02 -1.882460862398147583e-01 -5.503012612462043762e-02 -9.998632222414016724e-02 3.219866380095481873e-02 -3.892538845539093018e-01 -5.272003263235092163e-02 1.884243637323379517e-02 4.139662161469459534e-02 -2.673771977424621582e-01 -4.303982015699148178e-03 2.858785353600978851e-02 -6.274630781263113022e-03 -2.141795456409454346e-01 3.854262828826904297e-02 -2.410586178302764893e-02 3.563642501831054688e-02 -2.620093226432800293e-01 8.413592353463172913e-03 -5.460802465677261353e-02 1.602536882273852825e-03 1.014392450451850891e-01 9.990418329834938049e-03 -8.353247493505477905e-02 1.690184511244297028e-02 5.970475822687149048e-02 3.762518242001533508e-02 -6.670460850000381470e-02 3.158126398921012878e-02 -5.987077578902244568e-02 -7.477854937314987183e-02 -1.093318238854408264e-01 -1.501330733299255371e-01 -1.428073085844516754e-02 -3.944492936134338379e-01 -2.220642268657684326e-01 -1.363330781459808350e-01 -6.951769441366195679e-02 1.148829683661460876e-01 -9.849189221858978271e-02 -1.188162937760353088e-01 -2.543826103210449219e-01 6.091221421957015991e-02 3.287866711616516113e-02 3.221722692251205444e-02 1.967846602201461792e-02 -2.796484529972076416e-01 -6.238397909328341484e-04 7.120029535144567490e-03 -1.988935768604278564e-01 1.184126548469066620e-02 -1.804251372814178467e-01 -1.211205050349235535e-01 2.006467804312705994e-02 -2.635644674301147461e-01 -1.516856439411640167e-02 -1.141588110476732254e-02 5.235111713409423828e-02 -1.569422334432601929e-02 -2.404908388853073120e-01 -1.873762309551239014e-01 -1.257687993347644806e-02 6.746397912502288818e-02 5.778885632753372192e-02 -5.317339673638343811e-02 8.868666365742683411e-03 -1.699099540710449219e-01 6.856434512883424759e-03 -9.678819775581359863e-02 1.315380679443478584e-03 -2.573339343070983887e-01 -1.574471443891525269e-01 -1.862701587378978729e-02 7.183204591274261475e-02 -1.162024587392807007e-01 -4.604178965091705322e-01 3.085285797715187073e-02 1.287704426795244217e-02 -2.791668772697448730e-01 -1.691686362028121948e-01 -2.253121323883533478e-02 -1.731891036033630371e-01 -1.692298650741577148e-01 5.414890870451927185e-02 -1.760245859622955322e-01 -9.112579375505447388e-02 2.911683917045593262e-02 8.871622383594512939e-02 -5.946228653192520142e-02 -2.916012518107891083e-02 -1.887472271919250488e-01 -6.203379016369581223e-03 -1.492001414299011230e-01 -5.092493258416652679e-03 -3.011996150016784668e-01 6.744145881384611130e-03 -3.553175181150436401e-02 1.046950835734605789e-02 -1.578596606850624084e-02 3.478739876300096512e-03 2.955323457717895508e-02 -9.808031791180837899e-06 -3.885718435049057007e-02 -2.248663753271102905e-01 3.416743129491806030e-02 -2.853612229228019714e-02 -1.078907996416091919e-01 9.131493978202342987e-03 -1.781993508338928223e-01 4.625115077942609787e-03 8.219769224524497986e-03 -1.394660770893096924e-02 1.475557871162891388e-02 3.126235306262969971e-02 2.388784475624561310e-02 2.216435782611370087e-02 -1.362119615077972412e-01 -3.342824280261993408e-01 -7.923197001218795776e-02 3.098200634121894836e-02 -1.869480162858963013e-01 3.471780195832252502e-02 -2.061579935252666473e-02 4.603453725576400757e-02 -1.756366528570652008e-02 -6.845066323876380920e-03 -1.202456429600715637e-01 2.573205716907978058e-02 -8.305069990456104279e-03 1.129564084112644196e-02 6.847774982452392578e-02 4.419541358947753906e-02 2.059893496334552765e-02 -7.763364166021347046e-02 -2.021871507167816162e-01 -2.634801864624023438e-01 2.456388063728809357e-02 -2.927243150770664215e-02 -1.934917867183685303e-01 -1.615859940648078918e-02 6.552130728960037231e-02 -8.348731324076652527e-03 -2.589158117771148682e-01 1.451437361538410187e-02 4.076242446899414062e-02 3.480163216590881348e-02 -3.176416456699371338e-01 2.523383125662803650e-02 3.118174523115158081e-02 1.911285892128944397e-02 -6.533322483301162720e-02 3.856569156050682068e-02 -2.427531033754348755e-02 -2.219946533441543579e-01 -6.824754644185304642e-03 5.909240804612636566e-03 4.294183105230331421e-02 -1.424052380025386810e-02 1.763287745416164398e-02 4.488666541874408722e-03 4.148164764046669006e-03 7.796887308359146118e-02 -1.348746102303266525e-02 3.878730116412043571e-03 -2.695913612842559814e-01 1.087588369846343994e-01 3.436139598488807678e-02 5.121639743447303772e-02 1.729633100330829620e-02 -2.041223691776394844e-03 -1.170718446373939514e-01 3.136860951781272888e-02 -3.980299830436706543e-02 -6.140177324414253235e-02 -1.057950779795646667e-01 -2.013685554265975952e-01 -1.830876618623733521e-01 -2.926890552043914795e-01 -1.181071624159812927e-01 -3.151040077209472656e-01 -1.121084317564964294e-01 5.037891864776611328e-02 -2.171552330255508423e-01 -2.727166004478931427e-02 -2.196557521820068359e-01 -1.756079643964767456e-01 -1.345268189907073975e-01 -2.580265700817108154e-02 -1.079837307333946228e-01 -2.125074714422225952e-01 -1.754660755395889282e-01 -1.822404116392135620e-01 -1.967044472694396973e-01 1.746872998774051666e-02 -1.112848669290542603e-01 -3.008454106748104095e-02 -4.233190119266510010e-01 -3.608370199799537659e-02 -1.022787392139434814e-02 5.081544816493988037e-02 8.331499248743057251e-02 1.264425832778215408e-02 -2.432655692100524902e-01 1.551047991961240768e-02 7.198470085859298706e-02 1.047380361706018448e-02 -2.297215014696121216e-01 -3.023018538951873779e-01 -1.271141320466995239e-02 5.960560590028762817e-02 2.112502790987491608e-02 2.135288901627063751e-02 -2.772423923015594482e-01 -1.887615770101547241e-01 6.081067770719528198e-02 6.653476506471633911e-02 -2.090469300746917725e-01 -2.362567465752363205e-03 -3.232832625508308411e-02 -2.563172578811645508e-02 6.362779438495635986e-02 2.277847751975059509e-02 4.295837506651878357e-02 6.499627139419317245e-03 -1.306884139776229858e-01 -7.743883877992630005e-02 3.834699839353561401e-02 -1.903121825307607651e-03 8.967305533587932587e-03 -1.628499925136566162e-01 4.907377064228057861e-02 1.209793426096439362e-02 1.820791512727737427e-02 9.606725536286830902e-03 -4.060806706547737122e-02 -2.508195675909519196e-02 1.498056761920452118e-02 -1.735764741897583008e-02 4.619138315320014954e-02 2.764246240258216858e-02 -4.334685578942298889e-02 -2.968294918537139893e-02 4.363407567143440247e-02 1.324541214853525162e-02 4.809590056538581848e-02 -1.558020561933517456e-01 -2.478835433721542358e-01 1.108376458287239075e-01 -2.268600761890411377e-01 -2.971268258988857269e-02 -5.674727261066436768e-02 5.980432033538818359e-03 -1.823920458555221558e-01 -1.882954835891723633e-01 -1.882524043321609497e-01 -2.134493738412857056e-02 4.246264323592185974e-02 -1.525302380323410034e-01 -2.459872364997863770e-01 -3.990843892097473145e-02 1.947745308279991150e-02 -6.149905547499656677e-02 8.507263660430908203e-02 -3.158422410488128662e-01 -1.245272904634475708e-01 9.184648096561431885e-02 -1.975511312484741211e-01 2.621038444340229034e-02 3.637375310063362122e-02 -2.760595083236694336e-01 -3.804568052291870117e-01 2.823026850819587708e-03 -1.443072259426116943e-01 6.377448886632919312e-02 -1.499171406030654907e-01 -1.965733915567398071e-01 -9.201514534652233124e-03 -1.329908706247806549e-02 -1.953969001770019531e-01 -1.829115860164165497e-02 -2.010661363601684570e-01 1.378780137747526169e-02 2.585569210350513458e-02 4.711500927805900574e-02 1.171757839620113373e-02 -1.750233322381973267e-01 -5.070198327302932739e-02 -2.269057780504226685e-01 -1.368397623300552368e-01 1.003627479076385498e-02 -1.449166983366012573e-01 -1.547272950410842896e-01 4.573028907179832458e-02 8.067454397678375244e-02 -2.887284196913242340e-02 -2.484032511711120605e-01 4.990448430180549622e-02 -2.754185199737548828e-01 -7.732647657394409180e-02 -2.199394702911376953e-01 1.936590485274791718e-02 -3.812702838331460953e-03 -4.444371759891510010e-01 3.017448447644710541e-02 2.811343409121036530e-02 7.139811292290687561e-03 -2.245341539382934570e-01 5.732791125774383545e-02 -2.020215243101119995e-01 6.556753069162368774e-02 1.575255393981933594e-02 1.217236276715993881e-02 4.961325321346521378e-03 -1.459328532218933105e-01 1.742245070636272430e-02 -2.321913987398147583e-01 -1.138132531195878983e-02 -5.811427161097526550e-02 5.166585743427276611e-02 -1.084389537572860718e-01 3.739047050476074219e-02 -1.261170655488967896e-01 2.884160168468952179e-02 -7.527844607830047607e-02 -5.543860793113708496e-02 3.149634972214698792e-02 -1.575883179903030396e-01 2.884635142982006073e-02 -2.443536669015884399e-01 1.273580268025398254e-02 1.286621904000639915e-03 6.226583570241928101e-02 -9.317482262849807739e-02 -2.861160933971405029e-01 -1.567311435937881470e-01 -2.155536860227584839e-01 4.355430603027343750e-02 -2.261442877352237701e-02 -2.082172334194183350e-01 3.112420998513698578e-02 7.176469545811414719e-03 -5.753582809120416641e-03 -2.290407009422779083e-02 4.319755360484123230e-02 -2.988208234310150146e-01 -1.508935540914535522e-01 2.729608910158276558e-03 -4.554229974746704102e-02 -4.140792787075042725e-02 1.959471777081489563e-02 6.765651702880859375e-02 3.051726706326007843e-02 1.239318680018186569e-02 -2.172666229307651520e-02 -1.537314355373382568e-01 -3.504611924290657043e-02 -2.326699048280715942e-01 3.124987520277500153e-02 -1.849441379308700562e-01 -1.666679829359054565e-01 2.654220350086688995e-02 -1.493276357650756836e-01 3.704808652400970459e-02 2.964108251035213470e-02 2.307739667594432831e-02 7.226526271551847458e-03 -1.823642477393150330e-02 3.244676440954208374e-02 2.838305570185184479e-02 -2.666468322277069092e-01 5.250984802842140198e-02 -1.150372102856636047e-01 -3.623124063014984131e-01 2.808218356221914291e-03 -2.036321675404906273e-03 -1.796702295541763306e-01 -1.099486872553825378e-01 -4.223774652928113937e-03 -8.371097594499588013e-02 -6.859819591045379639e-02 -4.273584485054016113e-02 3.578153625130653381e-02 -2.775613963603973389e-02 -1.948863454163074493e-02 -8.410302549600601196e-02 -5.312325805425643921e-02 -2.406397461891174316e-01 -1.372210830450057983e-01 -3.063880503177642822e-01 -3.362787142395973206e-02 -1.247744932770729065e-01 9.319249540567398071e-02 -7.490085810422897339e-02 -1.628130376338958740e-01 1.396435871720314026e-02 1.922953873872756958e-02 8.396544493734836578e-03 1.008623000234365463e-02 -1.703422218561172485e-01 3.626139089465141296e-02 -2.008978277444839478e-02 -2.068118192255496979e-02 -2.745283953845500946e-02 2.140136621892452240e-02 -1.347886919975280762e-01 -1.001397222280502319e-01 8.126273006200790405e-02 -1.635328531265258789e-01 -7.989545911550521851e-02 7.510096579790115356e-02 9.446816146373748779e-02 1.745977811515331268e-02 -5.535334721207618713e-02 2.414280781522393227e-03 3.119910135865211487e-02 9.993040002882480621e-03 1.029587611556053162e-01 7.229903340339660645e-02 6.459517404437065125e-03 6.708487123250961304e-02 2.859815582633018494e-02 2.145326137542724609e-02 4.089905880391597748e-03 5.719922110438346863e-02 -7.102297618985176086e-03 4.282251372933387756e-02 -2.232213765382766724e-01 2.251601545140147209e-03 -1.829716563224792480e-01 -7.940986007452011108e-02 1.133863255381584167e-02 2.753168717026710510e-02 9.022966772317886353e-02 -3.324567675590515137e-01 -2.029142826795578003e-01 3.553907736204564571e-04 -3.028488019481301308e-03 -2.831489965319633484e-02 -3.792071016505360603e-03 2.833904512226581573e-02 -1.744377613067626953e-01 -4.990088753402233124e-03 2.175715751945972443e-02 1.359173096716403961e-02 -2.304524742066860199e-02 -5.283305794000625610e-02 -1.547106951475143433e-01 -4.650657624006271362e-02 4.822915419936180115e-02 -1.693692058324813843e-01 -3.350659459829330444e-02 -1.687945984303951263e-02 -1.257702112197875977e-01 -8.219130337238311768e-02 1.498486939817667007e-02 -5.026822909712791443e-02 4.056665580719709396e-03 -5.549401510506868362e-03 6.497681140899658203e-02 7.450655102729797363e-02 -6.494217365980148315e-02 5.703896656632423401e-02 -4.048222303390502930e-02 1.881974004209041595e-02 -1.336661726236343384e-02 -3.701275587081909180e-02 -1.563552320003509521e-01 5.576598457992076874e-03 -2.101607769727706909e-01 5.269658938050270081e-02 2.112757973372936249e-02 -3.998819272965192795e-03 -1.431115418672561646e-01 3.083409741520881653e-02 -1.423469185829162598e-01 -2.625819146633148193e-01 1.697207242250442505e-02 1.122244819998741150e-02 -2.847044542431831360e-02 -2.755722999572753906e-01 -2.521272050216794014e-03 2.234872803092002869e-02 4.210259392857551575e-02 -1.677752137184143066e-01 -2.623804211616516113e-01 2.092371508479118347e-02 -4.146370291709899902e-02 4.572738334536552429e-02 -2.458440214395523071e-01 9.979234635829925537e-02 6.876333616673946381e-03 -1.053711101412773132e-01 -3.725183010101318359e-02 -1.713864058256149292e-01 1.601904444396495819e-02 3.015915118157863617e-02 1.144757773727178574e-02 6.105866283178329468e-02 -2.599051892757415771e-01 1.159881651401519775e-01 -1.843557320535182953e-02 -2.867862395942211151e-02 1.258702576160430908e-02 9.476327896118164062e-02 -2.975835800170898438e-01 2.770707756280899048e-02 4.741768538951873779e-02 1.907325722277164459e-02 -1.976432651281356812e-02 4.351746290922164917e-02 5.454116966575384140e-03 -3.056604862213134766e-01 -1.578460037708282471e-01 9.334980859421193600e-04 -2.816945612430572510e-01 -1.566655747592449188e-02 -1.442557126283645630e-01 -1.753893792629241943e-01 4.492813255637884140e-03 1.524749770760536194e-02 -3.266179859638214111e-01 4.555051028728485107e-02 5.485692992806434631e-02 -8.276316523551940918e-02 -1.245219632983207703e-01 -2.961400151252746582e-01 -8.764622616581618786e-04 1.010165140032768250e-01 1.240188628435134888e-02 -5.824769660830497742e-02 5.967216938734054565e-02 -1.082819178700447083e-01 -5.589718930423259735e-03 -4.076766595244407654e-02 -1.288366913795471191e-01 -2.737475037574768066e-01 -2.561152875423431396e-01 1.678176037967205048e-02 -2.232037670910358429e-02 -3.336169570684432983e-02 -2.264558523893356323e-01 -2.986934408545494080e-02 -6.298164837062358856e-03 2.463574148714542389e-02 8.655101805925369263e-02 2.277099154889583588e-02 -1.938736438751220703e-02 -7.360073924064636230e-02 2.189308963716030121e-02 1.283701788634061813e-02 1.558210118673741817e-03 -1.684460788965225220e-01 3.754788637161254883e-02 -9.590728208422660828e-03 -2.445236407220363617e-02 3.580750897526741028e-03 8.021365851163864136e-02 -9.945423156023025513e-02 -1.801555417478084564e-02 -7.958499714732170105e-03 -4.525397717952728271e-02 -3.022348582744598389e-01 3.775237500667572021e-02 -9.263500571250915527e-03 3.711454104632139206e-03 2.675484120845794678e-02 -4.421171918511390686e-02 1.909122802317142487e-02 5.331067368388175964e-02 -7.985695451498031616e-02 -2.154365181922912598e-02 3.988302778452634811e-03 5.708797276020050049e-02 -1.313793659210205078e-01 -2.659160085022449493e-02 1.764350757002830505e-02 6.934437900781631470e-03 -1.044885963201522827e-01 -8.937312662601470947e-02 -1.247952356934547424e-01 2.283826656639575958e-02 1.493705715984106064e-02 -3.160562366247177124e-02 -2.959690243005752563e-02 -1.326809525489807129e-01 -3.020648658275604248e-01 -7.790003716945648193e-02 4.090892150998115540e-02 -4.452649503946304321e-02 -1.119937165640294552e-03 2.595603279769420624e-02 1.574300229549407959e-02 -1.271319985389709473e-01 -1.310548372566699982e-02 -7.534672040492296219e-03 1.564363949000835419e-02 -2.885732650756835938e-01 2.504021488130092621e-02 7.105146348476409912e-02 -9.572333842515945435e-02 -6.700353324413299561e-02 -1.296239905059337616e-02 -2.772944793105125427e-02 6.471069157123565674e-02 -2.434862963855266571e-02 -4.793688282370567322e-02 6.606396287679672241e-02 5.481615662574768066e-02 -1.398858875036239624e-01 1.255074888467788696e-02 -1.821104139089584351e-01 -6.739312666468322277e-04 -1.093241646885871887e-01 2.252526814118027687e-03 -1.682251878082752228e-02 4.329062998294830322e-02 -1.963023096323013306e-01 -2.293608635663986206e-01 -2.153181582689285278e-01 -1.422034204006195068e-02 2.963217161595821381e-02 -8.696343284100294113e-04 -2.756261527538299561e-01 6.936125457286834717e-02 -4.575849473476409912e-01 4.801494628190994263e-02 3.648045286536216736e-02 2.676272392272949219e-02 2.564878948032855988e-02 -2.643013298511505127e-01 -3.782830014824867249e-02 -3.082619979977607727e-02 4.202581197023391724e-02 1.955690421164035797e-02 6.517799198627471924e-02 -2.156049311161041260e-01 -3.080109953880310059e-01 -2.040868997573852539e-01 7.669289410114288330e-02 1.386973541229963303e-02 -1.017318293452262878e-01 -1.890096366405487061e-01 -3.226969018578529358e-02 2.319424226880073547e-02 -1.771254539489746094e-01 -1.684546470642089844e-02 -2.877185866236686707e-02 -1.297877281904220581e-01 -9.579184651374816895e-02 3.354446962475776672e-02 2.163374051451683044e-02 -2.669070065021514893e-01 -2.440492063760757446e-02 1.482622027397155762e-01 -1.558447629213333130e-01 1.640386320650577545e-02 3.208374232053756714e-02 -4.632778838276863098e-02 -2.299176156520843506e-02 -1.383066177368164062e-01 1.459758915007114410e-02 -4.732154775410890579e-03 -2.758476510643959045e-02 4.308867454528808594e-02 -8.065955340862274170e-02 -9.303158521652221680e-02 1.163032203912734985e-01 -3.156371116638183594e-01 1.041208654642105103e-01 6.931844353675842285e-02 -6.906351074576377869e-03 -1.659300327301025391e-01 -1.005622893571853638e-01 8.549693971872329712e-03 -8.298029005527496338e-02 -1.713220328092575073e-01 4.297208786010742188e-02 7.248433679342269897e-02 1.579763367772102356e-02 -2.378586083650588989e-01 -2.248601317405700684e-01 -5.597112700343132019e-03 1.121034771203994751e-01 3.215973451733589172e-02 -2.311386168003082275e-01 3.912478685379028320e-02 4.030223190784454346e-02 1.298160851001739502e-02 3.570523858070373535e-02 3.681584447622299194e-02 -1.446028053760528564e-01 5.317269638180732727e-02 5.656404420733451843e-02 5.309549719095230103e-02 8.533938089385628700e-04 -1.050730347633361816e-01 -2.685248255729675293e-01 -1.485227141529321671e-02 1.893626339733600616e-02 3.967400640249252319e-02 -2.911034822463989258e-01 -2.190109938383102417e-01 -2.425504773855209351e-01 -4.822224751114845276e-02 -2.383124083280563354e-02 -1.206505745649337769e-01 6.841215491294860840e-02 -2.449983265250921249e-03 -3.516468405723571777e-02 3.529050573706626892e-02 -2.507621049880981445e-01 -5.643863976001739502e-02 1.419874932616949081e-02 -1.903677731752395630e-02 7.625092566013336182e-02 -2.672761306166648865e-02 -9.620112180709838867e-02 -2.043660432100296021e-01 6.906451308168470860e-04 -1.133164297789335251e-02 1.752797886729240417e-02 1.260041818022727966e-02 3.221085667610168457e-02 3.406647220253944397e-02 6.791446357965469360e-02 7.179122418165206909e-02 -1.602555960416793823e-01 6.765174120664596558e-02 3.704940527677536011e-02 6.528969854116439819e-03 -4.227223340421915054e-03 6.194185093045234680e-02 8.289833553135395050e-03 -4.874986782670021057e-02 -4.660029411315917969e-01 1.018939656205475330e-03 -1.689231209456920624e-02 -6.775648891925811768e-02 -1.957288710400462151e-03 -1.139691751450300217e-02 -1.512065231800079346e-01 -8.428236469626426697e-03 -2.646310031414031982e-01 4.265493899583816528e-02 -3.571031615138053894e-02 8.671543747186660767e-02 -7.142510265111923218e-02 2.090525813400745392e-02 4.458109848201274872e-03 -7.323418278247117996e-03 -2.899396717548370361e-01 -1.339988666586577892e-03 -2.659350633621215820e-01 1.266944035887718201e-02 5.105980858206748962e-02 -1.084701865911483765e-01 -1.791672036051750183e-02 -2.203422365710139275e-03 3.080709464848041534e-02 -1.582975685596466064e-01 4.407651722431182861e-02 -1.221798732876777649e-01 -2.992742322385311127e-02 -9.768020361661911011e-03 5.521446000784635544e-03 2.153581753373146057e-02 -1.962164491415023804e-01 -4.163264632225036621e-01 -1.165408343076705933e-01 2.492778748273849487e-02 5.054497718811035156e-02 7.425635308027267456e-02 1.345474366098642349e-02 8.456964045763015747e-02 5.751440301537513733e-02 -5.561216920614242554e-02 3.244714438915252686e-02 2.314034104347229004e-02 -1.143270283937454224e-01 -6.927433609962463379e-02 2.037419937551021576e-02 1.668303087353706360e-02 -1.010768339037895203e-01 -2.675198614597320557e-01 2.261418383568525314e-03 -6.762187927961349487e-02 1.054421626031398773e-02 4.844254348427057266e-03 -2.466753497719764709e-02 -1.260499507188796997e-01 -5.940176919102668762e-02 -1.514771282672882080e-01 1.543789915740489960e-02 -1.104481592774391174e-01 3.527010977268218994e-02 4.341696202754974365e-02 -3.887267317622900009e-03 1.966774836182594299e-02 4.348059371113777161e-02 -1.586196422576904297e-01 -8.988359570503234863e-02 1.412529498338699341e-02 -2.389695793390274048e-01 -7.845486700534820557e-02 1.155299972742795944e-02 -3.624062519520521164e-03 -1.260146647691726685e-01 -4.447698220610618591e-02 -1.028865203261375427e-02 8.500674366950988770e-02 -7.549012545496225357e-03 -1.838519982993602753e-02 -3.035363554954528809e-02 -1.390352845191955566e-01 -1.310509592294692993e-01 -9.611549973487854004e-02 -1.833324553444981575e-03 -2.209074422717094421e-02 6.928037852048873901e-03 3.684632107615470886e-02 8.722411096096038818e-02 8.320523425936698914e-03 -1.441474538296461105e-02 2.276871725916862488e-02 -1.580653339624404907e-02 -1.221124753355979919e-01 -7.337876409292221069e-02 -3.753214329481124878e-02 -6.550310552120208740e-02 -3.068955540657043457e-01 1.567224785685539246e-02 -1.656220406293869019e-01 7.702060509473085403e-03 -1.921604014933109283e-02 2.389709651470184326e-02 2.616625651717185974e-02 -1.103266105055809021e-01 4.455426335334777832e-02 1.974548213183879852e-02 -4.156146571040153503e-02 5.733481049537658691e-02 -5.806855484843254089e-02 -1.569549590349197388e-01 4.232345148921012878e-02 -7.866163551807403564e-02 -1.579568721354007721e-02 -2.286258786916732788e-01 1.819853205233812332e-03 -1.066527739167213440e-01 -6.366220116615295410e-02 -5.036292225122451782e-02 -2.016628980636596680e-01 -5.500794388353824615e-03 5.520343035459518433e-02 5.255704745650291443e-03 -2.722451090812683105e-02 1.944881631061434746e-03 3.627853095531463623e-02 -1.857345402240753174e-01 3.137333784252405167e-03 -3.918293118476867676e-02 1.403734786435961723e-04 -1.598771214485168457e-01 8.758097887039184570e-03 -1.361047197133302689e-02 3.234340809285640717e-03 3.719288483262062073e-02 -6.350265443325042725e-02 1.779598556458950043e-02 -1.019390076398849487e-01 5.348391085863113403e-02 4.782087728381156921e-02 -4.627155605703592300e-03 -2.772291377186775208e-02 7.876556366682052612e-03 -2.777749896049499512e-01 5.058210715651512146e-02 2.219039574265480042e-02 -3.974708914756774902e-02 1.572395116090774536e-02 6.143523007631301880e-02 2.095258049666881561e-02 3.822870925068855286e-02 -9.312335401773452759e-02 4.994542524218559265e-02 -2.500353846698999405e-03 2.522981725633144379e-02 -2.171669900417327881e-02 -6.246536225080490112e-02 -4.102991893887519836e-02 -1.092759333550930023e-02 5.123094841837882996e-02 8.204685524106025696e-03 3.006487525999546051e-02 6.295032054185867310e-02 1.474629342555999756e-02 -2.694095484912395477e-02 -1.109737232327461243e-01 -1.706399470567703247e-01 2.539939433336257935e-02 -2.360693812370300293e-01 -4.466466978192329407e-02 -2.457528561353683472e-02 -1.202405840158462524e-01 -4.575533792376518250e-02 -1.503363251686096191e-01 -2.225864864885807037e-02 6.732857972383499146e-02 -2.338187098503112793e-01 3.648446127772331238e-02 -1.148027107119560242e-01 1.962261646986007690e-02 5.221952497959136963e-02 -2.176233381032943726e-01 -5.235615000128746033e-02 3.520029783248901367e-02 6.268592923879623413e-02 2.628277055919170380e-02 6.220858544111251831e-02 1.843411289155483246e-02 -1.192455664277076721e-01 1.874532736837863922e-02 -2.316340990364551544e-02 -2.838906645774841309e-01 -2.519169449806213379e-01 -1.722690165042877197e-01 8.125741779804229736e-02 3.395853936672210693e-02 1.103063765913248062e-02 9.125651419162750244e-02 6.061299354769289494e-04 6.250792066566646099e-04 -3.721343725919723511e-02 -8.187212049961090088e-02 1.296549104154109955e-02 8.948550373315811157e-02 -2.246556729078292847e-01 -3.412543609738349915e-02 -4.108468443155288696e-02 1.071511302143335342e-02 -8.542582392692565918e-02 -3.711399435997009277e-02 -2.329178526997566223e-02 5.061524733901023865e-02 -3.005667589604854584e-02 1.818135753273963928e-02 -9.560725092887878418e-02 -1.415873616933822632e-01 5.353175569325685501e-03 -2.312623560428619385e-01 5.615295097231864929e-02 -4.817075282335281372e-02 3.998410888016223907e-03 -2.114904522895812988e-01 4.701458290219306946e-02 -6.556775420904159546e-02 6.014099344611167908e-03 7.812403608113527298e-03 9.737181477248668671e-03 5.280501674860715866e-03 7.057318091392517090e-02 -6.086527556180953979e-02 -4.586846381425857544e-02 -3.313927724957466125e-02 -1.326306257396936417e-03 -1.936355605721473694e-02 1.917292596772313118e-03 6.412953883409500122e-02 -1.252914406359195709e-02 -1.245036274194717407e-01 -1.158491801470518112e-02 -1.721366345882415771e-01 -1.180558875203132629e-01 3.679852560162544250e-02 9.476586431264877319e-02 -1.736049540340900421e-02 1.754433289170265198e-02 -1.719417273998260498e-01 3.817752376198768616e-02 -3.835909813642501831e-02 5.561400204896926880e-02 6.404250115156173706e-02 -1.408782303333282471e-01 1.979043940082192421e-03 -1.298361178487539291e-02 -2.626643180847167969e-01 -2.475613057613372803e-01 -9.092754917219281197e-04 -2.006977796554565430e-02 -4.388906061649322510e-02 -5.135198682546615601e-02 2.456300519406795502e-02 -2.214484214782714844e-01 3.574923053383827209e-02 1.505076885223388672e-02 -5.862472578883171082e-02 -2.690476551651954651e-02 1.567084528505802155e-02 1.687908545136451721e-02 -2.911825291812419891e-02 -2.018437907099723816e-02 -1.596793532371520996e-01 -3.110942244529724121e-02 -1.055480912327766418e-01 -7.942042499780654907e-02 -3.696405561640858650e-03 -4.442456737160682678e-02 -2.983647026121616364e-02 6.240894552320241928e-03 1.833635941147804260e-02 -3.398107737302780151e-02 5.333704501390457153e-02 -7.393091917037963867e-02 -2.413473278284072876e-01 8.252879604697227478e-03 3.252974420320242643e-04 5.812792107462882996e-02 2.017344534397125244e-02 -1.996923703700304031e-03 1.803769380785524845e-03 -9.337355382740497589e-03 -2.091573178768157959e-01 -1.349408179521560669e-02 1.768254674971103668e-02 5.628186091780662537e-02 -2.788941264152526855e-01 -3.187663555145263672e-01 1.894305646419525146e-02 6.676407903432846069e-02 -2.129243873059749603e-02 6.197306327521800995e-03 -4.964237101376056671e-03 -2.932173013687133789e-01 -4.334297031164169312e-02 3.603575378656387329e-02 -1.918771266937255859e-01 -6.642756611108779907e-02 -2.254151403903961182e-01 -5.476836231537163258e-04 -2.746839821338653564e-01 1.569773629307746887e-02 -9.504950721748173237e-04 -9.468372911214828491e-02 1.537181623280048370e-02 -2.300588786602020264e-01 -1.250433619134128094e-03 4.495634138584136963e-02 5.485976859927177429e-02 -4.781697317957878113e-02 -1.469706464558839798e-02 -4.341253638267517090e-02 9.345499565824866295e-04 2.227108925580978394e-02 -5.655323266983032227e-01 -2.060968056321144104e-02 -2.549568191170692444e-02 -1.427748054265975952e-02 9.828674048185348511e-02 -1.760699301958084106e-01 -6.431417912244796753e-02 -8.720934391021728516e-02 -1.067829281091690063e-01 7.003671675920486450e-02 2.505940385162830353e-02 5.123707652091979980e-02 -6.586372852325439453e-02 4.301186650991439819e-02 1.334612816572189331e-02 -1.255513578653335571e-01 2.234821952879428864e-02 -2.359791547060012817e-01 -1.177904456853866577e-01 -5.437071621417999268e-02 -1.584960520267486572e-02 6.203544791787862778e-03 -1.714278012514114380e-01 -4.396440088748931885e-02 -9.516973048448562622e-02 1.796146295964717865e-02 2.529162913560867310e-02 -5.371512100100517273e-02 -1.166170984506607056e-01 -2.239042706787586212e-02 -4.343821108341217041e-02 7.158757001161575317e-02 -1.284620016813278198e-01 -1.822976768016815186e-01 -3.532512858510017395e-02 2.146886894479393959e-03 2.812866121530532837e-03 -1.087949946522712708e-01 -3.326117293909192085e-03 2.480680681765079498e-02 -4.752270877361297607e-02 1.555604021996259689e-02 5.054267589002847672e-03 -2.619746923446655273e-01 2.028463967144489288e-02 -1.369781643152236938e-01 -1.093306988477706909e-01 3.211119025945663452e-02 1.098245680332183838e-01 5.503370985388755798e-02 -1.736956834793090820e-01 -1.343772653490304947e-02 -3.040993586182594299e-02 -3.606545925140380859e-02 5.053475126624107361e-02 5.513223260641098022e-02 2.482299134135246277e-02 5.118887498974800110e-02 -3.907202277332544327e-03 -5.012604594230651855e-02 7.032600045204162598e-02 2.101648226380348206e-02 -4.898643586784601212e-03 -9.633733332157135010e-02 -1.801993250846862793e-01 -2.080051600933074951e-02 3.523798286914825439e-02 4.573738574981689453e-02 -2.270303666591644287e-01 -3.639386892318725586e-01 2.584962733089923859e-02 5.974926985800266266e-03 -2.054529264569282532e-02 7.494557648897171021e-02 2.084005996584892273e-02 -2.040483653545379639e-01 6.619763374328613281e-02 -1.741651892662048340e-01 -3.115423396229743958e-02 1.530230604112148285e-02 -2.023433297872543335e-01 2.387628704309463501e-02 2.283319085836410522e-02 -1.850379258394241333e-01 4.284176230430603027e-02 -2.573186755180358887e-01 -1.589448191225528717e-02 9.197333455085754395e-02 1.191108115017414093e-02 6.520656403154134750e-03 4.932030569761991501e-04 -1.613938361406326294e-01 -1.697294116020202637e-01 -3.274217545986175537e-01 -2.543556392192840576e-01 -2.549234405159950256e-02 1.391502469778060913e-02 3.708429634571075439e-02 -6.059487909078598022e-02 -2.355168908834457397e-01 8.910131454467773438e-02 -1.629004068672657013e-02 -6.227661296725273132e-02 4.633617028594017029e-02 -4.083010926842689514e-02 -1.953215748071670532e-01 9.172256686724722385e-04 2.468184195458889008e-02 1.057575549930334091e-02 -1.703334897756576538e-01 2.984564751386642456e-03 2.794289402663707733e-02 -3.781702369451522827e-02 1.828360557556152344e-02 1.856068498454988003e-03 5.519103631377220154e-02 1.369425933808088303e-02 -8.504472672939300537e-02 1.570754870772361755e-02 -2.061667889356613159e-01 4.895405843853950500e-03 -2.491173297166824341e-01 8.791120722889900208e-03 -2.646932005882263184e-01 6.359303742647171021e-02 1.215226482599973679e-02 -1.330269277095794678e-01 4.469961673021316528e-02 -6.207481399178504944e-02 -5.185397341847419739e-02 -8.754314482212066650e-02 -3.688121959567070007e-02 1.474082283675670624e-02 4.643742740154266357e-02 -1.275721006095409393e-04 -8.557099103927612305e-02 4.381288588047027588e-02 -9.419076144695281982e-03 -8.838008344173431396e-02 -2.170459330081939697e-01 3.316486999392509460e-02 3.192737000063061714e-03 1.881686598062515259e-02 -1.323155499994754791e-02 -2.600727379322052002e-01 1.822645962238311768e-02 -1.753792725503444672e-02 -1.607267260551452637e-01 -4.194855093955993652e-01 -1.195370629429817200e-01 8.630413562059402466e-02 -8.426119573414325714e-03 2.709010057151317596e-02 5.071158334612846375e-02 3.192485077306628227e-03 3.759444132447242737e-02 2.199090085923671722e-02 -4.613716527819633484e-02 -1.370954066514968872e-01 7.541664410382509232e-03 1.502177305519580841e-02 -2.001556158065795898e-01 -3.336641192436218262e-02 -2.117475569248199463e-01 -4.961618781089782715e-02 -2.374671995639801025e-01 -2.833751440048217773e-01 6.133983656764030457e-02 5.680030211806297302e-02 -1.300528645515441895e-01 -1.107509210705757141e-01 -5.394946783781051636e-02 5.512852221727371216e-03 -3.055745661258697510e-01 -2.605102658271789551e-01 4.696645215153694153e-02 -3.529902547597885132e-02 -1.081273853778839111e-01 -1.307575851678848267e-01 2.333578094840049744e-02 -5.787287838757038116e-03 -3.214673325419425964e-02 -2.057510316371917725e-01 -3.283997476100921631e-01 -2.197018116712570190e-01 -1.079610455781221390e-02 -1.116755157709121704e-01 -1.308924704790115356e-01 3.351517766714096069e-02 -1.246226727962493896e-01 -3.253889456391334534e-02 2.250625938177108765e-02 4.383689910173416138e-02 -2.746250713244080544e-03 -1.730805039405822754e-01 -2.585399150848388672e-01 -2.364282160997390747e-01 3.809970244765281677e-02 2.369465492665767670e-02 -2.176647335290908813e-01 -2.524060010910034180e-01 2.556759491562843323e-02 -5.117180198431015015e-02 -1.791755482554435730e-02 -1.758706271648406982e-01 -1.151842996478080750e-03 -9.723439067602157593e-02 6.437996774911880493e-02 3.722757473587989807e-02 -2.889345884323120117e-01 5.772706586867570877e-03 -4.332439042627811432e-03 -2.128102071583271027e-02 -3.574177250266075134e-02 -5.165270715951919556e-02 7.096102833747863770e-02 -1.275319904088973999e-01 -2.647146582603454590e-01 1.508200261741876602e-02 2.631303854286670685e-02 6.765743345022201538e-02 -2.238495796918869019e-01 5.987527966499328613e-02 -1.313796639442443848e-01 8.286304771900177002e-02 6.522451341152191162e-02 6.956975907087326050e-03 -2.640672028064727783e-01 4.146634414792060852e-02 6.407955195754766464e-03 3.178898245096206665e-02 -2.858219295740127563e-02 5.996081978082656860e-02 -2.380470782518386841e-01 -5.811857059597969055e-03 -8.216279745101928711e-02 1.489590387791395187e-02 -1.953439712524414062e-01 -1.019010543823242188e-01 2.656025998294353485e-02 4.235427081584930420e-02 5.940994713455438614e-03 -2.089805714786052704e-02 -1.131575554609298706e-01 -7.832080125808715820e-02 -2.230695933103561401e-01 -2.743030339479446411e-02 3.125510737299919128e-02 4.624465946108102798e-03 3.384387120604515076e-02 3.890939429402351379e-02 1.215036492794752121e-02 -2.115579694509506226e-01 -2.240853570401668549e-02 -2.162574045360088348e-02 -5.790977273136377335e-03 1.240274123847484589e-02 2.814557589590549469e-02 6.961902976036071777e-02 3.159005939960479736e-02 -1.820636168122291565e-02 3.330275416374206543e-02 7.011345122009515762e-03 -1.969607323408126831e-01 -1.759967883117496967e-03 4.372891038656234741e-02 -4.101007059216499329e-02 -2.932879328727722168e-01 -3.005839586257934570e-01 -1.968550495803356171e-02 9.029448963701725006e-03 -1.763744503259658813e-01 -3.142179921269416809e-02 -7.429406791925430298e-02 -1.818566396832466125e-02 -1.274513155221939087e-01 2.080420032143592834e-02 -2.139519304037094116e-01 -3.407160043716430664e-01 -9.887056425213813782e-03 -3.558477386832237244e-02 -1.661164462566375732e-01 -2.343524433672428131e-02 -1.078711748123168945e-01 -2.530688941478729248e-01 -1.887672394514083862e-01 -2.114429697394371033e-02 3.488321602344512939e-02 3.097202163189649582e-03 2.552003785967826843e-02 -1.089870557188987732e-01 2.738630399107933044e-02 1.229231338948011398e-02 1.976247876882553101e-02 -2.851156890392303467e-01 2.794522792100906372e-02 3.761998936533927917e-02 1.511555630713701248e-02 3.242624457925558090e-03 1.929088123142719269e-02 6.573621649295091629e-03 -3.014385700225830078e-01 -5.704071838408708572e-03 -2.082724273204803467e-01 -1.102044153958559036e-02 -4.048435389995574951e-02 3.915125876665115356e-02 6.496518850326538086e-02 -2.140430063009262085e-01 -2.766623795032501221e-01 2.433737553656101227e-02 5.167962610721588135e-02 5.105164647102355957e-02 -1.941675879061222076e-02 -2.394283749163150787e-02 -3.258477523922920227e-02 1.171840913593769073e-02 1.197892008349299431e-03 5.330172553658485413e-02 5.164938420057296753e-02 -1.424595061689615250e-02 -9.668497741222381592e-02 -1.894086599349975586e-01 -3.342039138078689575e-02 -1.893199235200881958e-01 1.029408816248178482e-02 -7.265517953783273697e-03 2.599688014015555382e-03 -6.943593267351388931e-03 1.987026334973052144e-04 -8.323252201080322266e-02 -1.457193680107593536e-02 -1.097573153674602509e-02 -1.525708436965942383e-01 -3.793202573433518410e-03 -1.891109198331832886e-01 4.737988486886024475e-02 -1.076266914606094360e-01 9.615826420485973358e-04 -2.282541990280151367e-02 -7.339019328355789185e-02 3.259321302175521851e-02 -3.810419468209147453e-03 3.576145321130752563e-02 -1.565087437629699707e-01 8.378090709447860718e-02 7.757512480020523071e-02 1.611426100134849548e-02 9.366405196487903595e-03 1.946936361491680145e-02 1.676206290721893311e-02 -2.045997418463230133e-02 4.021362587809562683e-02 3.237369284033775330e-02 4.187712445855140686e-02 -1.205611377954483032e-01 -2.820331156253814697e-01 9.028167463839054108e-03 -1.053478419780731201e-01 4.144473001360893250e-02 -2.150599211454391479e-01 8.605416119098663330e-02 1.412613783031702042e-02 7.754807826131582260e-03 -2.928129769861698151e-02 -2.707843780517578125e-01 4.863848909735679626e-02 -2.878607511520385742e-01 3.431867435574531555e-02 6.958428025245666504e-02 -1.939938068389892578e-01 -1.259830594062805176e-01 -1.221446320414543152e-01 4.143604263663291931e-02 2.433173730969429016e-02 6.651195138692855835e-02 3.196470439434051514e-02 -2.334460616111755371e-01 5.686898902058601379e-02 -1.344849169254302979e-02 9.558278135955333710e-03 2.399927238002419472e-03 7.334440201520919800e-02 -2.170281857252120972e-02 -6.766841979697346687e-04 3.114463202655315399e-02 -1.200524792075157166e-01 -2.169054299592971802e-01 4.940608981996774673e-03 -1.553870737552642822e-01 3.716114733833819628e-04 -2.375943120568990707e-03 2.366176061332225800e-02 2.700535207986831665e-02 -1.552648004144430161e-02 -7.820796966552734375e-02 -8.812916465103626251e-03 -2.681028470396995544e-02 -9.703796356916427612e-03 5.562080070376396179e-02 -2.034057974815368652e-01 -1.869939863681793213e-01 3.500586375594139099e-02 -1.552761346101760864e-01 5.161682516336441040e-02 1.390557270497083664e-02 -2.729227542877197266e-01 6.126941647380590439e-03 2.656444720923900604e-02 -5.504900217056274414e-02 2.679605595767498016e-02 -2.354684518650174141e-03 -2.204223871231079102e-01 8.606857806444168091e-02 3.803360089659690857e-02 -2.321869879961013794e-01 -1.257622335106134415e-02 -6.525973323732614517e-03 3.250026609748601913e-03 -7.122631371021270752e-02 4.241738468408584595e-03 9.693551808595657349e-03 -2.569431066513061523e-01 -2.456144662573933601e-03 -1.720086932182312012e-01 -8.059129118919372559e-02 -3.462504968047142029e-02 -5.234021693468093872e-02 -1.809771060943603516e-01 -2.631357870995998383e-02 -1.387807875871658325e-01 2.361610718071460724e-02 3.920344635844230652e-02 -2.381661534309387207e-01 1.337012555450201035e-02 5.705864354968070984e-02 -1.329077631235122681e-01 2.243314869701862335e-02 2.165011689066886902e-02 -7.585994433611631393e-03 5.234815925359725952e-02 5.058891326189041138e-02 3.025836683809757233e-02 1.513911318033933640e-02 -3.516717115417122841e-03 -2.743206918239593506e-01 2.585465647280216217e-02 4.569837823510169983e-02 9.194510057568550110e-03 -1.009488925337791443e-01 5.160422250628471375e-02 1.137446891516447067e-02 2.073512878268957138e-03 -1.653864383697509766e-01 7.503987848758697510e-02 2.430472150444984436e-02 -5.190601199865341187e-02 -1.558759212493896484e-01 -1.602163463830947876e-01 2.099691890180110931e-03 9.996705502271652222e-02 -8.645360171794891357e-02 -8.555366843938827515e-02 1.088570989668369293e-02 2.396981418132781982e-02 -2.038637697696685791e-01 -3.700779005885124207e-02 6.476389616727828979e-02 7.528173923492431641e-02 -7.050513476133346558e-02 -9.806269779801368713e-03 -1.017388049513101578e-02 -1.091305613517761230e-01 -5.063998047262430191e-03 2.661910653114318848e-02 1.212947722524404526e-02 4.620737745426595211e-04 -1.871572881937026978e-01 3.600396960973739624e-02 2.290714532136917114e-02 -3.080152273178100586e-01 2.304609399288892746e-03 1.044208928942680359e-02 4.570088163018226624e-02 -1.676362156867980957e-01 8.255518972873687744e-03 3.393314778804779053e-02 -6.138452887535095215e-02 -5.932506173849105835e-03 5.654661729931831360e-02 -7.408955693244934082e-02 1.150335930287837982e-02 -2.877870202064514160e-01 -1.046539396047592163e-01 -2.555263340473175049e-01 3.763247653841972351e-02 6.181119941174983978e-03 6.823191046714782715e-02 -2.742706835269927979e-01 -1.078355759382247925e-01 -2.695401012897491455e-02 -2.585116587579250336e-02 -1.377472877502441406e-01 -2.297352533787488937e-03 7.281920313835144043e-02 -3.289405256509780884e-03 -2.126799710094928741e-02 2.753741666674613953e-02 1.620379462838172913e-02 -4.358559101819992065e-02 -1.541490666568279266e-02 -3.767252713441848755e-02 -4.459354653954505920e-02 -5.320241302251815796e-02 -2.220262289047241211e-01 -1.162991859018802643e-02 2.790844999253749847e-02 5.820706114172935486e-02 -2.346160262823104858e-01 -1.088219881057739258e-02 8.462290279567241669e-03 -1.376647204160690308e-01 -1.656747609376907349e-02 -1.577850617468357086e-02 1.828968711197376251e-02 -2.499724552035331726e-02 -2.685830295085906982e-01 -1.562496274709701538e-02 2.528618648648262024e-02 -2.170274853706359863e-01 -3.337838128209114075e-02 6.270881276577711105e-03 3.304277360439300537e-02 3.790164366364479065e-02 -6.582808494567871094e-02 2.254037745296955109e-02 -1.185411363840103149e-01 -1.739602163434028625e-02 -1.875760406255722046e-01 1.948145590722560883e-02 3.887595236301422119e-02 5.713209975510835648e-03 3.489224985241889954e-02 -8.302615024149417877e-03 -1.316990107297897339e-01 -1.779436171054840088e-01 -7.966691628098487854e-03 -7.056309259496629238e-04 6.459620594978332520e-02 5.007364600896835327e-02 -1.275273505598306656e-02 -4.375594481825828552e-02 2.536435425281524658e-02 -2.130161374807357788e-01 -4.408982768654823303e-02 -3.105129115283489227e-02 -1.995373219251632690e-01 5.010370537638664246e-02 3.087257407605648041e-02 -6.464339047670364380e-02 1.635334454476833344e-02 4.043596796691417694e-03 -2.838901877403259277e-01 1.986271236091852188e-03 2.779566869139671326e-02 -1.504612714052200317e-01 -2.027260065078735352e-01 -3.495151642709970474e-03 -7.542525231838226318e-02 -6.903918832540512085e-02 -4.222716391086578369e-02 5.421871785074472427e-03 5.263978149741888046e-03 -2.398969382047653198e-01 6.684094667434692383e-02 -4.048068076372146606e-02 -3.551628068089485168e-02 -1.874625235795974731e-01 -1.950916200876235962e-01 7.625944446772336960e-03 -4.407070577144622803e-03 -1.892094314098358154e-01 2.230405248701572418e-02 3.720188047736883163e-03 -2.080573439598083496e-01 -5.799513682723045349e-02 -2.040427774190902710e-01 1.086273789405822754e-02 1.675076968967914581e-02 9.063302539288997650e-03 1.730144210159778595e-02 5.993203725665807724e-03 4.805481433868408203e-02 -1.043765917420387268e-01 -2.819516696035861969e-02 -2.032558470964431763e-01 1.073538437485694885e-01 -1.408216953277587891e-01 -2.304946929216384888e-01 6.016980111598968506e-02 -7.985130883753299713e-03 5.536463111639022827e-03 2.933845855295658112e-02 -2.325434610247612000e-02 -3.765964414924383163e-03 -6.027491018176078796e-02 -1.997663974761962891e-01 4.587960988283157349e-02 -1.669878065586090088e-01 -7.396182417869567871e-02 -4.659441486001014709e-02 8.781015872955322266e-03 -2.984728291630744934e-02 -3.876442089676856995e-02 2.568157156929373741e-03 1.226449012756347656e-02 1.687999069690704346e-02 -8.557440340518951416e-02 5.631921440362930298e-02 -1.699591279029846191e-01 -1.087220460176467896e-01 -6.701692938804626465e-03 -3.843668848276138306e-03 1.689927093684673309e-02 2.836952917277812958e-02 1.638394594192504883e-02 4.953934252262115479e-02 -1.143979802727699280e-01 -2.862959504127502441e-01 3.152369335293769836e-02 -5.278062075376510620e-03 -4.354862961918115616e-03 -2.210916876792907715e-01 -1.012966111302375793e-01 -1.815116964280605316e-02 7.288131862878799438e-02 3.591690585017204285e-02 1.655026897788047791e-02 -3.326776027679443359e-01 2.573592588305473328e-02 -2.606191039085388184e-01 4.911101236939430237e-02 2.630207873880863190e-02 1.452180147171020508e-01 1.055630147457122803e-01 1.218909677118062973e-02 3.110474720597267151e-02 -6.145634129643440247e-02 -1.720423810184001923e-02 1.437624637037515640e-02 2.909583970904350281e-03 -1.485904306173324585e-01 -5.069192498922348022e-03 3.682160377502441406e-02 2.389835193753242493e-02 8.863542973995208740e-02 1.854131696745753288e-03 4.817296564579010010e-02 -2.154721617698669434e-01 -4.203608036041259766e-01 -3.398841023445129395e-01 -9.867598116397857666e-02 -1.397095713764429092e-02 8.097724616527557373e-02 -2.510453462600708008e-01 1.447458844631910324e-02 2.430795505642890930e-02 -4.231895208358764648e-01 4.295527935028076172e-02 -1.815525069832801819e-02 -1.909416727721691132e-02 -6.771025061607360840e-02 1.197388023138046265e-01 -2.408870458602905273e-01 -2.129721790552139282e-01 -2.034356147050857544e-01 7.111392915248870850e-02 4.793575406074523926e-02 5.208234861493110657e-02 1.241469010710716248e-02 7.626543194055557251e-02 -4.354211036115884781e-03 -8.786976337432861328e-03 -3.618954494595527649e-02 6.778880208730697632e-02 1.906628534197807312e-02 -1.677113585174083710e-02 4.925909265875816345e-02 1.586043462157249451e-02 -1.600976884365081787e-01 -3.644399344921112061e-02 -1.699408292770385742e-01 1.389441546052694321e-02 -1.115386635065078735e-01 5.197731405496597290e-02 5.758183076977729797e-02 -1.564477533102035522e-01 -2.665886282920837402e-01 5.593544989824295044e-02 1.741138403303921223e-03 2.125884592533111572e-02 3.203667327761650085e-02 1.238289289176464081e-02 -5.811057984828948975e-02 2.893673954531550407e-03 -1.946702897548675537e-01 -6.425675004720687866e-02 -3.736831992864608765e-02 5.021262913942337036e-02 1.803883723914623260e-02 -1.387888658791780472e-02 4.919415339827537537e-02 3.853842243552207947e-02 -1.315149366855621338e-01 -5.725983530282974243e-02 -1.081439256668090820e-01 -9.774949401617050171e-02 -1.070157885551452637e-01 -2.072168439626693726e-01 -1.227955985814332962e-02 -1.255860030651092529e-01 -9.878648445010185242e-03 -4.166592285037040710e-02 1.417312957346439362e-02 -5.590907763689756393e-03 -2.117397040128707886e-01 -8.063835650682449341e-02 -9.949051588773727417e-02 -1.666164100170135498e-01 -3.338301554322242737e-02 6.550055742263793945e-02 4.636223893612623215e-03 -3.508476614952087402e-01 -4.644050449132919312e-02 -2.909111082553863525e-01 2.110180212184786797e-03 3.300957009196281433e-02 -7.367218285799026489e-02 -1.437419801950454712e-01 1.779241487383842468e-02 -5.845206975936889648e-02 1.167082227766513824e-02 6.500750035047531128e-02 7.175809890031814575e-02 -6.852274388074874878e-02 -2.228735834360122681e-01 -2.961011826992034912e-01 4.542514681816101074e-02 5.512116011232137680e-03 -1.996025070548057556e-02 -1.082865297794342041e-01 -2.940818369388580322e-01 -3.151856362819671631e-02 -1.957829110324382782e-03 -1.118483096361160278e-01 -2.047100961208343506e-01 2.089618518948554993e-02 1.951877959072589874e-02 1.757884956896305084e-02 5.594013724476099014e-03 6.261489819735288620e-03 3.475701436400413513e-02 7.297714799642562866e-02 5.288132652640342712e-02 -1.119136959314346313e-01 -3.573684096336364746e-01 -1.896254867315292358e-01 6.183818355202674866e-02 -1.935062557458877563e-01 6.054862961173057556e-02 -3.420200049877166748e-01 -2.593790180981159210e-02 1.210533082485198975e-01 -1.290789339691400528e-02 -3.864108026027679443e-02 1.316719409078359604e-02 6.212513428181409836e-03 -2.296883463859558105e-01 4.716870561242103577e-02 1.721303537487983704e-02 3.016134910285472870e-02 -1.386086940765380859e-01 1.970522338524460793e-03 3.286269679665565491e-02 4.851762205362319946e-02 7.114325463771820068e-02 -2.028618156909942627e-01 -2.785449149087071419e-03 -5.735098849982023239e-03 1.080684736371040344e-02 5.504299700260162354e-02 -2.386541850864887238e-02 -2.623982727527618408e-01 -1.160876601934432983e-01 1.845590211451053619e-02 -1.699125617742538452e-01 2.791548334062099457e-02 -2.294587157666683197e-02 -8.259965106844902039e-03 1.876889914274215698e-02 1.685277000069618225e-02 3.038563951849937439e-02 5.993079859763383865e-03 3.291606530547142029e-02 -1.697183772921562195e-02 -1.903766989707946777e-01 -1.852088272571563721e-01 -1.671396382153034210e-02 -2.508997321128845215e-01 -1.311156600713729858e-01 -2.775861881673336029e-02 -1.108845416456460953e-02 -5.258106812834739685e-02 4.276001825928688049e-02 -5.192629992961883545e-03 5.649892240762710571e-02 1.898827729746699333e-03 7.184474170207977295e-02 2.772021107375621796e-02 -6.849382072687149048e-02 -3.563239006325602531e-03 4.168910905718803406e-02 4.673369601368904114e-02 7.258478552103042603e-02 -3.411212190985679626e-02 -3.018439188599586487e-02 -7.906569540500640869e-02 -6.073361262679100037e-02 -2.821410000324249268e-01 -2.955177724361419678e-01 -1.852991245687007904e-02 -3.942523896694183350e-02 -7.564680278301239014e-02 3.592404245864599943e-04 -1.431941092014312744e-01 -2.564170360565185547e-01 -8.649297058582305908e-02 2.021083608269691467e-02 -2.885117828845977783e-01 -3.792829811573028564e-02 2.059251442551612854e-02 -2.083079218864440918e-01 4.035908356308937073e-02 6.956726312637329102e-02 -4.183747246861457825e-02 -4.609229043126106262e-03 -3.854293748736381531e-02 -4.333108663558959961e-02 3.028530860319733620e-03 -1.586341261863708496e-01 2.859020233154296875e-02 -1.361047849059104919e-02 3.142253030091524124e-03 5.393955111503601074e-02 -3.218749761581420898e-01 -1.301231831312179565e-01 7.022735476493835449e-02 -1.049419213086366653e-02 -1.770462542772293091e-01 7.811817340552806854e-03 -3.606085479259490967e-02 -1.683494597673416138e-01 -1.968967914581298828e-01 -2.257114648818969727e-02 -5.662567168474197388e-02 5.066228285431861877e-02 