5.392205785028636456e-04 9.807391092181205750e-03 1.707534771412611008e-03 1.808652468025684357e-02 -9.440483525395393372e-03 -2.075818367302417755e-02 -3.813601285219192505e-02 4.869415533903520554e-06 -5.507131572812795639e-03 1.631746883504092693e-03 -1.345326891168951988e-03 4.852302838116884232e-03 -7.948274142108857632e-04 1.989397918805480003e-03 -2.607327420264482498e-03 -1.219992409460246563e-04 9.555706754326820374e-03 -5.600283388048410416e-03 4.749927669763565063e-03 -6.654927856288850307e-04 1.199069395661354065e-01 1.413264108123257756e-04 -1.717615406960248947e-03 -5.294241418596357107e-05 -3.676376072689890862e-03 -1.659276150166988373e-02 -2.967571839690208435e-03 -3.810670226812362671e-02 -8.465217542834579945e-04 -2.919420134276151657e-03 9.109457954764366150e-03 -1.422363333404064178e-02 -1.191456709057092667e-02 -1.335546141490340233e-03 1.388381235301494598e-02 -3.304436802864074707e-02 -6.355795776471495628e-04 -1.112208329141139984e-02 -8.240470662713050842e-03 1.508072367869317532e-03 -2.338266000151634216e-03 6.239518057554960251e-03 -9.312824904918670654e-02 5.890923552215099335e-03 -7.288736291229724884e-03 4.445676750037819147e-04 -3.651028731837868690e-03 -6.397660821676254272e-03 -1.766447164118289948e-02 -2.397503936663269997e-03 2.094168914481997490e-03 7.628000807017087936e-03 -1.065601245500147343e-03 -4.696611315011978149e-03 2.160147996619343758e-03 -2.604198409244418144e-03 9.185981005430221558e-03 9.758078958839178085e-04 5.226471461355686188e-03 1.236711046658456326e-03 2.272832207381725311e-03 -4.261879250407218933e-02 -7.521294173784554005e-04 1.019082119455561042e-04 -4.075912293046712875e-03 -1.146123930811882019e-02 5.206632195040583611e-04 -7.258769124746322632e-03 -5.530038033612072468e-04 -9.924907237291336060e-03 1.062666648067533970e-03 5.090965423732995987e-03 -8.532514795660972595e-03 1.071490999311208725e-02 1.466164248995482922e-03 2.628251165151596069e-02 -1.717853732407093048e-02 -8.380518108606338501e-02 6.013159290887415409e-04 -3.795869415625929832e-03 1.314975135028362274e-02 -8.311945945024490356e-03 -2.615160495042800903e-02 -5.329993087798357010e-03 -4.025178030133247375e-03 -7.184498477727174759e-03 2.169906161725521088e-02 -9.998853784054517746e-04 -2.085033702314831316e-05 2.597823506221175194e-03 -9.058662690222263336e-04 -9.512476623058319092e-03 2.886595390737056732e-02 -3.545225039124488831e-02 -2.464536763727664948e-02 2.249341458082199097e-03 3.974513150751590729e-03 -1.676722615957260132e-02 -2.776538953185081482e-03 -5.306887323968112469e-04 -4.486290854401886463e-04 -6.924849003553390503e-02 -5.619259551167488098e-03 1.697854138910770416e-02 -3.041820228099822998e-02 -5.265235085971653461e-04 -6.848040223121643066e-02 -3.027143515646457672e-02 -1.532451063394546509e-02 2.397036179900169373e-03 -2.495654113590717316e-02 1.479518879204988480e-02 -1.238832809031009674e-02 -3.904800862073898315e-02 5.452231038361787796e-03 -1.949825207702815533e-03 -7.831099443137645721e-03 -1.012097392231225967e-02 2.587085822597146034e-03 -2.399301901459693909e-02 -1.100335386581718922e-03 -1.063866890035569668e-03 4.890424199402332306e-03 1.762269064784049988e-02 -6.496440153568983078e-03 1.350356638431549072e-02 -3.962374757975339890e-03 -3.467656672000885010e-03 -1.191876921802759171e-02 -8.962629362940788269e-03 -1.236221636645495892e-03 1.126044988632202148e-02 1.322699803858995438e-02 1.323613803833723068e-02 7.986987009644508362e-03 4.399409517645835876e-04 -2.962667495012283325e-02 -2.017869614064693451e-03 -5.157341001904569566e-05 8.553239516913890839e-03 1.289252936840057373e-02 -5.773712322115898132e-02 -7.927159778773784637e-03 -2.852574223652482033e-03 -7.457440719008445740e-03 -6.516948807984590530e-03 5.904099671170115471e-04 -2.645341679453849792e-03 -3.335056360810995102e-03 -2.038874849677085876e-02 -1.761898398399353027e-03 2.050152607262134552e-02 -2.706341911107301712e-03 2.948756096884608269e-03 -6.008203141391277313e-03 -4.894192516803741455e-02 -2.121919021010398865e-02 2.384291263297200203e-03 -9.641841752454638481e-04 5.090774968266487122e-02 -5.992376245558261871e-03 -1.103488802909851074e-01 -5.630920641124248505e-03 7.367345504462718964e-03 1.483836094848811626e-03 -1.482867263257503510e-02 9.601616300642490387e-03 -1.089561614207923412e-03 -6.906911265105009079e-03 -2.882681554183363914e-03 -1.952529535628855228e-03 5.132563528604805470e-04 2.939541591331362724e-03 -1.527963206171989441e-03 -1.100644003599882126e-02 -7.207205053418874741e-03 -9.096697904169559479e-03 7.185788359493017197e-03 -7.013943046331405640e-03 5.400016671046614647e-04 -1.413331832736730576e-02 -1.235772389918565750e-02 -1.142813125625252724e-03 8.254542481154203415e-04 -1.886723004281520844e-02 7.085383869707584381e-03 -3.206235170364379883e-02 -1.477841753512620926e-02 -1.401598658412694931e-02 -1.047438825480639935e-03 2.039412595331668854e-02 -1.224313210695981979e-02 -6.905590742826461792e-02 -8.404826745390892029e-03 -3.795511554926633835e-03 -1.920138113200664520e-02 -9.446374606341123581e-04 -3.741800785064697266e-01 -6.199500523507595062e-03 4.733084642793983221e-04 1.059084315784275532e-03 -7.354471832513809204e-03 3.128553926944732666e-02 6.189050152897834778e-03 -3.934792429208755493e-02 -2.020784281194210052e-02 -1.756717450916767120e-02 4.932651761919260025e-03 6.197055336087942123e-04 1.399362459778785706e-02 -1.314668101258575916e-03 1.964831259101629257e-03 9.013769216835498810e-03 4.517814610153436661e-03 -7.035065442323684692e-02 -9.478961117565631866e-03 -2.156241983175277710e-02 -7.205751258879899979e-03 -1.054078689776360989e-03 2.952963346615433693e-03 1.119203865528106689e-03 -1.349788624793291092e-02 -1.998719759285449982e-02 -1.567832566797733307e-02 -4.734970163553953171e-03 7.671180646866559982e-03 3.203332191333174706e-03 -5.783421453088521957e-03 -4.279733169823884964e-03 -3.288681153208017349e-03 -6.780085153877735138e-03 -1.005910988897085190e-02 2.513825427740812302e-03 7.435203297063708305e-04 1.609020307660102844e-02 -1.538904756307601929e-02 -2.082489617168903351e-02 -3.343261545524001122e-03 -1.222910941578447819e-04 -1.096466835588216782e-02 -3.763780929148197174e-03 -8.394444361329078674e-03 1.607985235750675201e-03 -1.272673136554658413e-03 -2.231187827419489622e-04 2.882666594814509153e-04 4.702199366874992847e-04 3.478154540061950684e-04 -2.279861131682991982e-03 -3.660574322566390038e-03 -6.385840941220521927e-03 -6.780603434890508652e-03 9.154913946986198425e-03 6.285785231739282608e-03 -1.581508107483386993e-02 -7.202956359833478928e-03 -1.031644362956285477e-02 7.075134781189262867e-04 7.412348873913288116e-03 -9.489769116044044495e-03 3.977270796895027161e-03 6.343096494674682617e-02 6.993791088461875916e-03 3.642547875642776489e-03 -1.144725177437067032e-02 -1.365697011351585388e-03 -1.441216561943292618e-03 -2.820004192471969873e-05 1.337775960564613342e-03 -4.372044466435909271e-03 -2.075058873742818832e-03 -6.234766449779272079e-03 1.480888854712247849e-02 -2.785801887512207031e-03 6.232172716408967972e-03 4.286575596779584885e-03 -1.430707401596009731e-03 -8.852638304233551025e-03 -5.466555594466626644e-04 -4.483112570596858859e-05 3.020694013684988022e-03 1.359608722850680351e-03 7.394565618596971035e-04 -4.054475203156471252e-02 -3.210318507626652718e-03 -8.552625775337219238e-03 1.633409992791712284e-03 -1.456826645880937576e-02 -1.913698948919773102e-02 2.688828390091657639e-03 -8.133062161505222321e-03 5.650428123772144318e-03 8.095717057585716248e-04 -1.930412277579307556e-02 9.491570293903350830e-03 -2.917793812230229378e-03 -9.611973538994789124e-03 -4.964791703969240189e-03 -4.623384680598974228e-03 7.539018057286739349e-03 -8.014207705855369568e-03 -7.319612894207239151e-03 -1.637841574847698212e-02 -5.326007492840290070e-03 1.695939688943326473e-03 2.877940889447927475e-03 -2.396710216999053955e-03 1.413904689252376556e-02 1.583234989084303379e-03 4.455224610865116119e-03 -1.366356015205383301e-02 4.011834505945444107e-03 -6.011594552546739578e-03 -7.113349158316850662e-03 -3.685742267407476902e-04 9.848627960309386253e-04 -2.355329226702451706e-03 1.492882892489433289e-02 1.346048805862665176e-02 -1.183685148134827614e-03 3.053688406944274902e-01 2.542205387726426125e-03 -3.623947035521268845e-03 -5.564374150708317757e-04 -1.581133110448718071e-03 -3.925456665456295013e-03 -9.054811298847198486e-02 -6.075655110180377960e-03 2.012795023620128632e-02 7.704476825892925262e-03 -1.300529018044471741e-02 1.060561044141650200e-04 -1.826739311218261719e-02 -7.556368131190538406e-03 -1.365553680807352066e-02 -2.142668701708316803e-02 -2.110767236445099115e-04 6.020881701260805130e-03 -2.646887209266424179e-03 -2.124912478029727936e-02 1.358285080641508102e-03 -8.181496523320674896e-04 -5.631895270198583603e-03 1.362910727038979530e-03 -1.656371750868856907e-03 -4.558766260743141174e-02 2.718617906793951988e-03 -4.223562777042388916e-02 1.239353884011507034e-02 -1.466164179146289825e-02 -6.855007726699113846e-03 1.788613386452198029e-02 -5.759868770837783813e-03 -2.884206548333168030e-02 2.916304171085357666e-01 -2.396325580775737762e-04 1.237938064150512218e-03 -7.430779933929443359e-02 -1.653390005230903625e-02 -1.551469564437866211e-01 -1.097927801311016083e-02 -1.581967435777187347e-02 -4.418253898620605469e-03 -5.138014093972742558e-04 -3.563085803762078285e-03 1.147590577602386475e-02 -1.872547715902328491e-02 -1.013279426842927933e-02 -3.043855912983417511e-02 6.101496517658233643e-02 -1.306176465004682541e-02 -4.628307186067104340e-03 -9.765118360519409180e-03 -5.422854446806013584e-04 -9.231240302324295044e-02 1.668136939406394958e-02 -1.658721640706062317e-02 -2.072669565677642822e-03 -6.829881668090820312e-02 -9.297105483710765839e-03 -9.065354242920875549e-03 -4.565996059682220221e-04 -2.034811303019523621e-03 -1.259485143236815929e-03 -3.318719565868377686e-03 2.312443964183330536e-02 -1.736453734338283539e-02 -2.169668674468994141e-02 1.399115659296512604e-03 -7.214312208816409111e-04 -7.270197966136038303e-05 -1.750508090481162071e-03 -3.184704575687646866e-03 -2.093143388628959656e-02 -4.694640636444091797e-03 -1.689993659965693951e-03 7.196820806711912155e-03 4.901387263089418411e-03 -3.120042616501450539e-03 -5.780642852187156677e-03 -8.656299323774874210e-04 -1.538223470561206341e-03 -1.116037368774414062e-03 3.410187317058444023e-03 1.486874418333172798e-03 -1.388056669384241104e-02 -1.298916339874267578e-02 4.150958731770515442e-03 -1.159092970192432404e-02 2.703539561480283737e-03 -2.319927327334880829e-03 1.120364293456077576e-03 1.079484447836875916e-01 1.307412283495068550e-03 -3.854722678661346436e-01 4.863835405558347702e-03 1.550583448261022568e-02 2.644291998876724392e-05 -2.306999079883098602e-02 -1.487812027335166931e-02 -4.230411723256111145e-03 -9.222876280546188354e-03 2.165081968996673822e-04 -1.834011077880859375e-02 -1.407584920525550842e-02 1.837135758250951767e-03 -3.141442080959677696e-03 -3.901472548022866249e-03 -7.591642439365386963e-03 -1.992385461926460266e-02 -3.991251287516206503e-04 -1.233518240042030811e-03 1.395804993808269501e-02 -1.508667133748531342e-02 -6.302515510469675064e-03 -1.488854829221963882e-02 5.772226955741643906e-03 -1.160152605734765530e-04 4.293175879865884781e-03 8.758311159908771515e-03 -3.098088875412940979e-02 -8.592816069722175598e-03 2.780865319073200226e-02 1.327614579349756241e-02 4.765916615724563599e-03 1.195394992828369141e-02 -2.118687145411968231e-03 2.129688113927841187e-02 -6.103445310145616531e-03 -2.432178938761353493e-03 -8.268517442047595978e-03 7.898793555796146393e-03 1.637246087193489075e-02 -1.083535049110651016e-02 -1.067114900797605515e-02 -1.602957211434841156e-02 -3.174690529704093933e-02 -6.255195010453462601e-03 -5.786014348268508911e-02 5.413206527009606361e-04 -2.004968468099832535e-03 6.072530522942543030e-04 -3.087407350540161133e-01 -1.818022923544049263e-03 2.439409028738737106e-03 1.294482965022325516e-02 -4.075678996741771698e-03 -3.177430480718612671e-03 -9.407875128090381622e-03 -3.526998450979590416e-03 2.578503079712390900e-02 6.937859579920768738e-03 -1.145789306610822678e-02 -1.133629702962934971e-04 -3.395205363631248474e-03 -6.716787815093994141e-03 -7.336955750361084938e-04 1.557655632495880127e-03 1.175233861431479454e-03 2.329661995172500610e-01 -1.719843782484531403e-02 -2.936923876404762268e-02 9.531748481094837189e-03 6.071298383176326752e-03 5.259664729237556458e-03 -1.091556157916784286e-02 -3.274029877502471209e-04 2.196131274104118347e-03 7.114043831825256348e-02 9.079066803678870201e-04 -3.402744978666305542e-02 -3.334500128403306007e-03 -5.294388160109519958e-03 4.388180561363697052e-03 -3.696585074067115784e-03 -2.043458633124828339e-02 7.518045604228973389e-03 1.538309850730001926e-03 -1.186900073662400246e-03 -2.009257208555936813e-03 6.423856131732463837e-03 -2.083420287817716599e-03 1.606577192433178425e-03 -1.755879959091544151e-03 -1.236812793649733067e-03 -2.679607132449746132e-03 6.461576558649539948e-04 6.586674135178327560e-03 2.304354682564735413e-03 -2.780025638639926910e-02 1.956638135015964508e-02 -5.520885810256004333e-03 -4.427937045693397522e-02 3.241868456825613976e-03 1.605906337499618530e-02 9.827048052102327347e-04 -1.871798740467056632e-04 -2.385491039603948593e-03 -7.901916280388832092e-03 -2.713969349861145020e-02 1.456585247069597244e-03 7.599572651088237762e-03 -2.752837352454662323e-02 -1.148147135972976685e-02 -1.180817745625972748e-02 7.607183419167995453e-03 -1.193780553876422346e-04 -5.784200504422187805e-03 4.976950003765523434e-04 -3.187387948855757713e-03 -1.998149789869785309e-02 -5.509001202881336212e-04 6.479201372712850571e-03 -1.460175774991512299e-02 6.270268000662326813e-03 -1.222170144319534302e-02 7.959681563079357147e-03 -4.659377969801425934e-03 -6.979390978813171387e-03 -8.611824363470077515e-02 -2.527957968413829803e-02 1.581990718841552734e-02 -3.313516080379486084e-02 -1.238726079463958740e-02 -1.344418711960315704e-02 -3.584958612918853760e-03 3.846158506348729134e-04 -1.055815257132053375e-02 3.091966733336448669e-03 -3.401660919189453125e-02 -5.985056608915328979e-02 1.090822182595729828e-02 -1.933024637401103973e-02 -3.774283453822135925e-02 -6.530521786771714687e-04 -8.935748599469661713e-03 -2.150400169193744659e-02 1.787372305989265442e-02 -1.991853350773453712e-03 9.564060601405799389e-04 -7.107893470674753189e-03 4.375044954940676689e-04 -4.794118925929069519e-03 6.137070804834365845e-02 -1.458025304600596428e-03 -8.089830516837537289e-04 -3.502928186208009720e-03 -7.777957711368799210e-03 -4.248790442943572998e-03 3.946281503885984421e-03 -2.210791222751140594e-03 -1.122597604990005493e-02 -9.926415979862213135e-03 -1.769941113889217377e-02 -5.359264556318521500e-03 -1.391282770782709122e-02 -5.076124798506498337e-03 3.488716902211308479e-03 -5.905298981815576553e-03 -5.687157623469829559e-03 4.356436431407928467e-03 -1.573768854141235352e+00 -1.086770440451800823e-03 1.013198052532970905e-03 -3.852920234203338623e-02 -8.173590525984764099e-03 -2.329796989215537906e-04 -2.452487707138061523e+00 -3.224323445465415716e-04 -9.916016831994056702e-03 -1.031623315066099167e-02 1.134970411658287048e-02 -9.040121920406818390e-03 -9.137243963778018951e-03 -6.048567593097686768e-03 -1.570199383422732353e-03 1.038781600072979927e-03 1.612550346180796623e-03 -1.074487809091806412e-03 3.755775513127446175e-03 -4.402001854032278061e-03 8.730724453926086426e-03 1.321319583803415298e-02 -3.656766936182975769e-02 -4.555543884634971619e-03 -2.748054452240467072e-02 1.467876718379557133e-03 5.132443271577358246e-03 4.595177597366273403e-04 1.867562346160411835e-02 -3.072679042816162109e-03 -1.078092679381370544e-02 -3.240185603499412537e-02 -1.074227597564458847e-02 -1.440889202058315277e-02 -1.367536024190485477e-03 -1.630997657775878906e-02 -1.284106052480638027e-03 -1.439072750508785248e-02 -6.655074190348386765e-03 3.700209408998489380e-02 -1.595504465512931347e-03 3.386955009773373604e-03 -4.949904541717842221e-05 -4.166781902313232422e-02 4.400492645800113678e-03 -2.976975589990615845e-02 3.019806696102023125e-03 -3.267216961830854416e-03 -1.607647910714149475e-02 2.061640471220016479e-02 4.642255604267120361e-03 3.590575070120394230e-04 -8.867444703355431557e-04 1.046717073768377304e-02 1.949384808540344238e-03 -2.163952402770519257e-02 -1.094099949114024639e-03 1.133842510171234608e-03 -4.459276795387268066e-01 6.886658724397420883e-03 -9.057833813130855560e-04 -4.183413984719663858e-04 9.715512860566377640e-04 -9.692420251667499542e-03 -4.913163371384143829e-03 -1.159400213509798050e-03 1.587724662385880947e-03 6.659997743554413319e-04 2.163432538509368896e-03 1.732336729764938354e-02 -2.905941335484385490e-03 -1.465105079114437103e-02 -8.318394538946449757e-04 4.465965926647186279e-02 1.627004705369472504e-03 -4.700351972132921219e-03 -1.196517143398523331e-02 -5.939445924013853073e-03 -1.100191613659262657e-03 -5.490684881806373596e-03 7.027510553598403931e-03 -8.046637289226055145e-03 3.051637113094329834e-02 -2.580004511401057243e-03 2.519674133509397507e-03 3.799597499892115593e-03 -4.817629524040967226e-04 -3.894399479031562805e-02 -7.917577400803565979e-03 8.794294670224189758e-03 -6.741370074450969696e-03 -1.745917648077011108e-02 -1.753161312080919743e-03 -8.021248504519462585e-03 8.791781147010624409e-04 4.118440207093954086e-03 -2.704617567360401154e-02 8.035358041524887085e-04 2.385324041824787855e-04 5.834774579852819443e-03 -2.077004639431834221e-03 1.162837352603673935e-02 7.174140191636979580e-04 -2.197894500568509102e-03 -8.941456675529479980e-03 5.118290428072214127e-03 -5.294790957123041153e-03 -6.058710627257823944e-03 -7.726175244897603989e-03 1.257736119441688061e-03 9.146103635430335999e-03 6.210277322679758072e-03 -7.619830965995788574e-02 -1.457604207098484039e-02 4.498162772506475449e-03 -3.043041564524173737e-03 -1.151001546531915665e-03 -9.414598345756530762e-03 -7.103411015123128891e-03 -2.792209573090076447e-02 -8.352492935955524445e-03 -3.015814290847629309e-04 6.146077532321214676e-03 -6.881214678287506104e-03 -1.128847897052764893e-02 -2.295070444233715534e-04 -6.891123484820127487e-04 -8.931981399655342102e-03 -3.818042750936001539e-04 -4.687647335231304169e-03 -2.384367212653160095e-02 -1.511090155690908432e-02 -3.275936935096979141e-03 -6.119569391012191772e-02 -5.832278169691562653e-03 -2.394134178757667542e-02 -4.187869373708963394e-03 -2.032256918027997017e-03 -1.241477485746145248e-02 -1.749208080582320690e-03 1.573585718870162964e-02 2.736976137384772301e-03 2.909703413024544716e-03 2.024132944643497467e-02 2.593900309875607491e-03 8.100818842649459839e-03 -2.743371389806270599e-02 7.224860135465860367e-03 5.880673998035490513e-04 1.396662672050297260e-03 7.527683861553668976e-03 -2.500595990568399429e-03 -5.894151981920003891e-04 -4.727150872349739075e-02 -2.174149639904499054e-02 -4.644753877073526382e-03 6.091304589062929153e-03 -2.466746047139167786e-02 -7.158191292546689510e-04 3.785203211009502411e-03 2.784435404464602470e-03 -3.291839733719825745e-02 9.256078861653804779e-03 8.606315590441226959e-03 -7.139415014535188675e-03 -3.442248329520225525e-02 6.852051010355353355e-04 8.494603447616100311e-03 -3.272754140198230743e-03 3.328683972358703613e-02 -5.869877338409423828e-02 2.057337951555382460e-05 2.797850407660007477e-03 -3.095428692176938057e-04 1.284607965499162674e-02 -1.021531526930630207e-03 -6.423976272344589233e-03 -6.935297977179288864e-03 -4.061527550220489502e-03 -8.488083258271217346e-04 9.213474113494157791e-04 2.210590615868568420e-02 6.319526117295026779e-03 1.123027317225933075e-02 -7.140235975384712219e-03 4.900134634226560593e-03 9.820717386901378632e-03 -4.703514277935028076e-03 1.473803858971223235e-04 -9.117070585489273071e-03 -8.250985294580459595e-03 1.090688630938529968e-03 1.427271589636802673e-02 1.033876556903123856e-03 -1.467483234591782093e-03 9.850829374045133591e-04 -9.620011551305651665e-04 -4.382142424583435059e-02 -4.027303773909807205e-03 -6.952252238988876343e-02 -2.489120885729789734e-02 -7.141170091927051544e-03 -3.986315336078405380e-03 -6.522735580801963806e-03 -1.022536307573318481e-02 -7.359178271144628525e-04 -6.209151074290275574e-02 5.299351178109645844e-04 -5.847878754138946533e-03 -1.893091015517711639e-02 -1.809417735785245895e-04 -1.427127793431282043e-02 2.339232480153441429e-03 -2.454781206324696541e-03 -1.371091231703758240e-02 -6.123156286776065826e-03 3.402582602575421333e-03 4.620447754859924316e-02 5.494275595992803574e-03 -6.601821514777839184e-04 -4.446383193135261536e-02 -2.469503283500671387e-01 -1.584170199930667877e-02 1.365772075951099396e-02 4.223184194415807724e-03 -4.014802165329456329e-03 1.867508888244628906e-02 -1.225860760314390063e-04 1.151904929429292679e-03 1.787139475345611572e-02 2.314934274181723595e-03 -3.986165393143892288e-03 -1.801662147045135498e-03 -8.264793455600738525e-02 -7.337384391576051712e-03 -1.874353177845478058e-02 -1.780966669321060181e-01 -1.016146736219525337e-03 1.080402871593832970e-03 -5.193623527884483337e-02 -2.105069579556584358e-03 7.668578065931797028e-03 -5.605982244014739990e-02 5.554088857024908066e-04 -1.812481088563799858e-03 7.349812676693545654e-06 -7.506888359785079956e-02 -7.249983609654009342e-04 -8.563430979847908020e-03 2.604687772691249847e-02 -4.821057990193367004e-02 6.201846525073051453e-03 -1.005231752060353756e-03 2.174803055822849274e-03 -1.004521828144788742e-02 1.865913392975926399e-03 -5.904392339289188385e-03 -1.165596675127744675e-02 -1.146218925714492798e-02 6.058862060308456421e-02 -1.692488789558410645e-02 5.689329002052545547e-03 -2.730002999305725098e-02 -4.096577875316143036e-03 1.465689856559038162e-03 8.982487022876739502e-03 7.862354686949402094e-05 5.890139844268560410e-03 -8.114107884466648102e-03 5.871405359357595444e-03 1.472553517669439316e-02 -3.000695817172527313e-02 -7.922588847577571869e-04 7.243639323860406876e-03 -1.618332974612712860e-02 -1.741794869303703308e-03 9.624985046684741974e-03 2.259872853755950928e-02 4.515659064054489136e-03 -1.111642085015773773e-02 9.482406079769134521e-03 -3.555375151336193085e-04 6.763833225704729557e-04 3.137033127131871879e-05 1.729124225676059723e-02 -1.723006367683410645e-02 -4.440374299883842468e-02 4.939540755003690720e-03 -2.027399139478802681e-03 2.767051570117473602e-02 -2.615684866905212402e-01 -1.237273536389693618e-04 -9.483340196311473846e-03 -4.711965157184749842e-04 4.003762442152947187e-04 -3.445237874984741211e-03 -4.864433314651250839e-03 -2.249987795948982239e-02 -8.850546146277338266e-05 -4.394942428916692734e-03 -3.887711465358734131e-02 4.617401864379644394e-04 -2.061687409877777100e-02 -6.250623147934675217e-03 -1.651219092309474945e-03 1.062829606235027313e-02 -2.116140536963939667e-02 -2.454038767609745264e-04 -8.828601241111755371e-02 -6.087859626859426498e-03 -8.454543538391590118e-03 -1.448567390441894531e+00 1.934546381235122681e-01 -3.236260637640953064e-02 2.155484398826956749e-03 5.384378018788993359e-04 -2.395402952970471233e-05 -8.282593335025012493e-04 -8.684776723384857178e-03 -1.496160123497247696e-02 -2.082512900233268738e-02 -6.003831513226032257e-03 4.351859446614980698e-03 -2.281828224658966064e-02 6.111097987741231918e-03 3.583241486921906471e-03 3.585970699787139893e-01 -3.733668127097189426e-04 -1.604836806654930115e-02 -1.040477491915225983e-02 -1.088266726583242416e-02 4.538138397037982941e-03 -3.028308600187301636e-02 5.557457916438579559e-04 -2.636702358722686768e-02 -8.722369238967075944e-05 -1.471556373871862888e-03 2.927925437688827515e-02 5.929379258304834366e-03 9.918247815221548080e-05 -5.611237138509750366e-03 4.502453666646033525e-04 -2.152984234271571040e-04 -4.686627164483070374e-02 1.309476210735738277e-03 1.172727555967867374e-03 -7.019128650426864624e-03 1.044836733490228653e-02 -2.507334342226386070e-03 -1.604691296815872192e-01 -1.356677338480949402e-02 7.597145740874111652e-04 -2.525676973164081573e-02 1.779338112100958824e-03 1.687030075117945671e-03 6.666252156719565392e-04 -1.154793798923492432e-02 3.217893186956644058e-03 2.231713850051164627e-03 -1.982918474823236465e-03 -1.024349220097064972e-02 -1.951421424746513367e-02 -1.101896166801452637e-02 9.223339147865772247e-03 -2.003686036914587021e-03 9.985770098865032196e-03 -1.985178794711828232e-03 5.835069809108972549e-03 9.613130241632461548e-04 3.980639204382896423e-02 -3.656449913978576660e-02 4.679362289607524872e-03 -3.240936202928423882e-04 -2.306021749973297119e-02 -3.565858060028403997e-04 -1.828215569257736206e-01 -8.242850191891193390e-03 -1.521273225080221891e-04 -4.366601258516311646e-02 1.645966316573321819e-03 -9.481697343289852142e-03 -3.756573889404535294e-03 -5.549526773393154144e-03 1.905036717653274536e-02 5.671061873435974121e-01 -1.568106748163700104e-02 -3.658415051177144051e-03 -7.318984717130661011e-04 -4.277904517948627472e-03 -8.443102985620498657e-02 1.736436533974483609e-04 6.628002505749464035e-03 2.277216687798500061e-02 4.029729170724749565e-04 -1.724765449762344360e-01 -6.064684712328016758e-04 1.462861691834405065e-04 -4.583634901791810989e-03 4.208466038107872009e-03 -2.018640516325831413e-03 -6.872836500406265259e-03 1.100506260991096497e-02 -3.643336473032832146e-03 -1.060924399644136429e-02 -4.233320709317922592e-03 2.309471368789672852e-03 1.529746106825768948e-03 -1.349888741970062256e-03 -2.224033232778310776e-03 5.727230571210384369e-03 -9.725120617076754570e-04 -2.736800909042358398e-02 -3.646592423319816589e-02 -7.979573681950569153e-03 -2.595282159745693207e-03 -4.506027791649103165e-03 3.000506758689880371e-01 -1.152769755572080612e-02 -6.864381488412618637e-03
7.638646960258483887e-01 1.363089829683303833e-01 2.753391563892364502e-01 4.909506440162658691e-02 2.472841888666152954e-01 1.993432193994522095e-01 1.922307610511779785e-01 9.906995296478271484e-01 6.290757656097412109e-01 5.005422830581665039e-01 9.553284645080566406e-01 7.233675122261047363e-01 9.250502586364746094e-01 8.776519894599914551e-01 9.594437479972839355e-01 2.332978248596191406e-01 4.709593057632446289e-01 7.421478033065795898e-01 6.191606521606445312e-01 8.934201002120971680e-01 2.572870850563049316e-01 6.604161262512207031e-01 3.146151900291442871e-01 9.859772920608520508e-01 6.255858540534973145e-01 6.669147014617919922e-01 9.051373600959777832e-01 1.589662879705429077e-01 9.582211971282958984e-01 2.085967510938644409e-01 6.012118458747863770e-01 7.735123038291931152e-01 5.013212561607360840e-01 9.577550292015075684e-01 4.149547815322875977e-01 4.448243081569671631e-01 8.911648392677307129e-01 4.999774098396301270e-01 6.707468628883361816e-01 2.147002965211868286e-01 1.894455999135971069e-01 2.288406044244766235e-01 3.343312144279479980e-01 6.141085643321275711e-03 2.025793939828872681e-01 9.592629671096801758e-01 5.045558214187622070e-01 8.621226549148559570e-01 5.293043255805969238e-01 6.257905364036560059e-01 1.076361164450645447e-02 2.196602672338485718e-01 7.820667624473571777e-01 6.229971647262573242e-01 8.282956480979919434e-01 6.054992079734802246e-01 5.594393610954284668e-01 9.456707239151000977e-01 2.627961151301860809e-02 9.038807749748229980e-01 5.038184523582458496e-01 6.574065089225769043e-01 4.213951528072357178e-01 9.908636808395385742e-01 8.628235459327697754e-01 5.612961649894714355e-01 6.395526528358459473e-01 6.223919391632080078e-01 7.145690917968750000e-01 6.856925487518310547e-01 2.208685725927352905e-01 6.026395559310913086e-01 4.823603034019470215e-01 5.481052994728088379e-01 7.878795862197875977e-01 2.165837679058313370e-03 3.458288609981536865e-01 7.907394319772720337e-02 9.125124812126159668e-01 8.300619721412658691e-01 1.732897907495498657e-01 4.512771666049957275e-01 5.747168064117431641e-01 6.996549367904663086e-01 6.662819981575012207e-01 8.680316805839538574e-02 5.969493985176086426e-01 3.419991731643676758e-01 1.000963687896728516e+00 1.222688481211662292e-01 9.098812937736511230e-01 7.901238799095153809e-01 2.100216895341873169e-01 3.527680635452270508e-01 5.172626972198486328e-01 8.289044499397277832e-01 9.438068419694900513e-02 3.360050916671752930e-01 3.306703269481658936e-01 8.673377037048339844e-01 3.692929744720458984e-01 3.375151008367538452e-02 2.434533089399337769e-01 5.074288323521614075e-02 2.568999305367469788e-02 6.649931669235229492e-01 9.826847910881042480e-02 3.143788874149322510e-01 1.343915909528732300e-01 7.838059067726135254e-01 1.995606422424316406e-01 2.158683389425277710e-01 6.352286934852600098e-01 2.467591464519500732e-01 5.855111479759216309e-01 6.684381961822509766e-01 7.409500479698181152e-01 3.645769059658050537e-01 8.713760375976562500e-01 2.063140869140625000e-01 9.391358494758605957e-01 9.503042101860046387e-01 7.120662927627563477e-01 2.565911114215850830e-01 1.121935993432998657e-01 6.201086044311523438e-01 6.512755751609802246e-01 4.973350763320922852e-01 5.576469302177429199e-01 5.688564181327819824e-01 6.313169598579406738e-01 7.374110221862792969e-01 5.078359246253967285e-01 2.409751415252685547e-01 5.872994661331176758e-01 4.908539950847625732e-01 5.392742753028869629e-01 8.194899559020996094e-01 1.806947439908981323e-01 1.414729207754135132e-01 5.499384999275207520e-01 2.423735707998275757e-01 5.045904517173767090e-01 2.899166047573089600e-01 7.005249261856079102e-01 1.072183623909950256e-01 9.600216746330261230e-01 8.747462630271911621e-01 2.358340322971343994e-01 2.505092620849609375e-01 8.348095417022705078e-01 5.657508373260498047e-01 8.763343691825866699e-01 4.287942051887512207e-01 8.273085951805114746e-01 4.119828641414642334e-01 2.821413874626159668e-01 9.262813329696655273e-01 5.906154513359069824e-01 1.474410109221935272e-02 1.406348347663879395e-01 1.377464681863784790e-01 7.243052721023559570e-01 7.127275466918945312e-01 8.864585161209106445e-01 2.707481384277343750e-01 8.795729279518127441e-02 8.943949341773986816e-01 2.183257415890693665e-02 6.875468492507934570e-01 7.440494298934936523e-01 4.755809605121612549e-01 5.556395649909973145e-01 9.663591980934143066e-01 2.691546678543090820e-01 4.070809781551361084e-01 1.691252291202545166e-01 9.751123934984207153e-02 3.483723402023315430e-01 8.819776773452758789e-01 3.247731626033782959e-01 1.016572117805480957e-01 2.668437659740447998e-01 7.520912289619445801e-01 1.160251945257186890e-01 1.798957735300064087e-01 4.698825776576995850e-01 6.319894194602966309e-01 1.193159148097038269e-01 8.925933837890625000e-01 6.875341758131980896e-03 1.941244490444660187e-02 1.805415749549865723e-01 3.891696035861968994e-01 4.370614886283874512e-01 8.724961429834365845e-02 9.197602868080139160e-01 -2.812005579471588135e-01 9.986460953950881958e-02 8.423515558242797852e-01 9.432929754257202148e-01 1.995629072189331055e-01 4.551031626760959625e-03 1.786098778247833252e-01 6.836594939231872559e-01 2.320789098739624023e-01 3.963701725006103516e-01 7.566114664077758789e-01 3.529540002346038818e-01 5.686355233192443848e-01 6.252381205558776855e-01 8.646191358566284180e-01 5.546668171882629395e-01 4.764505028724670410e-01 3.865183591842651367e-01 2.442765384912490845e-01 1.688311994075775146e-02 6.860937476158142090e-01 3.662731647491455078e-01 6.662181615829467773e-01 3.063006997108459473e-01 9.193762391805648804e-02 1.118502393364906311e-01 3.222765028476715088e-01 5.828806757926940918e-01 6.881518959999084473e-01 7.922759056091308594e-01 4.222704470157623291e-01 9.133626818656921387e-01 2.800923287868499756e-01 2.816974520683288574e-01 5.718351528048515320e-02 8.929826021194458008e-01 3.589356243610382080e-01 6.122373342514038086e-01 1.457613706588745117e-01 3.563794791698455811e-01 2.523512840270996094e-01 7.377756834030151367e-01 7.829357385635375977e-01 3.494566679000854492e-01 3.176452219486236572e-01 6.098064780235290527e-01 9.783383011817932129e-01 9.963344335556030273e-01 8.223962783813476562e-01 1.402016431093215942e-01 6.552067995071411133e-01 9.116080403327941895e-02 9.466314911842346191e-01 2.407186329364776611e-01 8.406931757926940918e-01 6.714057326316833496e-01 2.722190618515014648e-01 3.172897994518280029e-01 5.650281310081481934e-01 2.937495335936546326e-02 8.172820806503295898e-01 7.717122435569763184e-01 6.823395192623138428e-02 7.023050189018249512e-01 2.866797447204589844e-01 6.081756353378295898e-01 5.501776933670043945e-01 3.265490531921386719e-01 3.953421115875244141e-01 8.852346539497375488e-01 5.291960239410400391e-01 8.652235567569732666e-02 3.762386441230773926e-01 8.353074193000793457e-01 5.905337333679199219e-01 3.964030742645263672e-01 8.250005841255187988e-01 7.819037139415740967e-02 8.049031347036361694e-02 2.339097708463668823e-01 7.428191900253295898e-01 9.268441200256347656e-01 9.980812072753906250e-01 8.368964195251464844e-01 8.029201030731201172e-01 9.151634573936462402e-01 1.298675239086151123e-01 5.258639454841613770e-01 1.382268685847520828e-02 5.040677189826965332e-01 1.857872456312179565e-01 2.112414687871932983e-01 4.346698820590972900e-01 1.245139259845018387e-02 2.887167930603027344e-01 9.221524596214294434e-01 5.463171601295471191e-01 5.288695544004440308e-02 9.486287087202072144e-02 4.166214466094970703e-01 6.344969272613525391e-01 2.131016999483108521e-01 3.682366311550140381e-01 4.073972105979919434e-01 5.053242444992065430e-01 2.088415473699569702e-01 7.729526758193969727e-01 2.303270250558853149e-01 3.044092059135437012e-01 7.280513644218444824e-01 2.142447233200073242e-01 9.154416322708129883e-01 6.684560775756835938e-01 2.246750444173812866e-01 1.213471125811338425e-02 8.007424473762512207e-01 7.949890494346618652e-01 1.801746040582656860e-01 9.312234520912170410e-01 5.572038292884826660e-01 4.117945730686187744e-01 4.677898883819580078e-01 9.838119894266128540e-02 2.407500445842742920e-01 8.744519948959350586e-01 1.444605588912963867e-01 2.565400302410125732e-01 8.527753353118896484e-01 5.200152993202209473e-01 1.002043709158897400e-01 3.723597526550292969e-01 3.779850527644157410e-02 2.369774430990219116e-01 8.244217634201049805e-01 5.532546713948249817e-02 7.000531554222106934e-01 2.066780179738998413e-01 3.465600907802581787e-01 3.834892213344573975e-01 9.931565523147583008e-01 -1.233668532222509384e-03 8.458625078201293945e-01 5.917230248451232910e-02 2.102893590927124023e-01 9.622222781181335449e-01 8.023295998573303223e-01 9.224123358726501465e-01 9.693746566772460938e-01 6.871138513088226318e-02 8.329039812088012695e-01 2.286956459283828735e-02 6.435719728469848633e-01 3.824106156826019287e-01 6.319680809974670410e-01 4.460014104843139648e-01 4.609286487102508545e-01 2.212966792285442352e-02 2.773900926113128662e-01 6.583258509635925293e-01 9.587729573249816895e-01 2.037272751331329346e-01 2.542784214019775391e-01 4.359627068042755127e-01 4.909050092101097107e-02 2.527276873588562012e-01 3.951478302478790283e-01 6.836300343275070190e-02 3.446285426616668701e-01 5.214782953262329102e-01 3.337838649749755859e-01 3.337487876415252686e-01 4.651424884796142578e-01 5.219951272010803223e-01 9.444659352302551270e-01 8.472025990486145020e-01 2.684640325605869293e-02 3.769373595714569092e-01 5.591868236660957336e-02 2.077127844095230103e-01 2.899645566940307617e-01 8.702650070190429688e-01 6.684751510620117188e-01 4.989249408245086670e-01 9.401273131370544434e-01 8.142536878585815430e-01 9.489660263061523438e-01 6.846498847007751465e-01 2.106495946645736694e-02 1.415400672703981400e-02 4.113873839378356934e-01 3.509250581264495850e-01 4.106979966163635254e-01 3.553630411624908447e-01 9.219079613685607910e-01 2.670586407184600830e-01 5.794893503189086914e-01 6.386372447013854980e-02 7.516716718673706055e-01 6.134483218193054199e-01 3.882845640182495117e-01 1.301358938217163086e-01 6.444575637578964233e-02 7.941929697990417480e-01 9.029961377382278442e-02 7.508805990219116211e-01 6.293196231126785278e-02 6.117562055587768555e-01 4.208970367908477783e-01 1.218588426709175110e-01 6.401534192264080048e-03 5.214670300483703613e-01 8.265399336814880371e-01 7.801548242568969727e-01 2.365075796842575073e-02 7.743939757347106934e-01 1.606848984956741333e-01 5.675690174102783203e-01 1.718751713633537292e-02 6.170625090599060059e-01 2.104286849498748779e-01 9.906033277511596680e-01 2.687144279479980469e-01 2.263467609882354736e-01 7.196719050407409668e-01 5.681719258427619934e-02 7.650364637374877930e-01 3.353056609630584717e-01 2.861506640911102295e-01 6.117132902145385742e-01 4.060596525669097900e-01 5.693059563636779785e-01 4.701323807239532471e-02 5.973939299583435059e-01 3.392482697963714600e-01 9.197052121162414551e-01 2.978871390223503113e-02 5.263113602995872498e-02 2.236739248037338257e-01 4.731140732765197754e-01 4.524154067039489746e-01 9.435282945632934570e-01 8.429488539695739746e-01 2.780326604843139648e-01 7.780544161796569824e-01 8.838964700698852539e-01 4.205361381173133850e-02 2.565710842609405518e-01 7.935154438018798828e-01 5.548435449600219727e-01 8.310630321502685547e-01 8.311823010444641113e-02 4.072745144367218018e-01 9.751783013343811035e-01 1.820137500762939453e-01 4.109362661838531494e-01 2.113243639469146729e-01 7.984355092048645020e-01 5.695499777793884277e-01 1.438676267862319946e-01 3.517898619174957275e-01 5.919307470321655273e-01 1.238291710615158081e-01 5.889132022857666016e-01 3.884183764457702637e-01 8.032390475273132324e-01 2.829007506370544434e-01 2.524658739566802979e-01 7.860026359558105469e-01 5.660789459943771362e-02 5.931503176689147949e-01 6.012075543403625488e-01 1.085167452692985535e-01 8.380523920059204102e-01 5.770013928413391113e-01 6.774068474769592285e-01 6.062159538269042969e-01 7.808818817138671875e-01 5.188338160514831543e-01 4.929285943508148193e-01 4.808462858200073242e-01 8.134724497795104980e-01 9.322891235351562500e-01 2.641178667545318604e-01 1.523526459932327271e-01 7.788149118423461914e-01 2.452012598514556885e-01 4.709318876266479492e-01 7.439453601837158203e-01 2.017024457454681396e-01 9.459235072135925293e-01 6.995643377304077148e-01 3.871150314807891846e-01 8.843611478805541992e-01 1.189375072717666626e-01 3.468289971351623535e-01 3.710201084613800049e-01 4.479307234287261963e-01 5.563647150993347168e-01 6.398937851190567017e-02 2.912493050098419189e-01 8.801265954971313477e-01 6.728833317756652832e-01 6.179770827293395996e-01 6.190344691276550293e-01 7.759127020835876465e-01 9.335548877716064453e-01 7.942672967910766602e-01 8.275790214538574219e-01 9.196962118148803711e-01 9.493801593780517578e-01 6.921747922897338867e-01 8.030998706817626953e-02 7.113355994224548340e-01 8.774224668741226196e-03 1.108972802758216858e-01 6.741869449615478516e-01 3.515667617321014404e-01 1.668560802936553955e-01 7.809377312660217285e-01 9.371012449264526367e-01 8.618931174278259277e-01 8.029756546020507812e-01 3.042739629745483398e-01 4.356586635112762451e-01 5.848033428192138672e-01 3.820683807134628296e-02 3.716139793395996094e-01 5.741519927978515625e-01 2.165986448526382446e-01 6.297329068183898926e-01 3.834210038185119629e-01 4.469194710254669189e-01 4.054701328277587891e-01 3.664975762367248535e-01 9.164153933525085449e-01 6.360995173454284668e-01 4.994367957115173340e-01 1.617177948355674744e-02 4.741712510585784912e-01 5.537772774696350098e-01 3.702914118766784668e-01 4.979787766933441162e-01 4.753619134426116943e-01 5.838978886604309082e-01 4.316698908805847168e-01 1.115937530994415283e-01 5.787934660911560059e-01 4.196107089519500732e-01 3.424628674983978271e-01 6.871533989906311035e-01 6.491501927375793457e-01 5.420913696289062500e-01 5.221629515290260315e-02 5.770703554153442383e-01 3.865929245948791504e-01 5.822211503982543945e-01 7.028922438621520996e-02 8.256828188896179199e-01 4.465659856796264648e-01 8.668997883796691895e-02 8.544263243675231934e-02 8.962626457214355469e-01 8.198564052581787109e-01 7.582599520683288574e-01 5.698407888412475586e-01 5.184707641601562500e-01 1.626366227865219116e-01 9.793484807014465332e-01 8.599757552146911621e-01 3.211993873119354248e-01 6.526695489883422852e-01 5.261783599853515625e-01 7.520706057548522949e-01 8.978063464164733887e-01 8.963689208030700684e-01 8.147134780883789062e-01 1.403355300426483154e-01 4.303557872772216797e-01 6.650382876396179199e-01 6.482056379318237305e-01 3.686504662036895752e-01 3.728434145450592041e-01 4.192335009574890137e-01 6.269794106483459473e-01 -3.895357549190521240e-01 9.013931155204772949e-01 7.940250635147094727e-01 5.247406288981437683e-02 8.193239569664001465e-01 9.553861021995544434e-01 -2.714715301990509033e-01 5.309478044509887695e-01 5.079721808433532715e-01 8.651006817817687988e-01 1.058571711182594299e-01 4.280274808406829834e-01 3.055803477764129639e-01 8.092314004898071289e-01 8.353962302207946777e-01 9.626792073249816895e-01 6.997905969619750977e-01 8.682981133460998535e-01 1.112114731222391129e-02 8.099784255027770996e-01 4.644013047218322754e-01 1.970693320035934448e-01 3.863280639052391052e-02 9.253820776939392090e-01 6.962316483259201050e-02 7.348183393478393555e-01 2.686809301376342773e-01 9.763286113739013672e-01 4.114443957805633545e-01 7.462543845176696777e-01 2.813348174095153809e-01 5.930054187774658203e-01 2.483741007745265961e-02 1.240126490592956543e-01 8.731246590614318848e-01 8.359223604202270508e-02 7.921594977378845215e-01 2.791796065866947174e-02 9.299531579017639160e-02 6.923948228359222412e-02 7.305747866630554199e-01 8.681708574295043945e-01 9.343423843383789062e-01 1.868887990713119507e-01 7.277930378913879395e-01 1.261804848909378052e-01 3.935611546039581299e-01 2.463160604238510132e-01 5.705842748284339905e-02 1.606814861297607422e-01 8.484848737716674805e-01 6.548609733581542969e-01 9.466710090637207031e-01 5.006454586982727051e-01 1.096672490239143372e-01 5.363157987594604492e-01 9.704813957214355469e-01 5.823360085487365723e-01 4.217689633369445801e-01 5.730035901069641113e-01 9.808459877967834473e-01 5.584304332733154297e-01 9.763633608818054199e-01 8.784345388412475586e-01 3.935791254043579102e-01 9.193783402442932129e-01 7.363508343696594238e-01 8.326693773269653320e-01 9.023111313581466675e-02 1.098783016204833984e-01 6.952070593833923340e-01 7.565475702285766602e-01 9.186465144157409668e-01 6.558412313461303711e-02 8.247206211090087891e-01 5.226105451583862305e-01 7.019027471542358398e-01 2.868704870343208313e-02 2.894377708435058594e-01 6.578850746154785156e-01 6.064476370811462402e-01 4.871707856655120850e-01 1.156776100397109985e-01 2.578618228435516357e-01 8.174531459808349609e-01 4.200818762183189392e-02 9.632231295108795166e-02 1.379355788230895996e-01 2.346142530441284180e-01 4.978753626346588135e-01 2.571301162242889404e-02 7.523943781852722168e-01 1.349110454320907593e-01 3.187614083290100098e-01 8.121596574783325195e-01 8.085947632789611816e-01 1.657705754041671753e-01 8.676558136940002441e-01 5.906405299901962280e-02 3.075356185436248779e-01 8.332183957099914551e-01 6.180100440979003906e-01 8.037480115890502930e-01 4.851371049880981445e-01 6.180309653282165527e-01 3.229829072952270508e-01 3.220274448394775391e-01 6.711390018463134766e-01 4.266821146011352539e-01 8.636367321014404297e-01 5.560651421546936035e-01 5.631979107856750488e-01 2.439007163047790527e-01 5.963904261589050293e-01 1.157405152916908264e-01 4.335837662220001221e-01 2.803623974323272705e-01 7.593413591384887695e-01 3.859258890151977539e-01 6.305791437625885010e-02 2.909693419933319092e-01 8.327900171279907227e-01 7.762998938560485840e-01 5.987009778618812561e-02 3.637458682060241699e-01 9.582731127738952637e-01 9.736951589584350586e-01 4.497866630554199219e-01 8.999685645103454590e-01 7.724557518959045410e-01 7.449665665626525879e-01 7.148556113243103027e-01 6.210393905639648438e-01 3.595602810382843018e-01 7.661787867546081543e-01 7.465145587921142578e-01 2.767267264425754547e-02 1.760123819112777710e-01 4.550286233425140381e-01 8.883651494979858398e-01 1.288808695971965790e-02 2.571932673454284668e-01 8.158415555953979492e-01 1.278415918350219727e-01 7.264366149902343750e-01 5.236114561557769775e-02 2.262411825358867645e-02 6.004462242126464844e-01 4.777815341949462891e-01 3.754676878452301025e-01 3.844044804573059082e-01 7.513307929039001465e-01 7.436007261276245117e-02 3.918701112270355225e-01 2.488690316677093506e-01 9.441128969192504883e-01 9.682910889387130737e-02 2.362224757671356201e-01 7.761122584342956543e-01 4.315135776996612549e-01 8.472614884376525879e-01 1.802584081888198853e-01 2.013113945722579956e-01 2.220891788601875305e-02 2.204844951629638672e-01 2.000505179166793823e-01 8.987011909484863281e-01 4.506144523620605469e-01 7.026533484458923340e-01 4.942338168621063232e-02 1.843736767768859863e-01 9.825371503829956055e-01 2.334804683923721313e-01 4.405977129936218262e-01 4.132356643676757812e-01 8.694174289703369141e-01 6.882064938545227051e-01 8.585621714591979980e-01 5.777390673756599426e-02 9.541728496551513672e-01 6.344167590141296387e-01 4.210940748453140259e-02 6.710296869277954102e-01 1.674537211656570435e-01 2.526075243949890137e-01 7.198031544685363770e-01 4.827848970890045166e-01 2.190863043069839478e-01 8.544781208038330078e-01 2.569708228111267090e-01 2.675223946571350098e-01 6.948593854904174805e-01 4.842150211334228516e-01 9.743986725807189941e-01 9.086263775825500488e-01 9.320550560951232910e-01 9.748908877372741699e-01 7.604306936264038086e-01 5.696125030517578125e-01 3.664648830890655518e-01 7.039042115211486816e-01 3.054986894130706787e-01 6.698494553565979004e-01 6.633443832397460938e-01 2.438327968120574951e-01 3.148579895496368408e-01 6.189268827438354492e-01 9.074795246124267578e-01 7.002056837081909180e-01 1.346933543682098389e-01 9.502738714218139648e-01 1.230349689722061157e-01 6.056913733482360840e-01 5.403298139572143555e-01 2.797429263591766357e-01 6.308723688125610352e-01 9.286457896232604980e-01 8.769257366657257080e-02 2.863486409187316895e-01 7.602427005767822266e-01 2.965414524078369141e-01 1.803754717111587524e-01 2.247200906276702881e-01 4.865967929363250732e-01 7.188226580619812012e-01 3.896760046482086182e-01 4.701253399252891541e-02 9.659556150436401367e-01 3.439951837062835693e-01 1.657820343971252441e-01 8.839659690856933594e-01 8.729252219200134277e-01 9.593938589096069336e-01 5.224233269691467285e-01 4.086496531963348389e-01 4.039135873317718506e-01 1.518623381853103638e-01 3.788357377052307129e-01 9.581001996994018555e-01 3.182287514209747314e-01 8.533228039741516113e-01 1.094639971852302551e-01 2.855045497417449951e-01 9.757070541381835938e-01 8.175786733627319336e-01 9.643463492393493652e-01 1.103908643126487732e-01 6.984733939170837402e-01 3.283520340919494629e-01 8.833220601081848145e-02 2.514918148517608643e-01 1.166734546422958374e-01 6.765229105949401855e-01 8.840335011482238770e-01 1.539599895477294922e-01 2.348711490631103516e-01 1.741555482149124146e-01 1.840772181749343872e-01 1.533567607402801514e-01 2.138153612613677979e-01 6.806897372007369995e-02 2.675259113311767578e-01 1.969551667571067810e-02 3.081239759922027588e-01 7.699950784444808960e-02 7.125867903232574463e-02 9.955842494964599609e-01 6.969825923442840576e-02 6.240567564964294434e-01 4.033739864826202393e-01 2.957206070423126221e-01 5.466576814651489258e-01 8.710649013519287109e-01 4.660797119140625000e-01 6.609505414962768555e-01 3.357803821563720703e-01 1.735141575336456299e-01 8.454702794551849365e-02 3.669225871562957764e-01 4.391185045242309570e-01 1.820751577615737915e-01 9.340022802352905273e-01 8.690645694732666016e-01 8.361110091209411621e-01 4.640655815601348877e-01 5.497180819511413574e-01 2.308066189289093018e-01 6.774198412895202637e-01 9.209046363830566406e-01 3.108079731464385986e-02 2.685401141643524170e-01 8.514556288719177246e-01 3.552771732211112976e-02 5.213114023208618164e-01 8.048895001411437988e-02 5.444428920745849609e-01 6.061378717422485352e-01 2.058414667844772339e-01 8.692125082015991211e-01 8.520190715789794922e-01 2.520287930965423584e-01 6.445631980895996094e-01 2.223367691040039062e-01 1.279754638671875000e-01 7.782361507415771484e-01 2.969869077205657959e-01 3.019229173660278320e-01 6.853456497192382812e-01 7.120437622070312500e-01 6.856189966201782227e-01 2.969832718372344971e-01 -3.431897163391113281e-01 3.376998901367187500e-01 4.045299887657165527e-01 2.067885547876358032e-01 8.619046807289123535e-01 9.719921946525573730e-01 9.569063782691955566e-01 5.609899163246154785e-01 5.146286487579345703e-01 6.719338893890380859e-02 6.545073390007019043e-01 7.933552861213684082e-01 2.058750838041305542e-01 2.354981452226638794e-01 7.120432257652282715e-01 1.851741969585418701e-01 9.688317179679870605e-01 1.399434357881546021e-01 6.879136562347412109e-01 3.044832050800323486e-01 5.088489651679992676e-01 6.615304946899414062e-01 6.295915842056274414e-01 4.075679183006286621e-01 6.988217830657958984e-01 7.448628544807434082e-02 6.467725336551666260e-02 8.545687794685363770e-01 9.535008072853088379e-01 8.835256099700927734e-01 9.057499170303344727e-01 6.831081509590148926e-01 2.537007033824920654e-01 8.329922705888748169e-02 7.733433246612548828e-01 6.644449234008789062e-01 6.053930521011352539e-01 6.846429109573364258e-01 3.578082919120788574e-01 3.810813426971435547e-01 9.419438838958740234e-01 3.115404210984706879e-02 1.413141489028930664e-01 8.976224064826965332e-01 8.893358111381530762e-01 4.490004181861877441e-01 8.178317546844482422e-01 2.968936860561370850e-01 9.777287840843200684e-01 6.440908908843994141e-01 7.906132340431213379e-01 5.608734488487243652e-01 3.654080331325531006e-01 7.978178262710571289e-01 5.365791320800781250e-01 8.103780150413513184e-01 1.354123950004577637e-01 1.207273527979850769e-01 1.837600022554397583e-01 3.021029829978942871e-01 2.473811954259872437e-01 9.419071078300476074e-01 4.000020325183868408e-01 8.075593709945678711e-01 2.876875400543212891e-01 1.265690778382122517e-03 2.098796665668487549e-01 1.903726756572723389e-01 2.189196646213531494e-01 6.530295610427856445e-01 5.968519449234008789e-01 7.311632037162780762e-01 4.536750018596649170e-01 9.313906729221343994e-02 1.169122979044914246e-01 8.211871981620788574e-01 8.979763388633728027e-01 4.088857173919677734e-01 3.138719201087951660e-01 8.587985634803771973e-01 1.499970257282257080e-01 2.312474995851516724e-01 2.656873762607574463e-01 3.553099930286407471e-01 5.948288440704345703e-01 9.288213849067687988e-01 4.773583204951137304e-04 5.454338788986206055e-01 8.900691866874694824e-01 4.832602441310882568e-01 4.991324543952941895e-01 8.342356681823730469e-01 5.054767131805419922e-01 6.747081279754638672e-01 6.318086385726928711e-01 3.163866698741912842e-01 9.476532340049743652e-01 4.530205428600311279e-01 1.552027650177478790e-02 5.599623322486877441e-01 2.187450677156448364e-01 1.412931382656097412e-01 3.789420723915100098e-01 4.814060628414154053e-01 8.056581616401672363e-01 4.513896703720092773e-01 5.719502568244934082e-01 4.343562424182891846e-01
3.110874176025390625e+00 1.004948019981384277e+00 1.945999264717102051e+00 1.556101590394973755e-01 3.304551839828491211e+00 3.802790164947509766e+00 2.971967458724975586e+00 3.904891490936279297e+00 1.192321181297302246e+00 1.008857488632202148e+00 2.363317012786865234e+00 4.063489437103271484e+00 4.135283470153808594e+00 4.429417133331298828e+00 1.081100702285766602e+00 9.980928897857666016e-01 3.020240783691406250e+00 4.635591506958007812e+00 1.403636932373046875e+00 9.864157438278198242e-01 1.788293719291687012e+00 1.301584243774414062e+00 1.145680546760559082e+00 4.954804897308349609e+00 3.971917152404785156e+00 3.227214336395263672e+00 2.115836143493652344e+00 2.687198638916015625e+00 4.761181354522705078e+00 1.753718852996826172e+00 3.472583293914794922e+00 7.013332843780517578e-01 2.804637849330902100e-01 4.866588115692138672e+00 3.691635608673095703e+00 3.319890499114990234e+00 1.200342178344726562e+00 3.126184463500976562e+00 2.913758277893066406e+00 4.861760139465332031e+00 2.073917388916015625e+00 4.938781261444091797e+00 1.016745448112487793e+00 4.450962066650390625e+00 1.507592797279357910e+00 3.813061237335205078e+00 2.618074893951416016e+00 4.314229011535644531e+00 2.313243150711059570e+00 3.480914831161499023e+00 3.722687959671020508e+00 2.391695499420166016e+00 1.804434657096862793e+00 2.172747403383255005e-01 3.371688127517700195e+00 1.892739534378051758e+00 3.687214374542236328e+00 4.568461418151855469e+00 3.016012907028198242e+00 3.427804708480834961e+00 4.889211177825927734e+00 3.536052703857421875e-01 1.830279231071472168e+00 2.190515995025634766e+00 2.171743392944335938e+00 2.450143098831176758e+00 9.100472927093505859e-01 4.266848087310791016e+00 1.794982552528381348e+00 4.862770080566406250e+00 1.911761797964572906e-02 4.002714157104492188e+00 4.569726467132568359e+00 5.049335956573486328e-01 1.647512912750244141e+00 4.409030914306640625e+00 3.366910219192504883e+00 4.078266620635986328e+00 4.452109813690185547e+00 2.557690143585205078e+00 1.118562221527099609e+00 1.393147110939025879e+00 4.700359821319580078e+00 1.494568139314651489e-01 9.646528959274291992e-01 1.214091777801513672e+00 2.895356893539428711e+00 3.833105564117431641e+00 3.096139907836914062e+00 1.313302516937255859e+00 1.175139695405960083e-01 3.320596694946289062e+00 7.985848188400268555e-01 4.090857505798339844e-01 2.828956127166748047e+00 1.623421907424926758e+00 4.604139804840087891e+00 5.047613382339477539e-01 1.587799787521362305e+00 2.347806692123413086e+00 4.772274971008300781e+00 3.763256072998046875e+00 1.233953237533569336e+00 1.667672991752624512e+00 4.194493770599365234e+00 4.856281280517578125e+00 2.682449340820312500e+00 2.722042798995971680e+00 3.922935724258422852e+00 9.253305196762084961e-01 1.164045091718435287e-02 1.234803199768066406e+00 1.602513194084167480e+00 1.541762351989746094e+00 8.057397603988647461e-01 4.538205146789550781e+00 4.070529460906982422e+00 4.370543956756591797e+00 3.395222425460815430e+00 1.399660110473632812e+00 4.294974803924560547e+00 4.367101192474365234e-01 1.596289873123168945e+00 2.134451866149902344e+00 2.307296276092529297e+00 4.057992935180664062e+00 4.806524515151977539e-01 4.222548484802246094e+00 4.204793453216552734e+00 3.751020431518554688e+00 3.556591987609863281e+00 2.057170867919921875e+00 2.223923683166503906e+00 4.422922611236572266e+00 1.705708215013146400e-03 2.388724088668823242e+00 1.551871895790100098e+00 5.684942007064819336e-01 4.676391601562500000e+00 4.129989147186279297e+00 4.301738262176513672e+00 1.597071528434753418e+00 2.455860376358032227e+00 1.750647276639938354e-01 1.148545145988464355e+00 1.227186918258666992e+00 1.589960902929306030e-01 4.865431785583496094e+00 3.177703619003295898e+00 4.267542362213134766e+00 1.011527776718139648e+00 1.635416746139526367e+00 8.904272317886352539e-01 2.691994190216064453e+00 3.979076862335205078e+00 2.670693397521972656e+00 7.643055915832519531e-01 1.854470968246459961e+00 4.971794605255126953e+00 4.720008373260498047e+00 3.601208925247192383e+00 4.488937377929687500e+00 1.707801222801208496e+00 2.308310985565185547e+00 4.778594493865966797e+00 2.678099274635314941e-01 2.683380126953125000e+00 4.499226570129394531e+00 1.065027117729187012e+00 3.791276216506958008e+00 4.107614517211914062e+00 3.912723064422607422e+00 3.652883052825927734e+00 2.200448036193847656e+00 6.367349624633789062e-01 4.658286571502685547e+00 9.197515249252319336e-02 3.137168407440185547e+00 2.689432621002197266e+00 3.080791950225830078e+00 2.419996261596679688e-01 3.199174404144287109e+00 1.576234698295593262e+00 2.921852588653564453e+00 2.596581935882568359e+00 9.593802690505981445e-01 4.037589073181152344e+00 3.213185787200927734e+00 3.788337707519531250e+00 3.489301204681396484e+00 2.427053451538085938e-01 1.275573968887329102e+00 3.797029256820678711e+00 4.955842018127441406e+00 4.942795753479003906e+00 9.767383337020874023e-01 3.137754917144775391e+00 3.667337417602539062e+00 1.965917348861694336e+00 3.976432800292968750e+00 6.947451829910278320e-01 4.529134750366210938e+00 2.534893751144409180e+00 3.618221729993820190e-02 1.427347660064697266e+00 4.043778896331787109e+00 1.626242399215698242e+00 3.994593143463134766e+00 4.867820262908935547e+00 2.986557960510253906e+00 3.956361293792724609e+00 4.951699256896972656e+00 1.651272773742675781e+00 9.972625970840454102e-01 4.961179792881011963e-01 3.002914905548095703e+00 4.580319404602050781e+00 4.313898086547851562e+00 4.974257469177246094e+00 1.659961342811584473e+00 3.205606460571289062e+00 3.285629749298095703e+00 9.103262424468994141e-01 4.082513332366943359e+00 3.116023540496826172e+00 2.965230464935302734e+00 3.416662216186523438e+00 1.291929483413696289e+00 3.062400817871093750e+00 7.202464342117309570e-01 2.671139240264892578e-01 3.614724159240722656e+00 6.156268343329429626e-02 2.152339220046997070e+00 1.066034436225891113e+00 2.644369125366210938e+00 3.438241958618164062e+00 4.896033287048339844e+00 3.418120145797729492e+00 2.189755439758300781e+00 3.828241348266601562e+00 2.581921815872192383e+00 2.094879627227783203e+00 2.260539531707763672e+00 4.833311080932617188e+00 4.017927169799804688e+00 4.254298686981201172e+00 4.384783744812011719e+00 1.623179316520690918e+00 3.721698522567749023e+00 2.463075637817382812e+00 4.858191013336181641e+00 2.875952243804931641e+00 1.121531128883361816e+00 3.041881322860717773e+00 3.459068536758422852e+00 3.699067831039428711e+00 2.204704761505126953e+00 4.012050628662109375e+00 4.466053009033203125e+00 9.726083278656005859e-01 1.435108304023742676e+00 1.689546108245849609e+00 1.336836218833923340e+00 6.557065993547439575e-02 3.897863626480102539e-01 3.426020622253417969e+00 1.642568111419677734e+00 4.924586296081542969e+00 3.680040836334228516e+00 1.598489284515380859e+00 1.450245976448059082e+00 1.392866969108581543e+00 6.634217500686645508e-01 2.331086397171020508e+00 3.679139614105224609e+00 4.688279151916503906e+00 3.604431629180908203e+00 1.866928458213806152e+00 2.446185350418090820e+00 2.439748048782348633e+00 1.903244256973266602e+00 2.642267227172851562e+00 1.298058032989501953e+00 3.691326379776000977e+00 3.887203708291053772e-02 3.549033403396606445e-01 2.371617555618286133e+00 2.174830883741378784e-01 1.660906076431274414e+00 4.980282306671142578e+00 3.794572353363037109e+00 2.530946731567382812e+00 1.724362373352050781e+00 4.756038188934326172e+00 3.799808025360107422e-01 2.401721000671386719e+00 1.542975902557373047e+00 4.458811283111572266e+00 1.688074469566345215e+00 2.323511838912963867e+00 1.490451097488403320e+00 4.522902488708496094e+00 4.900085926055908203e+00 7.434743642807006836e-01 3.359847545623779297e+00 2.920062065124511719e+00 3.064879179000854492e+00 1.674030423164367676e+00 1.556322574615478516e+00 4.012526988983154297e+00 2.177395343780517578e+00 2.124617099761962891e+00 6.591283082962036133e-01 3.610924482345581055e+00 1.337180137634277344e+00 2.142689704895019531e+00 2.196210622787475586e-01 4.146946907043457031e+00 1.476557254791259766e+00 1.704932332038879395e+00 3.139539957046508789e+00 5.153822898864746094e-01 1.227735877037048340e+00 4.629224777221679688e+00 2.046621404588222504e-02 1.378929615020751953e+00 2.364528179168701172e+00 1.704700589179992676e+00 1.289089322090148926e+00 3.795618534088134766e+00 2.629671573638916016e+00 3.064001083374023438e+00 3.333656787872314453e+00 3.674226999282836914e-01 1.279812932014465332e+00 3.760033130645751953e+00 5.745685100555419922e-01 3.845811367034912109e+00 3.325427055358886719e+00 1.871954798698425293e+00 6.926012039184570312e-01 4.357349276542663574e-01 1.148450970649719238e+00 1.332994699478149414e+00 4.884325027465820312e+00 1.275079250335693359e+00 1.695798039436340332e+00 7.446992397308349609e-01 4.228803634643554688e+00 1.377418041229248047e+00 4.928121566772460938e+00 2.521557807922363281e+00 2.496826171875000000e+00 2.267677068710327148e+00 1.015858054161071777e+00 3.878023147583007812e+00 9.995630383491516113e-01 4.546992301940917969e+00 3.088815450668334961e+00 4.848123073577880859e+00 2.798767566680908203e+00 1.671391129493713379e+00 3.695787191390991211e+00 3.846431970596313477e+00 2.565277814865112305e+00 4.849467277526855469e+00 1.302276849746704102e+00 3.232662677764892578e+00 4.724456787109375000e+00 7.254655361175537109e-01 2.486056089401245117e+00 2.782615423202514648e+00 2.615952968597412109e+00 2.057454109191894531e+00 2.893173694610595703e-01 2.237440347671508789e+00 5.470639467239379883e-01 1.976146697998046875e+00 3.068864345550537109e+00 4.190485000610351562e+00 3.870611667633056641e+00 2.391993522644042969e+00 4.861817359924316406e+00 8.934444189071655273e-01 2.517938852310180664e+00 3.689686059951782227e+00 2.968454360961914062e+00 2.733414649963378906e+00 4.833400726318359375e+00 4.869989871978759766e+00 3.047813892364501953e+00 3.359765529632568359e+00 2.087523460388183594e+00 8.418208360671997070e-01 3.100142002105712891e+00 1.134452223777770996e+00 1.308652758598327637e+00 3.477445840835571289e+00 3.560334444046020508e-01 2.595711231231689453e+00 4.777349472045898438e+00 3.064560413360595703e+00 9.811502695083618164e-01 4.364296913146972656e+00 3.359627723693847656e+00 4.841747760772705078e+00 2.350622415542602539e+00 2.916904687881469727e+00 1.367810964584350586e-01 3.751186132431030273e+00 3.821316957473754883e+00 3.726773262023925781e+00 1.275464296340942383e+00 1.911585628986358643e-01 2.203682661056518555e+00 1.182199716567993164e+00 3.926032066345214844e+00 1.043744683265686035e+00 2.290632724761962891e+00 3.138323307037353516e+00 2.038178741931915283e-01 9.426194429397583008e-01 8.610568642616271973e-01 2.167307853698730469e+00 2.786307334899902344e+00 2.816834449768066406e+00 2.379029989242553711e+00 3.607758283615112305e+00 2.741631984710693359e+00 2.310444116592407227e-01 5.038130283355712891e-01 4.109426498413085938e+00 4.663458824157714844e+00 3.600516319274902344e+00 3.669583320617675781e+00 3.621313571929931641e+00 2.467320442199707031e+00 3.759597539901733398e+00 3.699628829956054688e+00 2.811853408813476562e+00 1.509757637977600098e+00 3.767244338989257812e+00 4.926634311676025391e+00 2.058608055114746094e+00 1.888085603713989258e+00 3.619923591613769531e+00 4.811752319335937500e+00 4.085571765899658203e+00 4.598100185394287109e+00 3.404260873794555664e+00 4.427955627441406250e+00 2.924484014511108398e+00 2.651690244674682617e+00 3.969365358352661133e-01 1.684362888336181641e+00 4.543566226959228516e+00 3.875724077224731445e+00 4.030159950256347656e+00 4.012678146362304688e+00 3.606293201446533203e+00 7.795870304107666016e-01 1.711103320121765137e+00 1.988352537155151367e+00 3.657429695129394531e+00 1.312834024429321289e+00 3.117788732051849365e-01 2.062336921691894531e+00 1.550113558769226074e+00 3.611170053482055664e+00 2.395412921905517578e+00 2.877347946166992188e+00 9.281402826309204102e-01 5.549985170364379883e-01 1.501089334487915039e-01 3.723150491714477539e+00 3.972220420837402344e+00 3.913263082504272461e+00 1.442589163780212402e+00 4.077529430389404297e+00 2.619775533676147461e+00 4.352313041687011719e+00 1.509322524070739746e+00 2.976732254028320312e+00 2.825895547866821289e+00 8.331227302551269531e-01 3.157353878021240234e+00 4.237389564514160156e-01 3.985333204269409180e+00 1.580334603786468506e-01 4.595017433166503906e+00 3.714828491210937500e+00 3.511309385299682617e+00 2.059155702590942383e+00 3.168344497680664062e+00 1.669853925704956055e-01 1.289716362953186035e+00 6.302487850189208984e-01 2.914505004882812500e+00 2.910314798355102539e+00 2.717989683151245117e-01 8.497035503387451172e-01 2.483542442321777344e+00 4.262135028839111328e+00 4.722428321838378906e-01 3.142091035842895508e+00 6.114041805267333984e-01 2.645260095596313477e+00 1.508193016052246094e+00 4.608582496643066406e+00 3.052995681762695312e+00 4.702584743499755859e+00 1.694864273071289062e+00 3.577500581741333008e+00 1.972222924232482910e+00 8.897209167480468750e-01 1.522893905639648438e+00 4.299902439117431641e+00 2.616406679153442383e+00 1.354262948036193848e+00 3.407695293426513672e+00 1.678314208984375000e+00 1.097977757453918457e+00 4.599548339843750000e+00 2.040879726409912109e+00 5.485469102859497070e-01 2.505927085876464844e+00 7.866704463958740234e-01 9.273850917816162109e-01 8.452242612838745117e-01 1.273990273475646973e+00 2.285339832305908203e+00 2.704632759094238281e+00 2.912454605102539062e+00 2.363297939300537109e+00 2.851629257202148438e+00 1.260154843330383301e+00 4.724806785583496094e+00 9.296083450317382812e-01 3.300719261169433594e+00 2.726967334747314453e+00 2.718932628631591797e+00 4.653824806213378906e+00 1.875551342964172363e+00 9.890365600585937500e-01 3.515454530715942383e+00 3.833856105804443359e+00 2.312162399291992188e+00 4.647354602813720703e+00 4.871384620666503906e+00 4.559744596481323242e-01 4.023816585540771484e+00 2.177770137786865234e+00 4.398655891418457031e-01 2.621522426605224609e+00 2.841532230377197266e+00 4.577004909515380859e+00 6.663385033607482910e-02 3.079388618469238281e+00 3.248164653778076172e+00 3.307857990264892578e+00 6.553834676742553711e-01 4.999958872795104980e-01 4.259122848510742188e+00 5.866449475288391113e-01 3.331164836883544922e+00 9.964454174041748047e-01 3.283292055130004883e+00 4.993418693542480469e+00 3.018159866333007812e+00 1.195024251937866211e-01 1.435454845428466797e+00 1.285046339035034180e+00 2.267837524414062500e+00 6.095361709594726562e-01 7.806414365768432617e-01 7.457357645034790039e-01 5.045038461685180664e-01 3.225571632385253906e+00 2.084767818450927734e-01 3.345645666122436523e+00 2.166154861450195312e+00 3.638513088226318359e+00 2.666163444519042969e+00 2.532471418380737305e+00 1.472663283348083496e+00 5.843393877148628235e-02 1.829394102096557617e+00 1.616914272308349609e+00 1.267458796501159668e+00 3.517591476440429688e+00 1.493635773658752441e+00 5.505985021591186523e-01 4.838558197021484375e+00 4.613252639770507812e+00 4.843345165252685547e+00 4.586827278137207031e+00 4.451079368591308594e+00 2.588298320770263672e+00 1.836948394775390625e+00 4.871159791946411133e-01 1.920455098152160645e+00 1.033927798271179199e+00 8.203190565109252930e-01 4.283755302429199219e+00 1.926471590995788574e+00 1.262575387954711914e+00 2.150902748107910156e+00 3.627994060516357422e+00 3.592839717864990234e+00 2.568119049072265625e+00 8.553382754325866699e-02 8.886128664016723633e-01 6.363523006439208984e-01 2.317874908447265625e+00 6.058955192565917969e-01 1.259959675371646881e-02 2.151277065277099609e+00 3.781960487365722656e+00 3.601757287979125977e+00 7.920354604721069336e-01 4.998056963086128235e-02 2.121322631835937500e+00 4.504289150238037109e+00 1.762183904647827148e+00 6.235331296920776367e-01 4.757716655731201172e+00 4.011378765106201172e+00 8.947014808654785156e-01 1.802709698677062988e+00 1.159739494323730469e+00 3.665292739868164062e+00 8.015996217727661133e-01 2.756491184234619141e+00 8.783376216888427734e-01 1.081279516220092773e+00 4.810095310211181641e+00 2.017533302307128906e+00 2.509101629257202148e+00 8.581867814064025879e-01 4.475297927856445312e+00 4.187036514282226562e+00 4.116641044616699219e+00 1.901655793190002441e+00 2.913217544555664062e+00 3.543121814727783203e+00 3.178591728210449219e+00 2.728368043899536133e+00 3.702034950256347656e+00 2.088196754455566406e+00 3.377914428710937500e-01 4.336372375488281250e+00 1.846242547035217285e+00 2.205375432968139648e+00 3.957206010818481445e+00 3.639656305313110352e-01 3.530483245849609375e+00 2.028450965881347656e+00 4.037497520446777344e+00 4.255290508270263672e+00 4.823770046234130859e+00 3.971853256225585938e+00 4.688602685928344727e-01 2.356075048446655273e+00 5.530005693435668945e-01 4.895661354064941406e+00 7.608115673065185547e-01 3.853443861007690430e+00 4.902081012725830078e+00 2.646716117858886719e+00 2.522962093353271484e+00 4.002065181732177734e+00 2.625169754028320312e+00 4.322316646575927734e+00 2.583888053894042969e+00 3.381613492965698242e+00 4.524545669555664062e+00 1.689568758010864258e+00 1.454586982727050781e+00 3.637025833129882812e+00 1.658033728599548340e+00 4.669161319732666016e+00 5.049198865890502930e-01 4.886631011962890625e+00 3.730842590332031250e+00 1.410561800003051758e+00 6.887624040246009827e-03 1.836045980453491211e+00 4.045235633850097656e+00 4.330847263336181641e+00 2.837803363800048828e+00 4.505078792572021484e+00 2.764759540557861328e+00 2.413210868835449219e+00 4.429479598999023438e+00 1.782906651496887207e+00 4.873295307159423828e+00 4.281641960144042969e+00 2.922046184539794922e+00 6.459861528128385544e-03 1.588891148567199707e+00 3.206020593643188477e+00 4.718344688415527344e+00 3.064497709274291992e+00 4.554013252258300781e+00 9.371882677078247070e-01 2.561585426330566406e+00 3.393278717994689941e-01 4.673528671264648438e+00 4.153103351593017578e+00 4.199072837829589844e+00 3.525022268295288086e+00 3.972559452056884766e+00 4.401306629180908203e+00 1.468738317489624023e+00 3.020495176315307617e+00 4.066401004791259766e+00 2.108199596405029297e+00 3.064436912536621094e+00 5.074381828308105469e-01 1.427630186080932617e+00 2.473530769348144531e+00 4.980425357818603516e+00 2.185743331909179688e+00 3.437857151031494141e+00 4.936471462249755859e+00 9.685844182968139648e-01 4.451385021209716797e+00 4.683181762695312500e+00 4.880338191986083984e+00 1.694363951683044434e+00 2.126275300979614258e+00 2.107443809509277344e+00 3.805879354476928711e+00 1.317895650863647461e+00 4.078075885772705078e+00 4.844001770019531250e+00 2.034925222396850586e+00 3.609955310821533203e-01 3.339534282684326172e+00 3.299100399017333984e+00 3.797057151794433594e+00 4.817825317382812500e+00 4.231307029724121094e+00 4.035696029663085938e+00 3.259633779525756836e+00 1.542975306510925293e+00 4.281170368194580078e+00 4.309006214141845703e+00 2.626946449279785156e+00 3.226908445358276367e+00 3.389037370681762695e+00 1.167563199996948242e+00 1.463350653648376465e+00 1.140217706561088562e-01 4.799260199069976807e-02 1.059916019439697266e+00 3.798906326293945312e+00 2.315472126007080078e+00 1.628305315971374512e+00 3.602053642272949219e+00 6.638944149017333984e-01 3.786072731018066406e+00 3.564883470535278320e+00 1.070863008499145508e+00 2.995423793792724609e+00 2.090192317962646484e+00 2.020325183868408203e+00 1.016352772712707520e+00 3.106189966201782227e+00 4.048176765441894531e+00 1.942698955535888672e+00 2.088630199432373047e+00 2.198321342468261719e+00 4.322531700134277344e+00 1.625121831893920898e+00 1.434385180473327637e+00 2.871710777282714844e+00 8.797528594732284546e-02 2.159513235092163086e+00 5.381484627723693848e-01 3.622065067291259766e+00 3.200887441635131836e+00 5.054501891136169434e-01 2.272850275039672852e+00 2.357358455657958984e+00 2.144114971160888672e+00 2.007031679153442383e+00 4.900696754455566406e+00 1.159980893135070801e+00 1.331144571304321289e+00 1.864013671875000000e+00 2.589594841003417969e+00 4.318282604217529297e+00 1.318181157112121582e+00 7.818353176116943359e-01 4.843941688537597656e+00 4.234225273132324219e+00 3.098865747451782227e+00 3.091662406921386719e+00 2.885184288024902344e+00 3.255261182785034180e+00 2.323488473892211914e+00 2.457684993743896484e+00 1.794000864028930664e+00 2.704792022705078125e+00 1.773157715797424316e+00 4.934607505798339844e+00 6.751090288162231445e-01 4.044196605682373047e+00 2.714471340179443359e+00 1.758735179901123047e+00 4.701389789581298828e+00 4.365003481507301331e-02 4.877195835113525391e+00 1.071256399154663086e+00 2.800129652023315430e+00 4.533740580081939697e-01 3.493529558181762695e+00 4.634199619293212891e+00 9.279376268386840820e-01 2.850286483764648438e+00 4.257019996643066406e+00 3.253940343856811523e+00 4.354570388793945312e+00 3.228980302810668945e+00 4.865698814392089844e+00 4.438332915306091309e-01 1.907138824462890625e+00 1.083037853240966797e+00 4.156129837036132812e+00 4.295330047607421875e+00 4.029005050659179688e+00 2.435216903686523438e+00 1.886047124862670898e+00 1.936974525451660156e+00 3.753929138183593750e+00 1.439231038093566895e+00 4.668829917907714844e+00 1.936271786689758301e+00 2.381016492843627930e+00 7.856464385986328125e-01 3.252900123596191406e+00 1.897299289703369141e+00 2.813851833343505859e+00 1.955775022506713867e+00 3.998719528317451477e-02 2.311129570007324219e+00 4.496886253356933594e+00 3.440887928009033203e+00 2.515678882598876953e+00 4.310206890106201172e+00 9.966808557510375977e-01 3.320571184158325195e+00 2.311330318450927734e+00 4.055056095123291016e+00 2.477855205535888672e+00 3.563730239868164062e+00 9.477609395980834961e-01 3.722838163375854492e+00 4.672522068023681641e+00 1.655329018831253052e-01 5.768305063247680664e-01 1.526891589164733887e+00 1.654925346374511719e+00 4.774633407592773438e+00 9.828305244445800781e-01 2.095966815948486328e+00 4.897952079772949219e-01 2.974967956542968750e+00 2.618432044982910156e-01 3.480246543884277344e+00 4.540433406829833984e+00 2.684257030487060547e+00 2.120053768157958984e-01 8.437824249267578125e-01 3.327280282974243164e+00 9.496557712554931641e-01 4.136279106140136719e+00 4.289646148681640625e+00 3.936600208282470703e+00 1.588772773742675781e+00 2.689083814620971680e+00 2.292882204055786133e+00 2.018758773803710938e+00 9.519064426422119141e-01 1.177456974983215332e+00 3.207901865243911743e-02 1.495833396911621094e+00 2.205694437026977539e+00 7.964475154876708984e-01 9.981572628021240234e-01 4.850916862487792969e+00 3.988768100738525391e+00 2.117036581039428711e+00 3.618150949478149414e-01 1.723117828369140625e+00 3.390651941299438477e-01 5.242145061492919922e-01 1.144562363624572754e+00 4.468778669834136963e-01 3.170400857925415039e+00 3.653528213500976562e+00 3.728197097778320312e+00 2.180928438901901245e-01 2.935856580734252930e+00 4.627127647399902344e+00 2.756817102432250977e+00 3.735274076461791992e+00 4.879152297973632812e+00 2.972048521041870117e-01 1.687307953834533691e+00 2.111936092376708984e+00 1.864997744560241699e+00 3.069829463958740234e+00 4.533713340759277344e+00 3.426706314086914062e+00 2.970622777938842773e+00 2.590751647949218750e+00 4.919329166412353516e+00 1.640527844429016113e+00 1.059978604316711426e+00 4.941889271140098572e-02 4.757262229919433594e+00 2.957503318786621094e+00 7.512670755386352539e-01 1.167896986007690430e+00 3.288022994995117188e+00 1.638777256011962891e+00 3.091741800308227539e+00 3.516156196594238281e+00 2.903612136840820312e+00 2.819326400756835938e+00 6.650751829147338867e-01 2.282236814498901367e+00 4.771801948547363281e+00 4.703843593597412109e-01 4.423019409179687500e+00 1.664775013923645020e+00 3.177165985107421875e-01 1.468839645385742188e+00 1.917507648468017578e+00 2.331814050674438477e+00 8.017981052398681641e-02 2.465832233428955078e+00 1.505712270736694336e+00 3.636980056762695312e-01 8.199989795684814453e-01 1.195493936538696289e-01 2.469046413898468018e-01 4.823142290115356445e-01 4.457050561904907227e-01 4.467241287231445312e+00 1.486731767654418945e+00 1.172881275415420532e-01 1.320362091064453125e+00 2.337909221649169922e+00 1.079325675964355469e+00 8.596326410770416260e-02 1.168014049530029297e+00 6.744867563247680664e-01 1.669920086860656738e+00 4.363097250461578369e-02 7.961708307266235352e-01 1.128807663917541504e+00 1.840207338333129883e+00 4.329988956451416016e+00 4.771232604980468750e-01 4.520068168640136719e+00 1.394602060317993164e+00 4.681540012359619141e+00 2.039723396301269531e+00 1.573930978775024414e+00 3.164742469787597656e+00 1.469795107841491699e+00 2.723838806152343750e+00 4.804742336273193359e+00 4.122763156890869141e+00 1.469445228576660156e+00 3.916118144989013672e+00 9.751105308532714844e-01 2.907316684722900391e+00 3.035254478454589844e+00 4.357623577117919922e+00 3.689337253570556641e+00 4.161801815032958984e+00 2.615820884704589844e+00 2.965140819549560547e+00 4.063588380813598633e-01 3.626578330993652344e+00 2.838158607482910156e-01 4.155963659286499023e-01 1.008901000022888184e+00 3.379633426666259766e+00 3.600248098373413086e+00 3.913036584854125977e+00 3.959958076477050781e+00 4.475368022918701172e+00 1.939113140106201172e+00 2.270961999893188477e+00
1.000000000000000000e+00 1.000048398971557617e+00 1.000000000000000000e+00 9.988424181938171387e-01 1.000000000000000000e+00 1.000000000000000000e+00 9.996871948242187500e-01 1.000000000000000000e+00 1.000047802925109863e+00 9.999513626098632812e-01 9.999781847000122070e-01 1.000000000000000000e+00 1.000000000000000000e+00 1.000000000000000000e+00 9.999570250511169434e-01 1.000102043151855469e+00 1.000000000000000000e+00 1.000000000000000000e+00 9.997675418853759766e-01 9.987720847129821777e-01 4.902941286563873291e-01 1.000212192535400391e+00 1.000044703483581543e+00 1.000000000000000000e+00 1.000000000000000000e+00 1.000000000000000000e+00 1.000000000000000000e+00 1.000000000000000000e+00 1.000000000000000000e+00 9.999172687530517578e-01 1.000000000000000000e+00 9.997337460517883301e-01 1.000637054443359375e+00 1.000000000000000000e+00 1.000000000000000000e+00 1.000000000000000000e+00 9.996740818023681641e-01 1.000000000000000000e+00 1.000000000000000000e+00 1.000000000000000000e+00 1.000000000000000000e+00 1.000000000000000000e+00 9.793000221252441406e-01 1.000000000000000000e+00 9.999790787696838379e-01 1.000000000000000000e+00 1.000000000000000000e+00 1.000000000000000000e+00 1.000000000000000000e+00 1.000000000000000000e+00 1.000000000000000000e+00 1.000000000000000000e+00 1.000000000000000000e+00 9.995245337486267090e-01 1.000000000000000000e+00 1.000000000000000000e+00 1.000000000000000000e+00 1.000000000000000000e+00 1.000000000000000000e+00 1.000000000000000000e+00 1.000000000000000000e+00 1.019738078117370605e+00 1.000047802925109863e+00 1.000000000000000000e+00 1.000000000000000000e+00 1.000000000000000000e+00 9.991400837898254395e-01 1.000000000000000000e+00 1.000039339065551758e+00 1.000000000000000000e+00 9.991192817687988281e-01 1.000000000000000000e+00 1.000000000000000000e+00 9.992018938064575195e-01 1.000018000602722168e+00 1.000000000000000000e+00 1.000000000000000000e+00 9.997930526733398438e-01 1.000000000000000000e+00 1.000000000000000000e+00 1.000219464302062988e+00 9.999670386314392090e-01 1.000000000000000000e+00 1.007248759269714355e+00 9.995255470275878906e-01 9.998834133148193359e-01 9.811950922012329102e-01 1.000000000000000000e+00 1.000000000000000000e+00 9.994442462921142578e-01 1.000896096229553223e+00 1.000000000000000000e+00 9.996162056922912598e-01 9.991461038589477539e-01 1.000000000000000000e+00 1.000007152557373047e+00 1.000000000000000000e+00 1.000359535217285156e+00 9.997341036796569824e-01 1.000000000000000000e+00 1.000000000000000000e+00 1.000000000000000000e+00 9.999065995216369629e-01 1.000019192695617676e+00 1.000000000000000000e+00 1.000000000000000000e+00 1.000000000000000000e+00 1.000000000000000000e+00 1.000000000000000000e+00 1.000150918960571289e+00 9.987075924873352051e-01 9.996069669723510742e-01 9.994268417358398438e-01 9.999940991401672363e-01 9.984919428825378418e-01 1.000000000000000000e+00 1.000000000000000000e+00 1.000000000000000000e+00 1.000000000000000000e+00 3.999270871281623840e-02 1.000000000000000000e+00 1.000012636184692383e+00 1.000180125236511230e+00 1.000000000000000000e+00 1.000000000000000000e+00 1.000000000000000000e+00 9.988177418708801270e-01 1.000000000000000000e+00 1.000000000000000000e+00 1.000000000000000000e+00 1.000000000000000000e+00 1.000000000000000000e+00 1.000000000000000000e+00 1.000000000000000000e+00 1.001225471496582031e+00 1.000000000000000000e+00 9.999984502792358398e-01 1.000370621681213379e+00 1.000000000000000000e+00 1.000000000000000000e+00 1.000000000000000000e+00 9.946291446685791016e-01 1.000000000000000000e+00 9.996734261512756348e-01 1.000143647193908691e+00 9.999964237213134766e-01 1.000567197799682617e+00 1.000000000000000000e+00 1.000000000000000000e+00 9.998937249183654785e-01 1.000147938728332520e+00 1.000269532203674316e+00 9.997043609619140625e-01 1.000000000000000000e+00 1.000000000000000000e+00 1.000000000000000000e+00 9.997942447662353516e-01 9.999248981475830078e-01 1.000000000000000000e+00 1.000000000000000000e+00 1.000000000000000000e+00 1.000748991966247559e+00 1.000000000000000000e+00 1.000000000000000000e+00 1.000000000000000000e+00 9.983417987823486328e-01 1.000000000000000000e+00 1.000000000000000000e+00 1.000136971473693848e+00 1.000000000000000000e+00 1.000000000000000000e+00 1.000000000000000000e+00 1.000000000000000000e+00 1.000000000000000000e+00 1.000322103500366211e+00 1.000000000000000000e+00 1.001186013221740723e+00 1.000000000000000000e+00 1.000000000000000000e+00 1.000000000000000000e+00 9.988901615142822266e-01 1.000000000000000000e+00 9.999619126319885254e-01 1.000000000000000000e+00 9.987052083015441895e-01 1.000681519508361816e+00 9.995186924934387207e-01 1.000000000000000000e+00 1.000000000000000000e+00 1.000000000000000000e+00 1.000122666358947754e+00 9.999935626983642578e-01 9.965972900390625000e-01 1.000000000000000000e+00 1.000000000000000000e+00 9.998344182968139648e-01 1.000000000000000000e+00 9.835836887359619141e-01 1.000000000000000000e+00 1.000000000000000000e+00 1.000512480735778809e+00 1.000000000000000000e+00 1.000000000000000000e+00 9.949057698249816895e-01 9.993265271186828613e-01 1.000000000000000000e+00 9.999853372573852539e-01 1.000000000000000000e+00 1.000000000000000000e+00 1.000000000000000000e+00 1.000000000000000000e+00 1.000000000000000000e+00 9.999911189079284668e-01 1.000405073165893555e+00 4.633841216564178467e-01 1.000000000000000000e+00 1.000000000000000000e+00 1.000000000000000000e+00 1.000000000000000000e+00 1.000000000000000000e+00 1.000000000000000000e+00 1.000000000000000000e+00 1.000015497207641602e+00 1.000000000000000000e+00 1.000000000000000000e+00 1.000000000000000000e+00 1.000000000000000000e+00 1.000107288360595703e+00 1.000000000000000000e+00 9.994918704032897949e-01 1.003697752952575684e+00 1.000000000000000000e+00 1.001266002655029297e+00 1.000000000000000000e+00 1.000344395637512207e+00 1.000000000000000000e+00 1.000000000000000000e+00 9.891869425773620605e-01 1.000000000000000000e+00 1.000000000000000000e+00 1.000000000000000000e+00 1.000000000000000000e+00 1.000000000000000000e+00 1.000000000000000000e+00 1.000000000000000000e+00 1.000000000000000000e+00 1.000000000000000000e+00 1.000000000000000000e+00 1.000104069709777832e+00 9.999942183494567871e-01 1.000020623207092285e+00 1.000000000000000000e+00 1.000000000000000000e+00 1.000260353088378906e+00 1.000000000000000000e+00 1.000000000000000000e+00 1.000000000000000000e+00 1.000000000000000000e+00 1.000000000000000000e+00 1.000000000000000000e+00 1.000222682952880859e+00 6.432437896728515625e-01 1.000000000000000000e+00 1.000040650367736816e+00 9.934397935867309570e-01 9.997562170028686523e-01 1.000000000000000000e+00 9.999927282333374023e-01 1.000000000000000000e+00 1.000000000000000000e+00 1.000018119812011719e+00 1.000030040740966797e+00 9.998608231544494629e-01 9.993737339973449707e-01 1.000000000000000000e+00 1.000000000000000000e+00 1.000000000000000000e+00 1.000000000000000000e+00 9.977658390998840332e-01 1.000000000000000000e+00 1.000000000000000000e+00 1.000000000000000000e+00 1.000000000000000000e+00 9.999088048934936523e-01 1.000000000000000000e+00 1.005878925323486328e+00 1.000429391860961914e+00 1.000000000000000000e+00 1.000359892845153809e+00 9.999093413352966309e-01 1.000000000000000000e+00 1.000000000000000000e+00 1.000000000000000000e+00 1.000000834465026855e+00 1.000000000000000000e+00 1.000122070312500000e+00 1.000000000000000000e+00 1.000000000000000000e+00 1.000000000000000000e+00 1.000000000000000000e+00 1.000000000000000000e+00 9.999977946281433105e-01 1.000000000000000000e+00 1.000000000000000000e+00 9.997482895851135254e-01 1.000000000000000000e+00 1.000000000000000000e+00 1.000000000000000000e+00 1.000415682792663574e+00 1.000059008598327637e+00 1.000000000000000000e+00 1.000000000000000000e+00 9.999830722808837891e-01 1.000405550003051758e+00 1.000000000000000000e+00 9.999610781669616699e-01 1.000000000000000000e+00 1.000510692596435547e+00 1.000000000000000000e+00 9.999878406524658203e-01 1.339551061391830444e-01 1.000000000000000000e+00 9.994471073150634766e-01 1.000186204910278320e+00 1.000000000000000000e+00 9.994644522666931152e-01 9.998361468315124512e-01 1.000000000000000000e+00 9.999691247940063477e-01 1.000000000000000000e+00 9.998967051506042480e-01 9.999921321868896484e-01 1.000000000000000000e+00 1.000000000000000000e+00 9.970563054084777832e-01 1.002155423164367676e+00 1.000000000000000000e+00 1.000374794006347656e+00 1.000000000000000000e+00 1.000000000000000000e+00 9.999623298645019531e-01 1.000124096870422363e+00 9.992811679840087891e-01 9.999443888664245605e-01 9.991858005523681641e-01 1.000000000000000000e+00 9.999345541000366211e-01 1.000000000000000000e+00 1.000386595726013184e+00 1.000000000000000000e+00 1.000015497207641602e+00 1.000000000000000000e+00 1.000000000000000000e+00 1.000000000000000000e+00 7.857347130775451660e-01 1.000097393989562988e+00 1.000000000000000000e+00 9.993543624877929688e-01 1.000000000000000000e+00 9.994062781333923340e-01 1.000000000000000000e+00 1.000000000000000000e+00 1.000009179115295410e+00 1.000000000000000000e+00 1.000000000000000000e+00 1.000000000000000000e+00 1.000000000000000000e+00 9.999778866767883301e-01 1.000069379806518555e+00 9.999982714653015137e-01 9.965160489082336426e-01 1.000000000000000000e+00 1.000000000000000000e+00 1.000000000000000000e+00 9.999994039535522461e-01 9.999383091926574707e-01 1.000000000000000000e+00 9.993321299552917480e-01 1.001338481903076172e+00 1.000000000000000000e+00 1.000000000000000000e+00 1.000000000000000000e+00 1.000000000000000000e+00 1.000000000000000000e+00 1.000097036361694336e+00 1.000799059867858887e+00 1.000000000000000000e+00 1.000000000000000000e+00 1.000000000000000000e+00 1.000000000000000000e+00 1.000000000000000000e+00 1.000000000000000000e+00 1.000000000000000000e+00 1.000000000000000000e+00 9.998372793197631836e-01 1.000000000000000000e+00 1.000199317932128906e+00 1.000002384185791016e+00 1.000000000000000000e+00 1.000378847122192383e+00 9.999839663505554199e-01 1.000000000000000000e+00 1.000000000000000000e+00 1.000214338302612305e+00 1.000000000000000000e+00 1.000000000000000000e+00 1.000000000000000000e+00 1.000000000000000000e+00 1.000000000000000000e+00 9.991820454597473145e-01 1.000000000000000000e+00 1.000000000000000000e+00 9.597797393798828125e-01 9.997466206550598145e-01 4.037875831127166748e-01 1.000000000000000000e+00 1.000166535377502441e+00 1.000000000000000000e+00 9.998355507850646973e-01 1.000000000000000000e+00 1.000000000000000000e+00 1.000655651092529297e+00 1.000295519828796387e+00 1.006177783012390137e+00 1.000000000000000000e+00 1.000000000000000000e+00 1.000000000000000000e+00 1.000000000000000000e+00 1.000000000000000000e+00 1.000000000000000000e+00 1.000178813934326172e+00 1.000834703445434570e+00 1.000000000000000000e+00 1.000000000000000000e+00 1.000000000000000000e+00 1.000000000000000000e+00 1.000000000000000000e+00 1.000000000000000000e+00 1.000000000000000000e+00 1.000000000000000000e+00 9.999015331268310547e-01 1.000144720077514648e+00 1.000000000000000000e+00 1.000000000000000000e+00 1.000001072883605957e+00 1.000000000000000000e+00 1.000000000000000000e+00 1.000000000000000000e+00 1.000000000000000000e+00 1.000000000000000000e+00 1.000000000000000000e+00 1.000000000000000000e+00 1.000000000000000000e+00 1.000000000000000000e+00 1.000421166419982910e+00 1.000000000000000000e+00 1.000000000000000000e+00 1.000000000000000000e+00 1.000000000000000000e+00 1.000000000000000000e+00 1.000000000000000000e+00 9.997782707214355469e-01 5.818968415260314941e-01 1.000000000000000000e+00 1.000000000000000000e+00 1.000054597854614258e+00 9.999138116836547852e-01 9.999610185623168945e-01 9.999352693557739258e-01 1.000000000000000000e+00 1.000000000000000000e+00 1.000000000000000000e+00 9.993592500686645508e-01 9.992256760597229004e-01 1.001499533653259277e+00 1.000000000000000000e+00 1.000000000000000000e+00 1.000000000000000000e+00 9.997031092643737793e-01 9.673110246658325195e-01 1.000000000000000000e+00 9.995265007019042969e-01 9.999811649322509766e-01 1.000000000000000000e+00 1.000000000000000000e+00 9.993136525154113770e-01 1.000000000000000000e+00 9.991127848625183105e-01 9.961727857589721680e-01 1.001274585723876953e+00 1.000000000000000000e+00 1.000000000000000000e+00 9.947603940963745117e-01 1.000000000000000000e+00 1.000000000000000000e+00 9.988067150115966797e-01 9.999874830245971680e-01 9.997637867927551270e-01 1.000000000000000000e+00 1.000000000000000000e+00 9.995219111442565918e-01 1.000165104866027832e+00 1.000000000000000000e+00 1.000000000000000000e+00 1.000208616256713867e+00 1.000000000000000000e+00 1.000180244445800781e+00 1.000000000000000000e+00 9.999684691429138184e-01 1.000000000000000000e+00 1.000000000000000000e+00 1.000000000000000000e+00 1.000555634498596191e+00 1.000000000000000000e+00 1.000000000000000000e+00 9.999276995658874512e-01 9.999346733093261719e-01 1.000000000000000000e+00 1.000000000000000000e+00 9.987093806266784668e-01 1.000000000000000000e+00 1.000337362289428711e+00 1.000522017478942871e+00 1.000000000000000000e+00 1.000000000000000000e+00 9.999219179153442383e-01 1.000000000000000000e+00 9.994047284126281738e-01 9.995967149734497070e-01 9.997987747192382812e-01 1.000303268432617188e+00 1.000000000000000000e+00 1.000000000000000000e+00 1.000000000000000000e+00 1.000000000000000000e+00 1.000000000000000000e+00 1.000053286552429199e+00 1.000000000000000000e+00 1.000342607498168945e+00 1.000000000000000000e+00 1.000000000000000000e+00 1.000000000000000000e+00 1.000000000000000000e+00 1.000000000000000000e+00 1.000033378601074219e+00 1.000000000000000000e+00 1.000000000000000000e+00 1.000000000000000000e+00 1.000000000000000000e+00 1.000000000000000000e+00 1.000756382942199707e+00 1.000000000000000000e+00 1.000000000000000000e+00 9.999974966049194336e-01 1.000000000000000000e+00 9.999953508377075195e-01 1.000000000000000000e+00 1.000189661979675293e+00 1.000000000000000000e+00 1.000000000000000000e+00 1.000000000000000000e+00 9.988361597061157227e-01 1.000272750854492188e+00 9.835413098335266113e-01 9.969449043273925781e-01 1.000000000000000000e+00 9.999990463256835938e-01 1.000000000000000000e+00 1.000000000000000000e+00 1.000000000000000000e+00 1.003765106201171875e+00 1.001113533973693848e+00 9.998961687088012695e-01 1.000000000000000000e+00 9.984294772148132324e-01 1.000302433967590332e+00 9.998134970664978027e-01 9.991152882575988770e-01 1.000000000000000000e+00 1.000883102416992188e+00 1.000000000000000000e+00 6.144788265228271484e-01 1.000000000000000000e+00 1.000000000000000000e+00 1.000000000000000000e+00 9.996885061264038086e-01 9.970199465751647949e-01 5.525709390640258789e-01 9.998513460159301758e-01 9.999526739120483398e-01 1.000017881393432617e+00 1.000092148780822754e+00 9.997927546501159668e-01 1.000000000000000000e+00 1.000000000000000000e+00 1.000000000000000000e+00 9.999483227729797363e-01 1.000000000000000000e+00 1.000000000000000000e+00 1.000000000000000000e+00 9.975664019584655762e-01 1.000000000000000000e+00 9.999299049377441406e-01 9.994699358940124512e-01 1.000000000000000000e+00 1.000000000000000000e+00 9.999830722808837891e-01 1.000000000000000000e+00 1.000000000000000000e+00 1.000000000000000000e+00 1.000000000000000000e+00 9.997972846031188965e-01 1.000138163566589355e+00 9.997002482414245605e-01 1.000000000000000000e+00 1.000307321548461914e+00 9.955078959465026855e-01 1.000000000000000000e+00 1.000000000000000000e+00 1.000000000000000000e+00 9.996405243873596191e-01 1.001296997070312500e+00 1.000000000000000000e+00 1.000000000000000000e+00 9.999477267265319824e-01 1.000542521476745605e+00 1.000000000000000000e+00 1.000000000000000000e+00 9.999592304229736328e-01 9.999505877494812012e-01 1.000052690505981445e+00 1.000000000000000000e+00 1.000095486640930176e+00 1.000000000000000000e+00 9.987730979919433594e-01 9.992765784263610840e-01 1.000000000000000000e+00 1.000000000000000000e+00 1.000000000000000000e+00 4.079669713973999023e-01 1.000000000000000000e+00 1.000000000000000000e+00 1.000000000000000000e+00 9.999700784683227539e-01 9.981734156608581543e-01 1.000000000000000000e+00 1.000000000000000000e+00 1.000000000000000000e+00 1.000000000000000000e+00 1.000000000000000000e+00 9.994502663612365723e-01 1.000000000000000000e+00 1.000030279159545898e+00 1.000000000000000000e+00 1.000000000000000000e+00 9.994572401046752930e-01 1.000000000000000000e+00 1.000000000000000000e+00 1.000000000000000000e+00 1.000000000000000000e+00 1.000000000000000000e+00 1.000000000000000000e+00 1.000476837158203125e+00 1.000000000000000000e+00 9.998813867568969727e-01 1.000000000000000000e+00 1.000092148780822754e+00 1.000000000000000000e+00 1.000000000000000000e+00 1.000000000000000000e+00 1.000000000000000000e+00 1.000000000000000000e+00 9.996235370635986328e-01 1.000000000000000000e+00 1.000000000000000000e+00 1.000000000000000000e+00 1.000000000000000000e+00 1.000000000000000000e+00 1.000111818313598633e+00 1.000000000000000000e+00 1.000000000000000000e+00 1.000000000000000000e+00 1.000411033630371094e+00 1.000000000000000000e+00 1.000000000000000000e+00 9.999017119407653809e-01 9.965846538543701172e-01 1.000000000000000000e+00 1.000000000000000000e+00 1.000000000000000000e+00 1.000000000000000000e+00 1.000000000000000000e+00 1.000000000000000000e+00 1.000006556510925293e+00 1.000000000000000000e+00 9.999529719352722168e-01 1.000000000000000000e+00 1.000000000000000000e+00 1.000000000000000000e+00 1.000622987747192383e+00 1.000000000000000000e+00 1.000000000000000000e+00 1.000000000000000000e+00 1.000000000000000000e+00 1.000000000000000000e+00 1.000177502632141113e+00 1.000000000000000000e+00 9.995310306549072266e-01 1.000000000000000000e+00 1.000000000000000000e+00 1.000000000000000000e+00 1.000000000000000000e+00 1.000000000000000000e+00 1.000000000000000000e+00 1.000008106231689453e+00 1.000000000000000000e+00 1.000000000000000000e+00 1.000000000000000000e+00 1.000000000000000000e+00 9.996905326843261719e-01 9.999406933784484863e-01 1.000000000000000000e+00 1.000000000000000000e+00 1.000000000000000000e+00 1.000000000000000000e+00 1.000000000000000000e+00 1.000083446502685547e+00 1.000000000000000000e+00 1.000000000000000000e+00 1.000000000000000000e+00 1.000150680541992188e+00 1.000000000000000000e+00 1.000000000000000000e+00 1.000000000000000000e+00 1.000269532203674316e+00 1.000000000000000000e+00 1.000000000000000000e+00 1.000000000000000000e+00 1.001077771186828613e+00 1.000000000000000000e+00 1.000000000000000000e+00 1.000000000000000000e+00 1.000000000000000000e+00 1.000000000000000000e+00 1.000000000000000000e+00 1.000000000000000000e+00 1.000000000000000000e+00 1.000000000000000000e+00 1.000000000000000000e+00 1.000000000000000000e+00 1.000000000000000000e+00 9.396206140518188477e-01 1.000156641006469727e+00 1.000012874603271484e+00 1.001317024230957031e+00 1.000136613845825195e+00 9.978576898574829102e-01 1.000000000000000000e+00 1.002033472061157227e+00 9.999858736991882324e-01 9.999969601631164551e-01 9.999498128890991211e-01 1.000000000000000000e+00 1.000000000000000000e+00 9.999791979789733887e-01 1.000000000000000000e+00 1.000000000000000000e+00 1.000000000000000000e+00 1.000156998634338379e+00 1.000000000000000000e+00 1.000000000000000000e+00 1.000000000000000000e+00 9.999276995658874512e-01 1.000000000000000000e+00 1.000000000000000000e+00 1.000107884407043457e+00 1.000015020370483398e+00 1.000001430511474609e+00 1.013512253761291504e+00 9.999839663505554199e-01 9.990323185920715332e-01 1.000000000000000000e+00 1.000000000000000000e+00 9.993473291397094727e-01 1.000000000000000000e+00 1.000000000000000000e+00 1.000000000000000000e+00 1.000570535659790039e+00 1.000000000000000000e+00 1.000026106834411621e+00 1.000000000000000000e+00 1.000000000000000000e+00 1.000000000000000000e+00 1.000000000000000000e+00 1.000182032585144043e+00 9.997986555099487305e-01 1.000000000000000000e+00 1.000000000000000000e+00 1.000000000000000000e+00 1.000000000000000000e+00 1.000000000000000000e+00 1.000000000000000000e+00 9.809204339981079102e-01 1.000000000000000000e+00 9.998555779457092285e-01 1.000000000000000000e+00 9.999638795852661133e-01 1.000000000000000000e+00 1.000177502632141113e+00 1.000000000000000000e+00 1.000000000000000000e+00 9.999814629554748535e-01 1.000000000000000000e+00 1.001327157020568848e+00 1.000000000000000000e+00 1.000046014785766602e+00 1.000000000000000000e+00 -1.367912068963050842e-02 1.000000000000000000e+00 1.000000000000000000e+00 9.997611045837402344e-01 1.000000000000000000e+00 1.000000000000000000e+00 1.000367164611816406e+00 1.000000000000000000e+00 1.000000000000000000e+00 1.000000000000000000e+00 1.037675619125366211e+00 1.000023245811462402e+00 9.996031522750854492e-01 1.000000000000000000e+00 1.000000000000000000e+00 1.000000000000000000e+00 1.000000000000000000e+00 1.000000000000000000e+00 1.000025391578674316e+00 1.000000000000000000e+00 9.995201826095581055e-01 1.000000000000000000e+00 1.000039339065551758e+00 6.702397465705871582e-01 1.000806689262390137e+00 1.000000000000000000e+00 1.000000000000000000e+00 1.000000000000000000e+00 9.998990893363952637e-01 9.986082911491394043e-01 1.000000000000000000e+00 1.000000000000000000e+00 1.000000000000000000e+00 1.000000000000000000e+00 1.000000000000000000e+00 9.999954700469970703e-01 1.000000000000000000e+00 1.000000000000000000e+00 1.000000000000000000e+00 1.000000000000000000e+00 1.000000000000000000e+00 1.000501871109008789e+00 1.000000000000000000e+00 1.000000000000000000e+00 1.000549316406250000e+00 1.000324249267578125e+00 1.000000000000000000e+00 9.999740719795227051e-01 1.000000000000000000e+00 1.000234961509704590e+00 1.000450730323791504e+00 1.000564813613891602e+00 1.000000000000000000e+00 1.000041127204895020e+00 9.912641644477844238e-01 1.000000000000000000e+00 1.000000000000000000e+00 9.992209672927856445e-01 9.998108744621276855e-01 1.000000000000000000e+00 9.998928308486938477e-01 1.000000000000000000e+00 1.000000000000000000e+00 1.000000000000000000e+00 1.000819802284240723e+00 1.000000000000000000e+00 1.000000000000000000e+00 9.999331235885620117e-01 9.999058246612548828e-01 1.000045657157897949e+00 1.001180887222290039e+00 1.000076532363891602e+00 9.700196385383605957e-01 9.498710036277770996e-01 1.000190258026123047e+00 7.598543167114257812e-01 9.585818648338317871e-01 1.000000000000000000e+00 1.001730203628540039e+00 1.000021219253540039e+00 9.982104897499084473e-01 9.996299147605895996e-01 1.001092672348022461e+00 1.001507043838500977e+00 1.000000000000000000e+00 1.000000000000000000e+00 1.000000000000000000e+00 1.003359436988830566e+00 1.000000000000000000e+00 1.000000000000000000e+00 6.991429924964904785e-01 1.000000000000000000e+00 1.000000000000000000e+00 9.990750551223754883e-01 1.000000000000000000e+00 1.000000000000000000e+00 9.997647404670715332e-01 1.000000000000000000e+00 1.000000000000000000e+00 1.000000000000000000e+00 1.000000000000000000e+00 1.000000000000000000e+00 1.000000000000000000e+00 1.000057697296142578e+00 9.998929500579833984e-01 1.000929713249206543e+00 1.000000000000000000e+00 1.000000000000000000e+00 9.994634985923767090e-01 9.998067617416381836e-01 1.000000000000000000e+00 1.000051856040954590e+00 1.000000000000000000e+00 9.680751562118530273e-01 1.000000000000000000e+00 1.000000000000000000e+00 1.000330567359924316e+00 1.000000000000000000e+00 1.000000000000000000e+00 9.998417496681213379e-01 1.000000000000000000e+00 1.000156641006469727e+00 9.998762011528015137e-01 9.997704029083251953e-01 9.999954700469970703e-01 9.996892213821411133e-01 9.992784261703491211e-01 1.000000000000000000e+00 1.000000000000000000e+00 1.000234127044677734e+00 9.996910691261291504e-01 1.001090764999389648e+00 1.000424981117248535e+00 9.992432594299316406e-01 9.989705681800842285e-01 1.000000000000000000e+00 9.999734759330749512e-01 1.006357312202453613e+00 1.000018477439880371e+00 8.506594300270080566e-01 9.990833997726440430e-01 1.001621961593627930e+00 1.001951217651367188e+00 1.000414490699768066e+00 1.000010609626770020e+00 9.986608028411865234e-01 9.999637603759765625e-01 1.000061273574829102e+00 4.380916655063629150e-01 1.000000000000000000e+00 1.000066876411437988e+00 1.000000000000000000e+00 1.000007271766662598e+00 1.000000000000000000e+00 1.000000000000000000e+00 1.000014543533325195e+00 1.000000000000000000e+00 