1.107210200279951096e-02 6.630076467990875244e-02 -2.130593359470367432e-02 2.403545565903186798e-02 -1.331538078375160694e-03 3.515043854713439941e-02 -9.162281453609466553e-02 1.986335031688213348e-03 7.525099068880081177e-02 -9.962709248065948486e-02 -2.824493683874607086e-02 -9.140338748693466187e-02 -2.244973741471767426e-02 -3.158937096595764160e-01 1.444169040769338608e-02 -4.470018446445465088e-01 -4.425294101238250732e-01 8.741562254726886749e-03 -2.468318045139312744e-01 3.257139772176742554e-02 -2.326519936323165894e-01 -6.541191786527633667e-02 -3.320754691958427429e-02 5.428988486528396606e-02 -1.481202989816665649e-02 1.601542718708515167e-02 1.082111336290836334e-02 -1.153670102357864380e-01 1.576597243547439575e-02 1.570720970630645752e-02 -3.854070324450731277e-03 6.397868040949106216e-03 -5.922483396716415882e-04 -1.437837481498718262e-01 -8.549004048109054565e-02 -4.539331793785095215e-02 7.508864626288414001e-03 3.997065126895904541e-02 2.313106879591941833e-02 -4.730134736746549606e-03 -4.927194118499755859e-02 -3.007184155285358429e-02 1.240116916596889496e-02 4.146870970726013184e-02 8.711307309567928314e-03 -3.155996650457382202e-02 -7.033003866672515869e-02 1.179958228021860123e-02 1.338348630815744400e-02 2.494773268699645996e-02 -5.860222503542900085e-02 8.726050145924091339e-03 1.220979448407888412e-02 -1.408364740200340748e-03 3.019550442695617676e-02 -5.149529129266738892e-02 -3.774343430995941162e-02 1.124656200408935547e-02 5.800732597708702087e-02 -2.718327343463897705e-01 -2.055988181382417679e-03 -9.073793888092041016e-02 4.487936850637197495e-03 -9.013707749545574188e-03 -1.096683368086814880e-01 -3.850217442959547043e-03 -2.160030789673328400e-02 4.000107292085886002e-03 -8.049551397562026978e-02 -1.918702386319637299e-02 3.709758073091506958e-02 3.685794025659561157e-02 -2.734731696546077728e-02 4.000281915068626404e-02 1.284358650445938110e-02 -2.538199722766876221e-02 1.290784496814012527e-02 -9.264175593852996826e-02 -8.934095385484397411e-04 -3.612336888909339905e-02 -1.252923742868006229e-03 2.484855987131595612e-02 -1.030632033944129944e-01 4.952463321387767792e-03 1.318976655602455139e-02 -6.020614877343177795e-02 -1.754389144480228424e-02 -1.451117396354675293e-01 3.471697494387626648e-02 1.954279467463493347e-02 2.174478955566883087e-02 1.278317440301179886e-02 -9.913397952914237976e-04 -1.460323631763458252e-01 -3.040598146617412567e-02 -5.500154569745063782e-02 -9.080234915018081665e-03 -8.825703710317611694e-02 2.919759601354598999e-02 9.639924392104148865e-03 -1.863314509391784668e-01 -2.088595032691955566e-01 -3.169598802924156189e-02 9.621259960113093257e-05 3.975996002554893494e-02 -2.441649790853261948e-03 -1.355895996093750000e-01 -1.409527752548456192e-02 -2.401990629732608795e-02 -1.428036298602819443e-02 -1.533470582216978073e-02 -1.638557314872741699e-01 2.980828098952770233e-02 1.720353029668331146e-02 -5.764770321547985077e-03 1.079204585403203964e-02 -1.015896275639533997e-01 -3.165005147457122803e-01 2.309074625372886658e-02 -6.149301305413246155e-02 -2.422913163900375366e-01 1.763521111570298672e-03 1.919281482696533203e-02 -3.401289582252502441e-01 -1.735205948352813721e-01 -4.023849219083786011e-02 1.035189907997846603e-02 -6.307088583707809448e-02 6.724666059017181396e-02 -1.287524937652051449e-03 -2.946131303906440735e-02 1.193467341363430023e-02 -4.580885171890258789e-03 -5.162568688392639160e-01 -8.696316182613372803e-02 1.633905572816729546e-03 2.494883537292480469e-02 -7.846386870369315147e-04 -3.359001502394676208e-02 1.225774828344583511e-02 -1.950404793024063110e-02 -7.041855156421661377e-02 -1.049202284775674343e-03 3.850430482998490334e-03 -6.725247483700513840e-03 3.400685638189315796e-02 5.049965810030698776e-03 8.243146538734436035e-02 -2.239117212593555450e-02 1.174234040081501007e-02 9.462460875511169434e-03 1.076751574873924255e-02 -1.761270165443420410e-01 -4.384652245789766312e-03 -1.032749749720096588e-02 1.441001147031784058e-02 3.229593485593795776e-02 -2.503504604101181030e-02 -5.154517712071537971e-04 -3.340851143002510071e-02 1.301147975027561188e-03 -5.425547808408737183e-02 -2.516376972198486328e-01 -1.737212203443050385e-02 6.830269098281860352e-02 -5.011611059308052063e-02 -1.543041667900979519e-03 -2.923986017704010010e-01 -6.020651757717132568e-02 -3.426894545555114746e-01 -1.570401191711425781e-01 -8.724509179592132568e-02 -9.427846968173980713e-02 4.791519604623317719e-03 -2.073117718100547791e-02 4.895429126918315887e-03 -2.285650968551635742e-01 1.704696193337440491e-02 -4.141885321587324142e-03 4.627119004726409912e-02 -2.556909620761871338e-01 -3.651847131550312042e-03 -9.911052882671356201e-03 3.383102267980575562e-02 4.329852014780044556e-02 -3.471656888723373413e-02 1.001704577356576920e-02 3.297525271773338318e-02 3.236017376184463501e-02 -2.442479890305548906e-04 6.049202755093574524e-02 -2.413914538919925690e-02 -2.725454512983560562e-03 5.568748712539672852e-02 2.062016865238547325e-03 -8.304902911186218262e-02 -1.930794268846511841e-01 4.266703035682439804e-03 -5.560437217354774475e-03 -4.473292827606201172e-02 -2.787196040153503418e-01 -3.711922764778137207e-01 6.622579414397478104e-03 -7.237847149372100830e-02 -1.028493866324424744e-01 5.570338107645511627e-03 2.780788950622081757e-02 1.364324614405632019e-02 1.713608205318450928e-02 -1.083895042538642883e-01 -4.266886413097381592e-02 -6.998898833990097046e-02 8.030068129301071167e-03 -1.395201496779918671e-02 4.240458831191062927e-03 -7.795436680316925049e-02 -1.852878034114837646e-01 -1.595490127801895142e-01 -2.063463777303695679e-01 1.839131291490048170e-04 -4.267045482993125916e-02 -8.990230271592736244e-04 -7.210360374301671982e-03 4.946853034198284149e-03 -1.622731238603591919e-01 -1.350202877074480057e-02 4.235014691948890686e-02 -3.115889132022857666e-01 7.608979474753141403e-03 -2.833831608295440674e-01 -3.384226858615875244e-01 -1.842430210672318935e-03 5.349821876734495163e-03 -7.016750983893871307e-03 -3.012110851705074310e-02 3.321612253785133362e-02 5.606768652796745300e-02 -2.574609220027923584e-02 -3.180563449859619141e-02 -3.408797979354858398e-01 -2.915368787944316864e-02 -9.366336278617382050e-03 -1.003462076187133789e-01 -5.476894602179527283e-02 -2.939543686807155609e-02 -6.681652273982763290e-03 -6.277346052229404449e-03 2.483312599360942841e-02 -1.556898001581430435e-02 2.308576367795467377e-02 -1.969311684370040894e-01 -1.976314932107925415e-01 7.460657972842454910e-03 -3.959244862198829651e-02 -3.344915062189102173e-02 5.852487403899431229e-03 1.454823277890682220e-02 -3.753067180514335632e-02 -3.616592288017272949e-02 -8.580535650253295898e-02 -8.568846620619297028e-03 -4.426691681146621704e-02 -3.026820532977581024e-02 -1.435607820749282837e-01 1.297525689005851746e-02 -2.702531032264232635e-02 2.087738364934921265e-02 1.616467838175594807e-03 4.000242054462432861e-02 9.376401081681251526e-03 3.160096704959869385e-03 -2.309195250272750854e-01 -7.813902338966727257e-04 -3.157082945108413696e-02 2.473842911422252655e-02 -1.162591502070426941e-01 -5.475600808858871460e-02 2.766201272606849670e-03 -6.232821382582187653e-03 -2.040016837418079376e-02 9.178050793707370758e-03 -1.375542953610420227e-02 -3.768380731344223022e-02 -2.472873590886592865e-02 -1.896755956113338470e-02 3.133928403258323669e-03 -1.468511521816253662e-01 1.521693356335163116e-02 3.051315620541572571e-02 -3.473314344882965088e-01 -3.075188025832176208e-02 -1.114365737885236740e-02 -1.683976128697395325e-02 4.831086844205856323e-02 -1.226370707154273987e-01 -7.432658970355987549e-02 1.839164085686206818e-02 -1.397399306297302246e-01 2.365257823839783669e-03 -2.559396624565124512e-01 -1.765027828514575958e-02 -2.908562421798706055e-01 5.755142122507095337e-02 1.372762257233262062e-03 -9.440909139811992645e-03 1.003714976832270622e-03 -2.042530849575996399e-02 1.861281576566398144e-03 -2.164421603083610535e-02 2.258590795099735260e-02 -4.228529520332813263e-03 -1.831396669149398804e-02 -1.372933089733123779e-01 8.566522039473056793e-03 -2.542637474834918976e-02 3.762404620647430420e-02 -1.799502968788146973e-02 1.718562468886375427e-02 1.267836429178714752e-02 -1.217011245898902416e-03 6.071376148611307144e-03 -1.261455863714218140e-01 -2.595374584197998047e-01 1.298755872994661331e-02 1.906042452901601791e-04 -1.190016791224479675e-01 -6.486036349087953568e-03 9.662867523729801178e-03 -6.841155141592025757e-02 -1.829353719949722290e-01 -9.740226715803146362e-02 2.543481439352035522e-02 9.920691139996051788e-03 -6.476318091154098511e-02 -2.556778192520141602e-01 -2.753485739231109619e-01 -4.923168197274208069e-02 -1.660228823311626911e-03 1.328830234706401825e-02 -4.163472354412078857e-02 -3.808747744187712669e-03 3.056576102972030640e-02 1.284101512283086777e-02 -1.366765797138214111e-01 -5.333219468593597412e-02 -5.420193821191787720e-02 -4.005686938762664795e-02 -2.564621903002262115e-02 2.534254454076290131e-02 -2.746103107929229736e-01 -1.524814069271087646e-01 -6.334030628204345703e-02 -1.808512806892395020e-01 -6.984609365463256836e-02 6.610583979636430740e-03 4.299940168857574463e-02 -1.210390478372573853e-01 1.505334023386240005e-02 -8.122577855829149485e-05 -2.939655631780624390e-02 1.252082921564579010e-02 -1.789566874504089355e-01 -1.455011218786239624e-01 1.564867235720157623e-02 -4.203189015388488770e-01 -1.162504311650991440e-02 -5.889331176877021790e-02 -1.481394562870264053e-02 2.852368541061878204e-02 -1.525019705295562744e-01 9.589129127562046051e-03 -4.101476445794105530e-02 3.286368772387504578e-02 7.722199894487857819e-03 -2.762533426284790039e-01 -5.771435331553220749e-03 -2.027431577444076538e-01 -4.896998405456542969e-01 -1.400494277477264404e-01 3.808905184268951416e-02 -1.741756871342658997e-02 -2.057475149631500244e-01 -1.934477537870407104e-01 -6.026278436183929443e-02 2.169680781662464142e-02 -2.934963107109069824e-01 -8.781112730503082275e-02 -1.148633062839508057e-01 -5.057439673691987991e-03 -1.452070381492376328e-02 -1.260021235793828964e-02 2.212169207632541656e-02 -2.577601233497262001e-03 -2.183911204338073730e-01 -2.142999134957790375e-02 4.380183294415473938e-02 -5.528916046023368835e-02 -5.583873949944972992e-03 1.406786963343620300e-02 1.326281484216451645e-02 -2.255446165800094604e-01 -4.860027134418487549e-02 -5.402926472015678883e-04 1.971543580293655396e-02 -4.289081692695617676e-02 -9.057690389454364777e-03 1.247166097164154053e-02 -9.209993295371532440e-03 1.591104827821254730e-02 -3.402736503630876541e-03 1.054546810337342322e-04 -2.272937679663300514e-03 -2.131829112768173218e-01 5.764843150973320007e-02 7.365633547306060791e-02 3.378329426050186157e-02 -7.916858792304992676e-02 1.716342940926551819e-02 -4.594140220433473587e-03 -1.787147298455238342e-02 1.972438208758831024e-02 1.980550959706306458e-02 -4.485708475112915039e-02 -2.429013885557651520e-02 -5.397379398345947266e-02 -2.384904623031616211e-01 9.140452370047569275e-03 1.794374734163284302e-02 4.023729637265205383e-02 9.172517806291580200e-03 -1.252709031105041504e-01 -1.481594052165746689e-02 -9.927278012037277222e-02 2.748020924627780914e-03 -4.199490696191787720e-02 4.611114785075187683e-02 -2.786853583529591560e-03 2.675283886492252350e-02 -4.324878565967082977e-03 -1.322546880692243576e-02 -2.663302235305309296e-02 2.282386273145675659e-02 -3.266241550445556641e-01 4.855540581047534943e-03 2.941461466252803802e-02 -2.041728235781192780e-02 -2.049590647220611572e-01 -2.145256474614143372e-02 -4.472321867942810059e-01 -5.557001754641532898e-02 -1.869075931608676910e-02 5.153817590326070786e-03 -8.585099875926971436e-02 2.584504149854183197e-02 5.097394064068794250e-02 -3.083254210650920868e-02 -5.090054869651794434e-02 5.053156521171331406e-03 1.902409270405769348e-02 -2.729120850563049316e-02 8.948464877903461456e-03 -1.717385351657867432e-01 -6.764637678861618042e-02 -3.817085921764373779e-02 1.475168298929929733e-02 -4.898443073034286499e-02 -1.346895843744277954e-01 3.622413054108619690e-02 -3.256612122058868408e-01 1.559235039167106152e-03 -6.837729830294847488e-03 -4.196320101618766785e-02 -2.500516176223754883e-01 5.166247021406888962e-03 -1.148157659918069839e-02 -5.893731862306594849e-02 4.039346054196357727e-02 1.185199059545993805e-02 -1.784816198050975800e-02 9.334149770438671112e-03 -8.329551666975021362e-02 2.961700037121772766e-02 -2.245033159852027893e-02 -3.962273150682449341e-02 2.437355741858482361e-02 5.596795305609703064e-02 3.730167075991630554e-02 -2.735194265842437744e-01 -3.671404207125306129e-03 2.178419567644596100e-02 4.057808592915534973e-02 1.160376891493797302e-02 -3.921274095773696899e-02 -3.784792125225067139e-02 -5.971441417932510376e-02 6.336203217506408691e-02 1.183657813817262650e-02 -2.991389296948909760e-02 2.004105597734451294e-02 -4.334082826972007751e-03 -2.484509944915771484e-01 4.255698062479496002e-03 1.892704400233924389e-03 2.100798068568110466e-03 8.102301508188247681e-03 -4.673806019127368927e-03 5.299102142453193665e-02 -1.609439253807067871e-01 -7.191933225840330124e-03 2.716218866407871246e-02 1.656496711075305939e-02 9.266895055770874023e-02 -9.350177645683288574e-02 -3.102634567767381668e-03 3.382412716746330261e-02 5.334919691085815430e-02 -1.748952269554138184e-01 1.501031871885061264e-02 -4.954620450735092163e-02 -1.822435408830642700e-01 3.025975450873374939e-02 -1.641521044075489044e-02 -1.795351505279541016e-01 8.856980130076408386e-03 -4.219626542180776596e-03 -1.022804714739322662e-02 -5.454344674944877625e-02 4.596142470836639404e-02 3.625348210334777832e-02 7.808284834027290344e-03 2.996631199494004250e-03 -3.947328403592109680e-02 1.222072727978229523e-02 -6.225181743502616882e-03 2.392930537462234497e-02 -1.782184280455112457e-02 4.268368333578109741e-02 -4.339391365647315979e-02 5.630739033222198486e-03 -1.112999469041824341e-01 -5.356847122311592102e-02 -1.608254387974739075e-02 -6.137026008218526840e-03 -1.071851849555969238e-01 -3.360422328114509583e-02 3.159421309828758240e-02 9.798626415431499481e-03 -8.283886127173900604e-04 -9.951052069664001465e-02 -2.004574388265609741e-01 6.607910618185997009e-03 -4.170524189248681068e-04 -1.383673120290040970e-02 -1.944488584995269775e-01 2.130462601780891418e-02 -1.760476380586624146e-01 -9.653487242758274078e-03 -8.608802407979965210e-02 1.106891781091690063e-02 3.532335534691810608e-02 -2.483906224370002747e-02 -1.412712968885898590e-02 2.060996182262897491e-02 -1.205150969326496124e-02 -7.453223690390586853e-03 -1.396104395389556885e-01 3.496564552187919617e-02 -1.878235116600990295e-02 -1.676810719072818756e-02 7.390278577804565430e-02 8.901538327336311340e-03 -2.392841130495071411e-02 -7.995376945473253727e-04 -2.315880171954631805e-02 1.835923828184604645e-02 -3.096044436097145081e-02 -6.767945736646652222e-02 -5.705000367015600204e-03 7.622697949409484863e-02 -1.326663345098495483e-01 3.576662391424179077e-02 -1.529062073677778244e-02 2.911394089460372925e-02 7.575977127999067307e-03 -2.761349268257617950e-02 3.892266750335693359e-02 -8.912086486816406250e-02 3.323578741401433945e-03 -6.463469564914703369e-02 6.965454667806625366e-03 -4.160605021752417088e-04 -3.460357710719108582e-02 9.487514384090900421e-03 8.478183299303054810e-04 1.164573244750499725e-02 -3.605214878916740417e-02 -7.869751751422882080e-02 1.195169519633054733e-03 -9.680278599262237549e-02 -6.394058465957641602e-02 -6.187514215707778931e-02 -5.137385800480842590e-02 -2.256778180599212646e-01 -2.711959369480609894e-02 -6.110873539000749588e-03 -2.571422792971134186e-02 1.239465828984975815e-02 5.484701134264469147e-03 3.546636179089546204e-02 -2.489049136638641357e-01 8.244363591074943542e-03 2.104804851114749908e-02 -1.559058297425508499e-02 2.953363582491874695e-02 5.850453302264213562e-02 -3.902816772460937500e-02 1.634624227881431580e-02 7.145829964429140091e-03 -3.378972411155700684e-02 -4.223976749926805496e-03 2.668386325240135193e-02 -2.417682409286499023e-01 -3.072663955390453339e-02 -1.118331030011177063e-02 -1.392647325992584229e-01 2.686471119523048401e-02 -9.670980274677276611e-03 -1.711878627538681030e-01 -1.510727554559707642e-01 -1.597111672163009644e-02 1.226495206356048584e-02 -8.663684129714965820e-02 -2.068934030830860138e-02 4.491744190454483032e-02 1.274981442838907242e-02 8.223191834986209869e-03 3.167314082384109497e-02 -7.744666188955307007e-02 -5.964204203337430954e-03 -5.396541208028793335e-02 5.871543195098638535e-03 2.333123702555894852e-04 -1.509346961975097656e-01 9.838605765253305435e-04 -3.480479866266250610e-02 -1.972118169069290161e-01 -1.562224794179201126e-02 3.627198562026023865e-02 -1.367024797946214676e-02 -2.711186110973358154e-01 -5.959271267056465149e-02 1.435734913684427738e-03 2.270834892988204956e-02 2.757638506591320038e-02 2.382597327232360840e-02 1.854092464782297611e-03 -1.900933533906936646e-01 2.488932386040687561e-02 4.229434707667678595e-04 -4.345563352108001709e-01 5.323360860347747803e-02 -1.501517649739980698e-02 -1.220228429883718491e-02 8.430995978415012360e-03 -2.392657995223999023e-01 -1.521823089569807053e-02 -9.158197790384292603e-02 -3.269119560718536377e-02 -1.137106418609619141e-01 -5.727262794971466064e-02 -1.680148690938949585e-01 -1.130006387829780579e-01 -6.983995437622070312e-02 -1.241236254572868347e-01 -3.332020640373229980e-01 -1.469551324844360352e-01 1.882790820673108101e-03 -1.272851135581731796e-02 -1.298652403056621552e-02 -7.567013800144195557e-02 1.027064677327871323e-02 6.367359310388565063e-02 -1.027522515505552292e-02 -7.342918217182159424e-02 -2.714388072490692139e-02 -1.572327464818954468e-01 7.444940973073244095e-03 2.796988934278488159e-02 1.102894544601440430e-02 -2.046846002340316772e-01 -3.550518304109573364e-02 -5.417812988162040710e-02 5.848309770226478577e-02 -2.366732954978942871e-01 -2.258695103228092194e-02 1.558127813041210175e-02 -2.617725133895874023e-01 7.725385576486587524e-02 7.449619472026824951e-02 4.265648126602172852e-02 -1.911768689751625061e-02 -1.175782456994056702e-01 1.470345351845026016e-02 -6.860055029392242432e-02 -1.756083816289901733e-01 -6.447288207709789276e-03 2.303028665482997894e-02 -3.714269697666168213e-01 -7.200630754232406616e-02 6.608542799949645996e-02 -1.341224014759063721e-01 9.542712569236755371e-02 5.109574645757675171e-02 -6.410161405801773071e-02 9.290973842144012451e-02 -2.280046045780181885e-02 3.909787163138389587e-02 1.582509488798677921e-03 1.368009578436613083e-02 -7.941249758005142212e-02 -2.968474105000495911e-02 -8.581195957958698273e-03 -8.632772415876388550e-02 -1.486198753118515015e-01 -5.986719951033592224e-02 4.540463164448738098e-02 2.236786298453807831e-02 9.857663884758949280e-03 4.075680859386920929e-03 -1.616071015596389771e-01 -4.590537399053573608e-02 -1.161299459636211395e-02 1.441352441906929016e-02 -2.169536352157592773e-01 1.303935330361127853e-02 -2.354018241167068481e-01 -1.489798817783594131e-02 8.960071951150894165e-03 -2.686516344547271729e-01 -2.202867157757282257e-02 1.470002718269824982e-02 -1.097597852349281311e-01 -1.657488569617271423e-02 -4.898109138011932373e-01 -9.834942221641540527e-02 -1.312637776136398315e-01 -1.354545354843139648e-01 5.117146763950586319e-03 2.544849179685115814e-03 3.827524138614535332e-03 4.641228914260864258e-02 -7.354418281465768814e-03 -4.683492705225944519e-02 1.743065379559993744e-02 -4.758591763675212860e-03 1.250643562525510788e-02 -3.254053182899951935e-03 -2.013043910264968872e-01 1.028560400009155273e-01 -9.250586852431297302e-03 8.804343640804290771e-03 -8.426678925752639771e-02 2.651176787912845612e-02 -7.351540029048919678e-02 -8.295306004583835602e-03 -3.920982778072357178e-02 -2.009560614824295044e-01 -4.099466279149055481e-02 -4.272232204675674438e-02 -3.206471726298332214e-02 -3.294879570603370667e-02 -3.388434648513793945e-02 -2.409994415938854218e-02 -7.907100021839141846e-02 6.001990288496017456e-03 -1.937102675437927246e-01 -1.687989979982376099e-01 5.874107591807842255e-03 4.098954051733016968e-02 -3.632378065958619118e-03 -3.207023069262504578e-02 -5.792344920337200165e-03 5.436857044696807861e-02 -1.970484293997287750e-02 -1.173496060073375702e-02 -1.431890875101089478e-01 -2.397555261850357056e-01 -3.809385746717453003e-02 -1.904266029596328735e-01 -4.123343154788017273e-02 -7.838568091392517090e-02 4.570941627025604248e-02 -2.199392467737197876e-01 -3.077759444713592529e-01 -4.378563538193702698e-02 -2.412941103102639318e-04 -1.153179630637168884e-01 -4.585058391094207764e-01 -1.032541412860155106e-02 -9.831610321998596191e-02 -1.510032359510660172e-02 -3.293842971324920654e-01 -2.991508319973945618e-02 -3.344370797276496887e-02 4.142792895436286926e-03 -2.205808460712432861e-02 -1.604929752647876740e-02 -1.566681824624538422e-02 2.774837240576744080e-02 -4.835178703069686890e-02 5.343496054410934448e-02 -2.961565181612968445e-02 -1.085208803415298462e-01 1.404009014368057251e-02 -4.846910480409860611e-03 9.370384505018591881e-04 -1.605647802352905273e-02 -1.377954240888357162e-02 -3.883287012577056885e-01 2.292395336553454399e-03 -6.741617619991302490e-02 -2.547327876091003418e-01 2.020713500678539276e-02 2.298095030710101128e-03 -2.752008736133575439e-01 7.039451599121093750e-02 2.261408977210521698e-02 2.300351858139038086e-03 -1.391435414552688599e-01 -1.197465956211090088e-01 -3.039006888866424561e-01 7.101587206125259399e-02 -1.959109753370285034e-01 -4.791256040334701538e-03 4.199675284326076508e-03 -1.948686549440026283e-03 -1.672778837382793427e-02 -1.429371982812881470e-01 3.117750212550163269e-02 -2.537574060261249542e-02 -3.615038935095071793e-03 2.848634310066699982e-02 -1.908318698406219482e-01 -4.123103246092796326e-02 -6.797541677951812744e-02 -2.154676057398319244e-02 2.822551876306533813e-02 -1.871957629919052124e-02 1.538345962762832642e-02 -1.865697801113128662e-01 6.323435809463262558e-03 -5.273124203085899353e-02 -9.241374582052230835e-02 1.775162294507026672e-02 -4.932983964681625366e-02 1.020102854818105698e-02 -8.924400433897972107e-03 1.369773177430033684e-03 3.201028332114219666e-02 -5.246894806623458862e-02 1.084628887474536896e-02 -1.502061486244201660e-01 -7.387028634548187256e-02 -1.074479520320892334e-02 1.038997247815132141e-02 2.351418137550354004e-02 4.680506419390439987e-03 -2.047496847808361053e-02 -8.347003720700740814e-03 -6.912575918249785900e-04 1.468573138117790222e-02 -2.413639612495899200e-02 4.145040363073348999e-02 -6.530825339723378420e-05 1.429141685366630554e-02 2.342261560261249542e-02 1.001770049333572388e-02 8.025585557334125042e-04 -1.324546150863170624e-02 -2.444009333848953247e-01 2.554051391780376434e-02 -5.218489840626716614e-02 -3.502251580357551575e-03 3.949062898755073547e-03 7.694599777460098267e-02 4.696035012602806091e-02 -4.991844296455383301e-02 -6.806644797325134277e-02 -7.310639321804046631e-02 -1.440040767192840576e-02 -2.047356963157653809e-02 -1.186610460281372070e-01 -1.724953055381774902e-01 9.571767412126064301e-03 -3.222168306820094585e-04 4.357761144638061523e-02 3.417415544390678406e-02 -2.863144502043724060e-02 2.774099260568618774e-02 1.756455935537815094e-02 -1.600783616304397583e-01 -4.551541060209274292e-02 -5.657105520367622375e-02 -1.827630847692489624e-01 -1.310580410063266754e-02 3.931566327810287476e-02 -8.498014509677886963e-02 2.502251975238323212e-02 -2.482900619506835938e-01 -3.120758337900042534e-03 4.264799132943153381e-02 -2.528673969209194183e-02 -1.969091743230819702e-01 -1.226649619638919830e-03 -1.654403954744338989e-01 -6.258132401853799820e-03 8.388570509850978851e-03 -1.410010457038879395e-01 -1.992989704012870789e-02 -2.231449484825134277e-01 4.629131406545639038e-03 -1.265800744295120239e-01 1.188630610704421997e-02 2.358020097017288208e-02 1.486968062818050385e-02 -2.966849133372306824e-03 5.897945258766412735e-03 2.349900268018245697e-02 -1.268708147108554840e-02 4.878665506839752197e-02 -1.305138505995273590e-02 -3.191970661282539368e-02 -1.375848334282636642e-02 -2.376061230897903442e-01 -6.630606949329376221e-02 -1.536856740713119507e-01 -1.052708998322486877e-01 1.123728416860103607e-02 -1.116109266877174377e-02 -2.730671167373657227e-01 2.574278786778450012e-02 -9.658292867243289948e-03 1.116243284195661545e-02 -4.649815708398818970e-02 -2.299821674823760986e-01 -2.545251324772834778e-02 -3.976518753916025162e-03 4.127113521099090576e-02 3.794964775443077087e-02 3.410959988832473755e-02 2.171092480421066284e-02 4.570140689611434937e-02 -1.769384890794754028e-01 -2.230690121650695801e-01 -1.764319837093353271e-01 -4.823903739452362061e-02 -2.865353133529424667e-03 2.279883623123168945e-02 -1.746863275766372681e-01 5.651006475090980530e-02 -8.151327818632125854e-02 2.659146673977375031e-02 1.923868060111999512e-02 -1.705918088555335999e-02 -2.088122628629207611e-02 9.201856446452438831e-04 -3.358129784464836121e-02 1.421408820897340775e-02 -1.476401183754205704e-02 5.175919458270072937e-02 -1.371727697551250458e-02 -3.389751166105270386e-02 -2.401072531938552856e-01 -6.038566585630178452e-03 -1.916281878948211670e-01 2.056423109024763107e-04 -2.460116744041442871e-01 3.690040856599807739e-02 -1.326265279203653336e-03 -3.677679458633065224e-03 -1.556012127548456192e-02 -9.877959266304969788e-03 -1.550426781177520752e-01 3.732442855834960938e-02 -1.847950555384159088e-02 -1.895608496852219105e-03 -1.535036116838455200e-01 5.191940348595380783e-03 -1.649342104792594910e-02 5.395427718758583069e-02 6.640456616878509521e-02 -7.581789046525955200e-02 2.011608704924583435e-02 -6.696080416440963745e-02 -1.503881514072418213e-01 3.333949297666549683e-02 -3.460477292537689209e-02 -3.040589950978755951e-02 -2.179379947483539581e-02 -5.335060879588127136e-02 -1.644161343574523926e-01 7.207200862467288971e-03 1.082745660096406937e-02 -2.437887936830520630e-01 -4.120073467493057251e-02 -1.777000725269317627e-02 3.011184558272361755e-02 6.191857531666755676e-02 -5.742917209863662720e-02 5.248336121439933777e-02 -7.808985561132431030e-02 2.093801833689212799e-02 -3.850867599248886108e-02 -1.544815748929977417e-01 1.584059558808803558e-02 1.152032427489757538e-02 -1.797876507043838501e-01 -3.433578647673130035e-03 -3.221361637115478516e-01 -1.330785267055034637e-02 -4.016178660094738007e-03 -1.795775815844535828e-02 3.343576565384864807e-02 6.429568398743867874e-03 -4.514736682176589966e-02 -3.991987928748130798e-02 -1.672984659671783447e-02 -1.745190173387527466e-01 -2.551631815731525421e-02 -6.484239548444747925e-02 -1.834525726735591888e-02 -2.791472896933555603e-02 6.528785824775695801e-02 -1.060179769992828369e-01 3.139546886086463928e-02 -1.491220318712294102e-03 -2.376339957118034363e-02 -5.118438974022865295e-02 -3.275774419307708740e-01 -4.035547748208045959e-02 -4.323996603488922119e-01 1.643422245979309082e-02 -9.271272574551403522e-04 -1.772044412791728973e-02 4.287830553948879242e-03 -5.093147046864032745e-03 -5.347602069377899170e-02 -1.174556687474250793e-01 -1.680770963430404663e-01 2.505703829228878021e-03 -3.850911185145378113e-02 -5.673343548551201820e-05 1.466820947825908661e-03 1.643947698175907135e-02 4.611909016966819763e-02 8.605853072367608547e-04 -6.569689512252807617e-02 -1.193282529711723328e-01 2.791120484471321106e-02 -2.600853741168975830e-01 -1.965394914150238037e-01 -1.685806922614574432e-02 -2.775608096271753311e-03 1.174266356974840164e-02 7.494460791349411011e-02 8.055337518453598022e-02 -1.269520521163940430e-01 -5.008500441908836365e-02 7.687305659055709839e-02 -1.340729999355971813e-03 -2.199507653713226318e-01 5.453654006123542786e-02 6.509735248982906342e-03 -1.150426119565963745e-01 1.797358505427837372e-02 3.395063430070877075e-02 -2.218637987971305847e-02 1.018343586474657059e-02 -2.252802252769470215e-01 1.027689501643180847e-02 2.841586433351039886e-02 8.943350985646247864e-03 1.690678671002388000e-02 -1.180701237171888351e-02 1.960284262895584106e-02 -2.140851914882659912e-01 -1.359656546264886856e-02 6.713475566357374191e-03 -2.599464729428291321e-02 -3.064033016562461853e-02 -2.641601860523223877e-02 -3.413573140278458595e-04 -3.339112699031829834e-01 -1.690179407596588135e-01 2.477006241679191589e-02 6.585559993982315063e-02 1.796125248074531555e-02 -1.231396337971091270e-03 -1.742889136075973511e-01 4.381567612290382385e-02 -1.281226985156536102e-02 5.096219852566719055e-02 -2.117118835449218750e-01 -4.846655298024415970e-03 -7.012702524662017822e-02 -1.938047632575035095e-02 -2.098753675818443298e-02 4.587846621870994568e-02 1.337870373390614986e-03 3.214063867926597595e-02 -8.789699524641036987e-02 -7.932545267976820469e-04 1.337909232825040817e-02 2.236567251384258270e-02 -3.039607591927051544e-02 -2.351649552583694458e-01 -1.848440915346145630e-01 5.512506887316703796e-02 -2.862599194049835205e-01 -1.867309771478176117e-02 -1.046297419816255569e-02 -6.693880073726177216e-03 -1.227242350578308105e-01 -3.728579357266426086e-02 3.479423001408576965e-02 -5.394802615046501160e-02 -2.077301219105720520e-02 -5.714507773518562317e-03 2.470220997929573059e-02 -1.316833496093750000e-01 -8.752010762691497803e-03 1.220715697854757309e-03 3.195629920810461044e-03 4.217599332332611084e-02 -2.376541309058666229e-02 -1.024833042174577713e-02 -2.187404036521911621e-01 -6.880959868431091309e-02 1.843021251261234283e-02 1.190025825053453445e-02 5.561108887195587158e-02 -2.022073045372962952e-02 4.012240970041602850e-04 2.267147973179817200e-02 -6.228085607290267944e-03 4.717019572854042053e-02 -2.650308189913630486e-03 5.165811628103256226e-02 -4.008210729807615280e-03 9.466402232646942139e-03 -2.651337981224060059e-01 -1.076713278889656067e-01 -1.231379434466362000e-02 1.832753332564607263e-04 1.350440084934234619e-02 -3.252626061439514160e-01 -4.630581941455602646e-03 -1.824196726083755493e-01 -4.405045136809349060e-02 -9.123735129833221436e-03 -4.059241712093353271e-02 7.552094757556915283e-02 -2.604204788804054260e-02 -2.385595291852951050e-01 5.130700767040252686e-02 -1.019847579300403595e-02 1.305658463388681412e-02 1.062228064984083176e-02 -2.022208273410797119e-01 -3.562907874584197998e-02 -8.469992317259311676e-04 -1.008944287896156311e-01 2.940001897513866425e-02 -4.725480824708938599e-02 1.341649424284696579e-02 9.339936077594757080e-03 -1.011085137724876404e-02 2.123094350099563599e-02 -8.359743654727935791e-02 2.673163078725337982e-03 -2.062484920024871826e-01 -7.352796941995620728e-02 -1.092807389795780182e-02 -5.309354513883590698e-02 -5.770732089877128601e-02 -1.796087063848972321e-02 -1.586674898862838745e-02 -4.488696530461311340e-02 3.690987825393676758e-02 2.162788761779665947e-03 -2.739132195711135864e-02 -1.128698810935020447e-01 -2.831250615417957306e-02 -2.905891835689544678e-01 -1.296402961015701294e-01 -3.214660566300153732e-03 -1.348779499530792236e-01 -2.544023282825946808e-02 -1.425108127295970917e-02 5.627986416220664978e-02 -2.429893426597118378e-02 5.573865957558155060e-03 6.254442501813173294e-03 1.977101899683475494e-02 -8.831925224512815475e-04 -1.275723800063133240e-02 -1.718913763761520386e-02 2.111060172319412231e-02 -3.588033914566040039e-01 2.080242149531841278e-03 -1.835419610142707825e-02 -1.779691576957702637e-01 3.162054717540740967e-02 -2.736001834273338318e-02 1.438432093709707260e-02 2.331250160932540894e-02 -9.922081604599952698e-03 -1.675077481195330620e-03 1.960791274905204773e-02 -1.880753971636295319e-02 -2.068881094455718994e-01 -2.915013954043388367e-02 -7.568425685167312622e-02 -1.753149204887449741e-03 -6.190435960888862610e-04 -4.634700715541839600e-02 -2.303055226802825928e-01 -2.579062059521675110e-02 -2.185052027925848961e-03 -2.349943667650222778e-02 -9.957803785800933838e-02 -1.120198518037796021e-02 -1.488118711858987808e-02 1.667352207005023956e-02 2.581337839365005493e-02 2.082538418471813202e-02 4.275008291006088257e-02 -1.579362154006958008e-01 3.466709330677986145e-02 -4.581305664032697678e-03 5.757780279964208603e-03 -6.022432819008827209e-02 5.953589826822280884e-02 1.044433284550905228e-02 2.860227599740028381e-02 -3.099873848259449005e-02 -4.799347370862960815e-03 -5.451925471425056458e-02 -1.999374292790889740e-02 -7.180400937795639038e-02 -2.905538976192474365e-01 2.037797681987285614e-02 2.582669071853160858e-02 2.387771755456924438e-02 -2.008462511003017426e-02 -1.371586322784423828e-02 -4.460065364837646484e-01 -1.197010092437267303e-02 -8.476616442203521729e-02 2.206804044544696808e-02 -2.595100998878479004e-01 2.614906057715415955e-02 -4.834120161831378937e-03 7.015942037105560303e-02 -2.935672402381896973e-01 -7.398418337106704712e-02 1.525009144097566605e-02 -1.724702864885330200e-01 -4.806699603796005249e-02 -2.247793227434158325e-02 3.964928537607192993e-02 1.430461555719375610e-02 9.008739143610000610e-03 6.227193865925073624e-03 -2.963825361803174019e-03 3.435205668210983276e-02 4.982536658644676208e-02 -2.500044107437133789e-01 -3.170917555689811707e-02 5.550847388803958893e-03 -3.622616454958915710e-02 -5.901617184281349182e-02 5.913686007261276245e-02 4.017913714051246643e-02 -6.561571266502141953e-03 -1.112542524933815002e-01 3.136783093214035034e-02 -5.161448940634727478e-02 1.954321749508380890e-03 -5.629199370741844177e-02 -2.947613000869750977e-01 -2.366490811109542847e-01 -2.678079158067703247e-02 2.637048065662384033e-02 -4.205524176359176636e-02 5.718656815588474274e-03 -1.127713359892368317e-02 3.564343787729740143e-03 1.787991635501384735e-02 1.797621138393878937e-02 -1.549187023192644119e-02 -4.233069717884063721e-02 -1.658257693052291870e-01 1.090479828417301178e-02 -1.551021542400121689e-02 3.572390414774417877e-03 -3.949864208698272705e-02 -1.804461181163787842e-01 4.896227270364761353e-03 -2.131314948201179504e-02 -1.436053067445755005e-01 -1.429848372936248779e-01 -1.016847789287567139e-02 -1.331819780170917511e-02 6.057792901992797852e-02 1.609410159289836884e-02 -2.662866376340389252e-02 3.060905076563358307e-02 -1.456968020647764206e-02 -2.802624404430389404e-01 7.010909169912338257e-02 -1.598119735717773438e-01 -2.373056858777999878e-02 -6.374632567167282104e-02 1.167667564004659653e-02 -9.085479378700256348e-02 4.968704655766487122e-03 -3.208865597844123840e-02 6.770497560501098633e-02 3.848859574645757675e-03 8.651762269437313080e-03 1.834855228662490845e-02 -3.324069082736968994e-02 3.085898794233798981e-02 -2.246560752391815186e-01 -5.326333642005920410e-02 -8.352711796760559082e-03 2.085374668240547180e-02 5.968020763248205185e-03 3.981243353337049484e-04 -2.527225576341152191e-02 -3.317712247371673584e-01 -9.823370724916458130e-02 2.046055346727371216e-02 -1.454799026250839233e-01 -6.897339224815368652e-02 -7.110002636909484863e-02 -1.449456438422203064e-02 -2.400931119918823242e-01 2.119272761046886444e-02 -7.387041300535202026e-02 -9.662041068077087402e-02 -1.689496934413909912e-01 -2.451900858432054520e-03 -3.290475532412528992e-02 -2.321804165840148926e-01 -1.834704726934432983e-02 2.570817479863762856e-03 2.589705958962440491e-02 -1.977804154157638550e-01 2.138863876461982727e-02 -5.259572714567184448e-02 -1.096662059426307678e-01 3.094658488407731056e-03 -2.496975064277648926e-01 -4.964768141508102417e-02 -2.609482221305370331e-02 -3.497730568051338196e-02 -3.277786970138549805e-01 5.394652858376502991e-02 5.799914151430130005e-02 -3.137701004743576050e-02 -2.180616743862628937e-02 1.741916406899690628e-03 -1.089826524257659912e-01 2.193409577012062073e-02 -6.563573144376277924e-03 -6.280568987131118774e-02 3.116928599774837494e-02 5.272293463349342346e-02 -2.539269917178899050e-04 -2.742205858230590820e-01 -1.929384283721446991e-02 -1.803563674911856651e-03 -8.874896168708801270e-02 -7.181719690561294556e-02 -2.809936553239822388e-02 1.105803716927766800e-02 -1.001326367259025574e-01 -7.805436104536056519e-02 1.081702783703804016e-01 -1.995292492210865021e-02 4.188992828130722046e-02 -5.226576700806617737e-02 -1.843727007508277893e-02 1.209515728987753391e-03 -4.413365852087736130e-03 -1.047137100249528885e-02 -2.119439654052257538e-02 3.837949829176068306e-03 -4.809836670756340027e-02 -3.014970803633332253e-03 1.015924382954835892e-02 1.229181792587041855e-02 2.469518408179283142e-02 -1.408678144216537476e-01 -3.290613293647766113e-01 -7.455852627754211426e-02 1.395267155021429062e-02 1.026852708309888840e-02 -1.327236741781234741e-01 -2.196924295276403427e-03 2.836729632690548897e-03 5.483167245984077454e-03 1.573243178427219391e-03 -7.074510306119918823e-02 -3.658461570739746094e-02 -9.538977406919002533e-03 2.075784280896186829e-02 -9.272259473800659180e-02 1.468285080045461655e-02 -3.893858939409255981e-02 -5.217412486672401428e-03 -2.731922268867492676e-01 -2.987143211066722870e-02 6.160250399261713028e-03 3.607155755162239075e-02 7.911845296621322632e-02 -4.272211790084838867e-01 9.026831947267055511e-03 2.105687890434637666e-04 3.667543455958366394e-02 -2.561324648559093475e-02 -3.566180355846881866e-03 7.057636394165456295e-04 1.112949661910533905e-02 -5.788452457636594772e-03 -1.857572980225086212e-02 2.410370856523513794e-03 -2.676224410533905029e-01 -3.561075627803802490e-01 2.400056272745132446e-02 -2.048222273588180542e-01 -7.117268629372119904e-03 1.046675816178321838e-02 -2.659483999013900757e-02 -9.053220972418785095e-03 -3.294872492551803589e-02 -1.172817945480346680e-01 -1.170162707567214966e-01 2.108320780098438263e-02 -5.569088459014892578e-02 2.392403967678546906e-02 2.282947674393653870e-02 -5.593892931938171387e-02 -4.690590873360633850e-02 1.223377999849617481e-03 -2.426364645361900330e-02 -1.294254511594772339e-02 -1.364388875663280487e-02 7.232177257537841797e-02 7.676030509173870087e-03 1.441606227308511734e-02 -4.242091998457908630e-02 4.206150397658348083e-02 -8.430560678243637085e-02 -6.967443507164716721e-03 -1.928083896636962891e-01 -1.871977932751178741e-03 2.553055249154567719e-02 -1.707822829484939575e-02 -1.190568599849939346e-02 3.142994642257690430e-02 -4.729379434138536453e-03 -2.312520891427993774e-01 -1.393235940486192703e-02 -1.011263057589530945e-01 -4.513187333941459656e-02 1.046322286128997803e-02 2.969749271869659424e-02 -1.866227388381958008e-02 -1.862980872392654419e-01 2.239025197923183441e-02 5.365912988781929016e-02 -1.673160791397094727e-01 -2.534584999084472656e-01 6.047436967492103577e-02 -6.012900918722152710e-02 -4.758600890636444092e-02 2.634545601904392242e-02 6.888661533594131470e-03 3.212895989418029785e-02 1.687807776033878326e-02 2.026817947626113892e-02 1.429127436131238937e-02 2.750753425061702728e-02 -2.070235647261142731e-02 4.726794548332691193e-03 2.367011969909071922e-03 -1.714744791388511658e-02 -6.065656617283821106e-02 4.009403288364410400e-02 -1.445672512054443359e-01 -6.807359308004379272e-02 -1.303721368312835693e-01 -1.667001098394393921e-01 -1.947202719748020172e-02 2.018338255584239960e-02 -1.823468692600727081e-02 -7.119845598936080933e-03 6.372427102178335190e-03 1.006270200014114380e-02 1.801790785975754261e-03 -1.478314995765686035e-01 -2.065264061093330383e-02 4.044096916913986206e-02 -3.451946675777435303e-01 -2.882405519485473633e-01 -4.633632488548755646e-03 -3.385401889681816101e-02 -4.652513936161994934e-02 -2.314161323010921478e-02 -1.200409755110740662e-01 -2.390329241752624512e-01 -9.606593847274780273e-02 7.281309925019741058e-03 8.955835364758968353e-03 -2.432191818952560425e-01 -6.837308406829833984e-02 1.146847009658813477e-02 1.452934648841619492e-02 -1.453682314604520798e-02 9.132563136518001556e-03 -1.821161955595016479e-01 -7.004156708717346191e-02 -3.523634222801774740e-04 -9.646250307559967041e-02 -5.543445795774459839e-02 -1.674027591943740845e-01 -1.158166155219078064e-01 -1.235006749629974365e-02 4.114618641324341297e-04 4.635061323642730713e-02 -2.294959686696529388e-02 -1.260474137961864471e-02 -9.916679002344608307e-03 1.143786706961691380e-03 -5.567226186394691467e-02 -1.361683756113052368e-01 -3.736723586916923523e-02 1.729612424969673157e-02 3.139251098036766052e-02 1.572696492075920105e-02 9.292823262512683868e-03 -3.919290378689765930e-03 1.757848076522350311e-02 -3.655623272061347961e-02 1.695974788162857294e-04 1.064519491046667099e-02 -2.736611850559711456e-02 7.375100161880254745e-03 -4.295083507895469666e-02 1.276581082493066788e-02 -7.956426590681076050e-03 -3.065711632370948792e-02 -1.188339889049530029e-01 -1.603999175131320953e-02 6.078358367085456848e-02 4.105561412870883942e-03 -2.324262261390686035e-01 -3.873293288052082062e-03 -9.393611550331115723e-02 5.256187636405229568e-03 -1.470198184251785278e-01 -1.329796388745307922e-02 -2.912761270999908447e-01 -4.998474195599555969e-02 4.222940281033515930e-02 3.024977445602416992e-02 -2.539632283151149750e-02 -8.124301582574844360e-02 -6.198392249643802643e-03 1.798880286514759064e-02 6.716930307447910309e-03 -3.415672183036804199e-01 6.551311910152435303e-02 1.048404257744550705e-02 -3.728962969034910202e-03 -8.642572909593582153e-02 9.569580666720867157e-03 -2.460638433694839478e-01 3.833134844899177551e-02 -5.662799254059791565e-02 -1.308481907472014427e-03 -4.691734910011291504e-03 -1.298923045396804810e-02 3.399263601750135422e-03 -7.571278139948844910e-03 -1.062313839793205261e-01 1.693466678261756897e-02 -2.896543592214584351e-02 -4.772622138261795044e-02 -8.206864818930625916e-03 4.255648702383041382e-02 1.517511438578367233e-02 -4.289798671379685402e-04 3.419689461588859558e-02 -1.149092391133308411e-01 -1.267378963530063629e-02 1.589879207313060760e-02 -3.243355080485343933e-02 9.132443927228450775e-03 1.726788468658924103e-02 2.665429376065731049e-02 3.340596333146095276e-02 -3.265877068042755127e-02 -4.513312503695487976e-02 2.230488136410713196e-02 -1.709505468606948853e-01 5.868310108780860901e-02 4.182132761343382299e-05 -7.780291140079498291e-02 -8.348482660949230194e-03 -5.836461856961250305e-02 -3.277973830699920654e-01 5.223456397652626038e-02 -1.121936589479446411e-01 -2.675535902380943298e-02 -1.833123341202735901e-02 7.899547927081584930e-03 9.788912534713745117e-02 5.097221955657005310e-02 -8.550955913960933685e-03 -2.421694807708263397e-02 -5.920956842601299286e-03 3.442348912358283997e-02 -1.433800160884857178e-01 -3.002246320247650146e-01 2.702298387885093689e-02 -1.249945089221000671e-01 -2.673224806785583496e-01 -7.115212082862854004e-02 -6.166747957468032837e-02 -4.150043427944183350e-02 2.812750823795795441e-02 2.684605121612548828e-02 5.780541151762008667e-02 5.667382851243019104e-02 -1.903459876775741577e-01 1.015939004719257355e-02 -1.231216732412576675e-02 2.711452730000019073e-02 -1.765635423362255096e-02 -4.631437361240386963e-02 2.114343270659446716e-02 -2.706755883991718292e-02 9.180455468595027924e-03 -6.576254963874816895e-02 6.348818540573120117e-03 -1.176689565181732178e-01 6.483471952378749847e-03 1.538291107863187790e-02 3.065404715016484261e-03 3.086168877780437469e-02 -6.178266834467649460e-03 1.528817974030971527e-02 2.540779486298561096e-02 3.623735904693603516e-02 -2.361868023872375488e-01 -4.669938236474990845e-02 -3.677601739764213562e-02 -1.740611195564270020e-01 1.663823984563350677e-02 -6.121800094842910767e-02 2.484023012220859528e-02 -3.356698453426361084e-01 -1.011685207486152649e-01 -2.709788270294666290e-02 -1.446247380226850510e-02 -1.383423805236816406e-01 -2.410423308610916138e-01 5.058578681200742722e-03 8.787622675299644470e-03 -2.614758610725402832e-01 -9.453102946281433105e-02 4.216873645782470703e-02 -3.306650323793292046e-03 3.775316476821899414e-02 -2.274104803800582886e-01 -4.928734526038169861e-02 1.875090599060058594e-02 6.266422104090452194e-03 -5.891787260770797729e-02 -2.591604292392730713e-01 1.030135713517665863e-02 2.482859604060649872e-02 -1.083774641156196594e-01 -1.719762235879898071e-01 1.741340942680835724e-02 -1.889478415250778198e-02 -2.608310605864971876e-04 -2.079576626420021057e-02 3.609286993741989136e-02 -9.392512030899524689e-03 4.337984696030616760e-02 -2.963818795979022980e-02 2.927527995780110359e-03 -1.257381141185760498e-01 4.708367958664894104e-02 -3.553851693868637085e-02 -1.207170039415359497e-01 1.347639318555593491e-02 1.116841565817594528e-02 1.048018690198659897e-03 -1.622380316257476807e-01 2.238874323666095734e-02 -1.870910227298736572e-01 -4.455889761447906494e-02 3.070471994578838348e-02 -1.836080402135848999e-01 -3.332291543483734131e-01 -1.173622533679008484e-01 -2.124645560979843140e-01 -1.071505844593048096e-01 -2.353041432797908783e-02 1.208210550248622894e-02 3.723328933119773865e-02 -1.667469888925552368e-01 -8.894541300833225250e-03 -3.585868701338768005e-02 6.041051447391510010e-02 -3.172448873519897461e-01 -1.048257108777761459e-02 -2.734014987945556641e-01 2.785541873890906572e-04 5.620724987238645554e-04 -2.242462784051895142e-01 1.132299378514289856e-02 -2.044549882411956787e-01 -3.800908848643302917e-02 2.207348681986331940e-02 1.081153843551874161e-02 4.108259454369544983e-03 -3.640965521335601807e-01 -3.788309171795845032e-02 3.661696612834930420e-02 2.783202566206455231e-02 1.413655001670122147e-02 2.626344002783298492e-02 -7.113995403051376343e-02 -2.769752033054828644e-02 -2.058455720543861389e-03 -2.447314001619815826e-02 -7.368735969066619873e-03 -3.310026973485946655e-02 -6.229945272207260132e-02 -1.425812393426895142e-01 8.183063939213752747e-03 -6.917883455753326416e-02 2.896031830459833145e-03 -2.916805096901953220e-04 -1.710338741540908813e-01 -1.424435153603553772e-02 4.599912464618682861e-02 -2.437080955132842064e-03 2.366604283452033997e-02 -2.849097736179828644e-02 -2.648278474807739258e-01 1.759047061204910278e-02 -3.535919636487960815e-02 3.906731307506561279e-02 5.222753062844276428e-02 1.257551275193691254e-02 3.747192025184631348e-02 -1.330104097723960876e-02 -5.412383377552032471e-02 -5.151666328310966492e-02 3.422715887427330017e-02 8.549401909112930298e-02 -3.706682100892066956e-02 -3.257534801959991455e-01 3.689079359173774719e-02 5.335646495223045349e-02 1.463158987462520599e-03 -3.498161956667900085e-02 -3.217242285609245300e-02 -6.427785009145736694e-02 -1.192819699645042419e-01 2.762553980574011803e-03 6.709069013595581055e-03 -3.398845717310905457e-02 2.671714499592781067e-02 1.580229611136019230e-03 2.984900958836078644e-02 1.232122909277677536e-02 4.445134103298187256e-02 -2.655571699142456055e-02 -1.048977673053741455e-01 -1.669922769069671631e-01 -9.906234592199325562e-02 -1.957809738814830780e-02 8.362843655049800873e-03 3.261591866612434387e-02 -5.884250625967979431e-03 2.158274687826633453e-02 -1.590111292898654938e-02 4.407979175448417664e-02 2.854104340076446533e-02 -2.551626786589622498e-02 -4.117585718631744385e-02 -1.898412108421325684e-01 -2.995166480541229248e-01 -2.636305056512355804e-03 7.646494545042514801e-03 -2.848197007551789284e-03 -2.208526432514190674e-02 -8.358469931408762932e-04 4.954558238387107849e-02 -1.787435263395309448e-01 -1.141259446740150452e-01 1.200072700157761574e-03 -5.371879320591688156e-03 4.065820947289466858e-02 -6.919401884078979492e-02 -2.563054263591766357e-01 1.464531105011701584e-02 4.913273453712463379e-02 -1.205876395106315613e-01 -3.087984025478363037e-01 1.985236816108226776e-02 -3.792804479598999023e-02 -9.162490256130695343e-03 1.022757496684789658e-02 -7.205127924680709839e-02 -1.899520121514797211e-02 -2.510461211204528809e-01 -3.147773817181587219e-02 -2.905903849750757217e-03 -3.369916975498199463e-02 -1.397176682949066162e-01 -1.035997122526168823e-01 -1.141941770911216736e-01 -1.782172471284866333e-01 -5.191449541598558426e-03 6.583988666534423828e-02 4.281613603234291077e-02 9.379620663821697235e-03 -1.399792730808258057e-01 -1.357983797788619995e-02 1.309522194787859917e-03 7.934857159852981567e-03 -5.432404112070798874e-03 2.197824977338314056e-02 -8.821981959044933319e-03 1.214262656867504120e-02 -7.794153410941362381e-03 7.736950647085905075e-03 -1.374358218163251877e-02 6.900773942470550537e-02 -1.522744596004486084e-01 -1.146463975310325623e-01 2.963355742394924164e-03 -1.421916484832763672e-02 7.517503574490547180e-03 -1.028461498208343983e-03 3.235578909516334534e-02 -4.847131296992301941e-02 -1.431570947170257568e-01 1.410720590502023697e-02 5.844811350107192993e-02 -1.187096983194351196e-01 1.595294103026390076e-02 1.115262601524591446e-02 -2.318264842033386230e-01 -7.098869420588016510e-03 1.666291430592536926e-02 1.651586778461933136e-02 -2.074884064495563507e-02 -1.839311979711055756e-02 7.057053036987781525e-03 1.212818268686532974e-02 -3.285795217379927635e-03 -3.930497914552688599e-02 6.796459201723337173e-03 8.155699074268341064e-02 1.212240662425756454e-02 2.595535665750503540e-02 1.732846722006797791e-02 1.375452894717454910e-02 9.846866130828857422e-02 8.073008619248867035e-03 -9.109773486852645874e-02 -1.650242879986763000e-02 1.012544706463813782e-02 -1.325951814651489258e-01 4.429752752184867859e-02 -3.496230393648147583e-02 -3.690000623464584351e-02 3.238794580101966858e-02 -4.490039497613906860e-02 -3.957241401076316833e-02 1.317783538252115250e-02 1.306197419762611389e-02 -2.491279318928718567e-02 1.129305828362703323e-02 1.295625977218151093e-02 -1.030798442661762238e-02 -2.463429421186447144e-01 -3.624578239396214485e-04 -1.821146532893180847e-02 2.423521876335144043e-02 -4.844189621508121490e-03 -3.509977832436561584e-02 -4.527464509010314941e-03 -2.734955027699470520e-02 6.500811781734228134e-03 -2.818913757801055908e-02 1.905551739037036896e-02 8.366717398166656494e-02 4.961841925978660583e-02 3.651189804077148438e-02 -2.281031906604766846e-01 -1.978941857814788818e-01 -3.742032349109649658e-01 1.182943880558013916e-01 1.357062626630067825e-02 2.175981365144252777e-02 6.419716402888298035e-03 1.347644347697496414e-02 6.138617754913866520e-04 -4.138720408082008362e-02 -1.294776350259780884e-01 5.046185571700334549e-03 -2.798448503017425537e-01 1.749879447743296623e-03 1.699052192270755768e-02 6.895083002746105194e-03 5.065358057618141174e-02 1.310443738475441933e-03 -3.930199518799781799e-02 2.846340276300907135e-02 -4.058569297194480896e-02 2.039640024304389954e-02 -8.267834782600402832e-02 -1.130695454776287079e-02 -9.889432787895202637e-02 1.281805243343114853e-02 -1.041797250509262085e-01 -3.280773013830184937e-02 -5.688013136386871338e-02 6.569653749465942383e-02 6.720051635056734085e-03 -4.559531062841415405e-02 -1.339598745107650757e-02 6.789778172969818115e-02 3.737198188900947571e-02 3.092185221612453461e-02 -2.383725792169570923e-01 -7.452300935983657837e-02 -1.315406989306211472e-02 -4.397011175751686096e-02 -5.615707486867904663e-02 -1.284402702003717422e-02 -1.003750320523977280e-02 -1.365578282275237143e-05 2.425749227404594421e-02 -2.328339591622352600e-02 -2.226917892694473267e-01 -2.554610185325145721e-02 -1.271923929452896118e-01 6.521028932183980942e-03 -4.469439736567437649e-04 5.652648583054542542e-02 -1.501645799726247787e-02 -1.647468954324722290e-01 -5.292188748717308044e-02 -2.972671529278159142e-03 -8.000730723142623901e-02 -1.427200157195329666e-02 -7.789715658873319626e-03 -2.470024861395359039e-02 -1.625306205824017525e-03 -7.273029536008834839e-02 -1.055841520428657532e-01 3.712311014533042908e-02 5.969908833503723145e-02 1.098787644878029823e-03 1.339929085224866867e-02 -1.122477930039167404e-03 5.568296834826469421e-02 1.232056133449077606e-02 2.526612021028995514e-03 -1.820115447044372559e-01 3.860430326312780380e-03 -1.952995778992772102e-03 1.007938291877508163e-02 -1.478736102581024170e-01 -1.640284806489944458e-01 3.380270907655358315e-03 -2.589190900325775146e-01 -7.269713282585144043e-02 7.213721051812171936e-03 5.913565866649150848e-03 -2.526730000972747803e-01 -8.332039415836334229e-02 -1.219225972890853882e-01 -2.119943127036094666e-02 -1.783855855464935303e-01 4.036871343851089478e-02 -2.436068467795848846e-02 -5.393824074417352676e-03 -1.672065258026123047e-01 7.678254507482051849e-03 -2.192717604339122772e-02 2.090214053168892860e-03 -7.516785711050033569e-02 -5.187977571040391922e-03 1.144986320286989212e-02 1.898838207125663757e-02 -9.336370974779129028e-02 7.315130438655614853e-03 -2.017119377851486206e-01 7.865506224334239960e-03 1.456109620630741119e-02 -3.375017642974853516e-02 -1.521146744489669800e-01 -1.119377091526985168e-01 4.344036057591438293e-02 -1.307224482297897339e-01 -3.091568350791931152e-01 -2.150232344865798950e-01 -8.698923885822296143e-02 7.040984928607940674e-02 -1.506253331899642944e-01 -7.465103268623352051e-02 -2.102863192558288574e-01 4.570418596267700195e-02 2.097981050610542297e-02 6.962195970118045807e-03 3.842305764555931091e-02 -4.285326302051544189e-01 -1.338321715593338013e-02 2.224976429715752602e-03 -1.111381277441978455e-01 -1.081508584320545197e-02 -1.516910493373870850e-01 -3.393523767590522766e-02 -3.761086147278547287e-03 -2.730867862701416016e-01 6.622805446386337280e-02 -4.865545779466629028e-02 2.028986811637878418e-02 -3.285306273028254509e-03 -2.265361994504928589e-01 -3.487050831317901611e-01 -2.024927176535129547e-02 6.244816631078720093e-02 -2.384254522621631622e-02 -2.729184925556182861e-02 1.312653627246618271e-02 -6.988754123449325562e-02 -3.816182957962155342e-03 8.049083407968282700e-04 9.185837581753730774e-03 -2.079445123672485352e-01 -2.043941169977188110e-01 -1.515503390692174435e-03 1.331683434545993805e-02 4.223065078258514404e-02 -2.795168943703174591e-02 3.321953862905502319e-02 4.534720443189144135e-03 -9.762809425592422485e-02 -1.860087662935256958e-01 6.148526445031166077e-02 -1.442648172378540039e-01 -5.608323961496353149e-02 -2.458101697266101837e-02 -1.894039474427700043e-02 -1.892302744090557098e-02 -4.264912568032741547e-03 2.854168042540550232e-02 -2.264530584216117859e-02 -3.956174943596124649e-03 -1.863328963518142700e-01 -1.002288237214088440e-02 -4.153249028604477644e-05 -6.745707988739013672e-02 -8.589354902505874634e-02 6.207741796970367432e-03 3.583502769470214844e-02 -2.590548712760210037e-03 -5.033612716943025589e-03 -2.899547107517719269e-03 4.767932929098606110e-03 -4.615704528987407684e-05 -8.973468095064163208e-02 1.858008652925491333e-02 8.798725903034210205e-02 -2.425135076045989990e-01 -1.555902659893035889e-01 -1.508461385965347290e-01 -1.412875354290008545e-01 2.208807272836565971e-03 -1.493589580059051514e-02 -3.986455965787172318e-03 1.569768972694873810e-02 1.985585317015647888e-02 -2.499833703041076660e-02 8.483553677797317505e-02 -1.106470301747322083e-01 -3.584152162075042725e-01 -4.004001244902610779e-02 -2.140698023140430450e-02 -7.827371358871459961e-02 -1.008400414139032364e-02 -2.038952521979808807e-02 8.677852153778076172e-02 -5.328363552689552307e-02 -1.423597931861877441e-01 -1.795683056116104126e-01 4.407764226198196411e-02 -3.737516235560178757e-03 -3.055250644683837891e-02 9.370352327823638916e-02 1.084933336824178696e-02 5.097001791000366211e-02 -4.169616848230361938e-02 -6.608550250530242920e-02 -1.121499948203563690e-02 -2.079475522041320801e-01 -7.510548923164606094e-03 -2.662171050906181335e-02 1.517924107611179352e-02 4.467334598302841187e-03 1.547166518867015839e-02 -1.613534390926361084e-01 2.446266449987888336e-02 -1.548444968648254871e-03 -2.115478366613388062e-02 -5.230733007192611694e-02 -2.614440768957138062e-02 2.560006640851497650e-02 2.665148302912712097e-02 -2.010297030210494995e-01 8.533419109880924225e-03 3.468891605734825134e-02 -3.961428105831146240e-01 1.225162483751773834e-02 4.618900362402200699e-03 -2.138420343399047852e-01 3.234372287988662720e-02 3.047185391187667847e-02 2.536506392061710358e-03 5.036817863583564758e-03 -4.880052804946899414e-02 3.499374026432633400e-03 5.650159902870655060e-03 -5.311846267431974411e-03 -6.249969592317938805e-04 -2.297880873084068298e-02 -5.024372600018978119e-03 4.975922778248786926e-02 -1.776185259222984314e-02 -1.339827030897140503e-01 -8.088944852352142334e-02 -2.783965170383453369e-01 -2.363633364439010620e-01 -3.545236214995384216e-02 -8.100577630102634430e-03 -3.901616036891937256e-01 -2.318589240312576294e-01 3.447806928306818008e-03 -1.237257719039916992e-01 -3.935122117400169373e-02 1.778326230123639107e-03 -2.735146880149841309e-01 -2.442043870687484741e-01 -7.993751764297485352e-02 -1.773240789771080017e-02 -6.325084716081619263e-02 -1.191872358322143555e-01 -3.894023969769477844e-02 -1.199863106012344360e-02 7.254261523485183716e-03 -2.912258505821228027e-01 -2.331905514001846313e-01 -6.566225737333297729e-02 -3.289408981800079346e-01 -2.523370683193206787e-01 -2.038331925868988037e-01 -5.295677483081817627e-02 -4.503849148750305176e-02 -3.702930640429258347e-03 -7.011137902736663818e-02 6.173831876367330551e-03 -1.535820513963699341e-01 -1.598675921559333801e-02 4.622661694884300232e-02 -1.279315818101167679e-02 -1.497044265270233154e-01 -2.702598869800567627e-01 -2.037896215915679932e-01 1.885165832936763763e-02 5.092031322419643402e-03 2.467207238078117371e-02 -1.496463268995285034e-01 -1.553720980882644653e-02 2.576336637139320374e-02 -1.078571192920207977e-02 1.227267552167177200e-02 -7.438727654516696930e-03 -8.861634135246276855e-02 5.949972569942474365e-02 4.389921948313713074e-02 1.396580878645181656e-02 -1.512602567672729492e-01 5.027225241065025330e-03 -2.340283989906311035e-02 -2.038531899452209473e-01 -3.865321725606918335e-02 7.717959117144346237e-03 -5.416540894657373428e-03 -1.015117987990379333e-01 -7.617395371198654175e-02 -7.838655146770179272e-04 -1.031740009784698486e-02 7.268405897775664926e-05 4.624953866004943848e-02 3.863403573632240295e-02 9.674903936684131622e-03 -1.233461499214172363e-01 1.387057360261678696e-02 9.614551439881324768e-03 -5.407206341624259949e-02 4.462226852774620056e-02 -2.405577106401324272e-03 7.373939733952283859e-03 2.267178334295749664e-02 -2.994620800018310547e-01 -1.622290723025798798e-02 2.422869950532913208e-02 -1.974038481712341309e-01 -1.258389838039875031e-02 -1.469507366418838501e-01 1.423279568552970886e-02 -2.642086520791053772e-02 2.815210632979869843e-02 5.245736613869667053e-02 -8.185286819934844971e-02 2.132680965587496758e-03 8.878388442099094391e-03 -2.493247985839843750e-01 -7.670123595744371414e-03 6.243577972054481506e-02 -1.143049001693725586e-01 -4.750050231814384460e-02 -2.108902111649513245e-02 -9.016802161931991577e-02 5.964667070657014847e-04 -2.879633009433746338e-01 3.563819080591201782e-02 4.675748944282531738e-02 -1.565163880586624146e-01 -1.572717875242233276e-01 -2.653887681663036346e-02 -3.254965692758560181e-02 -4.209850728511810303e-02 -3.661957383155822754e-01 -5.392701551318168640e-02 6.469055661000311375e-04 -4.731238819658756256e-03 -2.108542025089263916e-01 9.701556526124477386e-03 -2.323104590177536011e-01 -8.567305281758308411e-03 2.981711924076080322e-02 1.930760405957698822e-02 -4.675229429267346859e-04 -1.586322635412216187e-01 -2.040697038173675537e-01 -6.776401400566101074e-02 -1.960623636841773987e-02 1.882833056151866913e-02 -1.990576237440109253e-01 -2.729525268077850342e-01 -2.065935879945755005e-01 -9.835558943450450897e-03 -3.191980347037315369e-02 -6.371939554810523987e-03 1.033463254570960999e-01 -1.832485646009445190e-01 -3.553213775157928467e-01 1.731365732848644257e-02 1.967306248843669891e-02 9.917496703565120697e-03 -2.269005626440048218e-01 -9.504690766334533691e-02 -1.983980648219585419e-02 -1.011892408132553101e-01 -1.619398593902587891e-01 -8.239695802330970764e-03 -2.151956968009471893e-02 -1.242653117515146732e-03 3.868205472826957703e-02 1.416098698973655701e-02 2.246591757284477353e-04 -4.949190467596054077e-02 -1.071590650826692581e-02 -1.375650167465209961e-01 -5.412421748042106628e-02 -2.449882030487060547e-02 3.828821703791618347e-02 -2.469910867512226105e-02 -2.164909616112709045e-02 6.221433170139789581e-03 1.336595881730318069e-02 -1.574857393279671669e-03 5.565396323800086975e-02 1.972977072000503540e-02 -2.883832342922687531e-02 -7.630188018083572388e-02 1.053837314248085022e-02 -1.393113867379724979e-03 2.209822647273540497e-03 -2.737463265657424927e-02 -3.034281358122825623e-02 -1.908008009195327759e-01 -1.425286084413528442e-01 -3.201963007450103760e-02 2.397457323968410492e-02 -1.651984602212905884e-01 9.540698491036891937e-03 4.246866330504417419e-02 2.832065150141716003e-02 3.067714720964431763e-02 -1.696155034005641937e-02 1.261810772120952606e-02 -1.966902613639831543e-02 -1.157034840434789658e-02 7.814923301339149475e-03 3.632943332195281982e-02 8.052811026573181152e-03 2.574694529175758362e-02 7.227253634482622147e-03 5.569514259696006775e-02 -3.514898121356964111e-01 -1.611403934657573700e-02 -2.477501481771469116e-01 3.865243494510650635e-02 -1.896136850118637085e-01 -6.946444045752286911e-03 -2.465040534734725952e-01 -1.303464025259017944e-01 1.989159267395734787e-03 -1.112455725669860840e-01 7.357113994657993317e-03 4.058052320033311844e-03 -1.596337109804153442e-01 8.410019427537918091e-02 -5.575143918395042419e-02 2.435610070824623108e-02 5.328090488910675049e-02 -5.280036479234695435e-02 1.101901941001415253e-02 -1.713137775659561157e-01 -3.414648771286010742e-02 -4.586882144212722778e-02 1.154978293925523758e-02 5.447660386562347412e-02 -3.212627023458480835e-02 2.265375573188066483e-03 -4.211049526929855347e-02 -3.501408733427524567e-03 -1.603980548679828644e-02 1.667659543454647064e-02 8.818808943033218384e-03 1.580664142966270447e-02 -7.511628791689872742e-03 -1.534789204597473145e-01 2.022286877036094666e-02 -9.660016745328903198e-02 -1.191060096025466919e-01 -2.505328319966793060e-02 -2.203107178211212158e-01 5.690232384949922562e-03 -3.072124347090721130e-02 -3.041457831859588623e-01 -1.395021285861730576e-02 2.542678825557231903e-02 -1.584408245980739594e-02 -1.940284110605716705e-02 -5.892720818519592285e-02 1.504872087389230728e-02 -5.879413709044456482e-02 -4.596941871568560600e-04 3.523416072130203247e-02 5.284679681062698364e-02 -1.844958774745464325e-02 -5.313321016728878021e-03 -6.335958838462829590e-02 -1.437044888734817505e-01 -5.998897179961204529e-02 2.532442845404148102e-02 -9.187350049614906311e-03 6.829447578638792038e-03 1.457144273445010185e-03 -2.202179655432701111e-02 -1.232484448701143265e-02 1.490536890923976898e-02 3.690896928310394287e-02 1.774840056896209717e-02 -1.477670855820178986e-02 -3.552401438355445862e-02 -4.897570703178644180e-03 2.280711010098457336e-02 -2.753163687884807587e-03 -2.734886296093463898e-02 -2.956429421901702881e-01 5.477054510265588760e-03 -3.515763953328132629e-02 4.506751149892807007e-02 2.361651137471199036e-02 -3.349299356341362000e-02 2.273201569914817810e-02 -6.775517016649246216e-02 6.914570461958646774e-03 -3.773625940084457397e-02 -2.687710523605346680e-01 3.056594915688037872e-02 1.131666637957096100e-02 -1.412594504654407501e-02 2.818130888044834137e-03 -4.703750461339950562e-02 -2.324953228235244751e-01 2.163065411150455475e-02 2.840779162943363190e-02 3.542302548885345459e-02 -4.301081970334053040e-02 -2.752653658390045166e-01 -9.454128146171569824e-02 -2.322286367416381836e-01 -1.276179850101470947e-01 -6.822131574153900146e-03 -6.287498772144317627e-02 3.431719169020652771e-02 3.079671878367662430e-03 -8.991542458534240723e-02 1.284372620284557343e-02 4.818479344248771667e-02 -1.044281059876084328e-03 -2.381629645824432373e-01 2.354968897998332977e-02 2.848100848495960236e-02 -2.298833578824996948e-01 -2.294267900288105011e-02 -8.553799241781234741e-03 7.562202517874538898e-04 -7.284279912710189819e-02 -2.627199329435825348e-02 -2.401083707809448242e-03 -3.422904526814818382e-03 -5.709911510348320007e-02 -1.174796652048826218e-02 1.219091843813657761e-02 5.177929997444152832e-02 4.564967937767505646e-03 8.850552141666412354e-02 -8.497225120663642883e-03 -3.146967291831970215e-01 5.260322988033294678e-02 2.226545102894306183e-02 -1.288409344851970673e-02 -2.912293076515197754e-01 -7.505323737859725952e-03 -1.076293140649795532e-01 3.122260235249996185e-02 -9.912440180778503418e-02 -3.277242779731750488e-01 -4.647511988878250122e-02 5.301761906594038010e-03 -1.153389271348714828e-02 -4.212105122860521078e-04 8.554084599018096924e-02 -1.671857833862304688e-01 -4.077981784939765930e-02 -4.717830941081047058e-02 -7.540159672498703003e-02 1.235831622034311295e-02 -2.714603766798973083e-02 -6.105487793684005737e-02 -1.040911488234996796e-02 -3.356426581740379333e-02 -7.217004895210266113e-05 3.652491420507431030e-02 5.480098351836204529e-02 -1.510369870811700821e-02 3.064326569437980652e-02 -2.893815375864505768e-02 8.140327781438827515e-02 -6.387533247470855713e-02 -7.619189564138650894e-03 -1.310714036226272583e-01 1.126059982925653458e-02 6.042707711458206177e-02 -2.612920105457305908e-01 -2.517066299915313721e-01 -3.503781510517001152e-03 -2.563032507896423340e-01 2.116814488545060158e-03 -1.042108088731765747e-01 -1.413939446210861206e-01 3.697504103183746338e-02 5.276952404528856277e-03 -1.693830043077468872e-01 -1.319287996739149094e-02 3.216765075922012329e-02 -2.771278657019138336e-02 -8.402830921113491058e-03 -6.241808831691741943e-02 4.069237969815731049e-03 3.385088592767715454e-02 4.675425589084625244e-03 -3.445883840322494507e-02 -3.979625925421714783e-02 -5.760521069169044495e-02 1.072440762072801590e-02 -1.065037623047828674e-01 -2.653147466480731964e-02 -7.627580314874649048e-02 -2.018034690991044044e-03 3.129735589027404785e-02 -2.287133783102035522e-02 2.407379262149333954e-02 -2.004334926605224609e-01 -3.943154960870742798e-02 8.219046518206596375e-03 -6.672278046607971191e-03 -1.557272300124168396e-02 -6.961901485919952393e-02 5.123895592987537384e-03 -4.095598682761192322e-02 3.731485828757286072e-02 -6.711173336952924728e-03 -1.031603291630744934e-01 -6.977693643420934677e-03 6.265926361083984375e-02 3.726685792207717896e-02 -1.027045212686061859e-02 -2.322157146409153938e-03 4.979939386248588562e-02 -1.375266611576080322e-01 3.347463160753250122e-02 7.619516691192984581e-04 8.477267622947692871e-02 -4.827830493450164795e-01 -1.353229489177465439e-02 -6.820901297032833099e-03 3.336058231070637703e-03 2.660509571433067322e-02 -3.403705060482025146e-01 -3.247687220573425293e-02 6.580194830894470215e-02 -6.751848757266998291e-02 3.375077620148658752e-02 -8.945841342210769653e-03 -5.540873482823371887e-02 -2.178275138139724731e-01 -3.064697682857513428e-01 -6.965489592403173447e-03 5.395015235990285873e-03 -1.799141615629196167e-02 -5.825609713792800903e-02 -4.087615292519330978e-03 -5.276617594063282013e-03 -1.509096473455429077e-02 -1.165208667516708374e-01 -2.122164145112037659e-02 -2.453077584505081177e-02 -5.103685334324836731e-02 -4.874959588050842285e-03 -9.049199521541595459e-03 2.244194969534873962e-02 -3.404419422149658203e-01 -5.467574810609221458e-04 6.737633142620325089e-03 -1.084724720567464828e-02 -3.222299516201019287e-01 3.026346489787101746e-02 2.286702767014503479e-02 -1.940747797489166260e-01 -4.315675795078277588e-02 -2.219092473387718201e-02 -5.223290994763374329e-02 2.836296893656253815e-02 -9.654609858989715576e-02 2.852340601384639740e-02 3.801511600613594055e-02 -2.957031503319740295e-02 -2.914874851703643799e-01 -4.106301814317703247e-02 -4.027096927165985107e-02 -2.922426760196685791e-01 1.112760161049664021e-03 -3.585924208164215088e-01 2.214294858276844025e-03 1.253961957991123199e-02 5.810600239783525467e-03 -2.741226851940155029e-01 -5.423904582858085632e-02 -1.118303984403610229e-01 -9.856463968753814697e-02 -1.028291955590248108e-01 -1.439260132610797882e-02 2.648076508194208145e-03 -5.570783093571662903e-02 -2.507064342498779297e-01 -1.615777797996997833e-02 -2.257617413997650146e-01 6.469629006460309029e-04 2.558949962258338928e-02 -7.759430259466171265e-02 -1.288444101810455322e-01 -7.437021285295486450e-02 1.344202365726232529e-02 4.302501678466796875e-02 -2.828332036733627319e-02 -1.832630112767219543e-02 2.831843867897987366e-02 -8.474439382553100586e-02 -3.942517563700675964e-02 -1.603578925132751465e-01 3.403485938906669617e-02 4.068488720804452896e-03 5.758868530392646790e-03 -5.693072080612182617e-02 2.107363007962703705e-02 1.521131396293640137e-02 -8.576291054487228394e-02 1.440185401588678360e-02 6.989236176013946533e-02 2.092251926660537720e-02 -8.553998917341232300e-02 3.622063249349594116e-02 6.764792371541261673e-03 -4.691356420516967773e-01 -1.973707601428031921e-02 2.449081093072891235e-02 -1.879165917634963989e-01 -3.238927945494651794e-02 -7.939080707728862762e-03 -5.613056127913296223e-04 2.155706100165843964e-02 -5.738720670342445374e-02 -2.278769155964255333e-03 3.963264450430870056e-02 -3.112984821200370789e-02 1.309057231992483139e-02 -2.333239018917083740e-01 1.328044477850198746e-02 7.106430828571319580e-03 -4.009377062320709229e-01 -6.002600304782390594e-03 -6.988751702010631561e-03 1.150018628686666489e-02 -6.098626647144556046e-03 -6.620970368385314941e-02 4.762218892574310303e-02 -6.250027567148208618e-03 -2.624037675559520721e-02 -2.393472567200660706e-02 -3.185085952281951904e-02 -5.701172351837158203e-02 -2.449165657162666321e-02 -5.851543694734573364e-02 4.323004744946956635e-03 4.824414104223251343e-02 -5.971352104097604752e-03 -2.423989772796630859e-01 1.281576231122016907e-02 2.148755453526973724e-02 1.696866750717163086e-02 4.571289196610450745e-02 -1.334840431809425354e-02 -2.582307755947113037e-01 -5.593779496848583221e-03 4.433529078960418701e-02 2.234521787613630295e-03 -2.170248515903949738e-02 -3.199893832206726074e-01 -2.851424217224121094e-01 -8.564022369682788849e-03 -4.606592282652854919e-02 5.330026894807815552e-02 -2.416338324546813965e-01 -2.826518937945365906e-02 -1.853343844413757324e-01 -2.202142477035522461e-01 -6.772308051586151123e-02 -7.148726284503936768e-02 -3.155819326639175415e-02 4.908230621367692947e-03 -5.409797653555870056e-02 -2.319974079728126526e-02 -1.554208397865295410e-01 -2.491436749696731567e-01 6.831000745296478271e-02 -5.744692310690879822e-02 3.131963685154914856e-02 -6.032580882310867310e-02 -5.065018311142921448e-02 -4.395476728677749634e-02 -6.853889673948287964e-02 -2.174242027103900909e-02 -3.571286797523498535e-02 2.202745527029037476e-03 -1.600940898060798645e-02 -2.484277123585343361e-03 -3.626063093543052673e-02 5.373964086174964905e-03 -8.277324959635734558e-03 8.227397687733173370e-03 3.444478660821914673e-02 2.776600606739521027e-02 8.944393484853208065e-04 -2.343057468533515930e-02 -1.127925422042608261e-02 -1.320819463580846786e-02 -2.985593080520629883e-01 1.769717596471309662e-02 2.503030560910701752e-02 8.969050832092761993e-03 4.352685809135437012e-02 4.028194025158882141e-02 -2.032796666026115417e-02 -1.525116711854934692e-02 -1.947055459022521973e-01 1.572007127106189728e-02 -2.076771296560764313e-02 -1.708632521331310272e-02 5.864441767334938049e-02 3.078615851700305939e-02 -5.640139058232307434e-02 9.959743358194828033e-03 -3.492842614650726318e-02 3.682164970086887479e-05 -2.697725892066955566e-01 -2.396915853023529053e-02 -1.939351484179496765e-02 -9.676902741193771362e-02 -7.438645511865615845e-02 -3.182071819901466370e-02 -1.540047395974397659e-02 -9.210637956857681274e-02 2.435295097529888153e-02 -1.936009824275970459e-01 -4.004748538136482239e-03 2.860028995200991631e-03 -2.547357697039842606e-03 2.813763730227947235e-02 -6.732739508152008057e-02 -3.446897864341735840e-01 -5.660660099238157272e-03 -4.393875226378440857e-02 5.178441293537616730e-03 -3.616280108690261841e-02 1.372848544269800186e-02 3.162537887692451477e-02 3.394031897187232971e-02 1.006411761045455933e-02 1.013735868036746979e-02 9.684771299362182617e-03 -8.828450925648212433e-03 2.828030660748481750e-02 -4.159379750490188599e-02 6.967402063310146332e-03 6.361661944538354874e-03 -1.035782415419816971e-02 2.144823782145977020e-02 -2.509224116802215576e-01 4.131380096077919006e-02 -1.093023493885993958e-01 -4.392033815383911133e-02 -4.918914660811424255e-02 -2.268551588058471680e-01 -1.373764872550964355e-01 -4.315367434173822403e-03 -2.066301256418228149e-01 4.197923466563224792e-03 -1.233056467026472092e-02 3.006070619449019432e-03 -1.012404216453433037e-03 1.058490201830863953e-01 -1.113362908363342285e-01 -1.801140047609806061e-02 -1.621276438236236572e-01 -7.417985051870346069e-02 2.880772762000560760e-02 1.011089608073234558e-02 1.189882168546319008e-03 -2.813231013715267181e-02 -2.269480936229228973e-02 5.130836367607116699e-02 7.078233640640974045e-03 2.053693495690822601e-02 2.200525067746639252e-02 -3.044807910919189453e-01 -1.514346599578857422e-01 -7.058002799749374390e-02 -3.410768136382102966e-02 2.988871186971664429e-03 -4.366612434387207031e-02 3.421423584222793579e-02 2.889705635607242584e-02 -4.230433260090649128e-04 -2.186874672770500183e-02 1.497626211494207382e-02 -4.755495488643646240e-02 -3.146474063396453857e-02 -1.000933125615119934e-01 7.948166131973266602e-02 2.004078030586242676e-02 4.691465198993682861e-02 -1.691353470087051392e-01 3.510084003210067749e-02 -6.649752706289291382e-02 2.606756798923015594e-02 -1.074340939521789551e-01 -1.445841696113348007e-02 8.050797507166862488e-03 1.582835614681243896e-02 -4.620005562901496887e-02 4.325258079916238785e-03 7.702441513538360596e-02 9.096222929656505585e-03 -7.626091688871383667e-02 -2.774801850318908691e-01 1.791957020759582520e-02 -1.482046907767653465e-03 4.409894347190856934e-02 -3.231160342693328857e-02 -1.077140644192695618e-01 -3.295805305242538452e-03 -1.793845742940902710e-02 -2.551867067813873291e-01 2.862167311832308769e-03 -1.619177609682083130e-01 2.499980479478836060e-02 -3.273414040450006723e-04 6.704417057335376740e-03 6.291082128882408142e-03 2.488126233220100403e-02 -4.328943789005279541e-02 -1.341394893825054169e-02 -1.686917804181575775e-02 2.044497802853584290e-02 -3.828791379928588867e-01 1.417142618447542191e-02 -1.042546182870864868e-01 5.898399744182825089e-03 2.784598432481288910e-02 -4.894230142235755920e-02 -3.493623435497283936e-02 -3.924931287765502930e-01 2.130389399826526642e-02 1.763366349041461945e-02 -2.518062591552734375e-01 -9.616413712501525879e-02 2.828427590429782867e-03 -1.062572002410888672e-01 3.290545567870140076e-02 -3.466633788775652647e-04 -7.708465680480003357e-03 1.157459057867527008e-02 -1.129284501075744629e-02 -3.726162016391754150e-03 5.167619092389941216e-04 -1.698357984423637390e-02 4.372264817357063293e-02 -2.948939055204391479e-02 -2.868580445647239685e-02 -3.126689419150352478e-02 -3.842871785163879395e-01 5.631138104945421219e-03 -6.769111379981040955e-03 -2.207414247095584869e-02 2.418519929051399231e-02 4.647024441510438919e-03 3.155834600329399109e-02 4.295437037944793701e-02 4.706441238522529602e-02 -1.274099200963973999e-01 3.229281306266784668e-02 -7.518795318901538849e-03 -1.926915794610977173e-01 -9.906972199678421021e-02 -1.261556148529052734e-01 -3.713691979646682739e-02 -2.974023669958114624e-02 -2.494440674781799316e-01 -1.070941090583801270e-01 -3.247306123375892639e-02 -2.934811413288116455e-01 -3.163130208849906921e-02 -2.557299435138702393e-01 1.154580153524875641e-02 -1.200199276208877563e-01 3.653998300433158875e-02 -3.914427384734153748e-02 2.280371077358722687e-02 -4.881345853209495544e-02 -4.485117271542549133e-03 1.084606535732746124e-02 8.151566609740257263e-03 -2.482785284519195557e-01 1.612381450831890106e-02 -5.286041647195816040e-02 -8.036482334136962891e-02 -8.204157650470733643e-02 2.150272950530052185e-02 2.411317639052867889e-02 -1.278674900531768799e-01 -2.288020588457584381e-02 -3.470494179055094719e-03 3.794427961111068726e-03 -4.453249275684356689e-02 7.645605504512786865e-02 -1.369365155696868896e-01 9.237136691808700562e-03 6.031362712383270264e-02 -1.545352041721343994e-01 -2.730742394924163818e-01 -4.143065586686134338e-02 -2.430157363414764404e-02 4.655217286199331284e-03 9.509706869721412659e-03 -1.613447256386280060e-02 3.021084517240524292e-02 1.600011624395847321e-02 4.427379928529262543e-03 -9.112564846873283386e-03 -2.740845680236816406e-01 -2.442618459463119507e-02 -1.343351453542709351e-01 6.983701139688491821e-02 -2.877106145024299622e-02 -1.847803592681884766e-02 4.176054149866104126e-02 1.561007928103208542e-03 -4.451891779899597168e-02 1.110299956053495407e-02 4.835838824510574341e-02 3.517988324165344238e-02 1.366804470308125019e-03 1.515297568403184414e-03 -3.031343221664428711e-02 -4.538829438388347626e-03 1.413685642182826996e-02 6.986327003687620163e-03 2.118579670786857605e-02 -4.699309542775154114e-02 8.520495891571044922e-02 -2.028866298496723175e-02 -2.531073093414306641e-01 -3.777132555842399597e-02 -4.750141128897666931e-02 -4.538090527057647705e-02 -2.879636585712432861e-01 3.228921210393309593e-03 -1.538823824375867844e-02 -2.890577167272567749e-02 -7.315441966056823730e-02 -7.621858268976211548e-02 7.377602742053568363e-04 -3.216575458645820618e-02 -5.018331110477447510e-03 -9.018070250749588013e-02 -1.248093321919441223e-02 -1.328987777233123779e-01 -4.157931730151176453e-02 -4.354880750179290771e-01 1.878771348856389523e-03 7.514961529523134232e-03 -3.155362233519554138e-02 -2.610654011368751526e-02 -2.953608334064483643e-02 -8.040305972099304199e-02 -8.020599186420440674e-02 2.285634540021419525e-02 1.692591980099678040e-02 -1.467611640691757202e-03 1.465378911234438419e-03 -4.509117454290390015e-02 -1.073521375656127930e-01 1.360482443124055862e-02 2.300542406737804413e-02 5.852177366614341736e-02 -3.929608762264251709e-01 -4.807058721780776978e-02 3.364199772477149963e-02 6.796739995479583740e-02 8.699015015736222267e-04 4.324106033891439438e-03 3.201601281762123108e-02 -1.236212179064750671e-01 1.362734008580446243e-02 -3.511923132464289665e-03 -1.076657027006149292e-01 -2.118959426879882812e-01 3.780589438974857330e-03 -5.119407083839178085e-03 -8.687918074429035187e-03 -8.205106481909751892e-03 -1.407725620083510876e-03 2.925086067989468575e-03 -4.984224587678909302e-02 -3.828785568475723267e-02 -2.538951346650719643e-03 -1.896701939404010773e-02 -2.601338326930999756e-01 -5.012119188904762268e-02 5.698700621724128723e-02 2.532079070806503296e-02 -2.046067416667938232e-01 8.998515084385871887e-03 -1.602901332080364227e-02 -5.039035677909851074e-01 -1.666084825992584229e-01 4.158570617437362671e-02 -1.499443780630826950e-02 4.327018931508064270e-02 -2.953353524208068848e-01 1.643330976366996765e-02 -1.119588222354650497e-02 -5.430306307971477509e-03 4.032976925373077393e-02 -1.247152090072631836e-01 -2.484403923153877258e-02 -3.582720458507537842e-02 -7.290762150660157204e-04 -4.996300861239433289e-02 1.889411173760890961e-02 3.755159303545951843e-02 -2.530011814087629318e-03 3.794881282374262810e-03 3.134508803486824036e-02 4.264907911419868469e-02 1.363589614629745483e-02 5.614898633211851120e-03 -2.799211740493774414e-01 1.003994327038526535e-02 -3.217602893710136414e-02 -1.610450893640518188e-01 -1.777234822511672974e-01 -8.419228345155715942e-02 -2.297840416431427002e-01 -3.252033889293670654e-02 2.197464741766452789e-02 2.765396842733025551e-03 -1.206593215465545654e-01 1.138072088360786438e-02 2.907648682594299316e-02 4.773699864745140076e-02 7.661913405172526836e-04 -1.989360749721527100e-01 -2.266166061162948608e-01 -7.090217433869838715e-03 2.057333476841449738e-03 4.043497890233993530e-02 -1.018855534493923187e-02 3.074849583208560944e-02 -3.537659943103790283e-01 4.152965173125267029e-02 2.225306816399097443e-02 -4.279243648052215576e-01 -1.752757728099822998e-01 -1.226742460858076811e-04 -3.108563460409641266e-02 -2.439535968005657196e-02 -6.369404494762420654e-03 -1.676920801401138306e-01 -1.533857285976409912e-01 -1.411459147930145264e-01 -1.722798869013786316e-02 4.368741530925035477e-03 2.111259847879409790e-02 -2.118740230798721313e-02 -2.175786904990673065e-02 1.953952945768833160e-03 -7.181334309279918671e-03 2.144813910126686096e-02 -1.755496300756931305e-02 -4.973723739385604858e-02 -1.320880353450775146e-01 1.195917557924985886e-02 4.883952811360359192e-02 6.722142919898033142e-03 -3.315725922584533691e-02 1.654521562159061432e-02 -2.862189412117004395e-01 2.452000416815280914e-02 4.078276082873344421e-02 1.979870907962322235e-02 -1.076390501111745834e-02 2.737497538328170776e-02 6.274625658988952637e-03 2.799459733068943024e-03 3.628581017255783081e-02 4.678124189376831055e-02 7.660951465368270874e-03 5.934379994869232178e-02 -3.359744548797607422e-01 3.447865601629018784e-03 -6.823049392551183701e-03 9.897939860820770264e-03 5.003772675991058350e-03 -2.901130020618438721e-01 2.031628414988517761e-02 -5.117872729897499084e-02 2.824441716074943542e-02 2.079435810446739197e-02 -2.968559414148330688e-02 -1.585339456796646118e-01 -8.106454461812973022e-02 -2.338829487562179565e-01 2.848041616380214691e-02 -4.263967648148536682e-02 -2.712706923484802246e-01 2.280580438673496246e-02 1.116439513862133026e-02 -4.098179563879966736e-02 5.678130686283111572e-02 -3.598848357796669006e-02 -3.781225904822349548e-02 1.799884065985679626e-02 3.203910589218139648e-02 3.593068942427635193e-02 -1.447597146034240723e-01 -1.539450436830520630e-01 -4.256197810173034668e-02 -9.182562679052352905e-02 -1.837313771247863770e-01 3.601221740245819092e-02 -4.873148724436759949e-02 2.605481073260307312e-02 -4.137502238154411316e-02 -1.387192755937576294e-01 9.085557423532009125e-03 5.779515206813812256e-02 -1.432600338011980057e-02 1.595820672810077667e-02 1.192198228091001511e-02 3.121667541563510895e-04 9.562213905155658722e-03 1.260995492339134216e-02 -2.011668402701616287e-03 -2.700848877429962158e-01 3.164020180702209473e-02 -2.500540949404239655e-02 -1.386880315840244293e-02 -1.470512012019753456e-03 2.446378115564584732e-03 1.141594797372817993e-01 -7.680024486035108566e-03 1.050717663019895554e-02 -1.572511792182922363e-01 -1.043431274592876434e-02 5.728949606418609619e-02 -3.893772661685943604e-01 5.853592418134212494e-03 -9.893664717674255371e-02 3.967709839344024658e-02 -1.905732415616512299e-02 -1.361229866743087769e-01 2.567760087549686432e-02 -5.530514195561408997e-02 -2.364717423915863037e-02 2.443686313927173615e-02 -8.357958495616912842e-02 -2.505404409021139145e-04 6.866638083010911942e-03 -4.319107905030250549e-02 3.474319726228713989e-02 -5.200014263391494751e-02 -5.018194764852523804e-02 7.082473021000623703e-03 -1.691409386694431305e-02 4.179457947611808777e-02 -1.328838174231350422e-03 4.109364002943038940e-02 1.036593504250049591e-02 -1.827735453844070435e-01 6.416756194084882736e-03 -2.278899960219860077e-02 3.806880116462707520e-02 -2.449536025524139404e-01 -6.771800667047500610e-02 2.861076220870018005e-02 5.287496373057365417e-02 3.606540709733963013e-02 -6.352145969867706299e-02 5.709562450647354126e-03 -2.910151705145835876e-02 -1.574213802814483643e-02 -2.231580764055252075e-01 5.264826118946075439e-03 1.259791024494916201e-04 -1.681208051741123199e-02 -2.562462352216243744e-02 2.159187570214271545e-03 -1.866814494132995605e-01 2.248812839388847351e-02 -2.738970145583152771e-02 -6.318951398134231567e-02 2.495168708264827728e-02 3.412848105654120445e-03 -6.765719503164291382e-02 1.472988259047269821e-02 -1.105247139930725098e-01 3.724730014801025391e-02 -4.420275092124938965e-01 -1.750802397727966309e-01 1.394997444003820419e-02 1.212645880877971649e-02 -8.097586035728454590e-02 -3.482954502105712891e-01 -2.461218684911727905e-01 5.502805579453706741e-03 -3.014666736125946045e-01 -9.787258505821228027e-02 -3.700090646743774414e-01 -3.578864783048629761e-02 -1.917756162583827972e-02 -2.273270785808563232e-01 2.670229412615299225e-02 3.100090660154819489e-02 -2.436185814440250397e-02 -2.793837524950504303e-02 -1.312070526182651520e-02 2.713839523494243622e-02 -5.813458934426307678e-02 3.067716583609580994e-02 -1.210759058594703674e-01 1.245331577956676483e-02 -4.833274707198143005e-02 -5.013896152377128601e-02 -1.441934704780578613e-02 -1.653093397617340088e-01 -1.681552967056632042e-04 -5.268283188343048096e-02 3.672412037849426270e-02 -4.164075478911399841e-02 -4.569046944379806519e-02 5.803645122796297073e-03 -2.244885638356208801e-02 2.776308543980121613e-02 1.842871494591236115e-02 1.011580321937799454e-02 8.841654285788536072e-03 7.560250163078308105e-02 -3.943891450762748718e-02 6.208202615380287170e-02 -2.092572627589106560e-03 -1.665798388421535492e-02 -4.200866222381591797e-01 1.477793790400028229e-02 -7.347845286130905151e-02 1.554526039399206638e-03 -1.669689118862152100e-01 3.034666180610656738e-02 -5.390659905970096588e-03 -3.254578635096549988e-02 -8.676354773342609406e-03 2.846433781087398529e-03 3.242700546979904175e-02 -8.082286454737186432e-03 3.814400359988212585e-02 2.896668761968612671e-02 -4.219444841146469116e-02 -6.905086338520050049e-02 -2.664498984813690186e-01 9.958066046237945557e-03 -1.761726438999176025e-01 -1.339802891016006470e-02 -1.703430525958538055e-02 -2.654247283935546875e-01 -2.420404739677906036e-02 2.101993560791015625e-02 5.424737557768821716e-02 -7.831543684005737305e-02 -6.101776659488677979e-02 -9.466268867254257202e-02 -2.893624454736709595e-02 -6.338047236204147339e-02 2.648383006453514099e-02 -2.944605192169547081e-03 8.473676629364490509e-03 3.911516070365905762e-02 3.663646429777145386e-02 -7.241258025169372559e-02 8.100181818008422852e-02 -3.882125914096832275e-01 -2.152578905224800110e-02 1.768042519688606262e-02 3.514346480369567871e-02 3.011692129075527191e-02 2.934534847736358643e-02 -2.729187011718750000e-01 7.085818215273320675e-04 -1.056585740298032761e-02 -9.932442009449005127e-02 -2.279849350452423096e-02 -1.021623890846967697e-02 3.376654535531997681e-02 -2.093565911054611206e-01 5.942868068814277649e-03 -2.573324441909790039e-01 2.134077064692974091e-02 -1.542709767818450928e-02 -2.495492994785308838e-01 -6.738916039466857910e-03 4.811982437968254089e-02 1.146710291504859924e-02 -9.073649346828460693e-02 -6.629358977079391479e-02 -1.891611814498901367e-01 2.647917345166206360e-02 -2.956825681030750275e-02 -6.732036918401718140e-02 -2.315890416502952576e-02 2.182673104107379913e-02 -2.244987189769744873e-01 -2.543781995773315430e-01 6.512959022074937820e-03 -3.343745693564414978e-02 -1.942998380400240421e-03 -5.850707739591598511e-02 -2.744120173156261444e-02 1.473252847790718079e-02 4.054451826959848404e-03 -6.923148036003112793e-02 -4.080311581492424011e-02 6.953249219805002213e-03 -2.081607468426227570e-02 6.744245439767837524e-02 1.589977927505970001e-02 -6.588014308363199234e-03 -2.044595964252948761e-02 -5.057547986507415771e-02 9.536151774227619171e-03 -1.419240087270736694e-01 1.710696145892143250e-02 7.285502552986145020e-02 4.141866043210029602e-02 2.425862662494182587e-02 -1.413510181009769440e-02 -1.663770377635955811e-01 1.202024146914482117e-02 2.027078531682491302e-02 2.892195433378219604e-02 -3.060501441359519958e-02 1.192421838641166687e-02 4.072477668523788452e-02 2.442597039043903351e-02 2.964596264064311981e-03 9.442863054573535919e-03 -1.721727102994918823e-02 2.979351952672004700e-02 7.137430948205292225e-04 -1.701188385486602783e-01 -6.944193691015243530e-02 -2.742858827114105225e-01 -1.231173705309629440e-02 6.485693622380495071e-03 1.330974418669939041e-02 -6.036178208887577057e-03 2.694408595561981201e-02 -1.601422391831874847e-02 -1.006565289571881294e-03 1.425981754437088966e-04 -2.126421332359313965e-01 -2.500905841588973999e-02 -2.342636696994304657e-02 -2.845500782132148743e-02 -2.300737798213958740e-01 9.848842164501547813e-04 -5.525388941168785095e-02 -5.564215593039989471e-03 1.518679130822420120e-02 8.076517842710018158e-03 8.873133920133113861e-03 -2.343994565308094025e-02 4.493710771203041077e-02 7.159349508583545685e-03 2.737032622098922729e-02 -2.653601393103599548e-02 1.467697415500879288e-02 1.906790770590305328e-02 -1.560904085636138916e-01 3.213700279593467712e-02 9.403923526406288147e-03 -7.367983926087617874e-03 -5.964774638414382935e-02 -1.241303384304046631e-01 -2.547446929384022951e-04 -1.376887876540422440e-02 6.526697427034378052e-03 -4.942848160862922668e-02 -1.928002759814262390e-02 2.818125486373901367e-02 3.065304830670356750e-03 -5.555747076869010925e-02 -1.337223351001739502e-01 1.919412612915039062e-02 -1.610505431890487671e-01 2.798414602875709534e-02 1.224986408487893641e-05 -7.236393541097640991e-02 -1.819778420031070709e-02 5.928589496761560440e-03 4.588743671774864197e-02 1.460974849760532379e-02 6.466235499829053879e-03 -7.286784704774618149e-03 -2.118313610553741455e-01 1.420068647712469101e-02 2.442711032927036285e-03 3.462145105004310608e-02 4.639699182007461786e-04 2.663188613951206207e-02 -3.927109763026237488e-02 -5.056347697973251343e-03 3.365506185218691826e-03 -1.126340627670288086e-01 -9.638550877571105957e-02 2.179533801972866058e-02 3.385382145643234253e-02 1.446404308080673218e-02 4.036733880639076233e-02 -5.579947307705879211e-02 2.454954385757446289e-02 -5.722230300307273865e-02 3.465321287512779236e-02 -2.306377701461315155e-02 -1.663495153188705444e-01 -3.160627186298370361e-02 1.196673326194286346e-02 3.331701830029487610e-02 -3.978524506092071533e-01 5.021344497799873352e-02 3.014111425727605820e-03 8.139308542013168335e-03 -2.772300038486719131e-03 9.562369436025619507e-03 -1.209557428956031799e-02 1.959122717380523682e-02 -3.688034117221832275e-01 3.161573782563209534e-03 -6.387248635292053223e-03 -2.892616093158721924e-01 3.002441488206386566e-02 1.069478318095207214e-02 -1.349881738424301147e-01 -9.075960516929626465e-02 -3.595308959484100342e-02 -4.796646535396575928e-02 -3.164650499820709229e-01 -3.527202643454074860e-03 -8.145605213940143585e-03 -4.270554333925247192e-02 3.630304010584950447e-03 -1.936995983123779297e-01 8.552215993404388428e-03 -3.104737028479576111e-02 3.165074437856674194e-02 -2.845466136932373047e-01 9.508999064564704895e-03 -9.168125689029693604e-03 -2.284570485353469849e-01 -1.721311733126640320e-02 -1.331741660833358765e-01 1.149258296936750412e-02 -4.749326780438423157e-02 -7.168703526258468628e-02 3.281989321112632751e-02 3.737634746357798576e-03 -6.230772472918033600e-03 1.190623454749584198e-02 4.439093172550201416e-02 2.320958487689495087e-02 2.196492627263069153e-02 -1.849131882190704346e-01 -1.127350479364395142e-01 -1.957792229950428009e-02 2.306998649146407843e-04 -1.980127580463886261e-02 -5.064912512898445129e-02 -5.910643562674522400e-02 -2.174544148147106171e-02 -1.800714805722236633e-02 -1.197207719087600708e-01 -2.470002323389053345e-02 3.546559810638427734e-02 -8.990390598773956299e-02 3.849728032946586609e-02 -1.953829824924468994e-02 2.683584019541740417e-02 2.278556674718856812e-02 1.050085853785276413e-02 -1.321904808282852173e-01 5.325763020664453506e-03 7.346048951148986816e-03 -1.922924220561981201e-01 -3.509735316038131714e-02 2.322990819811820984e-02 -2.148849517107009888e-02 -2.065026164054870605e-01 -5.025149881839752197e-02 -1.072768494486808777e-02 -1.790051162242889404e-01 7.557462155818939209e-02 -1.775625906884670258e-02 4.005358740687370300e-02 1.517882850021123886e-02 -4.136830568313598633e-02 -9.390389313921332359e-04 5.238799750804901123e-02 -5.547701194882392883e-02 1.105394586920738220e-02 -2.442687517032027245e-03 -6.347178947180509567e-03 -2.759023606777191162e-01 9.483112022280693054e-03 2.713929489254951477e-02 -2.526689171791076660e-01 -8.906358852982521057e-03 -1.895618289709091187e-01 -3.166004642844200134e-02 3.183940052986145020e-02 -6.418049335479736328e-01 -1.027727350592613220e-01 -1.540269255638122559e-01 7.704537827521562576e-03 1.801300421357154846e-02 -5.906749516725540161e-03 -2.498314678668975830e-01 -1.397776231169700623e-02 3.829027339816093445e-02 3.873360157012939453e-02 -1.550683099776506424e-02 -2.984089078381657600e-03 6.340572983026504517e-02 3.366599092260003090e-03 4.720402508974075317e-02 8.451867848634719849e-03 -3.512063995003700256e-02 -1.182817667722702026e-01 -3.255888819694519043e-01 -3.442425746470689774e-03 -4.728765692561864853e-03 -4.163192957639694214e-02 -4.286853596568107605e-03 1.010089460760354996e-02 -9.857242926955223083e-03 1.141712535172700882e-02 -9.033909440040588379e-02 -2.374286763370037079e-03 -1.223153522005304694e-04 -4.490192532539367676e-01 4.852838441729545593e-02 1.181241939775645733e-03 4.857253283262252808e-02 -1.411579735577106476e-02 -6.352245807647705078e-02 -5.166430957615375519e-03 -2.288746088743209839e-02 -1.061733961105346680e-01 7.657058537006378174e-02 -8.642419241368770599e-03 -1.276239901781082153e-01 2.753441594541072845e-02 3.574188333004713058e-03 -1.286992616951465607e-02 -1.415647715330123901e-01 -3.854123060591518879e-04 -2.229027748107910156e-01 -3.227371955290436745e-03 2.971827751025557518e-03 5.693090613931417465e-03 -2.297397330403327942e-02 -2.103629522025585175e-02 -3.030355460941791534e-02 -7.330718636512756348e-02 -7.471338659524917603e-02 -2.806978300213813782e-02 1.775655313394963741e-03 2.570134401321411133e-02 -7.773917634040117264e-03 6.011819932609796524e-03 -6.908957660198211670e-02 -2.756575644016265869e-01 8.504774421453475952e-03 2.192438393831253052e-02 2.230596356093883514e-02 2.550137415528297424e-02 6.942395865917205811e-02 1.215530838817358017e-02 6.643851753324270248e-03 -2.895696787163615227e-03 -4.862191155552864075e-02 -3.589333593845367432e-02 -2.616977877914905548e-02 2.889202442020177841e-03 -5.565717443823814392e-02 -3.374800318852066994e-03 -1.178032997995615005e-02 -2.440673261880874634e-01 2.356278337538242340e-02 -1.014370005577802658e-02 -5.957695841789245605e-02 2.086645923554897308e-03 3.160270303487777710e-02 -8.161231130361557007e-02 -3.109810687601566315e-02 -3.583491444587707520e-01 -3.693651175126433372e-03 -2.095120726153254509e-03 -4.484185576438903809e-02 -4.875791966915130615e-01 -3.172128275036811829e-02 4.143225960433483124e-03 1.325157121755182743e-03 -1.610862016677856445e-01 -9.437892585992813110e-02 2.146681584417819977e-02 5.926727782934904099e-03 -3.229924477636814117e-03 -3.040540404617786407e-02 4.003183171153068542e-02 1.400246284902095795e-02 -1.159133017063140869e-01 -1.728208153508603573e-04 -3.960903268307447433e-03 2.531460300087928772e-02 -1.934699267148971558e-01 -1.074905693531036377e-01 1.197636406868696213e-02 -2.353336103260517120e-02 -1.692204922437667847e-01 -2.833049045875668526e-03 1.773830316960811615e-02 -4.301424324512481689e-02 -6.666024774312973022e-02 -2.831292524933815002e-02 3.303898870944976807e-02 2.310798130929470062e-02 -4.521474242210388184e-02 -7.074086368083953857e-02 -1.623971946537494659e-02 4.471978172659873962e-03 -2.287022396922111511e-02 -3.127015661448240280e-03 1.239588018506765366e-02 6.719253212213516235e-02 -1.282420903444290161e-01 8.833072148263454437e-03 -3.689144924283027649e-02 -1.975264400243759155e-02 3.283431380987167358e-02 -7.124118506908416748e-03 -3.185222670435905457e-02 2.706333529204130173e-03 3.850362496450543404e-03 2.504462189972400665e-02 3.481445461511611938e-02 -1.864161491394042969e-01 1.021608151495456696e-02 -1.102374517358839512e-03 -2.028697580099105835e-01 -1.333793848752975464e-01 -6.282719969749450684e-02 -1.919414289295673370e-02 -7.965234108269214630e-03 1.331352815032005310e-02 2.008408121764659882e-02 -1.093892157077789307e-01 4.734276235103607178e-02 -5.737996846437454224e-02 -1.759142964147031307e-03 2.999146934598684311e-03 3.760133311152458191e-02 2.852049469947814941e-02 -6.870094686746597290e-02 4.677328839898109436e-02 -8.418428897857666016e-02 -9.228777885437011719e-02 -7.129881531000137329e-03 -2.284676581621170044e-02 -1.802984625101089478e-01 -2.639568969607353210e-02 -1.516551338136196136e-02 -3.675862401723861694e-02 1.507944148033857346e-02 -1.856859540566802025e-03 4.812096431851387024e-02 -5.323154851794242859e-02 3.823010716587305069e-03 -3.896445035934448242e-02 -1.356833577156066895e-01 -8.738625794649124146e-02 2.637278288602828979e-03 -1.920533478260040283e-01 6.340071558952331543e-02 1.441910862922668457e-02 -3.417519927024841309e-01 1.270996144739910960e-04 3.917680587619543076e-03 -1.097666937857866287e-02 -1.432886905968189240e-02 1.286619994789361954e-02 -6.408312171697616577e-02 -1.483729332685470581e-01 -1.978177130222320557e-01 -6.477672606706619263e-02 1.728656888008117676e-02 -2.041837945580482483e-02 2.005803398787975311e-02 2.453087456524372101e-02 2.467598952353000641e-02 4.585116356611251831e-02 -8.343896269798278809e-02 3.279936313629150391e-02 -2.911686338484287262e-02 -4.939029924571514130e-03 2.630082657560706139e-03 -3.546042367815971375e-02 -2.209152653813362122e-02 -2.834011567756533623e-03 -1.546543538570404053e-01 2.477018628269433975e-03 -1.320298109203577042e-02 8.422872051596641541e-03 -1.055808737874031067e-03 -3.006229102611541748e-01 -2.213960140943527222e-02 2.674214541912078857e-03 -1.623958582058548927e-03 7.087449543178081512e-03 3.829232603311538696e-02 4.001777619123458862e-03 -1.308970898389816284e-01 -2.642589155584573746e-03 -2.443616045638918877e-03 -3.653906984254717827e-03 -1.187900304794311523e-01 9.213931858539581299e-03 2.930493280291557312e-02 1.109121274203062057e-02 1.475251559168100357e-02 2.110977424308657646e-03 2.977597154676914215e-02 -2.377018630504608154e-01 -8.457429707050323486e-02 -7.107402384281158447e-02 -1.939522288739681244e-02 -1.469262838363647461e-01 -2.970742434263229370e-02 -2.111170440912246704e-01 -5.779789760708808899e-03 -1.860803179442882538e-02 -2.488023974001407623e-02 -2.005781978368759155e-02 -1.824834644794464111e-01 1.976373232901096344e-02 -1.205910183489322662e-02 -2.028402537107467651e-01 -1.293752044439315796e-01 3.168234601616859436e-02 -6.662842351943254471e-03 -1.591680645942687988e-01 8.346872404217720032e-03 -4.102805852890014648e-01 -6.831151247024536133e-02 2.747931890189647675e-02 -5.393668543547391891e-03 -1.310332715511322021e-01 2.066592220216989517e-03 -1.842731386423110962e-01 3.189791366457939148e-02 -1.253414340317249298e-02 1.785503514111042023e-02 -1.189079135656356812e-01 -2.790093421936035156e-02 -3.131232857704162598e-01 2.855552919209003448e-02 -2.279093302786350250e-02 6.897817552089691162e-02 3.665218129754066467e-03 -2.654733657836914062e-01 2.938589081168174744e-02 -8.624413982033729553e-03 3.805195912718772888e-02 -4.152364097535610199e-03 3.395652770996093750e-02 -4.893196746706962585e-03 2.095499308779835701e-03 -2.114321850240230560e-02 6.501344591379165649e-02 3.974433615803718567e-02 1.271342299878597260e-02 4.375786520540714264e-03 5.022602528333663940e-02 -2.300451993942260742e-01 -4.159564375877380371e-01 2.189884707331657410e-02 -2.534545958042144775e-01 2.256928943097591400e-02 -8.182362467050552368e-02 -1.075207814574241638e-01 -2.350641787052154541e-02 -3.270947635173797607e-01 -1.044624671339988708e-01 -1.127597223967313766e-02 -1.085372059606015682e-03 -1.427881866693496704e-01 -1.382877491414546967e-02 5.579983815550804138e-03 -1.312130987644195557e-01 -6.761799752712249756e-02 8.087689988315105438e-03 6.808249279856681824e-03 -8.324409835040569305e-03 3.170503675937652588e-02 -2.824768722057342529e-01 -6.554244551807641983e-03 -8.125920780003070831e-03 -7.253681309521198273e-03 1.879657432436943054e-02 8.358236402273178101e-02 -8.877785503864288330e-02 -1.659256368875503540e-01 -6.089372094720602036e-03 -1.724512726068496704e-01 7.406468037515878677e-03 -1.291692070662975311e-02 2.863616868853569031e-02 1.055297534912824631e-02 -9.656548500061035156e-02 -6.942734587937593460e-03 -1.069082040339708328e-02 2.549833059310913086e-02 -2.521997317671775818e-02 -2.873804979026317596e-02 2.790353493764996529e-03 5.379494745284318924e-03 -3.564353883266448975e-01 -1.423866897821426392e-01 -1.050515379756689072e-02 -1.560826203785836697e-03 -3.395638763904571533e-01 3.178484737873077393e-02 -2.251860201358795166e-01 3.861123695969581604e-03 8.922844193875789642e-03 3.852649405598640442e-02 2.410663850605487823e-02 4.511231929063796997e-02 4.978000652045011520e-03 4.817499965429306030e-02 3.610879927873611450e-02 -1.525965146720409393e-02 -2.875930629670619965e-02 -1.510469615459442139e-01 -1.475541889667510986e-01 -4.787936806678771973e-03 -4.421659559011459351e-02 -6.539088487625122070e-02 -1.502579599618911743e-01 -4.288248717784881592e-02 3.629764169454574585e-02 4.964837804436683655e-03 7.207135111093521118e-02 -4.082019031047821045e-01 -3.761108592152595520e-02 -9.633380919694900513e-03 -5.491528660058975220e-02 -3.357541561126708984e-01 -1.598229445517063141e-02 -7.046978920698165894e-02 -1.916781254112720490e-02 2.192668430507183075e-02 -5.712400376796722412e-02 3.454531729221343994e-02 4.246887564659118652e-02 -8.490527421236038208e-02 2.328164700884371996e-04 -9.165833890438079834e-02 2.983068581670522690e-03 2.782144583761692047e-02 -2.371304295957088470e-02 2.639527665451169014e-03 -2.000097036361694336e-01 -1.959073543548583984e-01 -6.360916048288345337e-02 2.480690740048885345e-02 