8.053778856992721558e-02 8.384611457586288452e-02 2.433107979595661163e-02 -8.044491708278656006e-02 6.480535864830017090e-02 1.015787720680236816e-01 7.933264598250389099e-03 2.468308992683887482e-02 3.335226327180862427e-03 -1.628639176487922668e-02 5.033887922763824463e-02 7.133967429399490356e-02 1.236096397042274475e-01 4.866582155227661133e-02 3.461874648928642273e-02 8.721411973237991333e-02 1.802816055715084076e-02 4.671977367252111435e-03 7.715596258640289307e-02 -1.030965745449066162e-01 6.456062942743301392e-02 6.039858981966972351e-02 1.053521223366260529e-02 8.275361359119415283e-02 7.502771168947219849e-02 2.607412263751029968e-02 6.820558756589889526e-02 -4.014890268445014954e-02 -6.722438335418701172e-02 -5.148057267069816589e-02 3.664746880531311035e-02 3.440710157155990601e-02 5.936491116881370544e-02 3.076740540564060211e-02 7.161895185708999634e-02 2.302807290107011795e-03 9.289490059018135071e-03 1.014969199895858765e-01 5.382283404469490051e-02 4.830884281545877457e-03 -1.348498184233903885e-02 2.544792182743549347e-02 1.261257100850343704e-02 6.600852310657501221e-02 6.727124750614166260e-02 2.567269839346408844e-02 1.473225746303796768e-02 5.692103505134582520e-02 6.122819334268569946e-02 -3.456362336874008179e-02 1.604513637721538544e-02 1.275667920708656311e-02 3.835510089993476868e-02 -7.182174921035766602e-02 5.213117599487304688e-02 9.059022367000579834e-02 9.987252205610275269e-02 4.068806394934654236e-02 1.401790324598550797e-02 9.289373457431793213e-02 4.650799557566642761e-02 -2.781852707266807556e-02 -3.645992651581764221e-02 3.008697368204593658e-02 -1.190898492932319641e-01 7.161869853734970093e-02 2.705942094326019287e-02 2.368801832199096680e-02 -9.091666340827941895e-02 5.240829288959503174e-02 7.060624659061431885e-02 1.623943448066711426e-02 1.435591932386159897e-02 3.373039513826370239e-02 9.066887944936752319e-02 -4.538799822330474854e-02 -1.336045563220977783e-02 7.115078717470169067e-02 -4.056496173143386841e-02 6.834824383258819580e-02 2.294454537332057953e-02 9.830227494239807129e-02 4.831541329622268677e-02 5.120027437806129456e-02 5.867175385355949402e-02 -5.926595628261566162e-02 8.662424236536026001e-02 7.527111470699310303e-02 3.570810332894325256e-02 1.390890479087829590e-01 2.155951969325542450e-02 8.021857589483261108e-02 -1.805104166269302368e-01 7.396997511386871338e-02 4.985184222459793091e-02 1.087775528430938721e-01 -3.656383603811264038e-02 2.254834212362766266e-02 3.841498866677284241e-02 2.879704162478446960e-02 -3.517426177859306335e-02 7.378935813903808594e-02 8.006331324577331543e-02 7.793088257312774658e-02 6.841144710779190063e-02 -2.615688927471637726e-02 5.220922641456127167e-03 -1.233649700880050659e-01 1.293020546436309814e-01 2.205139771103858948e-02 1.599145084619522095e-01 5.849269405007362366e-02 8.346178382635116577e-02 8.124409615993499756e-02 7.164677232503890991e-02 3.698281943798065186e-02 1.611447930335998535e-01 8.324871957302093506e-02 5.960023403167724609e-02 5.276609584689140320e-02 -2.658328041434288025e-02 -4.364678636193275452e-02 6.598696112632751465e-02 3.016213327646255493e-02 4.718435183167457581e-02 5.713583435863256454e-03 6.153426319360733032e-02 8.245093375444412231e-02 -1.001131758093833923e-01 -7.919074036180973053e-03 -1.870165951550006866e-02 3.014031052589416504e-02 -2.556164376437664032e-02 1.974882930517196655e-02 5.731171742081642151e-02 9.787680581212043762e-03 2.079056808724999428e-03 3.945655748248100281e-02 5.848597735166549683e-02 6.912582367658615112e-02 7.601010054349899292e-02 -1.229961588978767395e-01 1.050405353307723999e-01 3.199782595038414001e-02 -4.033539444208145142e-03 -6.573865562677383423e-02 -7.587180007249116898e-03 6.432509422302246094e-02 2.881678938865661621e-02 6.625159829854965210e-02 3.507636487483978271e-02 3.713972494006156921e-02 3.487602993845939636e-02 -3.258628770709037781e-03 6.743417680263519287e-02 5.293870344758033752e-02 1.067970022559165955e-01 -1.619747728109359741e-01 1.162794828414916992e-01 1.369757503271102905e-01 1.044612824916839600e-01 4.626625776290893555e-02 3.402319923043251038e-02 5.114790797233581543e-02 -4.629160836338996887e-02 3.225134313106536865e-02 3.319928422570228577e-02 7.270095497369766235e-02 2.240438014268875122e-02 1.124991104006767273e-02 -9.332873858511447906e-03 2.514753490686416626e-02 5.607499275356531143e-03 -2.553695067763328552e-02 -1.460213307291269302e-02 3.557126224040985107e-02 -3.308596089482307434e-02 6.959727033972740173e-03 3.641320765018463135e-02 -2.689545787870883942e-02 3.138042241334915161e-02 2.995642088353633881e-02 2.604056335985660553e-02 1.484125852584838867e-02 7.424645870923995972e-02 8.799379318952560425e-02 6.766602396965026855e-02 4.327134415507316589e-02 2.799198403954505920e-02 1.269717216491699219e-01 -4.921848326921463013e-02 -1.027485877275466919e-01 -9.219671785831451416e-02 4.425762593746185303e-02 9.888894855976104736e-02 6.265817582607269287e-02 2.975960075855255127e-02 1.169883385300636292e-01 7.787573337554931641e-02 -1.508278027176856995e-02 -1.032609194517135620e-01 -3.514324873685836792e-02 2.952722646296024323e-02 6.623525172472000122e-02 7.957749068737030029e-02 7.879137247800827026e-02 -4.475370794534683228e-02 4.396042600274085999e-02 -3.121053613722324371e-02 -1.601880043745040894e-02 -1.160973012447357178e-01 4.827758297324180603e-02 -2.264823764562606812e-02 4.679515026509761810e-03 7.613277062773704529e-03 -1.045014150440692902e-02 9.760736674070358276e-02 3.007960133254528046e-02 -3.819524869322776794e-02 2.738575823605060577e-02 5.917505174875259399e-02 7.422184944152832031e-02 9.959655255079269409e-02 -1.682811789214611053e-02 6.510010454803705215e-03 1.788046397268772125e-02 1.181901805102825165e-02 3.906903415918350220e-02 5.872890725731849670e-02 1.596091501414775848e-02 8.234602957963943481e-02 3.831685706973075867e-02 -4.442518204450607300e-02 1.180920451879501343e-01 7.347079366445541382e-02 -4.246256127953529358e-02 3.331512585282325745e-02 -3.404537681490182877e-03 4.214565828442573547e-02 6.862973328679800034e-03 1.253716945648193359e-01 2.326493710279464722e-02 1.126333847641944885e-01 6.842762231826782227e-02 -5.681407637894153595e-03 4.480709135532379150e-02 3.258491680026054382e-02 -6.950284540653228760e-02 1.799067109823226929e-02 1.176155079156160355e-02 1.737106824293732643e-03 3.233468905091285706e-02 6.812192499637603760e-02 7.806818932294845581e-02 5.658911075443029404e-03 1.212491071783006191e-03 -6.186362821608781815e-03 2.064439654350280762e-02 8.888338506221771240e-02 -2.703113108873367310e-02 9.580280631780624390e-02 9.008087962865829468e-02 5.240477621555328369e-02 2.937008440494537354e-02 6.618802249431610107e-02 -6.729241926223039627e-03 2.777874283492565155e-02 3.809360414743423462e-02 6.289640814065933228e-02 7.800783962011337280e-02 -3.755991812795400620e-03 4.594960808753967285e-02 5.069647729396820068e-02 7.071407884359359741e-02 5.821742862462997437e-02 6.276496686041355133e-03 7.178557664155960083e-02 -4.687202721834182739e-02 -1.275704335421323776e-02 -2.013439498841762543e-02 6.914147734642028809e-02 1.902701333165168762e-02 6.054220348596572876e-02 5.005963146686553955e-03 -1.342262327671051025e-01 8.613405376672744751e-02 1.655752211809158325e-02 7.278344780206680298e-02 4.490213096141815186e-02 1.075393334031105042e-01 2.037007361650466919e-02 2.438276074826717377e-02 3.306212136521935463e-03 -2.751341275870800018e-02 -2.956457249820232391e-02 9.579852223396301270e-03 6.858541071414947510e-02 8.407717198133468628e-02 4.499538242816925049e-02 8.545711636543273926e-02 -6.086789071559906006e-02 -2.293172059580683708e-03 1.594631932675838470e-02 4.106887057423591614e-02 -2.758105099201202393e-01 3.872730210423469543e-02 -3.442054614424705505e-02 9.529554098844528198e-02 4.724186286330223083e-02 2.067448385059833527e-02 4.795399680733680725e-02 2.945663034915924072e-02 -2.771056443452835083e-02 6.432341039180755615e-02 3.429060056805610657e-02 8.633206039667129517e-02 4.707199335098266602e-02 6.971998605877161026e-03 -7.004201761446893215e-04 2.768671698868274689e-02 3.582924231886863708e-02 -1.972287893295288086e-02 -2.109120786190032959e-01 -1.425829995423555374e-02 4.374045878648757935e-02 1.031654793769121170e-02 3.198281675577163696e-02 3.410042077302932739e-02 4.614618420600891113e-02 3.648379072546958923e-02 7.684817165136337280e-02 -4.424875602126121521e-03 3.100855089724063873e-02 2.346032671630382538e-02 3.913048654794692993e-02 -4.331256786826997995e-04 4.981576278805732727e-02 7.050339877605438232e-02 8.556491136550903320e-02 1.392782479524612427e-02 -2.521986514329910278e-02 -1.425877064466476440e-01 2.644185163080692291e-02 5.206341296434402466e-02 3.771600872278213501e-02 -1.047745905816555023e-02 -4.573827981948852539e-02 1.199120748788118362e-02 -1.609948091208934784e-02 3.796362876892089844e-02 3.251034021377563477e-02 6.210070103406906128e-02 2.142624184489250183e-02 3.791867196559906006e-02 -2.204276919364929199e-01 -2.029127813875675201e-02 6.009734794497489929e-02 1.841060221195220947e-01 3.442320972681045532e-02 5.838505551218986511e-02 1.526822596788406372e-01 1.039887368679046631e-01 2.401064336299896240e-02 2.653073891997337341e-02 2.698888815939426422e-02 1.108357384800910950e-01 3.282019495964050293e-02 9.581061452627182007e-02 7.649556733667850494e-03 -2.546716853976249695e-02 5.489542707800865173e-02 5.336317420005798340e-02 9.116908162832260132e-02 -5.350621789693832397e-02 3.480032458901405334e-02 4.558754339814186096e-02 1.564004272222518921e-01 4.566163942217826843e-02 7.181074470281600952e-02 5.008955672383308411e-02 1.186345145106315613e-02 7.156454771757125854e-02 -4.566222429275512695e-02 -5.796705931425094604e-02 3.428981825709342957e-02 1.293517742305994034e-02 3.112084418535232544e-02 6.133432686328887939e-02 5.661964416503906250e-02 6.700807064771652222e-02 -7.373945415019989014e-02 1.000929176807403564e-01 -3.874199092388153076e-02 8.277108520269393921e-02 6.897056847810745239e-02 6.489546597003936768e-02 3.275226429104804993e-02 4.754406213760375977e-02 7.017046958208084106e-02 7.821066677570343018e-02 1.138648018240928650e-01 2.716468274593353271e-02 5.323199182748794556e-02 8.074218779802322388e-02 2.780104056000709534e-02 1.331777404993772507e-02 -2.935850992798805237e-02 8.639101684093475342e-02 5.382160097360610962e-02 -6.584793329238891602e-02 9.032331407070159912e-02 9.423054009675979614e-02 4.697011411190032959e-02 1.412378251552581787e-01 3.228297829627990723e-02 -3.712420538067817688e-02 -2.566356956958770752e-02 7.424709945917129517e-02 1.978705823421478271e-02 2.324216440320014954e-02 1.422745175659656525e-03 -3.937174100428819656e-03 8.382564038038253784e-02 3.043077699840068817e-02 1.420821994543075562e-01 -4.844851419329643250e-02 1.247406564652919769e-02 7.815075665712356567e-02 1.071394160389900208e-01 -1.164093054831027985e-02 -7.098686695098876953e-02 7.655839901417493820e-03 8.927409350872039795e-02 4.502546787261962891e-02 1.517990836873650551e-03 9.254349023103713989e-02 1.184579506516456604e-01 1.231802720576524734e-02 1.746030524373054504e-02 5.117451399564743042e-02 1.538364291191101074e-01 -4.190742969512939453e-03 -2.194124832749366760e-02 2.339630573987960815e-02 -2.612625993788242340e-02 9.064470231533050537e-02 2.822911553084850311e-02 6.905835866928100586e-02 -5.177753046154975891e-03 -3.740093484520912170e-02 -9.693462401628494263e-02 -1.268268525600433350e-01 4.788965359330177307e-02 1.389652211219072342e-02 5.693115293979644775e-02 8.619926124811172485e-02 3.807612508535385132e-02 7.776796817779541016e-02 1.707409881055355072e-02 9.292196482419967651e-03 5.502231419086456299e-02 -1.436603628098964691e-02 7.857115566730499268e-02 2.447658032178878784e-02 4.245016351342201233e-02 -4.372139275074005127e-02 -2.895635366439819336e-02 7.380964607000350952e-02 -3.695362713187932968e-03 5.986102041788399220e-05 9.870822727680206299e-02 -1.694652251899242401e-02 -2.007136866450309753e-02 4.712017253041267395e-02 9.985076636075973511e-02 6.332318484783172607e-02 3.043927997350692749e-02 -2.746872603893280029e-02 -8.961232379078865051e-03 -2.599074691534042358e-02 4.052974283695220947e-02 6.028805300593376160e-02 8.192513883113861084e-02 3.018500469624996185e-02 6.008755415678024292e-02 1.030086353421211243e-01 2.716442383825778961e-02 8.921593427658081055e-02 5.011812597513198853e-02 -7.634727656841278076e-02 4.010025411844253540e-02 1.808349415659904480e-02 6.904812157154083252e-02 -3.468372672796249390e-02 -2.070801332592964172e-02 3.546547889709472656e-02 2.758591808378696442e-02 -6.917038559913635254e-02 -1.238433457911014557e-02 7.698924094438552856e-02 4.205434396862983704e-02 6.812987476587295532e-02 -7.993774488568305969e-03 1.836573891341686249e-02 8.455159142613410950e-03 -7.597372680902481079e-02 3.075731545686721802e-02 -6.030834838747978210e-02 8.021482825279235840e-02 -2.035705931484699249e-02 2.959831058979034424e-02 6.273628026247024536e-02 1.192221716046333313e-01 6.293878704309463501e-02 2.025528624653816223e-02 -4.697534814476966858e-02 -8.149975538253784180e-02 -3.910100553184747696e-03 -3.048392012715339661e-03 4.969064891338348389e-02 3.894560039043426514e-02 4.579283669590950012e-02 7.825157046318054199e-02 8.416585624217987061e-02 7.120376080274581909e-02 5.195707827806472778e-02 1.079852879047393799e-01 -8.324867114424705505e-03 4.506657645106315613e-02 1.372324526309967041e-01 2.712671086192131042e-02 2.052726037800312042e-02 2.406285516917705536e-02 9.205148369073867798e-02 1.090415343642234802e-01 -2.283477783203125000e-02 4.099012538790702820e-02 6.512065231800079346e-02 1.280884258449077606e-02 6.538435816764831543e-02 5.677535384893417358e-02 -1.818684488534927368e-01 4.711253941059112549e-02 1.988022588193416595e-02 3.049134276807308197e-02 1.626258343458175659e-02 4.667560756206512451e-02 6.200593896210193634e-03 3.794089891016483307e-03 3.550766780972480774e-02 -3.967737406492233276e-02 7.577400654554367065e-02 4.055883735418319702e-02 5.331977084279060364e-02 -1.490964367985725403e-02 -2.807115949690341949e-02 5.482800304889678955e-02 -8.251930121332406998e-04 -4.334727674722671509e-02 9.495348483324050903e-02 5.117399245500564575e-02 -2.568718278780579567e-03 2.014338597655296326e-02 4.660922288894653320e-02 1.064126044511795044e-01 1.004558615386486053e-02 -2.875210158526897430e-02 3.568983450531959534e-02 1.639197207987308502e-02 -7.213762402534484863e-02 5.049914866685867310e-02 6.664346903562545776e-02 4.973892122507095337e-02 1.865776441991329193e-02 2.664262242615222931e-02 -2.215335704386234283e-02 6.752444058656692505e-02 1.267855018377304077e-01 -2.355929836630821228e-02 9.773723036050796509e-02 1.069673299789428711e-01 -6.765614449977874756e-02 1.593593508005142212e-02 -4.260842222720384598e-03 2.006415091454982758e-02 4.174604266881942749e-02 6.765400525182485580e-03 3.409087285399436951e-02 9.244159609079360962e-02 -4.121832177042961121e-02 3.576281294226646423e-02 -3.170514013618230820e-03 -6.658088415861129761e-02 -9.259324520826339722e-03 6.145161762833595276e-02 3.889078274369239807e-02 -5.508982762694358826e-02 1.021970584988594055e-01 5.004608631134033203e-02 5.998795479536056519e-02 -1.681616455316543579e-01 7.077150791883468628e-02 8.392487466335296631e-02 2.703468687832355499e-02 -9.695769287645816803e-03 3.843527659773826599e-02 2.990924753248691559e-03 2.615101449191570282e-02 2.909413306042551994e-03 -1.160497590899467468e-02 -1.193886436522006989e-02 2.299193479120731354e-02 6.882341206073760986e-02 6.247377395629882812e-02 9.606205672025680542e-02 1.305135618895292282e-02 2.821324579417705536e-02 8.030194789171218872e-02 -3.088326565921306610e-02 1.155261844396591187e-01 4.052351415157318115e-02 8.780800551176071167e-02 1.843480393290519714e-02 4.969965666532516479e-02 4.455132037401199341e-02 7.698211818933486938e-02 4.017043858766555786e-02 -5.363019555807113647e-02 8.156876266002655029e-02 1.312331482768058777e-02 3.433707356452941895e-02 1.435867231339216232e-02 8.903089910745620728e-02 -7.111375685781240463e-03 -1.561686545610427856e-01 1.151112690567970276e-01 9.125145152211189270e-03 7.368700206279754639e-02 7.276599109172821045e-02 5.468062311410903931e-02 6.499877572059631348e-02 5.702137574553489685e-02 -1.082384437322616577e-01 1.021405085921287537e-01 2.155401371419429779e-02 1.442654579877853394e-01 7.304453756660223007e-03 2.226839773356914520e-02 7.143681496381759644e-02 2.002554386854171753e-02 -9.997498989105224609e-02 -2.083590254187583923e-02 -3.300318866968154907e-02 2.603686414659023285e-02 -6.864406168460845947e-02 3.676871210336685181e-02 4.927676543593406677e-02 1.458201091736555099e-02 3.101395256817340851e-02 -1.905063353478908539e-02 4.788815602660179138e-02 -3.956745378673076630e-03 5.507614836096763611e-02 -8.469999581575393677e-02 -9.334412403404712677e-03 1.021436601877212524e-02 -1.722041144967079163e-02 2.377319894731044769e-02 6.223531067371368408e-02 7.399014197289943695e-03 7.346731424331665039e-02 -1.269242540001869202e-02 -2.101404592394828796e-02 -1.992937624454498291e-01 -5.697005242109298706e-02 -1.046715229749679565e-01 4.037050530314445496e-02 1.718775369226932526e-02 1.454890239983797073e-02 1.022161543369293213e-01 7.045751437544822693e-03 5.400382727384567261e-02 1.165077742189168930e-02 3.971413522958755493e-02 1.197608411312103271e-01 7.789440453052520752e-02 6.447926163673400879e-02 1.458210404962301254e-02 8.617506921291351318e-02 2.203596523031592369e-03 5.955158546566963196e-02 4.130563139915466309e-02 5.622617155313491821e-02 4.267507791519165039e-02 8.583016693592071533e-03 1.435474026948213577e-02 1.248737680725753307e-04 6.351342797279357910e-02 -6.799742579460144043e-02 -7.652102410793304443e-02 4.614919796586036682e-02 2.103858254849910736e-02 -1.038632355630397797e-02 6.083605810999870300e-02 4.027073085308074951e-02 -4.963832348585128784e-02 6.362305488437414169e-03 9.132204949855804443e-02 2.316432446241378784e-02 -1.030542422086000443e-02 1.446514297276735306e-02 9.570944309234619141e-02 -5.034488067030906677e-02 7.220761477947235107e-02 6.569481920450925827e-03 -5.013149231672286987e-02 2.277005277574062347e-02 5.742571875452995300e-02 -4.642522707581520081e-02 3.728849580511450768e-03 1.052680984139442444e-01 8.638065308332443237e-02 -1.188330352306365967e-01 6.015884131193161011e-02 3.580118715763092041e-02 3.325625136494636536e-02 -3.666401607915759087e-03 4.945518076419830322e-02 1.076703891158103943e-02 1.983448304235935211e-02 5.358954519033432007e-02 8.639965951442718506e-02 2.748792991042137146e-02 1.524349004030227661e-01 9.334880858659744263e-02 1.041275914758443832e-02 4.332825168967247009e-02 -3.395890817046165466e-02 -1.628851294517517090e-01 5.210725590586662292e-02 -8.188719861209392548e-03 6.292907893657684326e-02 1.191329210996627808e-02 8.591452986001968384e-02 3.393888100981712341e-02 7.667615264654159546e-02 1.497583277523517609e-02 1.152279153466224670e-01 4.205133020877838135e-02 -2.900851517915725708e-02 5.698986724019050598e-02 9.963569790124893188e-02 1.611942425370216370e-02 2.685383521020412445e-02 9.897211939096450806e-02 1.258361618965864182e-02 1.199320610612630844e-02 4.766482394188642502e-03 -7.901690900325775146e-02 -5.003867298364639282e-02 -1.922291889786720276e-02 5.492058023810386658e-02 6.553249806165695190e-02 6.417962908744812012e-02 -6.873104721307754517e-02 9.234645962715148926e-02 3.187547996640205383e-02 3.343239799141883850e-02 1.613855734467506409e-02 -3.421156853437423706e-02 7.924627512693405151e-02 2.575298305600881577e-03 5.977030843496322632e-02 8.912164717912673950e-02 1.029136925935745239e-01 -1.947432942688465118e-02 3.929306194186210632e-02 8.581619709730148315e-02 9.096363186836242676e-02 2.702041994780302048e-03 1.035453900694847107e-01 1.539200544357299805e-01 -2.436874900013208389e-03 6.082791835069656372e-02 9.000201523303985596e-02 -1.382716000080108643e-01 1.905684359371662140e-02 -2.017568051815032959e-02 6.388289853930473328e-03 1.962476596236228943e-02 1.766829378902912140e-02 4.088289663195610046e-02 -1.265570055693387985e-02 5.125270783901214600e-02 8.272590488195419312e-02 9.266737848520278931e-02 2.580377086997032166e-02 2.368701435625553131e-02 5.544841289520263672e-02 4.689590632915496826e-02 6.810311228036880493e-02 4.511982575058937073e-02 3.282341361045837402e-02 6.851104646921157837e-02 6.743123382329940796e-02 1.607162505388259888e-01 -1.767383515834808350e-02 9.539162740111351013e-03 7.001538574695587158e-02 4.664315283298492432e-02 1.092514246702194214e-01 1.552348490804433823e-03 6.194115802645683289e-02 3.070473484694957733e-02 1.006446182727813721e-01 5.715054459869861603e-03 6.295537948608398438e-02 8.099164813756942749e-03 1.946360431611537933e-02 3.882500156760215759e-02 8.519973605871200562e-03 8.563588559627532959e-02 8.802518993616104126e-02 -4.389201104640960693e-02 2.014712430536746979e-02 6.122783198952674866e-02 4.506246000528335571e-02 3.618774190545082092e-02 -7.740826159715652466e-02 1.011801138520240784e-01 9.444619715213775635e-02 4.993384331464767456e-02 6.129162758588790894e-02 2.222130447626113892e-02 7.362888753414154053e-02 4.510890692472457886e-02 -2.648286819458007812e-01 -5.180286243557929993e-02 3.146791085600852966e-02 4.988891258835792542e-02 8.660431951284408569e-02 1.078180596232414246e-01 -3.106142976321280003e-04 1.320254206657409668e-01 5.689482018351554871e-02 -2.859095809981226921e-03 7.628578459843993187e-04 8.167551457881927490e-02 2.770642191171646118e-02 4.510856419801712036e-02 -2.711088359355926514e-01 1.100821048021316528e-01 3.606810793280601501e-02 1.503083109855651855e-01 -6.074281409382820129e-02 6.326824426651000977e-02 -5.547273531556129456e-02 7.235105615109205246e-03 6.732559949159622192e-02 2.479268424212932587e-02 5.132614448666572571e-02 1.942485198378562927e-02 5.688507109880447388e-02 3.390251845121383667e-02 4.172909259796142578e-02 5.310391634702682495e-02 3.361239656805992126e-02 -2.684580087661743164e-01 4.796339944005012512e-02 1.841567642986774445e-02 5.432613939046859741e-02 5.627323687076568604e-02 -4.134273529052734375e-02 2.507375553250312805e-02 -1.720131956972181797e-03 -1.730261370539665222e-02 5.171377584338188171e-02 4.495612811297178268e-03 -1.297588497400283813e-01 -5.004755221307277679e-03 1.070334464311599731e-01 -3.156334906816482544e-02 -1.187351942062377930e-01 8.428669720888137817e-02 5.073388665914535522e-02 2.002303674817085266e-02 6.529942899942398071e-02 5.926712602376937866e-02 -1.814487762749195099e-02 3.320627659559249878e-02 4.042647033929824829e-02 4.560625925660133362e-02 -2.503245510160923004e-02 3.647460043430328369e-02 -6.817901041358709335e-03 4.370736703276634216e-02 1.657961681485176086e-02 7.318127155303955078e-02 9.940643794834613800e-03 1.879572123289108276e-02 1.515579782426357269e-02 -1.088147237896919250e-02 -2.578753419220447540e-02 1.898036897182464600e-02 3.468743991106748581e-03 5.823807790875434875e-02 2.339637838304042816e-02 1.369001064449548721e-02 6.594289839267730713e-02 3.460584580898284912e-02 -6.890444550663232803e-03 1.629209890961647034e-02 -2.374872006475925446e-02 7.203649729490280151e-02 5.214967951178550720e-02 -8.051280677318572998e-02 5.105324089527130127e-02 -6.487468630075454712e-02 1.806375803425908089e-04 7.070040702819824219e-02 3.395111858844757080e-02 6.451489031314849854e-02 -5.875815078616142273e-02 -1.140431151725351810e-03 1.364344954490661621e-01 2.597418427467346191e-02 -4.502917081117630005e-02 -3.108998294919729233e-03 9.279688447713851929e-02 -5.525853857398033142e-02 -1.162535604089498520e-02 4.724833369255065918e-02 2.034530043601989746e-02 5.140773206949234009e-02 1.348242759704589844e-01 5.023920908570289612e-02 3.069056943058967590e-02 8.876924403011798859e-03 1.630067080259323120e-02 7.559049874544143677e-02 -5.166996270418167114e-03 9.197036735713481903e-03 4.050654172897338867e-02 -3.516735136508941650e-02 2.869868464767932892e-02 -1.966530084609985352e-02 2.696675620973110199e-02 9.841490536928176880e-03 -2.294072881340980530e-02 1.539627928286790848e-02 1.251833862625062466e-03 5.909276008605957031e-02 3.602038370445370674e-03 3.250379115343093872e-02 2.875452674925327301e-02 1.110660135746002197e-01 2.387691847980022430e-02 1.380816400051116943e-01 2.271739300340414047e-03 5.476080626249313354e-02 5.288246273994445801e-02 1.085028648376464844e-01 -2.822064235806465149e-02 -2.960448851808905602e-03 7.766413688659667969e-02 2.637897990643978119e-02 4.043456166982650757e-02 -9.838609956204891205e-03 9.121406823396682739e-02 4.780180752277374268e-03 -2.303754910826683044e-02 5.069988593459129333e-02 -3.975029685534536839e-04 2.554613165557384491e-04 6.556336302310228348e-03 6.396356970071792603e-02 -4.377618059515953064e-02 4.176640510559082031e-02 -3.556277602910995483e-03 -4.632262513041496277e-03 -5.974095314741134644e-03 5.492301657795906067e-02 7.826279848814010620e-02 -2.528347261250019073e-02 2.272842638194561005e-02 7.648935914039611816e-02 3.393534943461418152e-02 7.750841975212097168e-02 1.369288191199302673e-02 4.208917915821075439e-02 -1.289356499910354614e-01 2.293145842850208282e-02 1.882977411150932312e-02 -6.902892887592315674e-02 4.263744503259658813e-02 3.805634379386901855e-02 4.685637354850769043e-02 6.746210157871246338e-02 9.915792942047119141e-02 2.147237304598093033e-03
4.910411536693572998e-01 6.098843216896057129e-01 8.316480517387390137e-01 2.542652785778045654e-01 4.787346720695495605e-01 4.777650833129882812e-01 8.292756080627441406e-01 8.030624985694885254e-01 3.036051690578460693e-01 5.369228124618530273e-01 7.329745888710021973e-01 7.223975062370300293e-01 2.585379183292388916e-01 4.571606516838073730e-01 7.609041333198547363e-01 7.175133377313613892e-02 6.689859628677368164e-01 6.232198476791381836e-01 1.437880247831344604e-01 2.953092455863952637e-01 6.483785510063171387e-01 3.586149215698242188e-01 3.431578874588012695e-01 2.586569488048553467e-01 3.793011009693145752e-01 7.465924024581909180e-01 3.994544446468353271e-01 3.889214098453521729e-01 9.926527738571166992e-02 4.882967844605445862e-02 6.670259833335876465e-01 3.047400414943695068e-01 7.341769933700561523e-01 6.696491241455078125e-01 4.861001074314117432e-01 6.787245273590087891e-01 4.960591197013854980e-01 5.119234919548034668e-01 3.449600040912628174e-01 3.759781420230865479e-01 4.045761376619338989e-02 2.753151357173919678e-01 8.429451584815979004e-01 3.896402418613433838e-01 2.978255748748779297e-01 5.626193881034851074e-01 8.123378753662109375e-01 4.410992264747619629e-01 6.139951348304748535e-01 5.861867666244506836e-01 4.034831225872039795e-01 -1.436302624642848969e-02 2.319532781839370728e-01 1.459760516881942749e-01 5.650631785392761230e-01 4.649192094802856445e-01 6.610857844352722168e-01 8.195794820785522461e-01 1.173324733972549438e-01 1.714042574167251587e-01 5.093566179275512695e-01 1.229976490139961243e-01 1.397270560264587402e-01 1.420802921056747437e-01 1.807547546923160553e-02 6.230014190077781677e-02 3.073129355907440186e-01 3.171105980873107910e-01 6.447242945432662964e-02 6.962437033653259277e-01 3.498638272285461426e-01 4.281296730041503906e-01 4.502921402454376221e-01 6.218513846397399902e-01 7.808320969343185425e-02 4.527963101863861084e-01 6.739379167556762695e-01 6.707867383956909180e-01 6.394875049591064453e-01 3.025758862495422363e-01 6.589428782463073730e-01 4.345361888408660889e-01 6.596983075141906738e-01 6.895264387130737305e-01 6.273599863052368164e-01 3.522869348526000977e-01 3.430492579936981201e-01 6.173913478851318359e-01 5.677361488342285156e-01 9.851934015750885010e-02 1.584907323122024536e-01 2.754026353359222412e-01 1.482782661914825439e-01 4.022419452667236328e-01 8.489721417427062988e-01 3.393338322639465332e-01 8.015212416648864746e-02 7.926908731460571289e-01 1.410360187292098999e-01 7.425066232681274414e-01 1.271549612283706665e-01 4.299746155738830566e-01 4.452458620071411133e-01 7.454761266708374023e-01 8.020295947790145874e-02 2.128500342369079590e-01 8.614574670791625977e-01 5.515913963317871094e-01 5.667309761047363281e-01 7.484657764434814453e-01 2.695531547069549561e-01 6.352305412292480469e-01 4.707496762275695801e-01 1.994121372699737549e-01 6.806983351707458496e-01 4.178443849086761475e-01 3.564168810844421387e-01 3.186207413673400879e-01 3.938801120966672897e-03 4.747757315635681152e-01 4.458453953266143799e-01 2.802686393260955811e-01 3.660697638988494873e-01 7.520078420639038086e-01 7.290615439414978027e-01 9.197715520858764648e-01 4.160311222076416016e-01 6.582013964653015137e-01 1.047081425786018372e-01 7.268202491104602814e-03 5.212105512619018555e-01 6.014245748519897461e-01 6.356693804264068604e-02 3.228557705879211426e-01 7.309445738792419434e-01 4.135538339614868164e-01 8.211186528205871582e-01 6.486306190490722656e-01 3.977323174476623535e-01 3.064529001712799072e-01 4.324742853641510010e-01 2.687483727931976318e-01 5.697318911552429199e-01 4.921972453594207764e-01 4.139115810394287109e-01 8.099074363708496094e-01 1.373006850481033325e-01 6.699799895286560059e-01 5.285646319389343262e-01 6.632086038589477539e-01 2.013733685016632080e-01 1.159286648035049438e-01 7.205654382705688477e-01 7.700283527374267578e-01 -1.004168298095464706e-02 5.809759497642517090e-01 4.812476933002471924e-01 8.068794012069702148e-02 5.053823590278625488e-01 2.600122988224029541e-01 4.957073926925659180e-01 7.550754547119140625e-01 2.189075499773025513e-01 6.100595593452453613e-01 8.864864706993103027e-01 4.451418220996856689e-01 3.022667169570922852e-01 4.244795441627502441e-01 2.961938083171844482e-01 5.741571635007858276e-02 5.262020826339721680e-01 4.967218637466430664e-01 1.015867069363594055e-01 3.224631845951080322e-01 4.507725834846496582e-01 1.855157911777496338e-01 5.131642818450927734e-01 1.098035454750061035e+00 6.974275112152099609e-01 9.423383511602878571e-03 1.235127896070480347e-01 7.198314666748046875e-01 8.583133816719055176e-01 9.962527751922607422e-01 -2.852145023643970490e-02 2.647923827171325684e-01 4.395996034145355225e-01 1.923869103193283081e-01 4.320414960384368896e-01 2.494691610336303711e-01 7.320770621299743652e-01 3.497440814971923828e-01 2.677702605724334717e-01 6.669997572898864746e-01 4.358520209789276123e-01 5.272386670112609863e-01 2.702574133872985840e-01 5.639429092407226562e-01 6.970543265342712402e-01 5.936655998229980469e-01 3.694454208016395569e-02 1.475781798362731934e-01 7.434694170951843262e-01 6.128414869308471680e-01 6.546943187713623047e-01 5.137565135955810547e-01 2.154614776372909546e-01 5.960216000676155090e-02 3.845593631267547607e-01 7.263898104429244995e-02 1.225740462541580200e-01 3.778943419456481934e-01 3.468389511108398438e-01 8.775969743728637695e-01 7.417739629745483398e-01 3.550087213516235352e-01 4.230563342571258545e-01 6.515849828720092773e-01 3.888657391071319580e-01 8.336109519004821777e-01 7.393788695335388184e-01 4.241656959056854248e-01 5.577850341796875000e-01 4.852408915758132935e-02 5.830784440040588379e-01 4.554471075534820557e-01 8.919409513473510742e-01 6.721077561378479004e-01 3.614329695701599121e-01 6.733896732330322266e-01 4.158724844455718994e-01 6.883274912834167480e-01 4.179808199405670166e-01 4.273173213005065918e-01 4.488970339298248291e-01 5.000165104866027832e-01 2.838307917118072510e-01 7.375297546386718750e-01 6.526980996131896973e-01 8.752902746200561523e-01 6.691372990608215332e-01 8.446531295776367188e-01 4.962453544139862061e-01 6.018071174621582031e-01 2.952766120433807373e-01 6.123899221420288086e-01 3.725595772266387939e-01 1.315169930458068848e-01 5.544311404228210449e-01 7.227999567985534668e-01 7.343508601188659668e-01 6.344518065452575684e-01 5.767914056777954102e-01 3.013900518417358398e-01 6.622109413146972656e-01 2.287073433399200439e-01 2.155609428882598877e-01 8.701075315475463867e-01 5.497844815254211426e-01 1.352346241474151611e-01 4.935846328735351562e-01 3.717069327831268311e-01 1.973151713609695435e-01 4.199465811252593994e-01 2.588050663471221924e-01 4.551452100276947021e-01 6.018192172050476074e-01 7.016373872756958008e-01 7.041729688644409180e-01 7.348669171333312988e-01 1.526743918657302856e-01 2.644357383251190186e-01 6.404424905776977539e-01 1.291762590408325195e-01 6.960181593894958496e-01 5.470539927482604980e-01 5.452100932598114014e-02 1.997126042842864990e-01 9.321389198303222656e-01 3.359819948673248291e-02 7.972952127456665039e-01 7.962155938148498535e-01 4.148785397410392761e-02 5.207773447036743164e-01 9.015337377786636353e-02 3.662394881248474121e-01 2.955376207828521729e-01 7.505825757980346680e-01 5.303373336791992188e-01 6.253683567047119141e-01 7.546794414520263672e-01 2.814787030220031738e-01 6.719750910997390747e-02 4.160391688346862793e-01 2.148779630661010742e-01 8.442199230194091797e-01 5.366382002830505371e-01 6.264891624450683594e-01 3.435973823070526123e-01 3.797760605812072754e-01 1.014753878116607666e-01 5.955384671688079834e-02 8.412673473358154297e-01 5.009205937385559082e-01 7.343968003988265991e-02 7.628412842750549316e-01 2.062043920159339905e-02 1.749722287058830261e-02 3.798922002315521240e-01 2.722013592720031738e-01 6.704570055007934570e-01 8.175047039985656738e-01 4.440398812294006348e-01 7.050051689147949219e-01 7.338222265243530273e-01 5.387136936187744141e-01 7.634808868169784546e-02 8.358276486396789551e-01 3.015399277210235596e-01 7.199624776840209961e-01 7.339745163917541504e-01 1.656495779752731323e-01 5.071409940719604492e-01 3.477874398231506348e-01 4.965104758739471436e-01 3.401463627815246582e-01 7.525449395179748535e-01 3.351432383060455322e-01 7.162610888481140137e-01 2.935976684093475342e-01 5.513712167739868164e-01 3.731348365545272827e-02 3.147956356406211853e-02 7.248733937740325928e-02 3.613057732582092285e-01 5.153000354766845703e-02 5.946676731109619141e-01 5.040054917335510254e-01 2.494345158338546753e-01 7.745240926742553711e-01 1.514135301113128662e-01 4.519691765308380127e-01 6.867058873176574707e-01 4.669466614723205566e-01 8.108837008476257324e-01 9.889773726463317871e-01 1.218909621238708496e-01 8.801988959312438965e-01 9.850931167602539062e-02 5.182039737701416016e-01 7.883185744285583496e-01 4.917321503162384033e-01 1.341079473495483398e-01 6.023899316787719727e-01 1.828451156616210938e-01 2.058036178350448608e-01 2.038948237895965576e-01 1.444661524146795273e-02 4.485948383808135986e-01 5.854638665914535522e-02 3.742539584636688232e-01 5.354223251342773438e-01 6.360973715782165527e-01 5.097704529762268066e-01 1.632109731435775757e-01 3.236308097839355469e-01 2.494484633207321167e-01 5.175195932388305664e-01 6.886242032051086426e-01 2.152847349643707275e-01 7.167692184448242188e-01 5.000908374786376953e-01 2.930575013160705566e-01 2.556294202804565430e-01 6.154966950416564941e-01 4.733573496341705322e-01 2.318102121353149414e-01 5.103577375411987305e-01 3.901818394660949707e-01 -6.325622648000717163e-02 7.599277496337890625e-01 3.908954560756683350e-01 8.167991787195205688e-02 3.568947315216064453e-01 3.468131721019744873e-01 2.309184372425079346e-01 8.408771753311157227e-01 4.061377346515655518e-01 7.630420923233032227e-01 6.339685320854187012e-01 5.981717109680175781e-01 3.791888952255249023e-01 3.552869707345962524e-02 6.229990124702453613e-01 5.579162836074829102e-01 4.970078468322753906e-01 3.983294963836669922e-01 8.354901522397994995e-02 6.730571985244750977e-01 5.924127697944641113e-01 5.624681115150451660e-01 4.340116977691650391e-01 6.949316859245300293e-01 7.003702521324157715e-01 3.991581201553344727e-01 8.383914828300476074e-01 1.021780073642730713e-01 2.049343436956405640e-01 7.136695384979248047e-01 5.385295748710632324e-01 6.362140178680419922e-01 7.527311891317367554e-02 4.510159790515899658e-02 4.929373860359191895e-01 6.490195393562316895e-01 1.966786980628967285e-01 4.935162067413330078e-01 4.111769497394561768e-01 2.753009460866451263e-02 6.870021820068359375e-01 8.446609377861022949e-01 9.299255609512329102e-01 -3.934104740619659424e-02 7.117360234260559082e-01 4.023734927177429199e-01 3.213508725166320801e-01 3.984538614749908447e-01 5.655019283294677734e-01 2.508824169635772705e-01 5.054029226303100586e-01 4.020855128765106201e-01 2.832707166671752930e-01 4.324118793010711670e-01 5.859050154685974121e-01 2.189084291458129883e-01 5.284252762794494629e-01 3.552750349044799805e-01 1.998336613178253174e-01 5.631995201110839844e-01 3.739158213138580322e-01 5.086081027984619141e-01 9.379563927650451660e-01 8.125840872526168823e-02 9.772159159183502197e-02 6.203152537345886230e-01 6.263779401779174805e-01 1.129032075405120850e-01 3.562748432159423828e-01 9.735379815101623535e-01 6.955240964889526367e-01 2.745122313499450684e-01 4.445206001400947571e-02 5.930978655815124512e-01 7.868618369102478027e-01 4.725802540779113770e-01 5.341467857360839844e-01 5.708360671997070312e-01 1.446258574724197388e-01 3.265202343463897705e-01 7.829749584197998047e-01 2.712912857532501221e-01 4.319418370723724365e-01 5.520212054252624512e-01 2.761237621307373047e-01 4.938582777976989746e-01 2.422415763139724731e-01 3.091472387313842773e-01 5.256342887878417969e-01 5.181768909096717834e-02 7.917749285697937012e-01 3.966446816921234131e-01 6.789038330316543579e-02 8.597914576530456543e-01 6.272065639495849609e-02 6.373968720436096191e-01 7.438862323760986328e-02 3.006329238414764404e-01 1.399014145135879517e-01 4.637636542320251465e-01 6.762692332267761230e-01 7.405166029930114746e-01 5.376348495483398438e-01 5.038285851478576660e-01 8.247825503349304199e-01 4.987698197364807129e-01 1.302867680788040161e-01 3.329170346260070801e-01 2.123503983020782471e-01 5.422304272651672363e-01 5.803524255752563477e-01 4.212484359741210938e-01 8.769398331642150879e-01 7.638493776321411133e-01 9.438148885965347290e-02 4.735674858093261719e-01 8.008924722671508789e-01 5.491077899932861328e-01 4.717809557914733887e-01 5.148386955261230469e-01 6.885101199150085449e-01 3.968203067779541016e-01 3.223680257797241211e-01 1.512069255113601685e-01 7.885990738868713379e-01 4.680148065090179443e-01 2.772256135940551758e-01 5.548641681671142578e-01 7.185764908790588379e-01 5.109733343124389648e-01 3.978744745254516602e-01 3.116141855716705322e-01 7.193271517753601074e-01 2.696860432624816895e-01 4.031087458133697510e-01 7.196465134620666504e-01 6.066303253173828125e-01 -2.307972125709056854e-02 1.025709211826324463e-01 -3.636078909039497375e-02 7.700008749961853027e-01 5.704386830329895020e-01 6.286573410034179688e-01 1.384175270795822144e-01 1.330778151750564575e-01 7.032762169837951660e-01 3.722495436668395996e-01 4.348351359367370605e-01 8.569507598876953125e-01 6.111592650413513184e-01 3.555173873901367188e-01 2.373545803129673004e-02 3.253965973854064941e-01 8.068236708641052246e-01 3.224219679832458496e-01 5.410106182098388672e-01 2.153486609458923340e-01 1.361552476882934570e-01 4.836070537567138672e-01 5.265848636627197266e-01 6.077435612678527832e-01 7.303239107131958008e-01 1.820865273475646973e-01 7.220208048820495605e-01 6.573249101638793945e-01 8.523707985877990723e-01 8.776841163635253906e-01 5.555056929588317871e-01 8.081943988800048828e-01 3.986719846725463867e-01 8.464059792459011078e-03 4.307964444160461426e-01 3.440754711627960205e-01 6.781480908393859863e-01 6.663323640823364258e-01 -1.007803995162248611e-02 4.019340872764587402e-01 4.941547214984893799e-01 4.330995380878448486e-01 1.278477013111114502e-01 3.814701437950134277e-01 5.988783836364746094e-01 7.976881265640258789e-01 6.306536197662353516e-01 1.792477667331695557e-01 5.486353635787963867e-01 7.004740238189697266e-01 1.310730911791324615e-02 2.203959077596664429e-01 3.347793817520141602e-01 1.055783703923225403e-01 6.534677147865295410e-01 7.315303087234497070e-01 4.710035026073455811e-01 1.712266057729721069e-01 4.147400259971618652e-01 1.174649819731712341e-01 5.849022269248962402e-01 3.074518442153930664e-01 1.774542778730392456e-01 4.538768231868743896e-01 6.720002889633178711e-01 2.704987823963165283e-01 6.048706173896789551e-01 2.214910686016082764e-01 3.096087276935577393e-01 5.701809525489807129e-01 3.755930662155151367e-01 -4.634688049554824829e-02 5.712496638298034668e-01 4.441175460815429688e-01 4.340494871139526367e-01 2.524771988391876221e-01 5.415588021278381348e-01 2.155921757221221924e-01 6.564149260520935059e-01 9.480360895395278931e-02 1.295807808637619019e-01 3.473518490791320801e-01 6.280397176742553711e-01 5.173135399818420410e-01 2.507452107965946198e-02 6.618552803993225098e-01 5.104484558105468750e-01 4.011548683047294617e-02 3.939786851406097412e-01 1.201218664646148682e-01 7.823471426963806152e-01 6.338826417922973633e-01 4.296084940433502197e-01 3.520924746990203857e-01 1.669447273015975952e-01 2.315734177827835083e-01 5.485881567001342773e-01 5.695704817771911621e-01 5.202226042747497559e-01 5.371543169021606445e-01 3.571099340915679932e-01 4.544970989227294922e-01 3.960883244872093201e-02 2.681436240673065186e-01 7.523782849311828613e-01 3.223687708377838135e-01 2.177108079195022583e-02 3.171910345554351807e-01 3.776653707027435303e-01 4.970296025276184082e-01 7.805969715118408203e-01 1.761797517538070679e-01 4.941425323486328125e-01 6.912484765052795410e-01 2.449856102466583252e-01 7.457440495491027832e-01 3.116989433765411377e-01 4.862637817859649658e-01 2.307253181934356689e-01 5.729019045829772949e-01 8.580477237701416016e-01 1.625536084175109863e-01 2.539411187171936035e-01 7.634641528129577637e-01 6.370255947113037109e-01 4.113611578941345215e-01 8.522009849548339844e-02 5.951255559921264648e-01 5.866134166717529297e-01 1.905336976051330566e-01 6.587430834770202637e-01 2.947899997234344482e-01 6.877018213272094727e-01 3.509011566638946533e-01 2.156795710325241089e-01 1.203655675053596497e-01 8.689766526222229004e-01 2.832105159759521484e-01 -4.698047786951065063e-02 3.526433929800987244e-02 2.748317420482635498e-01 7.419743537902832031e-01 8.052151799201965332e-01 2.169449627399444580e-01 6.639007925987243652e-01 4.137027263641357422e-02 3.598659336566925049e-01 1.409639567136764526e-01 8.651365637779235840e-01 5.693437457084655762e-01 6.177046895027160645e-01 4.351890385150909424e-01 5.183690786361694336e-01 8.808872103691101074e-01 5.951765179634094238e-01 7.065201997756958008e-01 2.454523891210556030e-01 3.648118674755096436e-01 2.017812877893447876e-01 4.825142621994018555e-01 4.088029265403747559e-01 7.373486161231994629e-01 5.293290019035339355e-01 4.844981431961059570e-01 4.538359865546226501e-02 3.376210927963256836e-01 8.862553238868713379e-01 6.019935011863708496e-01 3.633614182472229004e-01 4.702967405319213867e-01 6.355918645858764648e-01 7.315760254859924316e-01 6.557451486587524414e-01 6.844488382339477539e-01 2.664745748043060303e-01 6.844804286956787109e-01 2.661499977111816406e-01 7.899056077003479004e-01 4.762733280658721924e-01 4.664845168590545654e-01 7.658739089965820312e-01 6.622670888900756836e-01 5.479757785797119141e-01 5.790551658719778061e-03 6.151487827301025391e-01 8.221817016601562500e-01 3.130951821804046631e-01 7.198593616485595703e-01 6.991523504257202148e-01 5.579254031181335449e-01 7.778061032295227051e-01 6.281664967536926270e-01 7.642439603805541992e-01 1.649195887148380280e-02 7.244945317506790161e-02 4.207747280597686768e-01 8.699838072061538696e-02 6.218678951263427734e-01 5.720933675765991211e-01 1.175027564167976379e-01 6.356298327445983887e-01 1.572960913181304932e-01 3.119794726371765137e-01 8.148084878921508789e-01 5.229753851890563965e-01 3.053401410579681396e-01 1.556396335363388062e-01 3.487833738327026367e-01 1.091075688600540161e-01 2.069076746702194214e-01 8.742055296897888184e-01 7.298316359519958496e-01 8.377211689949035645e-01 7.464802861213684082e-01 7.991198301315307617e-01 6.428844928741455078e-01 -9.938261471688747406e-03 3.287316858768463135e-01 6.294702887535095215e-01 5.743294954299926758e-01 3.381374105811119080e-02 7.734978795051574707e-01 1.696903109550476074e-01 4.895527958869934082e-01 9.333400726318359375e-01 6.229056119918823242e-01 -1.604717224836349487e-02 4.914272427558898926e-01 7.099967002868652344e-01 2.274951636791229248e-01 1.714199483394622803e-01 4.244194626808166504e-01 6.876670718193054199e-01 8.255872726440429688e-01 6.090211868286132812e-01 4.887286126613616943e-01 6.831107735633850098e-01 7.968893051147460938e-01 6.404581665992736816e-01 8.372519016265869141e-01 6.885327100753784180e-01 5.432035923004150391e-01 6.659073233604431152e-01 5.844947695732116699e-02 4.083561301231384277e-01 6.664310097694396973e-01 9.656365960836410522e-02 3.691015020012855530e-02 2.159988321363925934e-02 3.365601897239685059e-01 7.957419753074645996e-01 7.399168014526367188e-01 2.016775906085968018e-01 5.904662609100341797e-01 5.230954885482788086e-01 1.453649252653121948e-01 2.225013226270675659e-01 4.764197468757629395e-01 4.272880777716636658e-02 6.346917152404785156e-01 4.046011269092559814e-01 6.023566722869873047e-01 1.569647639989852905e-01 5.378101468086242676e-01 3.282016143202781677e-02 2.377987653017044067e-01 1.099722385406494141e-01 1.673128083348274231e-02 5.692040324211120605e-01 1.957380026578903198e-01 3.441600203514099121e-01 1.597026288509368896e-01 1.805083081126213074e-02 4.374592900276184082e-01 8.524997830390930176e-01 6.103011965751647949e-01 1.878383457660675049e-01 6.366690993309020996e-01 4.503476917743682861e-01 4.405397176742553711e-01 1.840961426496505737e-01 8.412548303604125977e-01 6.196286082267761230e-01 6.351727247238159180e-01 7.347288131713867188e-01 7.570827007293701172e-01 7.519429922103881836e-01 4.524979889392852783e-01 2.875854372978210449e-01 1.553511433303356171e-02 3.285168707370758057e-01 1.391951739788055420e-01 6.956097483634948730e-01 7.259342074394226074e-01 4.660577476024627686e-01 7.486364841461181641e-01 5.430197119712829590e-01 5.856152772903442383e-01 1.689645349979400635e-01 1.884140819311141968e-01 5.150330066680908203e-01 4.845651984214782715e-01 4.409335851669311523e-01 3.684060573577880859e-01 5.600651502609252930e-01 4.269565641880035400e-01 1.198654398322105408e-01 3.028918206691741943e-01 5.826098322868347168e-01 2.637080252170562744e-01 1.621517986059188843e-01 1.641671657562255859e-01 1.020248159766197205e-01 2.460674643516540527e-01 2.059492915868759155e-01 6.282902956008911133e-01 4.621812403202056885e-01 6.174842119216918945e-01 5.643974542617797852e-01 7.965086698532104492e-01 6.175620108842849731e-02 1.546121239662170410e-01 1.207688227295875549e-01 6.878944486379623413e-02 6.212533712387084961e-01 3.687513992190361023e-02 3.629885315895080566e-01 4.214874804019927979e-01 5.248250365257263184e-01 6.573241353034973145e-01 3.588857650756835938e-01 7.942627668380737305e-01 1.877622120082378387e-02 2.663666605949401855e-01 2.692871689796447754e-01 5.951504111289978027e-01 5.211862921714782715e-02 1.962807476520538330e-01 2.639388442039489746e-01 3.947239518165588379e-01 6.674510836601257324e-01 7.651129364967346191e-01 6.789731383323669434e-01 2.825923264026641846e-01 7.080484628677368164e-01 5.153575539588928223e-01 2.451557219028472900e-01 4.746824800968170166e-01 7.393111586570739746e-01 6.496631503105163574e-01 3.873059749603271484e-01 1.515886187553405762e-01 6.964570283889770508e-01 4.364030957221984863e-01 6.520250439643859863e-01 3.354830443859100342e-01 2.754521965980529785e-01 6.934938430786132812e-01 3.719355463981628418e-01 -1.327798585407435894e-03 3.811960220336914062e-01 5.490626096725463867e-01 1.087278574705123901e-01 2.225896865129470825e-01 5.476771593093872070e-01 6.604824662208557129e-01 5.773704051971435547e-01 2.125871330499649048e-01 5.480357408523559570e-01 7.496405243873596191e-01 6.888740062713623047e-01 5.879280567169189453e-01 5.683643221855163574e-01 8.314508199691772461e-01 6.908418536186218262e-01 8.366261720657348633e-01 6.743063926696777344e-01 4.630940556526184082e-01 6.847918033599853516e-01 6.883932352066040039e-01 5.180951356887817383e-01 2.135833352804183960e-01 8.971925973892211914e-01 4.088203310966491699e-01 3.405862152576446533e-01 8.004373311996459961e-01 3.202594071626663208e-02 8.491985201835632324e-01 6.427491307258605957e-01 5.642980337142944336e-01 7.126513719558715820e-01 4.365367889404296875e-01 3.974064290523529053e-01 5.601872205734252930e-01 8.234417438507080078e-01 3.292238116264343262e-01 2.868105843663215637e-02 3.834682404994964600e-01 7.774632573127746582e-01 4.518212080001831055e-01 3.562871515750885010e-01 1.383977681398391724e-01 7.160793542861938477e-01 3.213882148265838623e-01 7.598158717155456543e-01 4.514815807342529297e-01 1.544158607721328735e-01 6.684675812721252441e-02 4.671767055988311768e-01 8.208137750625610352e-01 1.873532310128211975e-02 8.181764483451843262e-01 6.235931515693664551e-01 2.725847363471984863e-01 2.236399566754698753e-03 6.628504991531372070e-01 8.666381239891052246e-01 7.362658977508544922e-01 2.697455286979675293e-01 6.948441863059997559e-01 3.990526199340820312e-01 3.037353456020355225e-01 5.291854739189147949e-01 5.160592198371887207e-01 7.727854847908020020e-01 3.958302140235900879e-01 6.485622525215148926e-01 3.390896320343017578e-01 3.415009975433349609e-01 2.262088954448699951e-01 3.050696663558483124e-02 5.888890102505683899e-02 6.003116965293884277e-01 8.671063780784606934e-01 8.706086128950119019e-02 1.439092010259628296e-01 6.223531365394592285e-01 3.805776834487915039e-01 2.712985500693321228e-02 5.471135973930358887e-01 3.833959698677062988e-01 8.963061124086380005e-02 1.898087561130523682e-01 5.897657275199890137e-01 6.575890779495239258e-01 5.152260065078735352e-01 6.092628836631774902e-01 8.923323154449462891e-01 5.959149599075317383e-01 7.094015479087829590e-01 3.993987739086151123e-01 6.323108673095703125e-01 6.132482886314392090e-01 1.112306192517280579e-01 8.371298760175704956e-02 4.810919165611267090e-01 2.653349936008453369e-02 7.536597251892089844e-01 1.326059997081756592e-01 5.471341311931610107e-02 1.289220899343490601e-01 5.771031379699707031e-01 2.539881169795989990e-01 6.644634604454040527e-01 4.435076117515563965e-01 6.346530914306640625e-01 1.304410547018051147e-01 1.607576757669448853e-01 4.804767668247222900e-02 5.012515187263488770e-01 4.878736436367034912e-01 7.250434756278991699e-01 -2.148553729057312012e-03 7.049123942852020264e-02 3.446143269538879395e-01 9.128220677375793457e-01 7.884407639503479004e-01 3.298626244068145752e-01 1.370192784816026688e-02 7.177732139825820923e-02 4.955942034721374512e-01 6.224634647369384766e-01 6.081994771957397461e-01 6.578177809715270996e-01
5.665579438209533691e-01 3.463786840438842773e+00 3.827231526374816895e-01 2.604173421859741211e+00 2.312676429748535156e+00 4.345468521118164062e+00 3.858815431594848633e+00 4.813189983367919922e+00 4.279170930385589600e-01 4.844020843505859375e+00 6.562276482582092285e-01 2.019063949584960938e+00 2.779788494110107422e+00 3.892336368560791016e+00 4.111472129821777344e+00 4.328427314758300781e+00 2.373840332031250000e+00 3.211592912673950195e+00 3.508654117584228516e+00 5.103926658630371094e-01 2.250462055206298828e+00 2.948327362537384033e-01 2.383562326431274414e+00 1.516429901123046875e+00 4.693586349487304688e+00 5.270448923110961914e-01 3.677545070648193359e+00 4.808720588684082031e+00 7.204878330230712891e-01 3.043341159820556641e+00 3.114800201728940010e-03 2.318296432495117188e+00 1.619104266166687012e+00 3.791505098342895508e+00 3.611693382263183594e+00 4.528799355030059814e-01 4.909356117248535156e+00 4.634301185607910156e+00 2.267179936170578003e-01 1.999539732933044434e+00 2.663288116455078125e+00 1.426778554916381836e+00 4.649980545043945312e+00 7.253336906433105469e-01 9.330916404724121094e-01 1.744550824165344238e+00 2.636288404464721680e+00 3.948727846145629883e+00 4.440914154052734375e+00 1.994388461112976074e+00 3.638243675231933594e+00 4.776477813720703125e+00 4.958067893981933594e+00 1.996970176696777344e+00 1.189096331596374512e+00 4.918948173522949219e+00 3.738034963607788086e+00 1.250132083892822266e+00 2.750503540039062500e+00 1.131410837173461914e+00 8.512231111526489258e-01 5.246686935424804688e-01 4.708356380462646484e+00 1.684502959251403809e+00 1.251079440116882324e+00 4.524080753326416016e+00 1.794027686119079590e+00 2.206975936889648438e+00 4.692265391349792480e-02 2.291461706161499023e+00 1.276675462722778320e+00 3.819848299026489258e+00 4.468153953552246094e+00 1.531849265098571777e+00 2.645725011825561523e+00 4.252378463745117188e+00 1.659345269203186035e+00 3.005757808685302734e+00 1.290014743804931641e+00 3.293332576751708984e+00 1.758820295333862305e+00 6.804556250572204590e-01 2.276432514190673828e+00 3.222487449645996094e+00 1.403928637504577637e+00 4.696543693542480469e+00 3.100221976637840271e-02 3.131140708923339844e+00 3.934978961944580078e+00 3.681233406066894531e+00 2.043056964874267578e+00 2.333695411682128906e+00 1.015876412391662598e+00 3.565657138824462891e+00 2.087197065353393555e+00 2.134047746658325195e+00 3.798787593841552734e+00 2.565987825393676758e+00 3.034189224243164062e+00 4.365570068359375000e+00 1.330046951770782471e-01 3.459662914276123047e+00 1.074281334877014160e+00 3.870194435119628906e+00 4.097465515136718750e+00 4.660815000534057617e-01 4.345612049102783203e+00 1.854040622711181641e+00 3.787343025207519531e+00 1.729735493659973145e+00 6.922234296798706055e-01 1.477325558662414551e+00 1.026469588279724121e+00 1.143598556518554688e+00 3.865190029144287109e+00 3.645206689834594727e+00 1.039932966232299805e+00 3.066833019256591797e+00 1.843630671501159668e+00 2.498052120208740234e+00 5.388976335525512695e-01 2.716906070709228516e+00 2.403784990310668945e+00 2.117835283279418945e+00 3.670290470123291016e+00 1.318020820617675781e+00 4.792122364044189453e+00 2.326937913894653320e+00 4.215540885925292969e+00 4.099009513854980469e+00 1.895828485488891602e+00 4.719122886657714844e+00 1.033454537391662598e+00 1.879714727401733398e+00 4.694451808929443359e+00 5.027292370796203613e-01 2.969520092010498047e+00 8.960333466529846191e-01 1.578504443168640137e+00 1.521916389465332031e+00 1.846880078315734863e+00 3.677840232849121094e+00 2.629555463790893555e+00 1.595075130462646484e+00 3.347185134887695312e+00 2.757971525192260742e+00 2.166917473077774048e-01 1.645319700241088867e+00 4.235590934753417969e+00 9.111163616180419922e-01 4.804785728454589844e+00 1.176688075065612793e+00 9.212522506713867188e-01 4.551241397857666016e+00 3.225297927856445312e+00 4.042392730712890625e+00 2.636449337005615234e+00 3.565905570983886719e+00 2.462946891784667969e+00 4.114082336425781250e+00 3.948093414306640625e+00 3.617318868637084961e+00 3.629774570465087891e+00 2.843823909759521484e+00 4.794897079467773438e+00 2.536058425903320312e+00 3.060554563999176025e-01 9.212154150009155273e-02 3.861470699310302734e+00 2.608325779438018799e-01 3.279377222061157227e+00 3.378310680389404297e+00 2.982100963592529297e+00 1.746183514595031738e+00 3.500443696975708008e-01 1.210050582885742188e+00 5.180279016494750977e-01 3.343467712402343750e+00 4.901618957519531250e+00 4.676916599273681641e+00 3.373598575592041016e+00 3.895880699157714844e+00 4.847117364406585693e-01 1.290913701057434082e+00 1.806114792823791504e+00 4.469392776489257812e+00 2.870596647262573242e+00 3.296981334686279297e+00 2.956308841705322266e+00 2.653450489044189453e+00 4.977941036224365234e+00 1.696781367063522339e-01 1.450323939323425293e+00 4.179576396942138672e+00 3.985170125961303711e+00 1.220855951309204102e+00 3.108316659927368164e-01 3.642629623413085938e+00 1.281937360763549805e+00 3.778566360473632812e+00 7.357598543167114258e-01 4.277801513671875000e+00 4.791584968566894531e+00 1.877590656280517578e+00 3.489204645156860352e+00 2.976564407348632812e+00 4.905027151107788086e-01 2.348294258117675781e+00 2.957693338394165039e+00 6.065143942832946777e-01 4.157929897308349609e+00 1.688085913658142090e+00 1.851302385330200195e+00 6.662920117378234863e-01 4.904407501220703125e+00 4.567229747772216797e-01 4.613136768341064453e+00 4.145850181579589844e+00 1.221174001693725586e+00 2.725194692611694336e-01 1.590095400810241699e+00 8.995725512504577637e-01 5.695205330848693848e-01 3.913680315017700195e+00 4.894225597381591797e+00 1.376523226499557495e-01 2.731812596321105957e-01 1.460552573204040527e+00 2.368500709533691406e+00 2.307233572006225586e+00 8.986912667751312256e-02 4.504176139831542969e+00 4.265377998352050781e+00 2.568637132644653320e+00 2.863307476043701172e+00 2.455273866653442383e+00 1.254843592643737793e+00 4.463239908218383789e-01 2.031065225601196289e+00 1.293552637100219727e+00 9.867266416549682617e-01 8.041858673095703125e-01 1.316848397254943848e+00 4.741405487060546875e+00 3.145155429840087891e+00 3.605982780456542969e+00 4.607183933258056641e+00 3.181127309799194336e+00 4.151038825511932373e-01 3.905261754989624023e+00 4.689754962921142578e+00 4.176203727722167969e+00 2.463155269622802734e+00 3.156809329986572266e+00 3.470111370086669922e+00 3.617155551910400391e+00 4.378899574279785156e+00 2.119210958480834961e+00 2.780299663543701172e+00 4.088326454162597656e+00 2.771357297897338867e+00 3.104192018508911133e+00 6.820678710937500000e-01 2.230150699615478516e+00 1.482467055320739746e+00 3.660039901733398438e+00 1.363636493682861328e+00 9.420729875564575195e-01 6.345909833908081055e-01 3.649015426635742188e+00 6.015552878379821777e-01 2.406308650970458984e+00 1.106802225112915039e+00 1.957443952560424805e+00 3.574937582015991211e+00 3.596507310867309570e+00 3.664405822753906250e+00 2.869411706924438477e+00 3.819235563278198242e-01 4.123170077800750732e-01 1.445806026458740234e+00 4.215592861175537109e+00 3.499868214130401611e-01 2.296758174896240234e+00 2.990221977233886719e+00 3.176758766174316406e+00 4.146757602691650391e+00 3.733901500701904297e+00 3.576776504516601562e+00 1.411807298660278320e+00 3.443760871887207031e+00 3.963620185852050781e+00 4.915965080261230469e+00 1.844781041145324707e+00 1.163985133171081543e+00 1.699596494436264038e-01 2.641497850418090820e+00 4.308214664459228516e+00 2.679324865341186523e+00 7.449485063552856445e-01 3.328045606613159180e+00 9.337329864501953125e-01 3.683734416961669922e+00 1.564190983772277832e-01 3.044447422027587891e+00 4.605467319488525391e+00 3.567528724670410156e+00 1.566451191902160645e+00 3.441715240478515625e+00 6.281495094299316406e-01 2.791904926300048828e+00 4.818765640258789062e+00 1.022267699241638184e+00 2.470918416976928711e+00 3.917725563049316406e+00 4.130229473114013672e+00 1.088759899139404297e+00 2.110643148422241211e+00 4.129378318786621094e+00 1.371238589286804199e+00 2.537164926528930664e+00 1.025104522705078125e+00 3.604086399078369141e+00 4.289001941680908203e+00 1.023188233375549316e+00 9.814196825027465820e-01 4.912152290344238281e+00 3.644605875015258789e+00 4.654058456420898438e+00 1.739521503448486328e+00 2.363853454589843750e+00 5.546808242797851562e-02 2.816926240921020508e+00 1.856869639595970511e-04 1.394017338752746582e+00 1.169331073760986328e+00 1.570263504981994629e+00 4.911046028137207031e+00 1.323515176773071289e+00 8.646970391273498535e-01 2.271099328994750977e+00 3.372596740722656250e+00 1.396933436393737793e+00 3.387188911437988281e+00 1.318680405616760254e+00 1.955096840858459473e+00 1.320473194122314453e+00 3.881265640258789062e+00 3.867556571960449219e+00 3.432003259658813477e+00 4.897621154785156250e+00 6.721046566963195801e-02 2.779104232788085938e+00 2.814383983612060547e+00 1.482038259506225586e+00 2.813696861267089844e-01 4.184801578521728516e+00 3.629326343536376953e+00 1.576797366142272949e+00 4.031386673450469971e-01 2.773536682128906250e+00 1.940883755683898926e+00 2.910915851593017578e+00 2.617481708526611328e+00 3.469163179397583008e+00 4.786882877349853516e+00 4.406654834747314453e+00 4.947669982910156250e+00 2.926435470581054688e+00 1.010295152664184570e+00 2.762189149856567383e+00 6.624763607978820801e-01 9.559029340744018555e-01 3.246608018875122070e+00 4.797749996185302734e+00 2.101988315582275391e+00 1.096269011497497559e+00 3.184575080871582031e+00 5.308352112770080566e-01 2.094306945800781250e+00 2.505980253219604492e+00 4.465066909790039062e+00 3.617713928222656250e+00 4.735284805297851562e+00 4.786131381988525391e+00 4.126906394958496094e+00 1.313756346702575684e+00 2.615770101547241211e+00 1.580126047134399414e+00 4.494832992553710938e+00 3.397495448589324951e-01 4.525841176509857178e-01 3.566620349884033203e+00 2.924096584320068359e+00 1.029522657394409180e+00 7.124115824699401855e-01 4.528543949127197266e+00 2.412359237670898438e+00 9.332934021949768066e-01 3.186658620834350586e+00 4.007979393005371094e+00 3.127346038818359375e+00 1.947130560874938965e+00 8.424032330513000488e-01 1.673055410385131836e+00 4.449232101440429688e+00 2.833008766174316406e+00 3.215441703796386719e+00 4.420350074768066406e+00 3.381486415863037109e+00 1.116892695426940918e-01 4.296715736389160156e+00 1.177131056785583496e+00 4.053396701812744141e+00 3.744057416915893555e+00 3.735263824462890625e+00 3.919452428817749023e+00 2.077981233596801758e+00 2.741906642913818359e+00 8.294875621795654297e-01 4.562087535858154297e+00 3.575082778930664062e+00 3.023747920989990234e+00 3.997204303741455078e+00 3.665750026702880859e+00 3.834112882614135742e+00 3.120470046997070312e-01 7.969082593917846680e-01 3.231997489929199219e+00 1.776346564292907715e+00 3.387606620788574219e+00 4.671314954757690430e-01 6.765563488006591797e-01 1.525009036064147949e+00 4.688096523284912109e+00 7.871317118406295776e-02 1.364011764526367188e+00 3.347260713577270508e+00 3.607765674591064453e+00 2.772060632705688477e+00 3.071186065673828125e+00 8.215820789337158203e-01 6.149340271949768066e-01 3.339777469635009766e+00 1.619021147489547729e-01 2.856065511703491211e+00 2.403522729873657227e+00 1.410069942474365234e+00 4.204417228698730469e+00 4.568130493164062500e+00 5.814200639724731445e-01 3.044534206390380859e+00 4.077341079711914062e+00 9.841992855072021484e-01 2.958961725234985352e+00 4.128551959991455078e+00 1.878413677215576172e+00 2.407330989837646484e+00 1.343753695487976074e+00 2.538570642471313477e+00 1.697102785110473633e+00 2.814114093780517578e+00 2.684778690338134766e+00 3.278728723526000977e+00 3.915352821350097656e+00 2.723531723022460938e+00 8.879586458206176758e-01 1.674193263053894043e+00 4.905583858489990234e+00 4.743712425231933594e+00 2.899585962295532227e+00 5.325825214385986328e-01 1.850978374481201172e+00 9.585418701171875000e-01 3.028720617294311523e+00 4.343440055847167969e+00 3.315336704254150391e+00 1.270658969879150391e+00 1.983320154249668121e-02 7.238880395889282227e-01 2.434823036193847656e+00 4.154943466186523438e+00 3.267312526702880859e+00 2.434576749801635742e+00 4.833103179931640625e+00 2.508381605148315430e+00 4.706199645996093750e+00 3.609125614166259766e+00 3.016293048858642578e+00 4.068787097930908203e+00 3.368404388427734375e+00 3.826717853546142578e+00 2.395997524261474609e+00 1.804679036140441895e+00 2.941092252731323242e+00 9.080621600151062012e-01 4.026432037353515625e+00 4.165997207164764404e-01 4.029151916503906250e+00 4.579071402549743652e-01 3.669481754302978516e+00 4.036889553070068359e+00 4.417064189910888672e+00 2.569723129272460938e+00 2.076368331909179688e+00 5.751073956489562988e-01 1.482125282287597656e+00 4.248716831207275391e+00 1.360588073730468750e+00 4.907121658325195312e+00 2.369523048400878906e+00 2.930961549282073975e-01 3.074783086776733398e+00 1.151059031486511230e+00 3.695471286773681641e+00 2.835885286331176758e+00 4.183896064758300781e+00 2.159801006317138672e+00 5.118848681449890137e-01 4.177404403686523438e+00 4.784937381744384766e+00 4.550477981567382812e+00 1.696853041648864746e+00 3.548214912414550781e+00 3.854131698608398438e+00 8.427530527114868164e-01 3.522197008132934570e+00 2.912984609603881836e+00 4.253874778747558594e+00 2.230075597763061523e-01 4.954161643981933594e+00 6.741687655448913574e-01 3.951244115829467773e+00 3.008691072463989258e+00 3.988025188446044922e+00 2.790346145629882812e+00 3.919029235839843750e+00 8.625518083572387695e-01 7.256424427032470703e-01 1.181820034980773926e+00 2.160941362380981445e+00 3.348197340965270996e-01 4.149708271026611328e+00 4.221828460693359375e+00 2.807846069335937500e+00 1.385348916053771973e+00 2.548927783966064453e+00 1.806021809577941895e+00 1.594138145446777344e+00 5.234569311141967773e-01 2.418998241424560547e+00 3.476697206497192383e+00 4.531455993652343750e+00 3.179809570312500000e+00 1.505631208419799805e+00 4.786628723144531250e+00 1.589420437812805176e+00 3.935289382934570312e+00 5.237623453140258789e-01 2.203693836927413940e-01 3.882088899612426758e+00 2.857856750488281250e+00 7.158294916152954102e-01 3.101394653320312500e+00 3.279308080673217773e+00 2.292266130447387695e+00 1.643416285514831543e+00 4.713929176330566406e+00 3.735909938812255859e+00 3.496994495391845703e+00 3.211021900177001953e+00 1.105352282524108887e+00 4.184331893920898438e+00 3.491436243057250977e+00 2.506578445434570312e+00 2.626529335975646973e-01 2.899211645126342773e+00 3.691060543060302734e+00 1.788070201873779297e+00 1.666257381439208984e+00 4.842165946960449219e+00 2.465637207031250000e+00 3.192979812622070312e+00 4.783863544464111328e+00 3.073425769805908203e+00 2.544700860977172852e+00 3.880357742309570312e+00 4.535289287567138672e+00 1.293594121932983398e+00 6.550602912902832031e-01 7.506357431411743164e-01 2.147784709930419922e+00 4.161479949951171875e+00 1.318312287330627441e+00 3.418579578399658203e+00 3.638278961181640625e+00 5.956998467445373535e-01 7.863867282867431641e-01 3.167464733123779297e+00 3.850271224975585938e+00 6.002807021141052246e-01 1.175592541694641113e-01 1.633685946464538574e+00 4.647803306579589844e-01 5.827909708023071289e-01 3.913424015045166016e+00 4.223641395568847656e+00 3.307682037353515625e+00 4.338002681732177734e+00 1.858284473419189453e+00 2.414028644561767578e+00 2.296550273895263672e+00 3.876035213470458984e+00 2.584557533264160156e+00 1.938283443450927734e+00 2.649089813232421875e+00 7.469319552183151245e-02 3.060968033969402313e-02 2.538874149322509766e+00 3.780491277575492859e-02 1.677384376525878906e+00 6.616783142089843750e-01 4.848088264465332031e+00 2.999963283538818359e+00 2.311547279357910156e+00 1.696972727775573730e+00 4.581689834594726562e+00 1.629262804985046387e+00 9.793543815612792969e-01 3.304070472717285156e+00 2.460730075836181641e+00 4.072007656097412109e+00 1.580265164375305176e+00 5.869064927101135254e-01 5.802884697914123535e-01 7.608418911695480347e-02 4.095687568187713623e-01 4.918111801147460938e+00 1.438990384340286255e-01 1.199346661567687988e+00 4.825318336486816406e+00 7.692849636077880859e-01 2.572827100753784180e+00 7.987734675407409668e-01 3.426883697509765625e+00 3.788198947906494141e+00 2.699888944625854492e+00 2.750485539436340332e-01 3.820007324218750000e+00 3.904490947723388672e+00 4.357707023620605469e+00 2.830144166946411133e+00 4.263310909271240234e+00 5.956689715385437012e-01 3.080815553665161133e+00 4.661211013793945312e+00 2.568275928497314453e+00 2.159307479858398438e+00 3.547474145889282227e+00 1.018265485763549805e+00 4.329850196838378906e+00 1.857426166534423828e+00 4.053440093994140625e+00 4.059757232666015625e+00 2.511267185211181641e+00 2.637840509414672852e+00 2.607758045196533203e+00 4.067873358726501465e-01 2.598564147949218750e+00 2.923709154129028320e+00 7.563481330871582031e-01 8.558582663536071777e-01 6.608198881149291992e-01 2.479909896850585938e+00 3.992360830307006836e+00 3.315756797790527344e+00 7.834315299987792969e-01 4.950341701507568359e+00 4.330872535705566406e+00 3.728398799896240234e+00 1.353601217269897461e+00 1.394791603088378906e+00 6.025273799896240234e-01 9.459697604179382324e-01 3.465651988983154297e+00 3.020855903625488281e+00 3.479357957839965820e+00 2.579383373260498047e+00 1.411280035972595215e+00 3.842809677124023438e+00 2.553200244903564453e+00 1.449320673942565918e+00 4.723628044128417969e+00 3.884425640106201172e+00 2.828395843505859375e+00 3.412032127380371094e-02 4.469549953937530518e-01 1.610544681549072266e+00 2.684578895568847656e+00 4.900351047515869141e+00 4.913864612579345703e+00 4.180142879486083984e+00 8.935391902923583984e-01 1.807484745979309082e+00 4.243832111358642578e+00 2.226713180541992188e+00 2.159241676330566406e+00 3.161637783050537109e+00 3.760660886764526367e+00 2.445929527282714844e+00 4.277085781097412109e+00 3.797109127044677734e+00 1.151200532913208008e+00 1.052364110946655273e+00 9.754495024681091309e-01 3.403512954711914062e+00 4.786474227905273438e+00 3.533849239349365234e+00 2.190775871276855469e+00 1.320763707160949707e+00 4.740938663482666016e+00 9.560960531234741211e-01 2.533245563507080078e+00 2.176697731018066406e+00 7.681369781494140625e-02 7.439695000648498535e-01 3.280606746673583984e+00 8.318921327590942383e-01 2.957784414291381836e+00 4.438552856445312500e+00 8.181558251380920410e-01 2.731176614761352539e+00 2.644944667816162109e+00 2.220519781112670898e-01 2.205332756042480469e+00 3.459767818450927734e+00 1.915245056152343750e+00 1.754451394081115723e-01 2.412465572357177734e+00 4.537597179412841797e+00 3.585566282272338867e+00 1.242287039756774902e+00 3.368476629257202148e+00 3.695728540420532227e+00 1.957761645317077637e+00 2.617167949676513672e+00 2.763491153717041016e+00 2.489817619323730469e+00 3.235941648483276367e+00 4.875298976898193359e+00 7.308202981948852539e-01 4.291336536407470703e-01 3.841470479965209961e+00 5.866543650627136230e-01 1.230821013450622559e+00 3.897299766540527344e+00 2.658898353576660156e+00 4.009306907653808594e+00 2.148988723754882812e+00 3.173322200775146484e+00 1.712161898612976074e+00 4.633045673370361328e+00 2.474964141845703125e+00 3.500020027160644531e+00 2.781219184398651123e-01 1.067791342735290527e+00 7.911480069160461426e-01 3.619416952133178711e+00 4.279364585876464844e+00 2.990561008453369141e+00 3.071939945220947266e+00 4.171901226043701172e+00 4.239473819732666016e+00 6.720614433288574219e-01 6.834489107131958008e-01 4.339149475097656250e+00 4.904350280761718750e+00 3.882127285003662109e+00 1.336802244186401367e+00 1.090763211250305176e+00 3.372528076171875000e+00 2.620400488376617432e-01 5.675982236862182617e-01 4.717133522033691406e+00 1.392382383346557617e+00 4.686195373535156250e+00 1.018077254295349121e+00 3.088064670562744141e+00 1.424174904823303223e+00 3.203792572021484375e+00 3.928552150726318359e+00 3.345555782318115234e+00 2.005089521408081055e+00 1.870981335639953613e+00 1.308982968330383301e+00 4.411646842956542969e+00 1.871441006660461426e+00 3.727015256881713867e+00 3.199915885925292969e+00 2.820560932159423828e+00 1.598350286483764648e+00 3.896317481994628906e+00 1.169967889785766602e+00 6.794267892837524414e-01 1.382067799568176270e+00 3.272984027862548828e+00 1.139794290065765381e-01 3.110499382019042969e+00 4.032394886016845703e+00 2.323205947875976562e+00 6.327380985021591187e-02 1.242827296257019043e+00 1.265651881694793701e-01 4.142022609710693359e+00 1.618345379829406738e+00 3.123089075088500977e+00 1.345867514610290527e+00 3.243464946746826172e+00 1.685630679130554199e+00 5.550355091691017151e-02 3.913404941558837891e+00 3.141387701034545898e+00 3.204475641250610352e+00 1.893264651298522949e+00 4.594591140747070312e+00 4.943194866180419922e+00 3.769541263580322266e+00 1.560246348381042480e+00 1.963049530982971191e+00 3.654399394989013672e+00 3.730023384094238281e+00 1.526518583297729492e+00 2.543260574340820312e+00 1.018321990966796875e+00 3.185184478759765625e+00 1.566891074180603027e+00 1.373833775520324707e+00 1.387726068496704102e+00 3.291491270065307617e+00 1.467720866203308105e+00 3.726880550384521484e+00 3.725851058959960938e+00 3.219876766204833984e+00 3.136753559112548828e+00 2.686063051223754883e+00 2.670376598834991455e-01 4.091382026672363281e+00 1.005476117134094238e+00 3.395495891571044922e+00 4.748866081237792969e+00 3.495329856872558594e+00 1.752911955118179321e-01 3.650542497634887695e+00 4.609254837036132812e+00 2.921226501464843750e+00 3.069432497024536133e+00 3.131940364837646484e+00 1.856669411063194275e-02 1.832761764526367188e+00 3.884842872619628906e+00 2.151108026504516602e+00 1.524337410926818848e+00 3.233188390731811523e+00 5.486487150192260742e-01 1.919915825128555298e-01 3.585718870162963867e+00 1.652004837989807129e+00 4.636777877807617188e+00 4.764815330505371094e+00 1.712507367134094238e+00 3.558207511901855469e+00 2.614119052886962891e+00 2.522118568420410156e+00 2.102570056915283203e+00 3.389668941497802734e+00 3.215706348419189453e+00 3.768922090530395508e+00 2.415012121200561523e+00 6.390519738197326660e-01 3.559815406799316406e+00 3.550250530242919922e+00 4.544920623302459717e-01 3.780788183212280273e+00 7.318073511123657227e-01 4.268366813659667969e+00 4.743315696716308594e+00 4.231754302978515625e+00 3.387832641601562500e+00 1.005674600601196289e+00 4.330074310302734375e+00 3.256850719451904297e+00 3.870009183883666992e+00 3.861218690872192383e-01 1.938848942518234253e-01 2.213009595870971680e+00 3.747945308685302734e+00 3.944550752639770508e+00 3.771796226501464844e+00 2.211095809936523438e+00 3.001392364501953125e+00 1.358208656311035156e+00 8.109182715415954590e-01 3.972123146057128906e+00 3.408428430557250977e-01 2.095573425292968750e+00 4.382370948791503906e+00 3.271086692810058594e+00 2.365598678588867188e+00 4.036962509155273438e+00 4.908142566680908203e+00 1.517006874084472656e+00 3.395380496978759766e+00 2.645803391933441162e-01 1.104574203491210938e+00 6.917117834091186523e-01 2.899000883102416992e+00 4.271316051483154297e+00 2.717030525207519531e+00 2.265798091888427734e+00 1.291510939598083496e+00 1.299265861511230469e+00 3.077480316162109375e+00 8.380150198936462402e-01 4.853460788726806641e+00 2.832613706588745117e+00 2.872793436050415039e+00 2.796826064586639404e-01 1.712271690368652344e+00 3.580307483673095703e+00 2.741214036941528320e+00 3.842148303985595703e+00 4.670838832855224609e+00 3.780570030212402344e+00 3.269339084625244141e+00 5.480288863182067871e-01 5.598700046539306641e-01 6.605004668235778809e-01 4.389633655548095703e+00 4.247310638427734375e+00 3.515658378601074219e+00 6.255599856376647949e-01 4.877789020538330078e+00 4.506637573242187500e+00 4.679605960845947266e+00 5.648273229598999023e-01 4.990440309047698975e-01 6.727204918861389160e-01 1.424532532691955566e+00 3.898976325988769531e+00 4.735245108604431152e-01 4.846416473388671875e+00 4.690852642059326172e+00 2.501955509185791016e+00 4.148745059967041016e+00 3.074810981750488281e+00 2.640883445739746094e+00 4.868907928466796875e+00 1.478294432163238525e-01 1.592042088508605957e+00 1.419210433959960938e+00 3.668803572654724121e-01 2.525601863861083984e+00 9.151355624198913574e-01 9.839003682136535645e-01 4.069759368896484375e+00 1.504371911287307739e-01 1.438165068626403809e+00 2.874601364135742188e+00 3.741946697235107422e+00 7.866010665893554688e-01 3.307962417602539062e+00 1.277374029159545898e+00 4.749591827392578125e+00 1.680717349052429199e+00 4.134501934051513672e+00 3.432149410247802734e+00 4.922713279724121094e+00 1.753228902816772461e+00 1.420686244964599609e+00 2.424209594726562500e+00 1.315349936485290527e+00 2.832755565643310547e+00 4.944393634796142578e+00 1.308152914047241211e+00 9.039658308029174805e-01 4.474055290222167969e+00 4.069430828094482422e+00 3.052540302276611328e+00 7.094168663024902344e-01 4.363555908203125000e+00 1.835231065750122070e+00 2.505704164505004883e+00 1.615476489067077637e+00 2.003682032227516174e-02 3.137075901031494141e+00 3.758236169815063477e+00 4.303000450134277344e+00 3.424674272537231445e+00 2.886951446533203125e+00 2.589093685150146484e+00
9.818178415298461914e-01 9.998186230659484863e-01 9.490513205528259277e-01 9.994899034500122070e-01 1.004674196243286133e+00 9.990028142929077148e-01 9.998171925544738770e-01 1.000002503395080566e+00 9.862203001976013184e-01 9.992725849151611328e-01 9.852052927017211914e-01 9.986270070075988770e-01 1.000000000000000000e+00 1.000000000000000000e+00 9.999775886535644531e-01 1.000000000000000000e+00 9.890981316566467285e-01 9.920671582221984863e-01 9.994500875473022461e-01 9.899847507476806641e-01 9.999901652336120605e-01 9.963663816452026367e-01 1.000000000000000000e+00 9.940770268440246582e-01 9.998696446418762207e-01 9.015747308731079102e-01 1.000000000000000000e+00 1.000000000000000000e+00 9.997297525405883789e-01 1.000000000000000000e+00 9.838016629219055176e-01 1.000000000000000000e+00 1.000374674797058105e+00 1.000000000000000000e+00 1.000000000000000000e+00 9.813807010650634766e-01 9.989134073257446289e-01 1.000000000000000000e+00 9.989643692970275879e-01 1.000000000000000000e+00 1.000000000000000000e+00 9.946434497833251953e-01 1.000000000000000000e+00 9.999759197235107422e-01 1.000015139579772949e+00 9.903140664100646973e-01 9.998493790626525879e-01 1.000000000000000000e+00 1.000000000000000000e+00 9.883828163146972656e-01 9.998325705528259277e-01 1.000000000000000000e+00 1.000000000000000000e+00 9.980915188789367676e-01 9.845708608627319336e-01 1.000000000000000000e+00 1.000000000000000000e+00 9.948716759681701660e-01 9.999976158142089844e-01 9.783198833465576172e-01 9.984379410743713379e-01 9.998314976692199707e-01 1.000125765800476074e+00 1.000000000000000000e+00 1.000544905662536621e+00 1.000000000000000000e+00 9.999802708625793457e-01 9.978912472724914551e-01 9.879022836685180664e-01 9.921889305114746094e-01 9.999651908874511719e-01 9.951000213623046875e-01 1.000000000000000000e+00 9.924634695053100586e-01 1.000000000000000000e+00 9.842045903205871582e-01 9.529747366905212402e-01 9.887495636940002441e-01 9.703895449638366699e-01 1.000000000000000000e+00 9.839748144149780273e-01 9.957995414733886719e-01 1.000000000000000000e+00 1.000000000000000000e+00 9.984078407287597656e-01 1.000000000000000000e+00 9.728878736495971680e-01 9.983485341072082520e-01 1.000000000000000000e+00 1.000000000000000000e+00 9.996607303619384766e-01 1.000026345252990723e+00 1.009250402450561523e+00 1.000000000000000000e+00 9.970960021018981934e-01 9.999940395355224609e-01 1.000000000000000000e+00 9.963951706886291504e-01 9.991499185562133789e-01 1.000000000000000000e+00 9.959326386451721191e-01 9.969503283500671387e-01 9.808700680732727051e-01 1.000000000000000000e+00 1.000000000000000000e+00 9.796184897422790527e-01 1.000081539154052734e+00 1.029941797256469727e+00 9.986693859100341797e-01 1.000430107116699219e+00 1.001692771911621094e+00 9.998715519905090332e-01 9.989821910858154297e-01 9.998631477355957031e-01 1.001056790351867676e+00 1.000000000000000000e+00 9.995633959770202637e-01 1.000000000000000000e+00 1.000000000000000000e+00 1.000000000000000000e+00 9.830433726310729980e-01 1.000000000000000000e+00 1.000000000000000000e+00 1.000066757202148438e+00 9.958204030990600586e-01 9.794356226921081543e-01 1.000000000000000000e+00 9.840338826179504395e-01 1.000000000000000000e+00 1.000000000000000000e+00 9.958738684654235840e-01 1.000000000000000000e+00 1.001976251602172852e+00 1.000000000000000000e+00 1.000004529953002930e+00 9.887883663177490234e-01 1.000178098678588867e+00 9.912290573120117188e-01 9.999594092369079590e-01 9.999161362648010254e-01 9.693590402603149414e-01 1.000000000000000000e+00 9.993942379951477051e-01 9.995270967483520508e-01 9.961535334587097168e-01 9.912318587303161621e-01 9.986693263053894043e-01 9.923804998397827148e-01 1.000000000000000000e+00 9.676686525344848633e-01 1.000000000000000000e+00 1.000086069107055664e+00 9.594116806983947754e-01 9.983755946159362793e-01 1.000000000000000000e+00 1.000000000000000000e+00 9.949081540107727051e-01 1.000000000000000000e+00 9.995900988578796387e-01 1.000000000000000000e+00 9.995726943016052246e-01 9.992668628692626953e-01 1.000000000000000000e+00 9.995756745338439941e-01 9.990003108978271484e-01 1.000000000000000000e+00 9.385808706283569336e-01 9.956342577934265137e-01 1.000000000000000000e+00 9.344041347503662109e-01 9.997112154960632324e-01 1.000000000000000000e+00 1.000000000000000000e+00 9.786786437034606934e-01 9.988800287246704102e-01 1.000206947326660156e+00 9.818191528320312500e-01 1.001023173332214355e+00 1.000000000000000000e+00 1.000000000000000000e+00 1.000000000000000000e+00 9.998105168342590332e-01 9.928722381591796875e-01 9.944468140602111816e-01 1.001022338867187500e+00 1.000000000000000000e+00 1.000000000000000000e+00 1.000000000000000000e+00 1.000000000000000000e+00 1.000000000000000000e+00 9.966679215431213379e-01 1.029869794845581055e+00 9.988369941711425781e-01 9.938084483146667480e-01 1.000000000000000000e+00 9.701736569404602051e-01 9.827094674110412598e-01 1.000100135803222656e+00 1.000091671943664551e+00 9.940096735954284668e-01 9.691256880760192871e-01 1.000000000000000000e+00 1.000000000000000000e+00 9.925223588943481445e-01 1.000000000000000000e+00 1.002395272254943848e+00 1.001075744628906250e+00 1.000000000000000000e+00 9.998613595962524414e-01 9.987798929214477539e-01 9.976924061775207520e-01 9.999029040336608887e-01 9.999487996101379395e-01 9.492442011833190918e-01 1.000063180923461914e+00 9.997644424438476562e-01 1.000000000000000000e+00 9.995808005332946777e-01 9.993803501129150391e-01 9.906412363052368164e-01 9.975451827049255371e-01 9.979146718978881836e-01 9.770177006721496582e-01 1.000000000000000000e+00 1.000000000000000000e+00 9.828560948371887207e-01 9.624648094177246094e-01 9.997221827507019043e-01 9.999648332595825195e-01 9.895187616348266602e-01 9.454655051231384277e-01 1.000220656394958496e+00 1.000123143196105957e+00 9.793806672096252441e-01 9.872451424598693848e-01 1.000000000000000000e+00 9.959654808044433594e-01 9.982699751853942871e-01 9.995636940002441406e-01 9.806343317031860352e-01 9.997729063034057617e-01 9.524158835411071777e-01 1.000099778175354004e+00 1.000000000000000000e+00 1.000000000000000000e+00 9.998332262039184570e-01 1.000000000000000000e+00 1.000000000000000000e+00 9.062691330909729004e-01 1.000000000000000000e+00 9.998291730880737305e-01 1.000000000000000000e+00 9.993337392807006836e-01 1.000276327133178711e+00 1.000000000000000000e+00 9.988900423049926758e-01 1.000000000000000000e+00 9.992553591728210449e-01 9.828920960426330566e-01 1.000000000000000000e+00 1.000000000000000000e+00 1.000000000000000000e+00 9.956824183464050293e-01 1.000000000000000000e+00 9.997400641441345215e-01 1.000000000000000000e+00 9.928821921348571777e-01 9.647196531295776367e-01 9.874933958053588867e-01 1.000000000000000000e+00 9.530893564224243164e-01 1.000000000000000000e+00 9.996413588523864746e-01 1.000000000000000000e+00 9.991601705551147461e-01 9.984253644943237305e-01 1.000000000000000000e+00 1.000000000000000000e+00 9.107335209846496582e-01 1.000018954277038574e+00 9.998818039894104004e-01 9.999790787696838379e-01 1.000743746757507324e+00 1.000000000000000000e+00 1.000000000000000000e+00 1.000000000000000000e+00 1.000000000000000000e+00 1.000000000000000000e+00 1.000000000000000000e+00 1.000350832939147949e+00 9.963718056678771973e-01 1.000000000000000000e+00 1.000000000000000000e+00 9.991945624351501465e-01 1.000000000000000000e+00 1.000282883644104004e+00 9.997108578681945801e-01 9.999973177909851074e-01 9.804124832153320312e-01 9.752473831176757812e-01 1.000000000000000000e+00 9.999989271163940430e-01 9.984000325202941895e-01 9.800756573677062988e-01 9.998140931129455566e-01 9.997135400772094727e-01 1.000000000000000000e+00 1.000000000000000000e+00 1.000000000000000000e+00 9.943633675575256348e-01 9.992101192474365234e-01 1.000000000000000000e+00 9.686734676361083984e-01 9.954411983489990234e-01 9.907261729240417480e-01 1.000000000000000000e+00 1.000025749206542969e+00 9.958724975585937500e-01 1.000000000000000000e+00 9.763503074645996094e-01 1.000766038894653320e+00 9.999994635581970215e-01 9.966707229614257812e-01 1.000001311302185059e+00 9.897374510765075684e-01 1.001360058784484863e+00 1.000000000000000000e+00 1.000000000000000000e+00 1.000000000000000000e+00 9.921385049819946289e-01 1.000000000000000000e+00 9.992684125900268555e-01 1.000000000000000000e+00 9.723562002182006836e-01 9.987468719482421875e-01 9.997934699058532715e-01 9.965611696243286133e-01 1.000000000000000000e+00 1.000021219253540039e+00 9.876493215560913086e-01 9.966558218002319336e-01 9.980037808418273926e-01 9.939748644828796387e-01 1.000000000000000000e+00 1.003226161003112793e+00 1.004148364067077637e+00 9.895197749137878418e-01 1.000000000000000000e+00 1.000000000000000000e+00 1.000000000000000000e+00 1.000000000000000000e+00 9.043672680854797363e-01 1.000000000000000000e+00 9.994013905525207520e-01 9.572982192039489746e-01 9.999673962593078613e-01 1.000000000000000000e+00 1.000000000000000000e+00 9.998857975006103516e-01 9.565073251724243164e-01 9.999048709869384766e-01 9.922098517417907715e-01 9.703031182289123535e-01 9.965796470642089844e-01 1.000000000000000000e+00 1.000000000000000000e+00 1.000328302383422852e+00 1.000000000000000000e+00 1.000000000000000000e+00 9.997003078460693359e-01 9.978177547454833984e-01 9.634476304054260254e-01 9.999209046363830566e-01 9.836235642433166504e-01 9.999877810478210449e-01 1.000000000000000000e+00 9.993045926094055176e-01 9.990178942680358887e-01 9.768131971359252930e-01 9.993656277656555176e-01 9.992666244506835938e-01 1.000000000000000000e+00 1.000000000000000000e+00 1.000000000000000000e+00 1.000000000000000000e+00 1.000000000000000000e+00 9.921667575836181641e-01 9.975339770317077637e-01 9.746174812316894531e-01 1.000000000000000000e+00 9.232659339904785156e-01 9.968923330307006836e-01 1.000000000000000000e+00 1.000000000000000000e+00 9.988328218460083008e-01 9.950997829437255859e-01 1.000000000000000000e+00 1.000000000000000000e+00 9.410789012908935547e-01 9.998551011085510254e-01 9.999709129333496094e-01 1.000000000000000000e+00 1.000254273414611816e+00 9.860388040542602539e-01 9.628782868385314941e-01 9.993863105773925781e-01 9.624836444854736328e-01 1.000000000000000000e+00 1.000000000000000000e+00 9.986412525177001953e-01 9.689347147941589355e-01 1.000000000000000000e+00 9.999098777770996094e-01 1.000000000000000000e+00 1.000000000000000000e+00 1.000000000000000000e+00 1.000000000000000000e+00 1.000000000000000000e+00 1.000000000000000000e+00 9.458444714546203613e-01 9.996395111083984375e-01 9.858353137969970703e-01 1.000000000000000000e+00 1.000000000000000000e+00 1.001453280448913574e+00 1.000000000000000000e+00 9.805365800857543945e-01 9.900009036064147949e-01 1.000000000000000000e+00 1.000000000000000000e+00 1.000000000000000000e+00 8.975817561149597168e-01 9.611610770225524902e-01 9.974218606948852539e-01 1.000000000000000000e+00 8.451650738716125488e-01 9.982926845550537109e-01 9.970145821571350098e-01 9.961214065551757812e-01 1.000000000000000000e+00 9.997958540916442871e-01 9.900106787681579590e-01 9.996884465217590332e-01 1.000000000000000000e+00 6.790960431098937988e-01 9.976989626884460449e-01 1.000000000000000000e+00 9.986112713813781738e-01 9.968085289001464844e-01 1.000388860702514648e+00 9.623080492019653320e-01 1.000000000000000000e+00 1.000000000000000000e+00 9.616000652313232422e-01 9.999968409538269043e-01 1.000000000000000000e+00 9.972696900367736816e-01 1.000000000000000000e+00 9.972405433654785156e-01 9.960539937019348145e-01 9.997373223304748535e-01 1.000000000000000000e+00 1.000621438026428223e+00 1.000000000000000000e+00 1.000000000000000000e+00 9.997554421424865723e-01 9.854825735092163086e-01 1.001685261726379395e+00 1.000000000000000000e+00 1.000000000000000000e+00 1.000053524971008301e+00 9.981227517127990723e-01 9.780596494674682617e-01 9.995436072349548340e-01 9.998139739036560059e-01 1.000000000000000000e+00 1.000000000000000000e+00 9.998421669006347656e-01 8.424623012542724609e-01 9.781029224395751953e-01 9.992634057998657227e-01 1.000000000000000000e+00 1.000000000000000000e+00 9.975287318229675293e-01 1.000228762626647949e+00 1.000000000000000000e+00 1.000000000000000000e+00 1.000479102134704590e+00 9.999591112136840820e-01 9.679711461067199707e-01 1.000002145767211914e+00 1.000000000000000000e+00 1.000103235244750977e+00 1.000001668930053711e+00 1.000000000000000000e+00 9.780352711677551270e-01 1.000368237495422363e+00 9.574669599533081055e-01 1.000000000000000000e+00 9.870794415473937988e-01 1.000000000000000000e+00 1.000000000000000000e+00 1.000000000000000000e+00 9.976000189781188965e-01 9.977831840515136719e-01 9.817807674407958984e-01 9.650959372520446777e-01 9.951861500740051270e-01 9.998195767402648926e-01 1.000000000000000000e+00 1.000007152557373047e+00 9.688577651977539062e-01 1.000000000000000000e+00 9.958043694496154785e-01 1.000000000000000000e+00 9.998368620872497559e-01 1.000066637992858887e+00 1.000028252601623535e+00 9.359380006790161133e-01 1.000000000000000000e+00 9.981376528739929199e-01 9.995543360710144043e-01 9.995968341827392578e-01 9.996381402015686035e-01 1.000000000000000000e+00 9.998824596405029297e-01 1.000000000000000000e+00 9.974791407585144043e-01 1.000000000000000000e+00 9.719120264053344727e-01 1.000000000000000000e+00 9.988358616828918457e-01 9.971756339073181152e-01 1.001145362854003906e+00 1.000000000000000000e+00 1.000000000000000000e+00 1.000000000000000000e+00 9.916640520095825195e-01 9.997187852859497070e-01 9.990449547767639160e-01 1.000000000000000000e+00 8.447619676589965820e-01 1.000000000000000000e+00 1.000000000000000000e+00 1.000004529953002930e+00 9.945107698440551758e-01 1.000480771064758301e+00 1.009536266326904297e+00 9.986439943313598633e-01 1.000027298927307129e+00 9.766269922256469727e-01 1.000000000000000000e+00 9.988029003143310547e-01 9.994847178459167480e-01 9.990138411521911621e-01 1.000000000000000000e+00 9.999644160270690918e-01 1.000000000000000000e+00 9.994698762893676758e-01 9.530259370803833008e-01 9.985825419425964355e-01 9.697560071945190430e-01 9.463497400283813477e-01 1.000019073486328125e+00 1.000000000000000000e+00 1.011991500854492188e+00 9.998149275779724121e-01 1.000000000000000000e+00 1.000000000000000000e+00 1.000002861022949219e+00 9.892690181732177734e-01 9.844551682472229004e-01 1.000000000000000000e+00 1.000000000000000000e+00 1.000000000000000000e+00 8.988071084022521973e-01 9.971465468406677246e-01 9.989414811134338379e-01 9.996745586395263672e-01 1.000000000000000000e+00 1.000000000000000000e+00 9.958572983741760254e-01 9.998357295989990234e-01 1.000000000000000000e+00 1.000000000000000000e+00 9.945811033248901367e-01 1.000000000000000000e+00 1.000000000000000000e+00 9.961356520652770996e-01 9.574466943740844727e-01 9.439455866813659668e-01 1.000004768371582031e+00 1.000109553337097168e+00 1.000109553337097168e+00 1.000005364418029785e+00 1.000000000000000000e+00 1.001618862152099609e+00 9.994539618492126465e-01 1.000000000000000000e+00 1.000000000000000000e+00 9.921761155128479004e-01 9.352328777313232422e-01 9.988739490509033203e-01 9.999675750732421875e-01 9.995895028114318848e-01 1.000000000000000000e+00 1.000000000000000000e+00 9.877287149429321289e-01 1.000000000000000000e+00 9.999959468841552734e-01 1.000000000000000000e+00 9.998765587806701660e-01 1.000000000000000000e+00 1.000000000000000000e+00 1.000047683715820312e+00 1.000127553939819336e+00 9.544225931167602539e-01 9.710156917572021484e-01 1.000000000000000000e+00 9.548104405403137207e-01 9.826207756996154785e-01 1.000192880630493164e+00 1.000000000000000000e+00 1.000000000000000000e+00 9.987077713012695312e-01 9.996326565742492676e-01 1.000000000000000000e+00 9.976164102554321289e-01 9.726741909980773926e-01 9.992756247520446777e-01 9.998675584793090820e-01 9.952734708786010742e-01 1.000000000000000000e+00 9.272530674934387207e-01 8.311207294464111328e-01 8.844999074935913086e-01 9.633697867393493652e-01 1.000000000000000000e+00 9.933739304542541504e-01 9.823252558708190918e-01 1.000000000000000000e+00 9.991623163223266602e-01 9.969756007194519043e-01 9.975265264511108398e-01 9.998562335968017578e-01 1.000000000000000000e+00 9.740006327629089355e-01 9.961240291595458984e-01 1.000000000000000000e+00 1.000000000000000000e+00 1.000000000000000000e+00 1.000000000000000000e+00 1.000542640686035156e+00 9.951800107955932617e-01 9.763063788414001465e-01 1.000000000000000000e+00 1.000000000000000000e+00 1.033912181854248047e+00 9.990015625953674316e-01 1.000001192092895508e+00 9.999478459358215332e-01 1.000097036361694336e+00 1.000000000000000000e+00 1.000000000000000000e+00 1.015248417854309082e+00 1.000000000000000000e+00 9.977105855941772461e-01 9.831771254539489746e-01 1.000000000000000000e+00 9.992799758911132812e-01 9.965839385986328125e-01 9.726851582527160645e-01 1.000109553337097168e+00 9.878355264663696289e-01 1.000000000000000000e+00 9.987488389015197754e-01 1.000753164291381836e+00 1.000000000000000000e+00 1.000000000000000000e+00 1.000000000000000000e+00 1.000378966331481934e+00 1.000000000000000000e+00 9.744184613227844238e-01 9.777660369873046875e-01 1.000000000000000000e+00 9.999449849128723145e-01 1.000000000000000000e+00 9.872431755065917969e-01 1.001258730888366699e+00 9.913077354431152344e-01 1.000233054161071777e+00 1.002284049987792969e+00 1.000000000000000000e+00 9.999711513519287109e-01 1.000000000000000000e+00 9.039079546928405762e-01 8.413904905319213867e-01 9.869838356971740723e-01 1.001433968544006348e+00 1.000000000000000000e+00 1.000000000000000000e+00 1.000000000000000000e+00 9.997968077659606934e-01 9.734882712364196777e-01 9.991900920867919922e-01 9.696564674377441406e-01 9.952522516250610352e-01 9.981797933578491211e-01 1.000000000000000000e+00 1.000000000000000000e+00 1.000000000000000000e+00 1.000000000000000000e+00 9.998956918716430664e-01 9.902262091636657715e-01 9.653368592262268066e-01 1.000000000000000000e+00 1.000483393669128418e+00 1.000000000000000000e+00 9.875100851058959961e-01 9.964174032211303711e-01 1.000000000000000000e+00 1.000118255615234375e+00 1.000000000000000000e+00 9.776687026023864746e-01 9.995065927505493164e-01 9.608393311500549316e-01 1.000247120857238770e+00 9.879900813102722168e-01 9.921700358390808105e-01 9.997001886367797852e-01 9.628281593322753906e-01 9.816166162490844727e-01 1.000000000000000000e+00 9.514559507369995117e-01 9.885555505752563477e-01 1.000000000000000000e+00 1.000000000000000000e+00 9.991131424903869629e-01 9.879168272018432617e-01 1.000000000000000000e+00 9.991670250892639160e-01 9.713349342346191406e-01 1.000000000000000000e+00 9.971742630004882812e-01 1.000000000000000000e+00 9.999997019767761230e-01 1.000000000000000000e+00 1.000000000000000000e+00 9.848518371582031250e-01 1.001475214958190918e+00 9.331685304641723633e-01 9.075501561164855957e-01 1.000000000000000000e+00 9.876199960708618164e-01 1.000501751899719238e+00 1.000196218490600586e+00 1.000011205673217773e+00 9.995508790016174316e-01 9.859186410903930664e-01 1.000000000000000000e+00 1.000000000000000000e+00 1.000000000000000000e+00 1.000000000000000000e+00 1.000000000000000000e+00 9.995169043540954590e-01 9.962722659111022949e-01 9.842585921287536621e-01 9.960060715675354004e-01 1.000000000000000000e+00 9.966157674789428711e-01 1.000000000000000000e+00 1.000000000000000000e+00 1.000000000000000000e+00 9.776304960250854492e-01 9.996690750122070312e-01 9.948152303695678711e-01 1.000000000000000000e+00 1.000000000000000000e+00 9.999368786811828613e-01 9.946150183677673340e-01 1.000000000000000000e+00 9.984601736068725586e-01 9.905503988265991211e-01 1.000000000000000000e+00 9.999973773956298828e-01 9.953418374061584473e-01 9.815444350242614746e-01 1.000000000000000000e+00 9.999885559082031250e-01 1.000000000000000000e+00 9.995498657226562500e-01 1.000000000000000000e+00 1.000000000000000000e+00 9.930702447891235352e-01 9.998874664306640625e-01 1.000000000000000000e+00 9.998098611831665039e-01 1.000000000000000000e+00 9.998515248298645020e-01 9.999543428421020508e-01 9.798495769500732422e-01 1.000153183937072754e+00 9.806047677993774414e-01 9.993879199028015137e-01 9.999890327453613281e-01 1.000000000000000000e+00 9.725451469421386719e-01 1.000000000000000000e+00 9.993909001350402832e-01 1.000494718551635742e+00 9.249084591865539551e-01 9.861952066421508789e-01 9.042024016380310059e-01 1.000005960464477539e+00 1.000000000000000000e+00 9.972479343414306641e-01 9.994000792503356934e-01 1.000000000000000000e+00 1.000552296638488770e+00 9.496737718582153320e-01 9.979789257049560547e-01 1.000000000000000000e+00 1.000000000000000000e+00 9.932092428207397461e-01 9.988139271736145020e-01 1.000000000000000000e+00 1.000000000000000000e+00 9.999337196350097656e-01 9.977688789367675781e-01 1.000000000000000000e+00 1.000000000000000000e+00 9.970824718475341797e-01 1.000267982482910156e+00 9.823349118232727051e-01 1.000000000000000000e+00 9.999032020568847656e-01 9.887077212333679199e-01 1.000019311904907227e+00 1.000000000000000000e+00 9.994035959243774414e-01 1.000000000000000000e+00 1.000000000000000000e+00 1.000000000000000000e+00 1.000029206275939941e+00 1.000000000000000000e+00 8.741733431816101074e-01 1.000000000000000000e+00 9.838704466819763184e-01 1.000000000000000000e+00 1.000000000000000000e+00 9.706733226776123047e-01 9.378084540367126465e-01 1.000000000000000000e+00 1.000000000000000000e+00 1.000000000000000000e+00 1.000669360160827637e+00 9.913297295570373535e-01 7.717086672782897949e-01 9.939276576042175293e-01 1.000000000000000000e+00 9.959684610366821289e-01 9.755136370658874512e-01 1.000000000000000000e+00 9.517280459403991699e-01 9.705211520195007324e-01 9.997186660766601562e-01 9.981610178947448730e-01 1.007524132728576660e+00 1.000038743019104004e+00 9.988510608673095703e-01 9.971938729286193848e-01 1.000000000000000000e+00 1.000000000000000000e+00 9.993317723274230957e-01 1.000000000000000000e+00 1.000000000000000000e+00 1.000000000000000000e+00 1.000000000000000000e+00 9.712701439857482910e-01 1.000231742858886719e+00 1.000000000000000000e+00 9.672967195510864258e-01 9.998722076416015625e-01 1.000969648361206055e+00 1.000000000000000000e+00 1.000000000000000000e+00 9.999360442161560059e-01 1.000000000000000000e+00 9.537436366081237793e-01 1.000412940979003906e+00 1.000000000000000000e+00 1.000000000000000000e+00 9.503559470176696777e-01 9.682005643844604492e-01 9.725788235664367676e-01 1.000010013580322266e+00 1.000000000000000000e+00 1.000000000000000000e+00 1.000560045242309570e+00 1.000000000000000000e+00 1.000133156776428223e+00 9.875691533088684082e-01 1.000000000000000000e+00 9.412989020347595215e-01 9.998914003372192383e-01 1.000000000000000000e+00 9.999072551727294922e-01 9.999342560768127441e-01 1.000000000000000000e+00 1.000000000000000000e+00 9.524902701377868652e-01 1.000000000000000000e+00 9.525716900825500488e-01 9.996820092201232910e-01 9.931847453117370605e-01 1.000223875045776367e+00 1.000000000000000000e+00 1.000000000000000000e+00 9.924196004867553711e-01 9.992862343788146973e-01 9.936574101448059082e-01 9.993580579757690430e-01 9.955987930297851562e-01 1.000000000000000000e+00 9.787285923957824707e-01 1.001751422882080078e+00 1.001187801361083984e+00 9.822320938110351562e-01 1.001163005828857422e+00 1.000000000000000000e+00 1.000000000000000000e+00 1.000000000000000000e+00 9.998241066932678223e-01 9.947912096977233887e-01 9.930309057235717773e-01 9.012635350227355957e-01 9.736111164093017578e-01 9.998467564582824707e-01 1.000000000000000000e+00 1.000000000000000000e+00 9.890084862709045410e-01 1.000000000000000000e+00 1.000000000000000000e+00 1.000000000000000000e+00 1.000481724739074707e+00 8.742550611495971680e-01 9.722075462341308594e-01 9.994810223579406738e-01 9.995415806770324707e-01 9.838700890541076660e-01 1.000000000000000000e+00 1.000000000000000000e+00 1.000104546546936035e+00 1.000000000000000000e+00 1.000000000000000000e+00 1.000000000000000000e+00 1.000000000000000000e+00 9.346959590911865234e-01 9.970147013664245605e-01 9.994189143180847168e-01 9.399145245552062988e-01 1.000000000000000000e+00 9.985519647598266602e-01 9.807257056236267090e-01 1.000000000000000000e+00 9.922304749488830566e-01 1.003192424774169922e+00 1.001704454421997070e+00 1.000000000000000000e+00 9.809432029724121094e-01 1.000000000000000000e+00 9.838693141937255859e-01 1.000000000000000000e+00 9.978888034820556641e-01 1.000000000000000000e+00 1.000000000000000000e+00 1.000000000000000000e+00 1.000023484230041504e+00 9.999232292175292969e-01 9.998319149017333984e-01 9.996532201766967773e-01 9.993105530738830566e-01 1.000000000000000000e+00 9.835196733474731445e-01 1.000344395637512207e+00 1.000000000000000000e+00 1.000000000000000000e+00 9.980044364929199219e-01 1.000032663345336914e+00 