-9.874079842120409012e-04 1.098819077014923096e-03 -9.686882607638835907e-03 -1.002508215606212616e-02 3.678555414080619812e-02 -2.394829876720905304e-03 4.928880371153354645e-03 -7.276115566492080688e-02 9.564850479364395142e-04 -1.744003593921661377e-01 -1.169971004128456116e-02 -1.956312656402587891e-01 -3.280060831457376480e-03 8.097461424767971039e-03 -2.165370807051658630e-02 -1.822831109166145325e-02 -7.056481670588254929e-03 1.761436229571700096e-03 1.700699562206864357e-03 2.784003317356109619e-02 -3.773830598220229149e-03 1.689539477229118347e-02 -2.481434959918260574e-03 -1.452982544898986816e+00 -8.937847451306879520e-04 -1.326307840645313263e-02 -1.060033440589904785e-01 -1.941150519996881485e-03 -4.202206432819366455e-01 -8.845221251249313354e-02 9.611581452190876007e-03 -9.196755127049982548e-05 1.461617997847497463e-03 -4.195748828351497650e-03 -1.241327822208404541e-02 -4.815426841378211975e-02 -1.262708753347396851e-01 4.206736013293266296e-02 5.502425599843263626e-03 3.111365251243114471e-03 -3.235060721635818481e-02 -7.594260969199240208e-04 -1.554638426750898361e-02 3.303973376750946045e-02 -5.058456445112824440e-04 -1.935815960168838501e-01 9.075002744793891907e-04 8.733357302844524384e-03 -3.731955075636506081e-03 -1.180353458039462566e-03 2.734951209276914597e-03 -2.676071785390377045e-02 6.210395600646734238e-03 -1.853644847869873047e+00 -9.627006649971008301e-01 1.813503695302642882e-05 -2.715682424604892731e-02 -1.869768369942903519e-03 -3.553723450750112534e-03 7.802589680068194866e-04 4.667481407523155212e-02 9.324817801825702190e-04 -8.944326080381870270e-03 -2.999009331688284874e-03 -7.958631217479705811e-02 -3.164332360029220581e-02 -1.706692278385162354e-01 3.041299246251583099e-02 -1.233614981174468994e-03 5.966090131551027298e-03 -3.107730997726321220e-03 -2.041673846542835236e-02 -1.503176055848598480e-02 -1.049558704835362732e-04 -3.647200763225555420e-01 7.149968587327748537e-05 -1.086206585168838501e-01 -1.071317773312330246e-02 -1.976176718017086387e-04 -9.189812466502189636e-03 7.990004960447549820e-04 2.618596516549587250e-02 9.788054740056395531e-04 1.112105045467615128e-02 4.166600774624384940e-06 -6.131926923990249634e-02 -2.374180965125560760e-02 3.530668036546558142e-04 -7.097069174051284790e-03 1.917044818401336670e-02 -1.197628304362297058e-01 1.196974772028625011e-03 -1.442864835262298584e-01 -2.265951395034790039e+00 -4.491799976676702499e-03 -7.232538461685180664e-01 3.123780246824026108e-03 1.187366899102926254e-03 -5.358736030757427216e-03 1.380672911182045937e-03 -7.317190989851951599e-03 1.703045098111033440e-03 -1.340217351913452148e+00 -9.661745280027389526e-03 1.056214750860817730e-04 -4.370679147541522980e-03 -5.176112800836563110e-02 3.231266140937805176e-02 -1.126858353614807129e+00 4.360616207122802734e-02 8.975369855761528015e-04 -1.398051244905218482e-04 -6.021851301193237305e-02 6.795453955419361591e-04 3.233638824895024300e-03 5.511493887752294540e-03 -3.859425187110900879e-01 -1.305253803730010986e-02 -3.931835759431123734e-03 -3.915454819798469543e-02 -1.826801896095275879e-01 -8.299270644783973694e-03 2.414163667708635330e-03 8.299612253904342651e-02 -2.099686384201049805e+00 3.769917646422982216e-03 6.188794941408559680e-05 3.052255138754844666e-03 1.448388327844440937e-03 -1.056155487895011902e-01 2.965628300444222987e-05 -1.748015172779560089e-03 1.245889719575643539e-02 -1.978366017341613770e+00 -7.438334822654724121e-01 -6.768841296434402466e-02 -1.299419701099395752e-01 -1.430849909782409668e+00 5.915236193686723709e-03 -1.828770036809146404e-04 -7.894994691014289856e-03 4.608072049450129271e-04 8.412644383497536182e-04 -5.609506275504827499e-03 -1.580950804054737091e-02 -8.015576750040054321e-02 4.747487604618072510e-03 6.838327646255493164e-02 -1.307093258947134018e-02 -1.054547447711229324e-02 -7.060475181788206100e-03 1.380518311634659767e-03 5.727106239646673203e-03 -2.940439735539257526e-04 8.851991733536124229e-04 -7.181733846664428711e-03 -6.917127966880798340e-02 2.606333978474140167e-02 -5.395561456680297852e-04 -1.490062661468982697e-02 2.294904366135597229e-02 -1.390827074646949768e-02 1.541032083332538605e-02 9.227116592228412628e-03 1.258142571896314621e-02 5.996952764689922333e-03 -4.249821417033672333e-03 -1.852803230285644531e-01 -6.374025344848632812e-02 -1.402501203119754791e-02 -2.528928406536579132e-02 -1.175972074270248413e-01 -7.244142470881342888e-04 -2.100360579788684845e-03 2.911773626692593098e-04 2.401399658992886543e-03 -2.080627251416444778e-03 -6.201815325766801834e-03 -4.210202489048242569e-03 4.956248216331005096e-03 -6.534747662954032421e-04 8.075215667486190796e-02 -1.192344501614570618e-01 -8.913131356239318848e-01 -1.556567907333374023e+00 -1.416816003620624542e-02 -1.184947609901428223e+00 -6.408537272363901138e-03 3.900136798620223999e-03 1.752512413077056408e-03 4.176606598775833845e-04 2.369653702771756798e-05 -1.043410778045654297e+00 -2.864127792418003082e-02 4.066883702762424946e-04 8.115784148685634136e-04 -7.615610957145690918e-03 -1.985501294257119298e-04 -1.834460999816656113e-05 -4.195630550384521484e-01 -2.572134602814912796e-03 -1.180223375558853149e-02 -4.976525157690048218e-02 6.810681225033476949e-05 5.671314895153045654e-03 -2.168490886688232422e-01 -3.575671697035431862e-03 1.020960416644811630e-02 2.746986690908670425e-03 -1.751621961593627930e+00 -2.236674539744853973e-03 -1.234138369560241699e+00 -3.199761500582098961e-03 -1.141860266216099262e-03 1.428879215382039547e-03 1.552367489784955978e-02 2.378999022766947746e-03 -1.992633752524852753e-02 1.574342511594295502e-02 7.604081183671951294e-03 -2.395254001021385193e-02 -6.126301828771829605e-03 9.091653674840927124e-02 6.692480761557817459e-03 2.917904748755972832e-05 1.654903637245297432e-03 -6.472189426422119141e-01 -3.374386951327323914e-02 -8.868595468811690807e-04 -8.226309716701507568e-02 -4.809747263789176941e-02 4.878335166722536087e-03 -3.470778930932283401e-03 -2.104920335114002228e-02 8.235935092670843005e-05 -1.976382017135620117e+00 -2.198319882154464722e-03 -9.193000942468643188e-02 -9.406101703643798828e-02 -9.532743133604526520e-03 4.848356824368238449e-03 2.917140163481235504e-02 -4.486842826008796692e-02 3.632675111293792725e-02 1.454888377338647842e-03 -5.297226598486304283e-04 1.119747199118137360e-02 9.012121707201004028e-03 1.072185114026069641e-02 -2.451129257678985596e-03 -1.027170335873961449e-03 -2.578011453151702881e-01 -3.081269375979900360e-02 -1.662321388721466064e-03 -1.053877361118793488e-02 3.725458867847919464e-03 -2.574932947754859924e-02 4.880236156168393791e-05 1.308224309468641877e-04 2.414063364267349243e-02 -4.298470914363861084e-02 1.535850344225764275e-03 -5.312625318765640259e-03 2.465769415721297264e-03 -3.152944892644882202e-02 -2.004489302635192871e-01 1.147903269156813622e-03 -1.684926629066467285e+00 -1.485753455199301243e-03 -2.164714187383651733e-01 5.433098413050174713e-03 -8.864202536642551422e-03 -1.900724717415869236e-03 -5.573444068431854248e-04 -6.294502317905426025e-02 -8.018650859594345093e-02 -2.219118833541870117e+00 -6.488116830587387085e-02 -5.679289461113512516e-04 -6.864539813250303268e-03 2.081480779452249408e-04 -9.823990985751152039e-03 -1.142230071127414703e-02 6.489952647825703025e-05 -1.428682589903473854e-03 -1.784261167049407959e-01 -1.392930865287780762e+00 1.806290238164365292e-03 -3.614569455385208130e-02 3.069434314966201782e-02 -1.742315478622913361e-02 -2.108569722622632980e-03 1.020016819238662720e-01 -1.495920866727828979e-02 -4.767321981489658356e-03 2.286886610090732574e-02 -1.668837852776050568e-02 -1.288266945630311966e-02 -1.558867245912551880e-01 -8.430622518062591553e-02 -2.079459605738520622e-03 4.735902417451143265e-03 -7.049896288663148880e-03 2.077358076348900795e-03 -3.734309226274490356e-02 -8.497360162436962128e-03 -2.557746507227420807e-02 -1.712552038952708244e-03 -1.942051760852336884e-02 -1.366766542196273804e-01 -8.217469789087772369e-03 -6.048660725355148315e-02 -9.924757760018110275e-04 -2.749299444258213043e-02 5.062199779786169529e-04 -1.951212063431739807e-03 -5.598298739641904831e-04 2.689766697585582733e-04 -7.809936534613370895e-03 -1.579877221956849098e-03 -1.960297813639044762e-04 -1.111002406105399132e-03 -4.871218651533126831e-02 -1.135875377804040909e-02 -5.140481051057577133e-03 -4.572356119751930237e-03 -3.470693528652191162e-02 -2.705278573557734489e-03 -4.457594081759452820e-02 -5.871286243200302124e-02 2.293542260304093361e-03 6.184651283547282219e-04 1.548751723021268845e-03 -1.444196224212646484e+00 -2.215482443571090698e-01 -2.475801467895507812e+00 -1.552228163927793503e-02 -1.207756868097931147e-04 -1.278209328651428223e+00 -1.748866587877273560e-01 -2.454700693488121033e-02 -4.650499206036329269e-03 5.750888492912054062e-03 -5.251058028079569340e-04 -3.059864277020096779e-03 -1.183104142546653748e-02 -2.594955265522003174e-01 -1.844899773597717285e+00 2.626979025080800056e-03 -3.565039858222007751e-02 4.403806757181882858e-03 3.689307020977139473e-03 -1.135371439158916473e-02 -2.067287918180227280e-03 -3.691040351986885071e-02 4.701119847595691681e-03 -2.909545786678791046e-03 8.461815305054187775e-04 -2.123004943132400513e-02 -2.754592103883624077e-03 -1.425544614903628826e-03 -8.276755362749099731e-02 -2.667335502337664366e-04 -1.254464745521545410e+00 4.636732395738363266e-03 -8.585382602177560329e-04 -6.415666546672582626e-03 -1.891714287921786308e-03 -9.671200066804885864e-03 3.718759119510650635e-02 -1.845083083026111126e-03 1.980219385586678982e-04 -3.861134871840476990e-02 -1.693118512630462646e-01 -9.708059430122375488e-01 -1.150005729869008064e-03 -1.976522151380777359e-03 2.764487871900200844e-03 8.923583664000034332e-05 -2.936232686042785645e-01 2.211815444752573967e-03 1.286544022150337696e-03 -1.423153793439269066e-03 1.294457237236201763e-03 -6.297945231199264526e-02 -6.406329339370131493e-04 -1.036295201629400253e-03 -2.046659402549266815e-02 -2.038070678710937500e+00 -8.857935899868607521e-04 -7.089824974536895752e-02 -6.803390569984912872e-04 -3.688060492277145386e-02 -2.277546644210815430e+00 2.895354293286800385e-03 1.176801044493913651e-03 -5.809090733528137207e-01 -3.584172204136848450e-02 3.400628047529608011e-04 -2.899783430621027946e-04 -1.121000736020505428e-03 3.883297555148601532e-03 -1.755117997527122498e-02 2.612249227240681648e-04 6.975970230996608734e-03 -8.132817223668098450e-03 3.489171154797077179e-03 1.915646484121680260e-03 -2.093839924782514572e-03 -5.846366286277770996e-03 -4.391937691252678633e-04 -8.606518805027008057e-02 4.348917864263057709e-03 -1.827820233302190900e-04 -5.545588955283164978e-02 1.004532165825366974e-02 1.590748503804206848e-02 -1.123920548707246780e-02 -1.452352171327220276e-05 -4.094413947314023972e-03 -2.534007944632321596e-04 -4.849909618496894836e-02 -3.210599124431610107e-01 -1.354567823000252247e-03 2.678376156836748123e-03 9.399103000760078430e-03 -5.289078690111637115e-03 -1.287967562675476074e+00 -5.270143970847129822e-02 -9.108125232160091400e-03 4.195630550384521484e-02 5.889383610337972641e-04 5.666728611686266959e-05 2.670522034168243408e-02 -2.526268735527992249e-02 -7.012441637925803661e-04 -5.285996943712234497e-03 -3.007852006703615189e-03 -7.486506947316229343e-04 4.843074362725019455e-03 1.268584188073873520e-02 -7.295565307140350342e-02 -1.547334343194961548e-02 -1.244701538234949112e-02 -3.885769098997116089e-02 -1.144126534461975098e+00 -1.136507024057209492e-03 3.700507339090108871e-03 1.149094896391034126e-03 -1.007247343659400940e-01 -1.762734173098579049e-04 -1.278181007364764810e-04 5.617897026240825653e-03 2.934607618954032660e-04 -7.666236720979213715e-03 -5.206484347581863403e-02 2.682487294077873230e-02 -1.132636982947587967e-02 -1.518576871603727341e-02 1.407761126756668091e-03 -8.656358346343040466e-03 -1.425536815077066422e-03 2.246567979454994202e-03 2.072813920676708221e-03 -4.611543193459510803e-02 -6.749349832534790039e-02 -5.397247076034545898e-01 -2.773079904727637768e-05 -2.358976379036903381e-02 8.501191623508930206e-03 -6.131310481578111649e-03 -3.312429646030068398e-03 7.178453262895345688e-03 -5.136848893016576767e-03 -1.641610451042652130e-02 1.488350098952651024e-04 -3.693336620926856995e-04 -5.566406063735485077e-03 -2.359309606254100800e-02 -8.797788992524147034e-03 1.146110007539391518e-03 2.377663739025592804e-03 -6.511120009236037731e-04 -1.076044514775276184e-02 2.016349462792277336e-03 -9.082015603780746460e-03 -1.749039739370346069e-01 -3.587308805435895920e-03 9.985376149415969849e-03 -1.758949249051511288e-03 -2.154743112623691559e-02 -7.211800664663314819e-03 -6.105837821960449219e-01 7.118097692728042603e-02 -2.052795840427279472e-03 -8.070327341556549072e-03 -1.057470962405204773e-01 -7.910492829978466034e-03 9.902360849082469940e-03 -5.387536808848381042e-02 8.830623701214790344e-03 -1.138750836253166199e-01 4.698304459452629089e-03 1.286403238773345947e-01 -5.468914168886840343e-04 6.545416079461574554e-03 -1.975029945373535156e+00 8.558121626265347004e-04 -5.422213301062583923e-02 -2.265540184453129768e-03 1.989291748031973839e-03 2.410873770713806152e-02 7.078596390783786774e-03 -6.170029519125819206e-04 -2.858300805091857910e-01 1.042146235704421997e-03 -1.177169149741530418e-03 1.813343958929181099e-03 -2.620224608108401299e-03 -1.814969349652528763e-03 5.290301516652107239e-03 -1.240979954600334167e-01 1.490345341153442860e-03 -5.431915633380413055e-03 -3.947107121348381042e-02 3.680583555251359940e-03 1.906673610210418701e-02 -7.139711081981658936e-02 1.678750966675579548e-03 -1.723717468848917633e-05 -1.282008647918701172e+00 1.379773602820932865e-04 -1.478510200977325439e-01 -3.308845916762948036e-03 1.679251086898148060e-03 -1.435637386748567224e-04 -7.109021544456481934e-01 2.238415414467453957e-03 4.775424674153327942e-02 -9.811286926269531250e-01 1.419919542968273163e-03 -9.166384488344192505e-02 -4.005702212452888489e-03 -9.079756587743759155e-02 1.361918635666370392e-03 -8.798801572993397713e-04 -4.631414194591343403e-04 -5.447423458099365234e-02 -6.329019553959369659e-03 -4.800528753548860550e-03 -4.101712107658386230e-01 5.168547504581511021e-04 -1.097205519676208496e+00 -4.698181450366973877e-01 -3.457579389214515686e-02 -1.272876933217048645e-02 -2.061257371678948402e-03 -1.009072512388229370e-01 3.587047802284359932e-03 6.353219971060752869e-03 3.632004372775554657e-03 -2.962188422679901123e-02 -5.329434275627136230e-01 3.146243107039481401e-04 -3.523082658648490906e-02 -3.656334802508354187e-02 -5.029588937759399414e-03 -9.213027954101562500e-01 6.272979080677032471e-02 5.394194158725440502e-04 -5.762613145634531975e-04 -2.468462944030761719e+00 -6.099612638354301453e-02 -2.052438649116083980e-04 -3.919197991490364075e-02 2.055587479844689369e-03 -2.917687967419624329e-02 -2.211319468915462494e-02 -6.436329567804932594e-04 -5.465501174330711365e-02 1.329750008881092072e-02 -1.698721782304346561e-03 2.497101668268442154e-03 -1.285079400986433029e-03 5.439525842666625977e-02 1.257619354873895645e-03 -1.898908972740173340e+00 4.279104992747306824e-02 -2.636698191054165363e-04 -1.079438447952270508e+00 2.855314596672542393e-05 -4.636512696743011475e-01 -2.433436922729015350e-03 -2.346735298633575439e-01 -6.391468457877635956e-03 1.191254984587430954e-02 -9.741465561091899872e-03 -1.182899996638298035e-02 -4.109410941600799561e-02 -8.297929307445883751e-04 1.460779644548892975e-02 -2.032358432188630104e-03 1.735737780109047890e-03 -5.607357015833258629e-04 -6.889243959449231625e-04 4.083742969669401646e-04 1.883281022310256958e-02 4.837352316826581955e-03 -2.837484516203403473e-02 3.685184568166732788e-02 -2.165211364626884460e-03 -1.778776873834431171e-03 -3.277425887063145638e-03 2.699810639023780823e-02 -7.811108953319489956e-04 -1.387579645961523056e-02 -1.355184649582952261e-04 -1.100720651447772980e-02 -1.954129636287689209e-01 -1.103330496698617935e-02 -1.348639931529760361e-02 -8.080246858298778534e-03 1.226694876095280051e-04 1.696500694379210472e-04 -1.929518878459930420e-01 -4.862375929951667786e-02 -1.793819218873977661e-01 6.022049346938729286e-04 3.749631345272064209e-03 -7.903362275101244450e-04 -2.056982219219207764e-01 -1.287281193071976304e-04 5.839442019350826740e-04 -1.079806010238826275e-03 -8.868390694260597229e-03 -5.895063281059265137e-02 -1.036972925066947937e-02 3.248893888667225838e-03 5.373410508036613464e-02 -7.596430834382772446e-03 2.087104134261608124e-03 -2.488279016688466072e-03 5.329184234142303467e-03 -9.234221652150154114e-03 -1.295455731451511383e-02 -1.554830279201269150e-02 -5.384418368339538574e-02 -3.327192366123199463e-02 -2.201701980084180832e-03 -1.507157227024435997e-03 5.720668705180287361e-04 -9.362003766000270844e-03 -1.765407919883728027e-01 -8.801487274467945099e-04 1.825865183491259813e-05 -2.915184386074542999e-02 -4.495505094528198242e-01 1.912234351038932800e-03 -1.952628808794543147e-04 -1.425746560096740723e+00 -1.415244885720312595e-03 -1.640795320272445679e-01 -2.575669786892831326e-04 -2.364875972270965576e-01 -3.354644477367401123e-01 -2.162957377731800079e-02 3.786364803090691566e-03 -1.755995792336761951e-03 -5.818530917167663574e-03 5.084913223981857300e-03 -4.268161952495574951e-03 -9.188018157146871090e-04 1.475644530728459358e-03 -3.369513433426618576e-03 -4.971449375152587891e-01 -6.969253718852996826e-02 -1.153031289577484131e-01 -4.155608639121055603e-02 -1.175189204514026642e-02 -2.622582251206040382e-03 3.539671190083026886e-03 -4.913486838340759277e-01 -2.814521081745624542e-03 1.207820605486631393e-03 2.130151027813553810e-03 -4.664575681090354919e-03 -7.410057187080383301e-01 -7.997583597898483276e-04 9.553048585075885057e-05 2.181036584079265594e-02 5.650254897773265839e-03 -2.069538895739242435e-04 -2.763329073786735535e-03 -3.008021712303161621e-01 1.788303721696138382e-03 -5.491369869560003281e-03 -2.192431129515171051e-03 -3.293640213087201118e-03 -2.099785804748535156e+00 8.092849166132509708e-04 4.405825748108327389e-04 -6.458293795585632324e-01 -3.434548154473304749e-02 -1.348820165731012821e-03 -9.838031110120937228e-05 2.752774395048618317e-03 -3.624153789132833481e-03 1.180338952690362930e-02 -1.927090167999267578e+00 4.284039314370602369e-04 -5.948707694187760353e-04 -1.250780769623816013e-03 7.658646255731582642e-02 -4.888637736439704895e-02 -3.700812812894582748e-03 4.419749975204467773e-02 -1.998026156798005104e-03 -1.840624026954174042e-04 2.186322584748268127e-03 -8.944906294345855713e-03 4.087416920810937881e-03 2.912032883614301682e-03 -6.914910394698381424e-03 -6.380559410899877548e-03 3.414595127105712891e-02 4.539775662124156952e-03 -6.169602274894714355e-01 2.507570432499051094e-03 -3.402183577418327332e-02 -1.059516216628253460e-03 -6.043092533946037292e-02 -6.259493064135313034e-03 -3.430830687284469604e-02 9.318990632891654968e-03 8.985867607407271862e-04 -3.023932222276926041e-03 5.636771093122661114e-04 7.191651314496994019e-02 -2.818165160715579987e-02 -9.506820887327194214e-02 3.360799700021743774e-02 -6.263109445571899414e-01 -5.667082150466740131e-04 1.186942402273416519e-02 4.913120064884424210e-04 1.680908957496285439e-03 -9.451080560684204102e-01 4.468276165425777435e-04 -1.985094994306564331e-01 -1.057421416044235229e-02 2.075709169730544090e-03 1.627255231142044067e-02 -1.185862999409437180e-02 -2.530843717977404594e-03 -9.260542574338614941e-04 -2.079079393297433853e-03 -3.403646114747971296e-04 7.849912345409393311e-02 -9.290087968111038208e-03 -1.530280496808700264e-05 -6.666408153250813484e-04 3.516514552757143974e-04 -1.432272233068943024e-02 -2.533218823373317719e-02 -3.653007093816995621e-03 -4.409592598676681519e-03 -4.287483543157577515e-02 -3.593759238719940186e-02 3.352533327415585518e-03 -3.322620643302798271e-03 1.060110889375209808e-02 2.968312008306384087e-03 -2.042984247207641602e+00 4.297320730984210968e-03 -9.019534336403012276e-04 -1.168610081076622009e-01 3.197476267814636230e-03 1.568520441651344299e-03 -5.355952773243188858e-03 -3.140974044799804688e-01 -4.578273296356201172e-01 1.336645893752574921e-02 2.127302286680787802e-04 -5.920602083206176758e-01 2.527919597923755646e-02 -4.986744225025177002e-01 6.053502671420574188e-03 -6.520816823467612267e-04 -5.304723978042602539e-03 -3.445078153163194656e-03 -1.304361782968044281e-02 -1.418997198343276978e-01 -4.167691990733146667e-02 4.007882438600063324e-03 9.069191291928291321e-04 -1.535952556878328323e-02 -3.819243051111698151e-03 -1.862337440252304077e-01 -5.106061697006225586e-01 4.946540575474500656e-04 -1.310845613479614258e-01 -3.571219742298126221e-03 6.858774460852146149e-03 -2.040637470781803131e-02 1.593071792740374804e-04 -1.576841324567794800e-01 1.601434196345508099e-03 -4.544579237699508667e-02 2.488218597136437893e-04 1.360633410513401031e-03 -6.024948321282863617e-03 -4.088310059159994125e-03 5.128479097038507462e-03 1.591719128191471100e-02 -1.057275658240541816e-04 4.086222965270280838e-03 1.073994580656290054e-02 -1.526128053665161133e+00 -8.132795095443725586e-01 -1.496667973697185516e-03 -1.632866114377975464e-01 2.992772264406085014e-03 4.825359792448580265e-04 -4.020129144191741943e-01 -2.221482864115387201e-04 -2.015573205426335335e-03 -1.080261063179932535e-05 -7.890481501817703247e-03 -9.526680223643779755e-04 6.716290954500436783e-03 3.880291769746690989e-04 -9.766861796379089355e-03 -1.045936625450849533e-02 -1.861330238170921803e-03 -1.669634103775024414e+00 -6.641438603401184082e-02 -1.371069345623254776e-03 3.218933939933776855e-02 -1.107589248567819595e-02 -2.863947451114654541e-01 -7.576031237840652466e-02 -6.948167085647583008e-02 -4.156063310801982880e-03 -1.617551024537533522e-04 -4.458285402506589890e-03 -1.762722618877887726e-03 -1.084716841578483582e-01 2.779161332000512630e-05 -9.841226972639560699e-03 -3.860349999740719795e-03 6.030499935150146484e-03 5.133922095410525799e-04 -5.289188399910926819e-02 1.187177913379855454e-04 -1.383380847983062267e-03 -2.582894861698150635e-01 -1.965250819921493530e-03 -5.003498401492834091e-03 -1.481591537594795227e-02 -1.427548527717590332e+00 1.439426559954881668e-02 -8.937325328588485718e-04 1.980896294116973877e-02 4.905502311885356903e-03 -1.008656620979309082e+00 -6.026307344436645508e-01 -8.593064732849597931e-03 -1.424551606178283691e-01 -2.405666857957839966e-01 6.144197657704353333e-02 -2.306079026311635971e-03 -1.681301393546164036e-03 4.588997922837734222e-03 -6.027131341397762299e-03 -1.621697694063186646e-01 4.761308955494314432e-04 1.673562102951109409e-03 1.557233510538935661e-03 -1.119797956198453903e-02 -1.453723479062318802e-02 -9.866169653832912445e-03 -1.147719249129295349e-01 -1.065343379974365234e+00 -3.518786979839205742e-03 -3.574650734663009644e-02 -3.310963278636336327e-03 -3.033126518130302429e-02 -2.217608928680419922e+00 1.667034375714138150e-04 -1.963871419429779053e-01 -1.167134614661335945e-03 -5.450332071632146835e-03 -1.595568470656871796e-02 4.118622455280274153e-04 -6.294074002653360367e-03 -1.122866347432136536e-01 3.922264149878174067e-04 -4.206759333610534668e-01 -1.853686117101460695e-04 -1.193248387426137924e-02 8.208823204040527344e-02 1.690075499936938286e-03 -1.840427368879318237e-01 1.616493100300431252e-03 3.247977793216705322e-02 -1.198030710220336914e+00 2.865035831928253174e-02 -3.442772140260785818e-04 -2.273921621963381767e-03 -6.634537875652313232e-02 5.787285044789314270e-04 1.326149795204401016e-03 -4.326479393057525158e-05 2.043596759904175997e-04 -3.507471084594726562e-01 -2.511555850505828857e-01 -1.723351702094078064e-02 -1.210512399673461914e+00 -7.477990351617336273e-03 -6.014339625835418701e-02 -2.177805423736572266e+00 -2.525392174720764160e-02 6.127817905507981777e-04 2.266378607600927353e-03 -2.927882075309753418e-01 -2.076017297804355621e-02 -8.448167145252227783e-02 -1.105159282684326172e+00 5.771042034029960632e-02 7.670023012906312943e-03 -5.217452067881822586e-03 -4.347451962530612946e-03 -6.726240515708923340e-01 -3.123954869806766510e-03 7.812221348285675049e-02 -5.238610901869833469e-04 -3.229169920086860657e-02 -1.082413946278393269e-03 -2.649847231805324554e-02 -8.894141763448715210e-02 1.863938523456454277e-03 -1.090287696570158005e-02 4.566536098718643188e-02 -1.074597716331481934e+00 -1.778303459286689758e-02 -2.070321701467037201e-03 -2.754473593086004257e-03 -1.770639792084693909e-03 -2.016301965340971947e-03 -3.644342301413416862e-03 1.957988133653998375e-03 2.718442352488636971e-03 -6.833581626415252686e-02 7.844054489396512508e-04 7.209433242678642273e-04 -1.820257282815873623e-03 2.492724219337105751e-03 -8.192337118089199066e-03 -7.061391323804855347e-02 -6.848094984889030457e-03 7.489191833883523941e-03 -4.088441655039787292e-02 -6.051087402738630772e-04 1.779414713382720947e-03 -3.689992445288226008e-05 -5.121802687644958496e-01 -2.962060831487178802e-02 2.791187762340996414e-05 -6.009018048644065857e-03 -1.900333724915981293e-02 -2.491500414907932281e-02 -2.276662271469831467e-03 -1.629091799259185791e-03 4.020860418677330017e-02 -1.878822036087512970e-02 2.693343441933393478e-03 4.261581227183341980e-03 4.513804742600768805e-04 2.389309462159872055e-03 -1.482461229898035526e-04 -6.579152308404445648e-03 1.746303634718060493e-03 -2.324406988918781281e-03 -1.096891537308692932e-01 -1.992330327630043030e-02 -9.093940607272088528e-04 -7.875517010688781738e-03 5.239160964265465736e-04 2.200064947828650475e-03 -7.720530498772859573e-03 1.759527600370347500e-03 6.569615099579095840e-03 7.325809565372765064e-04 -5.872052162885665894e-02 3.892479464411735535e-03 -8.100478589767590165e-05 -1.408956246450543404e-03 8.539132541045546532e-04 -6.950963288545608521e-02 -3.987682866863906384e-04
3.258394822478294373e-02 8.267700672149658203e-01 2.114623552188277245e-03 5.824024081230163574e-01 5.310268402099609375e-01 6.456132531166076660e-01 7.734225988388061523e-01 5.528856515884399414e-01 5.352326035499572754e-01 2.137362658977508545e-01 7.761226296424865723e-01 -1.002021878957748413e-01 3.668100535869598389e-01 2.706612944602966309e-01 1.979472786188125610e-01 7.857540845870971680e-01 8.149480819702148438e-01 2.008719556033611298e-02 6.396782994270324707e-01 6.617169976234436035e-01 9.734097123146057129e-01 1.627921164035797119e-01 4.917905032634735107e-01 -3.649298548698425293e-01 7.929977774620056152e-01 1.121626645326614380e-01 4.444479644298553467e-01 3.406279385089874268e-01 -2.813521623611450195e-01 2.042295932769775391e-01 2.259272038936614990e-01 9.419307112693786621e-01 3.896286189556121826e-01 1.864099949598312378e-01 1.789119988679885864e-01 4.315320253372192383e-01 -7.419838011264801025e-02 6.015847325325012207e-01 5.159502625465393066e-01 6.611390709877014160e-01 7.069095969200134277e-01 8.647001981735229492e-01 5.964077711105346680e-01 2.860092371702194214e-02 8.014062643051147461e-01 -1.023747920989990234e-01 6.541559845209121704e-02 3.153914213180541992e-01 8.765867352485656738e-01 8.346241116523742676e-01 7.412465810775756836e-01 4.518845081329345703e-01 4.995926916599273682e-01 -4.273885190486907959e-01 -3.996519148349761963e-01 8.696349263191223145e-01 4.069753885269165039e-01 5.970295071601867676e-01 5.200101137161254883e-01 4.045972526073455811e-01 2.106641530990600586e-01 8.840662837028503418e-01 2.819665074348449707e-01 8.082833886146545410e-01 6.336176395416259766e-01 5.942253470420837402e-01 6.082854419946670532e-02 5.935906767845153809e-01 3.567884266376495361e-01 1.035274416208267212e-01 4.582801461219787598e-01 3.809562921524047852e-01 9.007049798965454102e-01 9.788310527801513672e-01 -2.982791066169738770e-01 8.748722076416015625e-01 1.837877482175827026e-01 9.180147647857666016e-01 9.322009086608886719e-01 4.706035256385803223e-01 9.012499451637268066e-01 7.370241880416870117e-01 8.789975643157958984e-01 1.242671683430671692e-01 9.853656291961669922e-01 1.200816705822944641e-01 7.448533177375793457e-01 5.684382319450378418e-01 8.264818191528320312e-01 2.684432864189147949e-01 4.681845307350158691e-01 5.210094451904296875e-01 1.228595599532127380e-01 -4.775457382202148438e-01 4.011629819869995117e-01 -3.254835307598114014e-02 2.321617454290390015e-01 8.695235252380371094e-01 8.071691989898681641e-01 9.898524731397628784e-02 8.382446765899658203e-01 8.983186483383178711e-01 -6.444380283355712891e-01 7.832506895065307617e-01 9.600296616554260254e-01 1.582712829113006592e-01 6.722846627235412598e-01 2.953193485736846924e-01 -4.879114031791687012e-01 2.638745307922363281e-01 8.290942907333374023e-01 2.427802234888076782e-01 8.472342044115066528e-02 1.074417009949684143e-01 7.272772789001464844e-01 7.644339799880981445e-01 -2.647798061370849609e-01 8.436761498451232910e-01 9.741637110710144043e-01 3.457813858985900879e-01 6.826817058026790619e-03 7.985487580299377441e-01 4.286853671073913574e-01 4.124434664845466614e-03 -5.378878116607666016e-01 8.516445755958557129e-01 9.449710845947265625e-01 4.227439463138580322e-01 3.983059823513031006e-01 3.137622177600860596e-01 9.577016830444335938e-01 6.414582133293151855e-01 2.487219125032424927e-01 -5.262568593025207520e-01 -5.857981443405151367e-01 7.526875138282775879e-01 -1.335740238428115845e-01 -3.172871768474578857e-01 8.980351090431213379e-01 9.515032768249511719e-01 9.035750627517700195e-01 1.403906345367431641e-01 7.730872631072998047e-01 7.654798626899719238e-01 9.327460527420043945e-01 5.290182232856750488e-01 8.965587615966796875e-01 -1.069818716496229172e-02 -2.437382005155086517e-02 9.575625509023666382e-02 2.536170780658721924e-01 9.277104735374450684e-01 6.856827735900878906e-01 5.316885113716125488e-01 2.825101613998413086e-01 5.990325286984443665e-02 3.017789423465728760e-01 3.971795141696929932e-01 4.001243114471435547e-01 8.220871686935424805e-01 7.984448671340942383e-01 4.154688715934753418e-01 6.306290030479431152e-01 5.960541367530822754e-01 4.282076060771942139e-01 6.444840133190155029e-02 5.846174359321594238e-01 -1.641307771205902100e-02 3.702869117259979248e-01 2.447120845317840576e-01 5.039247870445251465e-01 3.153478801250457764e-01 5.430938005447387695e-01 7.362573146820068359e-01 8.000012636184692383e-01 5.750642418861389160e-01 3.899721205234527588e-01 6.251336336135864258e-01 1.025747418403625488e+00 7.814036011695861816e-01 9.649880528450012207e-01 1.138564795255661011e-01 5.534235239028930664e-01 -5.966760516166687012e-01 -4.706560373306274414e-01 7.697586417198181152e-01 -7.192360758781433105e-01 5.878210067749023438e-01 2.502795159816741943e-01 7.620201110839843750e-01 9.253138899803161621e-01 9.931471943855285645e-01 -2.539416849613189697e-01 3.705715239048004150e-01 6.802743077278137207e-01 9.580147862434387207e-01 5.088712573051452637e-01 2.085622251033782959e-01 9.244816303253173828e-01 6.938280910253524780e-02 8.387427330017089844e-01 4.186075627803802490e-01 -1.395796239376068115e-02 8.594180941581726074e-01 3.577127754688262939e-01 -3.651924803853034973e-02 2.494366765022277832e-01 4.791150391101837158e-01 4.614982008934020996e-01 -4.770523607730865479e-01 3.399014472961425781e-01 -6.911565661430358887e-01 2.791627943515777588e-01 8.604531884193420410e-01 7.384237051010131836e-01 6.619098186492919922e-01 1.345102339982986450e-01 3.515033423900604248e-02 2.211658507585525513e-01 5.419791936874389648e-01 8.985926508903503418e-01 9.266718477010726929e-02 6.146656870841979980e-01 6.820592284202575684e-01 9.463905096054077148e-01 7.416006177663803101e-02 -2.212950289249420166e-01 -1.534182280302047729e-01 2.389965802431106567e-01 -1.354500353336334229e-01 6.104050874710083008e-01 6.134415864944458008e-01 1.615128070116043091e-01 -1.512669324874877930e-01 9.497405290603637695e-01 -7.720218300819396973e-01 3.694956898689270020e-01 6.013826131820678711e-01 4.232360720634460449e-01 8.230041861534118652e-01 7.588946223258972168e-01 1.418853551149368286e-01 7.458995580673217773e-01 4.316332638263702393e-01 3.471979200839996338e-01 4.895511567592620850e-01 8.726323843002319336e-01 4.507129788398742676e-01 7.903791666030883789e-01 2.919379770755767822e-01 7.997284829616546631e-02 -1.150305103510618210e-02 5.027353763580322266e-01 1.111102178692817688e-01 5.492255836725234985e-02 8.005341887474060059e-01 6.259337067604064941e-01 8.382750153541564941e-01 9.423237442970275879e-01 1.509156972169876099e-01 3.274547457695007324e-01 7.250688076019287109e-01 2.537465095520019531e-01 5.501262098550796509e-02 1.999602019786834717e-01 1.571258753538131714e-01 6.212246417999267578e-01 -4.730640649795532227e-01 8.639519214630126953e-01 2.368193268775939941e-01 3.394922614097595215e-01 6.092287302017211914e-01 5.636866092681884766e-01 8.097915053367614746e-01 4.416043162345886230e-01 1.103764697909355164e-01 -6.482339501380920410e-01 -2.158308625221252441e-01 6.546462774276733398e-01 4.449231624603271484e-01 9.107815027236938477e-01 2.632339596748352051e-01 7.744532823562622070e-01 9.878863096237182617e-01 1.302006188780069351e-02 1.210042238235473633e-01 -6.217251420021057129e-01 5.560696125030517578e-01 1.433485299348831177e-01 6.004014611244201660e-01 7.084724307060241699e-01 5.872664451599121094e-01 -2.245034836232662201e-02 8.143993616104125977e-01 4.203813076019287109e-01 3.242938220500946045e-01 5.634740591049194336e-01 6.974843144416809082e-01 1.173274517059326172e-01 7.169289886951446533e-02 2.022331953048706055e-01 4.781465530395507812e-01 4.568031728267669678e-01 5.151759386062622070e-01 4.234378635883331299e-01 9.477096796035766602e-01 4.466119110584259033e-01 1.268180310726165771e-01 4.002104103565216064e-01 1.323658972978591919e-01 6.443985104560852051e-01 6.893514394760131836e-01 8.390142917633056641e-01 1.977223157882690430e-01 2.240591198205947876e-01 4.688650071620941162e-01 6.041733622550964355e-01 8.878855109214782715e-01 6.330244541168212891e-01 5.392781496047973633e-01 2.398918718099594116e-01 4.443274140357971191e-01 7.121719717979431152e-01 8.463518694043159485e-03 6.352766752243041992e-01 5.399970412254333496e-01 1.514680385589599609e-01 6.987578868865966797e-01 3.224155306816101074e-01 3.486979603767395020e-01 7.252078056335449219e-01 5.624188780784606934e-01 7.281906604766845703e-01 -6.778424978256225586e-01 9.182474017143249512e-02 -4.894112050533294678e-01 5.543400049209594727e-01 9.888060092926025391e-01 -3.853969871997833252e-01 4.932523071765899658e-01 5.719235539436340332e-01 3.901827633380889893e-01 2.207372188568115234e-01 5.147767066955566406e-01 9.248955845832824707e-01 2.505879998207092285e-01 -3.415660858154296875e-01 -5.686107873916625977e-01 5.340893864631652832e-01 5.181786417961120605e-01 2.266232222318649292e-01 1.189050450921058655e-01 4.878184795379638672e-01 2.439456880092620850e-01 3.958955407142639160e-01 9.919390082359313965e-03 6.613957881927490234e-01 2.873755991458892822e-01 3.525678217411041260e-01 9.009703397750854492e-01 4.016701877117156982e-01 5.305486321449279785e-01 3.994368910789489746e-01 -6.622207760810852051e-01 7.306375503540039062e-01 6.055890321731567383e-01 8.780156970024108887e-01 1.475317925214767456e-01 1.321385800838470459e-01 5.425751209259033203e-01 9.641929864883422852e-01 9.409527182579040527e-01 4.060125648975372314e-01 -1.016813609749078751e-02 -3.006728887557983398e-01 8.753412961959838867e-01 3.423054814338684082e-01 3.017109930515289307e-01 2.943615317344665527e-01 2.889981120824813843e-02 3.519741892814636230e-01 8.336939811706542969e-01 7.050124406814575195e-01 4.461238384246826172e-01 5.253205895423889160e-01 5.644969344139099121e-01 5.553510785102844238e-01 9.156712889671325684e-01 -7.230417132377624512e-01 7.954135537147521973e-01 6.488856077194213867e-01 5.078590512275695801e-01 1.012268587946891785e-01 -5.959113240242004395e-01 8.744646906852722168e-01 5.631503462791442871e-01 -9.137517213821411133e-02 -5.528490291908383369e-04 4.913064837455749512e-01 1.007541656494140625e+00 5.059271454811096191e-01 6.989447474479675293e-01 5.886740982532501221e-02 5.981313586235046387e-01 1.238565966486930847e-01 5.617942810058593750e-01 6.940911412239074707e-01 7.159285247325897217e-02 6.173884272575378418e-01 1.276662498712539673e-01 9.982795119285583496e-01 -5.348652601242065430e-02 5.397799015045166016e-01 8.698680400848388672e-01 6.642206311225891113e-01 7.564273476600646973e-02 2.231066077947616577e-01 6.487013697624206543e-01 9.971976280212402344e-01 8.650782704353332520e-01 4.833140075206756592e-01 8.548274040222167969e-01 -3.911157548427581787e-01 8.444995880126953125e-01 9.626923799514770508e-01 9.176555275917053223e-02 5.670353174209594727e-01 -6.259531378746032715e-01 6.667552590370178223e-01 1.098176836967468262e-01 1.004521176218986511e-02 7.186400294303894043e-01 3.298570215702056885e-01 5.794245600700378418e-01 6.618116497993469238e-01 1.098610907793045044e-01 6.641941666603088379e-01 5.972847938537597656e-01 7.990941405296325684e-02 2.517361938953399658e-01 4.119201600551605225e-01 3.503647446632385254e-01 3.558483347296714783e-02 2.981361150741577148e-01 2.016635090112686157e-01 -3.654403388500213623e-01 3.526243567466735840e-01 1.247582063078880310e-01 8.740530014038085938e-01 2.310869991779327393e-01 8.955619931221008301e-01 2.923681735992431641e-01 5.698329806327819824e-01 9.267489314079284668e-01 1.187020838260650635e-01 3.373078703880310059e-01 6.195514798164367676e-01 1.361201852560043335e-01 1.019319668412208557e-01 8.166188597679138184e-01 1.644872575998306274e-01 7.077558040618896484e-01 5.641486048698425293e-01 2.466897219419479370e-01 2.204809486865997314e-01 1.449440605938434601e-02 -4.385200440883636475e-01 1.002529978752136230e+00 1.774805635213851929e-01 3.640650212764739990e-01 1.097656607627868652e+00 3.022966980934143066e-01 3.833566606044769287e-01 7.880401611328125000e-01 8.273040652275085449e-01 9.697194695472717285e-01 4.869547486305236816e-01 8.752986788749694824e-01 7.411984205245971680e-01 2.244369983673095703e-01 9.395591616630554199e-01 5.820495486259460449e-01 9.332370758056640625e-02 9.474709630012512207e-01 9.110484719276428223e-01 -2.290942519903182983e-02 2.764879465103149414e-01 6.062000393867492676e-01 7.835265398025512695e-01 8.785192370414733887e-01 3.606082201004028320e-01 7.492089271545410156e-01 -4.326673448085784912e-01 9.479618072509765625e-02 4.539495110511779785e-01 3.352051973342895508e-01 3.100715577602386475e-01 2.210191786289215088e-01 2.625571191310882568e-01 4.960230588912963867e-01 7.065395116806030273e-01 6.387566328048706055e-01 6.610308885574340820e-01 4.573454260826110840e-01 7.359589338302612305e-01 6.703844070434570312e-01 -4.835335016250610352e-01 7.143380045890808105e-01 6.154480576515197754e-01 1.426189113408327103e-02 6.295629143714904785e-01 4.325036704540252686e-01 5.228350162506103516e-01 9.516918063163757324e-01 -2.754195332527160645e-01 7.415032982826232910e-01 4.399936199188232422e-01 8.431258201599121094e-01 1.146313995122909546e-01 1.136892661452293396e-01 1.601175963878631592e-01 2.331317067146301270e-01 6.695934534072875977e-01 9.818259477615356445e-01 2.325917184352874756e-01 6.320620179176330566e-01 8.076260685920715332e-01 5.683961138129234314e-02 1.630343943834304810e-01 9.769855141639709473e-01 -4.996522068977355957e-01 5.289812684059143066e-01 5.443485379219055176e-01 2.369150891900062561e-02 6.325704455375671387e-01 9.674326777458190918e-01 -3.806791007518768311e-01 4.326951503753662109e-01 2.783366143703460693e-01 -3.964423239231109619e-01 7.088267207145690918e-01 4.674298465251922607e-01 1.151935309171676636e-01 4.662397131323814392e-02 4.953083992004394531e-01 8.679414987564086914e-01 9.174230694770812988e-01 1.137193739414215088e-01 7.483208775520324707e-01 5.443782359361648560e-02 -3.659992218017578125e-01 7.096022367477416992e-01 -6.324126124382019043e-01 -5.058854818344116211e-01 2.045067101716995239e-01 6.504694819450378418e-01 4.634961187839508057e-01 1.370688974857330322e-01 1.053471416234970093e-01 3.272709250450134277e-01 1.440751701593399048e-01 8.847133517265319824e-01 -3.791415095329284668e-01 8.270767331123352051e-01 3.615487515926361084e-01 6.342099905014038086e-01 2.868873476982116699e-01 -5.507637858390808105e-01 5.023153424263000488e-01 7.507840991020202637e-01 8.985533118247985840e-01 -6.771895885467529297e-01 5.568261742591857910e-01 8.465078473091125488e-01 1.039636582136154175e-01 2.026576846837997437e-01 7.075349688529968262e-01 6.263428926467895508e-01 8.601167798042297363e-01 2.739387154579162598e-01 6.427833437919616699e-01 7.592014074325561523e-01 6.758688688278198242e-01 9.326681494712829590e-01 1.692357659339904785e-01 2.680077552795410156e-01 -5.490645170211791992e-01 7.510874867439270020e-01 9.352484345436096191e-01 -7.083749175071716309e-01 1.014192923903465271e-01 -4.305782020092010498e-01 9.075906872749328613e-01 4.129582941532135010e-01 4.671086668968200684e-01 5.433320999145507812e-02 2.703647129237651825e-02 4.425514042377471924e-01 5.188334584236145020e-01 5.269249677658081055e-01 5.620667934417724609e-01 2.784608006477355957e-01 2.784935832023620605e-01 6.608011126518249512e-01 9.117771983146667480e-01 9.311776161193847656e-01 4.904177784919738770e-01 7.467433214187622070e-01 3.899985551834106445e-01 6.817916035652160645e-01 8.445342779159545898e-01 6.759849786758422852e-01 7.841245532035827637e-01 7.149839401245117188e-02 2.706156671047210693e-01 5.880695581436157227e-01 5.401907563209533691e-01 8.139128088951110840e-01 8.291489630937576294e-02 5.688546299934387207e-01 3.555890619754791260e-01 9.323770403861999512e-01 6.750174760818481445e-01 9.911894202232360840e-01 3.185225129127502441e-01 4.198037087917327881e-01 1.728525757789611816e-02 9.426484107971191406e-01 2.175531536340713501e-01 5.351575836539268494e-02 7.334362715482711792e-02 9.807112216949462891e-01 8.455015420913696289e-01 6.148760318756103516e-01 5.637816786766052246e-01 6.197038888931274414e-01 3.370726108551025391e-01 2.167607843875885010e-01 1.707063429057598114e-02 5.309665575623512268e-02 6.670979857444763184e-01 7.642773985862731934e-01 8.719036728143692017e-02 6.428011059761047363e-01 9.102223515510559082e-01 5.512460470199584961e-01 -7.376741617918014526e-02 2.399801760911941528e-01 3.037221133708953857e-01 3.831939101219177246e-01 4.837633967399597168e-01 1.629718840122222900e-01 5.379656553268432617e-01 8.766691684722900391e-01 7.007787823677062988e-01 3.802726864814758301e-01 -2.493886649608612061e-01 7.448676228523254395e-01 9.817165136337280273e-01 -5.602533817291259766e-01 4.198784828186035156e-01 -5.730584263801574707e-02 5.666299462318420410e-01 2.032044380903244019e-01 -2.577621638774871826e-01 2.596473693847656250e-01 3.237805068492889404e-01 5.312151312828063965e-01 5.257049798965454102e-01 3.750156462192535400e-01 4.128692746162414551e-01 1.203685179352760315e-01 8.659528493881225586e-01 4.685346186161041260e-01 1.569794535636901855e+00 4.172756075859069824e-01 4.829517900943756104e-01 5.233147144317626953e-01 9.335053712129592896e-02 4.933660626411437988e-01 2.821529507637023926e-01 -3.839979469776153564e-01 2.556046247482299805e-01 7.559988498687744141e-01 6.171993017196655273e-01 8.413676023483276367e-01 -3.020361661911010742e-01 7.689688801765441895e-01 9.860859513282775879e-01 4.538893401622772217e-01 6.065439432859420776e-02 8.509098887443542480e-01 7.931426167488098145e-01 -2.789267301559448242e-01 1.937282234430313110e-01 9.315811395645141602e-01 4.924115836620330811e-01 2.654455006122589111e-01 -5.516403913497924805e-01 4.442184269428253174e-01 6.617032885551452637e-01 -3.879092931747436523e-01 1.933726221323013306e-01 2.600018084049224854e-01 4.710849523544311523e-01 7.890669703483581543e-01 5.167249441146850586e-01 7.910807132720947266e-01 -5.801178216934204102e-01 9.271600842475891113e-01 5.424469709396362305e-01 8.310860991477966309e-01 1.492360979318618774e-01 7.098716497421264648e-01 5.756875872611999512e-01 4.332554340362548828e-01 5.553125143051147461e-01 8.935776948928833008e-01 6.975052952766418457e-01 4.860226511955261230e-01 7.919968664646148682e-02 1.925362497568130493e-01 5.810654163360595703e-01 1.618399471044540405e-01 2.976562082767486572e-02 7.580056190490722656e-01 -3.891899287700653076e-01 8.814101815223693848e-01 3.373817205429077148e-01 1.666465587913990021e-02 9.413111209869384766e-01 7.291892170906066895e-01 3.490684926509857178e-01 5.374000668525695801e-01 8.685308694839477539e-01 6.324703097343444824e-01 6.305078268051147461e-01 3.133403360843658447e-01 6.052429676055908203e-01 -1.027135699987411499e-01 6.309515833854675293e-01 -5.363025069236755371e-01 5.374682545661926270e-01 3.695515394210815430e-01 2.999039292335510254e-01 3.452489152550697327e-02 -4.497427940368652344e-01 9.154945015907287598e-01 -2.187719792127609253e-01 8.395655155181884766e-01 6.104658842086791992e-01 6.908484697341918945e-01 9.487664103507995605e-01 2.383932769298553467e-01 3.927185833454132080e-01 6.915925741195678711e-01 7.808633446693420410e-01 1.404560804367065430e-01 4.023791253566741943e-01 9.661797881126403809e-01 7.502359151840209961e-01 9.521156549453735352e-01 3.961971402168273926e-01 8.129502534866333008e-01 6.164269447326660156e-01 1.215676427818834782e-03 2.581678032875061035e-01 6.800363063812255859e-01 6.727902591228485107e-02 5.848676562309265137e-01 4.648157358169555664e-01 1.756932288408279419e-01 -5.988510847091674805e-01 3.333806097507476807e-01 9.999454021453857422e-01 -1.767053306102752686e-01 8.150537014007568359e-01 5.951556563377380371e-01 2.639296352863311768e-01 1.499918699264526367e-01 -3.405311107635498047e-01 4.117011427879333496e-01 9.571813344955444336e-01 -1.068428531289100647e-01 2.232973873615264893e-01 -2.289704978466033936e-01 3.469050526618957520e-01 2.758340537548065186e-01 1.401198357343673706e-01 8.104295134544372559e-01 7.679648995399475098e-01 4.200403764843940735e-02 4.975772500038146973e-01 6.958835124969482422e-01 8.624287247657775879e-01 9.308398962020874023e-01 2.969924807548522949e-01 -5.510364845395088196e-02 -5.000129938125610352e-01 1.282753199338912964e-01 2.356601506471633911e-01 1.941379904747009277e-01 3.154314160346984863e-01 5.482320189476013184e-01 9.558430910110473633e-01 4.209188520908355713e-01 2.173854410648345947e-01 1.800850331783294678e-01 9.065129160881042480e-01 7.729288339614868164e-01 4.991444759070873260e-03 5.774696469306945801e-01 6.733123064041137695e-01 1.411493271589279175e-01 9.640501141548156738e-01 2.352474182844161987e-01 4.151922166347503662e-01 -5.305396914482116699e-01 -5.183147192001342773e-01 9.381930232048034668e-01 -2.836673557758331299e-01 4.208162724971771240e-01 6.952067613601684570e-01 -2.042855322360992432e-01 8.837561011314392090e-01 2.771041691303253174e-01 9.882536530494689941e-01 6.155858635902404785e-01 5.442783236503601074e-01 3.172908723354339600e-01 7.656077742576599121e-01 3.520343303680419922e-01 8.558014035224914551e-01 6.384827196598052979e-02 -5.079644918441772461e-01 1.060122698545455933e-01 5.450049042701721191e-01 3.929709494113922119e-01 6.160248517990112305e-01 -2.001579701900482178e-01 1.584304571151733398e-01 2.273794114589691162e-01 9.139284491539001465e-01 9.856787919998168945e-01 5.971907377243041992e-01 6.726699471473693848e-01 2.757473289966583252e-01 9.820521473884582520e-01 2.266725599765777588e-01 4.327626228332519531e-01 4.552510678768157959e-01 2.629864811897277832e-01 2.466186285018920898e-01 8.875983953475952148e-01 7.559754252433776855e-01 1.383644342422485352e-01 5.238825082778930664e-01 2.671783566474914551e-01 7.655919194221496582e-01 -5.427900552749633789e-01 6.586648821830749512e-01 4.959879815578460693e-01 3.058022558689117432e-01 2.134619653224945068e-01 -3.194286823272705078e-01 -4.474605619907379150e-01 3.539121747016906738e-01 5.364936962723731995e-02 4.695762693881988525e-01 5.355535745620727539e-01 2.452481687068939209e-01 3.336136043071746826e-01 6.937356591224670410e-01 6.029462814331054688e-01 1.681516617536544800e-01 1.598287932574748993e-02 6.637465953826904297e-02 1.603339463472366333e-01 7.865972518920898438e-01 5.158475637435913086e-01 4.749645590782165527e-01 4.555597901344299316e-01 -4.760899245738983154e-01 1.671194136142730713e-01 2.662458717823028564e-01 3.494794070720672607e-01 2.102970033884048462e-01 -6.483144164085388184e-01 -2.209815429523587227e-03 2.321899123489856720e-02 8.382840156555175781e-01 7.779227942228317261e-02 7.534633874893188477e-01 9.611939787864685059e-01 1.943190544843673706e-01 3.109397888183593750e-01 8.849983811378479004e-01 -8.434546738862991333e-02 5.944957733154296875e-01 8.861870169639587402e-01 -2.853500656783580780e-02 2.700651586055755615e-01 7.840812206268310547e-02 2.652941048145294189e-01 1.049055606126785278e-01 -5.849190354347229004e-01 5.488992929458618164e-01 5.834227800369262695e-01 8.272559046745300293e-01 6.249227523803710938e-01 7.366243004798889160e-01 1.353140920400619507e-01 9.976351857185363770e-01 9.687984585762023926e-01 -4.863980710506439209e-01 3.354855626821517944e-02 8.042576909065246582e-01 -6.762711405754089355e-01 6.449725478887557983e-02 3.554455041885375977e-01 -5.289814472198486328e-01 2.432930767536163330e-01 4.886423647403717041e-01 3.351773321628570557e-01 3.004905581474304199e-01 4.168576896190643311e-01 1.528387069702148438e-01 -6.809379458427429199e-01 7.487666606903076172e-01 4.094704985618591309e-02 6.245365738868713379e-01 9.718737751245498657e-02 -2.777301073074340820e-01 6.761776804924011230e-01 5.258448719978332520e-01 2.977663874626159668e-01 3.427451550960540771e-01 3.214463293552398682e-01 1.335139479488134384e-02 3.613154292106628418e-01 5.289185643196105957e-01 8.441625237464904785e-01 1.483712643384933472e-01 -3.374105095863342285e-01 8.764243125915527344e-01 1.945877969264984131e-01 9.205886721611022949e-01 1.476765871047973633e-01 3.382942080497741699e-01 9.054383039474487305e-01 5.637016296386718750e-01 7.705451250076293945e-01 3.106827437877655029e-01 9.029173254966735840e-01 5.458288788795471191e-01 4.369832202792167664e-02 6.476989388465881348e-01 8.938037157058715820e-01 5.222314596176147461e-01 1.128615960478782654e-01 8.786274194717407227e-01 6.297090649604797363e-01 7.031385302543640137e-01 6.917067170143127441e-01 9.960584640502929688e-01 -1.891206651926040649e-01 7.485254406929016113e-01 9.042032361030578613e-01 1.880185753107070923e-01 1.175180673599243164e-01 4.052332341670989990e-01 4.359056949615478516e-01 3.770766854286193848e-01 4.963480234146118164e-01 6.639924645423889160e-01 2.409910410642623901e-01 9.004721641540527344e-01 5.809032320976257324e-01 1.282096058130264282e-01 4.152421951293945312e-01 9.178804606199264526e-02 7.506789565086364746e-01 7.926411032676696777e-01 2.876591682434082031e-01 3.616640269756317139e-01 5.369480848312377930e-01 2.336771786212921143e-01 2.178087681531906128e-01 1.526724249124526978e-01 7.141017317771911621e-01 9.207016974687576294e-02 5.267837047576904297e-01 6.437675356864929199e-01 7.574557662010192871e-01 5.960962772369384766e-01 9.720040559768676758e-01 2.325564622879028320e-01 4.200704395771026611e-01 4.312752559781074524e-02 6.822631955146789551e-01
3.715417385101318359e+00 4.557729721069335938e+00 9.664160013198852539e-01 4.734680652618408203e+00 3.711472034454345703e+00 2.245159626007080078e+00 1.589502692222595215e+00 3.978273272514343262e-01 2.960761785507202148e+00 1.065551996231079102e+00 9.318786859512329102e-01 2.708511352539062500e+00 2.233690738677978516e+00 3.792390823364257812e+00 3.842138051986694336e+00 4.046459197998046875e+00 1.733573675155639648e+00 2.167039394378662109e+00 4.895573854446411133e-01 1.640285253524780273e+00 1.218835115432739258e+00 4.467048645019531250e+00 1.567227542400360107e-01 2.620363235473632812e+00 3.729401826858520508e+00 2.180591821670532227e-01 4.924835681915283203e+00 2.625272274017333984e+00 2.643949031829833984e+00 4.901707172393798828e+00 3.873756408691406250e+00 3.905372142791748047e+00 2.588501453399658203e+00 7.112818956375122070e-01 1.696267724037170410e+00 3.081740140914916992e+00 1.638402223587036133e+00 1.436656117439270020e+00 3.064738512039184570e+00 5.760757923126220703e-01 3.781055212020874023e+00 2.862774848937988281e+00 1.689145565032958984e+00 1.236079216003417969e+00 1.222034320235252380e-01 3.523149490356445312e+00 4.262575149536132812e+00 4.234065055847167969e+00 4.895664215087890625e+00 3.996925354003906250e+00 1.013132929801940918e+00 3.574595749378204346e-01 2.775492668151855469e+00 4.034176349639892578e+00 6.637375354766845703e-01 2.046508193016052246e-01 9.406910538673400879e-01 4.107485771179199219e+00 2.057234764099121094e+00 3.898665428161621094e+00 3.201620101928710938e+00 2.687152028083801270e-01 4.699492454528808594e+00 3.071150302886962891e+00 1.304962635040283203e+00 1.720878481864929199e+00 4.517539501190185547e+00 2.594618082046508789e+00 6.031906604766845703e-01 4.560514450073242188e+00 2.505443572998046875e+00 3.065135002136230469e+00 2.469793558120727539e+00 1.104480981826782227e+00 3.816146373748779297e+00 3.224673748016357422e+00 2.538157701492309570e+00 4.727866172790527344e+00 2.764580726623535156e+00 2.593980312347412109e+00 4.952452182769775391e+00 3.586276054382324219e+00 3.958265781402587891e+00 1.300092339515686035e+00 2.066836357116699219e+00 1.511849164962768555e+00 3.574892997741699219e+00 1.633167266845703125e+00 4.007423400878906250e+00 4.266881465911865234e+00 2.538691759109497070e+00 4.599015712738037109e+00 4.852726459503173828e+00 2.391277551651000977e+00 3.941988945007324219e+00 4.267120838165283203e+00 1.184667348861694336e+00 2.607592344284057617e+00 1.755860447883605957e+00 3.431965827941894531e+00 4.114201068878173828e+00 1.137326955795288086e+00 1.118523478507995605e+00 4.580526828765869141e+00 1.710883975028991699e+00 2.760990858078002930e+00 2.232232093811035156e+00 2.976736545562744141e+00 6.325903534889221191e-01 3.269577026367187500e+00 3.588436126708984375e+00 2.912207506597042084e-02 9.310323596000671387e-01 3.110810518264770508e+00 3.414284288883209229e-01 3.249082565307617188e+00 3.297089576721191406e+00 3.369590759277343750e+00 4.329473495483398438e+00 1.029099822044372559e+00 1.243711233139038086e+00 1.306110024452209473e+00 3.675389766693115234e+00 2.614183425903320312e+00 4.093956947326660156e+00 4.963446617126464844e+00 2.354828834533691406e+00 4.678821563720703125e+00 1.372011303901672363e+00 2.490519285202026367e+00 3.935813903808593750e+00 3.474336862564086914e+00 4.367808818817138672e+00 3.361832141876220703e+00 1.800384521484375000e-01 2.337868690490722656e+00 3.086519718170166016e+00 1.051655769348144531e+00 1.617621183395385742e+00 9.807181358337402344e-01 1.944854259490966797e+00 2.160358428955078125e+00 2.025466442108154297e+00 3.291180610656738281e+00 4.003286361694335938e+00 2.384425401687622070e+00 2.637773752212524414e+00 2.049268037080764771e-01 3.148066043853759766e+00 2.740237712860107422e+00 4.636233329772949219e+00 3.495504379272460938e+00 1.028513312339782715e+00 2.531669139862060547e+00 4.367767333984375000e+00 1.921459436416625977e+00 6.505241245031356812e-02 1.041779160499572754e+00 3.246446847915649414e+00 2.715464830398559570e+00 4.562580585479736328e+00 2.935916900634765625e+00 3.118183612823486328e+00 2.967359542846679688e+00 6.644178032875061035e-01 9.658695757389068604e-02 3.983175754547119141e+00 3.927104949951171875e+00 1.635594964027404785e+00 4.275885224342346191e-01 1.020434021949768066e+00 1.005713820457458496e+00 6.638073921203613281e-01 3.890905380249023438e+00 3.600030422210693359e+00 9.624987840652465820e-01 3.424585342407226562e+00 7.899725437164306641e-02 7.654774785041809082e-01 1.077734231948852539e+00 1.108926534652709961e+00 3.302917003631591797e+00 1.009078145027160645e+00 4.935354709625244141e+00 3.367036819458007812e+00 1.176624536514282227e+00 1.356631994247436523e+00 4.150560379028320312e+00 3.873413801193237305e-01 8.595860004425048828e-01 2.005807161331176758e+00 9.866499900817871094e-01 1.564509980380535126e-02 5.172312259674072266e-01 1.184810996055603027e+00 2.808766365051269531e+00 2.477150440216064453e+00 9.529423713684082031e-01 2.462425231933593750e+00 3.686330795288085938e+00 4.448934555053710938e+00 3.240476608276367188e+00 4.377293586730957031e+00 4.595746994018554688e+00 2.377862453460693359e+00 4.759085655212402344e+00 4.428164482116699219e+00 2.744708538055419922e+00 3.641278147697448730e-01 1.533410072326660156e+00 1.359646916389465332e+00 1.615621566772460938e+00 3.794257164001464844e+00 4.677956581115722656e+00 2.728334665298461914e+00 1.554840207099914551e+00 9.464865922927856445e-01 4.742404446005821228e-03 2.002029895782470703e+00 4.966206073760986328e+00 4.436802864074707031e+00 4.781756877899169922e+00 6.501566171646118164e-01 3.470470428466796875e+00 4.466453075408935547e+00 4.883812904357910156e+00 6.508835554122924805e-01 4.066467285156250000e+00 8.482521772384643555e-01 4.243577957153320312e+00 3.565900802612304688e+00 4.334283828735351562e+00 1.019006967544555664e+00 2.799912691116333008e+00 4.697952747344970703e+00 4.728107452392578125e+00 8.221507072448730469e-01 9.661675095558166504e-01 4.556017875671386719e+00 2.090891003608703613e-01 3.543103933334350586e+00 2.474806308746337891e+00 4.899350166320800781e+00 2.469913959503173828e+00 1.524184048175811768e-01 1.393170952796936035e+00 2.790031731128692627e-01 4.061615943908691406e+00 4.495387077331542969e+00 1.054962426424026489e-01 4.937884807586669922e+00 1.333574891090393066e+00 1.045523285865783691e+00 4.906878948211669922e+00 1.819456070661544800e-01 4.178642749786376953e+00 1.380949020385742188e+00 1.653475165367126465e+00 3.788325786590576172e+00 3.654833137989044189e-01 3.241769790649414062e+00 2.476916790008544922e+00 2.167535305023193359e+00 1.624758243560791016e+00 4.214365005493164062e+00 2.556586265563964844e+00 2.847442626953125000e+00 2.712344646453857422e+00 4.093647480010986328e+00 2.898165464401245117e+00 2.338983535766601562e+00 3.586369752883911133e+00 9.843605756759643555e-01 2.789307832717895508e-01 4.774744033813476562e+00 4.718277454376220703e+00 2.591382026672363281e+00 2.482139587402343750e+00 4.381525993347167969e+00 2.942458391189575195e+00 4.386246204376220703e+00 5.701828002929687500e-01 3.796091556549072266e+00 4.338135719299316406e+00 9.629607200622558594e-01 1.957525610923767090e-01 2.827570915222167969e+00 5.724805593490600586e-01 2.539011240005493164e+00 2.603620052337646484e+00 2.286763668060302734e+00 4.038388729095458984e+00 7.156854867935180664e-01 4.562459945678710938e+00 3.141229629516601562e+00 4.921402931213378906e+00 7.175117731094360352e-01 2.104256629943847656e+00 6.455153971910476685e-02 3.652546405792236328e+00 1.316123008728027344e+00 1.567952036857604980e+00 3.559696197509765625e+00 3.240261077880859375e+00 2.514760971069335938e+00 2.483793020248413086e+00 1.402673721313476562e+00 1.050630211830139160e+00 2.683335542678833008e+00 4.858479499816894531e+00 3.311190128326416016e+00 1.878489613533020020e+00 2.537764310836791992e+00 3.346502780914306641e+00 4.242567539215087891e+00 8.104652166366577148e-01 2.758826017379760742e+00 3.226883411407470703e+00 3.914708614349365234e+00 3.450930118560791016e+00 1.020315289497375488e+00 2.801690578460693359e+00 3.442195653915405273e+00 1.785711646080017090e+00 8.185017108917236328e-01 3.997004032135009766e+00 4.501436233520507812e+00 3.653118133544921875e+00 4.600851535797119141e-01 3.984775066375732422e+00 4.454927444458007812e+00 2.596364021301269531e+00 2.275791645050048828e+00 4.784263134002685547e+00 2.824135303497314453e+00 3.134048223495483398e+00 2.233466625213623047e+00 1.947812438011169434e+00 3.175024509429931641e+00 1.505809187889099121e+00 8.751732110977172852e-02 7.707113027572631836e-01 2.061598300933837891e+00 3.130626678466796875e+00 4.272634506225585938e+00 4.513204574584960938e+00 3.176801204681396484e+00 2.568320631980895996e-01 1.023562550544738770e-01 2.120892286300659180e+00 6.755882501602172852e-01 9.882140159606933594e-01 6.411212682723999023e-01 2.949718236923217773e+00 2.473375797271728516e+00 1.084434390068054199e+00 1.823949813842773438e+00 7.149606943130493164e-01 2.475704669952392578e+00 4.713570594787597656e+00 3.804106235504150391e+00 1.929320693016052246e-01 4.325500488281250000e+00 7.043009400367736816e-01 3.290876150131225586e+00 3.904314517974853516e+00 1.105359494686126709e-01 5.790860056877136230e-01 1.721505522727966309e+00 3.479223728179931641e+00 9.252107143402099609e-01 1.310525536537170410e+00 2.841751098632812500e+00 2.842743396759033203e+00 9.789841175079345703e-01 2.283909320831298828e+00 4.816424846649169922e-01 3.193438529968261719e+00 2.723511457443237305e+00 2.079800844192504883e+00 1.613710522651672363e+00 3.633350849151611328e+00 2.532591342926025391e+00 1.962044239044189453e+00 1.982719302177429199e+00 4.224582672119140625e+00 1.167832612991333008e+00 1.260360598564147949e+00 3.751374244689941406e+00 4.431571006774902344e+00 4.874183833599090576e-01 4.375244140625000000e+00 4.927637100219726562e+00 2.211976766586303711e+00 3.025259494781494141e+00 2.271884679794311523e-01 4.677052497863769531e+00 1.753427386283874512e+00 3.913889408111572266e+00 1.900179982185363770e+00 4.387347221374511719e+00 1.063203811645507812e+00 4.978243827819824219e+00 6.503409147262573242e-01 4.849122047424316406e+00 3.913199424743652344e+00 3.852250576019287109e+00 3.059117317199707031e+00 2.428617000579833984e+00 2.140520095825195312e+00 3.460974693298339844e+00 1.905593156814575195e+00 5.042397975921630859e-01 4.028742790222167969e+00 4.154895782470703125e+00 3.181112289428710938e+00 4.059434890747070312e+00 3.755048513412475586e+00 1.972256898880004883e+00 9.042962789535522461e-01 2.889277458190917969e+00 2.807842195034027100e-01 2.022602081298828125e+00 4.002478122711181641e+00 3.334960460662841797e+00 2.262334823608398438e+00 2.763898372650146484e+00 3.278895616531372070e+00 1.488955616950988770e+00 1.132530570030212402e+00 1.970226168632507324e+00 1.626979708671569824e+00 9.221184253692626953e-01 3.442199707031250000e+00 3.493484973907470703e+00 1.001017689704895020e+00 4.811185836791992188e+00 3.736451864242553711e-01 4.289410591125488281e+00 4.012513160705566406e-01 2.766900539398193359e+00 1.707642078399658203e+00 7.603669166564941406e-01 2.388584613800048828e+00 3.511100292205810547e+00 1.966274619102478027e+00 1.663219928741455078e+00 4.597055435180664062e+00 2.007678747177124023e+00 2.651384353637695312e+00 2.159759253263473511e-01 1.657112836837768555e-01 1.099262833595275879e+00 7.973772287368774414e-01 4.713979721069335938e+00 8.393739163875579834e-02 3.348156690597534180e+00 1.491061449050903320e+00 1.352374553680419922e+00 2.501370429992675781e+00 5.079525709152221680e-01 4.497574806213378906e+00 4.950275897979736328e+00 1.659805774688720703e+00 4.333352565765380859e+00 4.054946422576904297e+00 2.020898580551147461e+00 3.678808689117431641e+00 3.860462903976440430e+00 4.679405689239501953e-01 3.566059589385986328e+00 1.792358160018920898e+00 2.401590347290039062e+00 2.430989265441894531e+00 8.647225499153137207e-01 1.389982104301452637e+00 2.260989665985107422e+00 1.076451539993286133e+00 4.759718179702758789e-01 1.693199872970581055e+00 2.194329500198364258e+00 1.557577848434448242e+00 3.853185772895812988e-01 1.554167866706848145e+00 2.490810155868530273e+00 1.265735030174255371e+00 3.941793918609619141e+00 7.531118392944335938e-01 2.414383888244628906e+00 2.353360652923583984e+00 2.764981091022491455e-01 3.613068580627441406e+00 2.393947601318359375e+00 4.311435699462890625e+00 3.898969888687133789e+00 2.888770103454589844e+00 1.206961274147033691e+00 4.209139823913574219e+00 6.192016601562500000e-01 3.579279899597167969e+00 2.856262922286987305e+00 1.287657260894775391e+00 5.149951949715614319e-02 4.368649005889892578e+00 2.828953742980957031e+00 3.121043443679809570e+00 1.143355607986450195e+00 2.427834987640380859e+00 3.962617397308349609e+00 2.516644001007080078e+00 2.502274990081787109e+00 2.484664916992187500e+00 3.432504653930664062e+00 4.469034671783447266e+00 1.597682118415832520e+00 1.250178664922714233e-01 1.554168462753295898e+00 9.005099534988403320e-01 3.471917629241943359e+00 3.893326520919799805e+00 3.720205307006835938e+00 5.987794995307922363e-01 7.886373996734619141e-01 8.182412981986999512e-01 2.851871252059936523e+00 1.429817676544189453e+00 3.777627468109130859e+00 3.200165748596191406e+00 1.130897998809814453e+00 3.908417701721191406e+00 2.263350725173950195e+00 1.265503764152526855e+00 2.994100570678710938e+00 1.685207486152648926e+00 4.954026222229003906e+00 3.280755996704101562e+00 2.905746698379516602e+00 2.665909528732299805e+00 3.667352199554443359e+00 3.923688888549804688e+00 1.970757246017456055e+00 8.903104662895202637e-01 1.328316807746887207e+00 1.630888581275939941e+00 2.062352746725082397e-01 4.546385288238525391e+00 3.373172283172607422e+00 3.924288749694824219e+00 5.451223850250244141e-01 2.417766571044921875e+00 1.633545875549316406e+00 3.249042034149169922e+00 6.063125133514404297e-01 1.032815575599670410e+00 4.470323562622070312e+00 2.512202262878417969e+00 1.420706510543823242e+00 3.874013125896453857e-01 3.727468252182006836e+00 4.596543788909912109e+00 4.148900032043457031e+00 2.964037358760833740e-01 4.060010015964508057e-01 3.708728551864624023e+00 4.783981323242187500e+00 1.008425354957580566e+00 8.015412092208862305e-01 5.547513365745544434e-01 2.588684082031250000e+00 4.847663640975952148e-01 2.386510372161865234e+00 4.027819633483886719e+00 1.836671829223632812e+00 1.137228012084960938e+00 4.992731094360351562e+00 3.503296375274658203e+00 2.386300086975097656e+00 2.010537385940551758e+00 4.003314495086669922e+00 1.676959156990051270e+00 1.322763562202453613e+00 3.930608034133911133e+00 4.412877082824707031e+00 1.794174313545227051e+00 3.527946472167968750e+00 2.701885700225830078e+00 3.068076610565185547e+00 3.542087078094482422e+00 4.253437995910644531e+00 3.280975818634033203e+00 4.492006778717041016e+00 2.318107128143310547e+00 2.377622127532958984e+00 1.909046173095703125e+00 3.083385229110717773e+00 6.792604923248291016e-01 3.976287364959716797e+00 2.679553508758544922e+00 4.081173896789550781e+00 1.597365736961364746e+00 1.151076674461364746e+00 4.832521438598632812e+00 4.775749206542968750e+00 9.542149305343627930e-01 2.198088169097900391e+00 3.760489225387573242e+00 1.854251027107238770e+00 2.161101102828979492e+00 2.984274625778198242e+00 1.907574534416198730e+00 3.929118633270263672e+00 3.291089534759521484e+00 1.752563267946243286e-01 4.091926097869873047e+00 4.457213878631591797e+00 1.728425025939941406e+00 2.676448345184326172e+00 1.616732001304626465e+00 4.899282455444335938e+00 2.687644958496093750e-01 1.260692715644836426e+00 3.573428392410278320e+00 3.699392795562744141e+00 3.376638889312744141e+00 3.807344436645507812e+00 3.456786155700683594e+00 4.233379840850830078e+00 9.800547361373901367e-01 4.225902080535888672e+00 1.876295208930969238e+00 3.077117204666137695e+00 2.535691738128662109e+00 4.362843036651611328e+00 3.062041282653808594e+00 3.042808055877685547e+00 2.360603332519531250e+00 4.945394992828369141e+00 3.222217082977294922e+00 2.148840427398681641e+00 2.746765911579132080e-01 3.918780088424682617e+00 3.130266666412353516e+00 5.374617502093315125e-02 6.914575695991516113e-01 1.724321246147155762e+00 2.517601966857910156e+00 4.382981777191162109e+00 4.900870800018310547e+00 2.637749910354614258e+00 4.611903190612792969e+00 2.894689559936523438e+00 2.539834499359130859e+00 4.486175537109375000e+00 5.501962304115295410e-01 2.576972246170043945e+00 4.202101230621337891e+00 1.623812198638916016e+00 3.813823461532592773e+00 3.774992227554321289e+00 3.162508249282836914e+00 3.158200263977050781e+00 4.204350471496582031e+00 1.704944372177124023e+00 1.295231223106384277e+00 2.986246824264526367e+00 7.318990826606750488e-01 3.979832649230957031e+00 6.526768207550048828e-01 4.504924297332763672e+00 5.916059017181396484e-01 4.348033905029296875e+00 8.187353610992431641e-01 4.345920562744140625e+00 1.578022241592407227e+00 2.301922559738159180e+00 4.120595455169677734e+00 3.423376083374023438e+00 2.758414268493652344e+00 2.599556922912597656e+00 2.115758657455444336e+00 4.928876876831054688e+00 4.688007354736328125e+00 2.146390676498413086e+00 1.140516400337219238e+00 1.986832022666931152e+00 1.707162857055664062e+00 1.630998551845550537e-01 1.292461037635803223e+00 6.084442138671875000e-01 3.427820682525634766e+00 4.240245342254638672e+00 2.493400573730468750e+00 7.874500751495361328e-01 3.161123752593994141e+00 2.252362251281738281e+00 2.353910207748413086e+00 3.332277536392211914e+00 2.145324230194091797e+00 9.177998304367065430e-01 2.742675542831420898e+00 2.544741153717041016e+00 6.462661027908325195e-01 1.798407435417175293e+00 3.235868930816650391e+00 2.266850769519805908e-01 6.774353981018066406e-01 3.028329610824584961e+00 3.359519243240356445e+00 4.717706680297851562e+00 1.328899264335632324e+00 2.514705657958984375e+00 1.392847299575805664e+00 2.020294666290283203e+00 1.382817029953002930e+00 2.428822517395019531e+00 4.968168437480926514e-01 4.354145526885986328e-01 4.936913967132568359e+00 2.437901020050048828e+00 2.441708564758300781e+00 1.923750042915344238e+00 2.125498056411743164e+00 3.519095182418823242e+00 1.333771944046020508e+00 1.730995178222656250e-01 4.798394441604614258e-01 7.181792855262756348e-01 2.145394086837768555e+00 4.229822158813476562e+00 2.492784261703491211e+00 1.213966250419616699e+00 3.320583105087280273e+00 2.670075416564941406e+00 1.430247426033020020e+00 2.927431583404541016e+00 3.069274425506591797e+00 2.307496070861816406e+00 2.355221271514892578e+00 5.300232768058776855e-01 3.729200363159179688e+00 4.719226837158203125e+00 1.683065891265869141e+00 2.790732383728027344e+00 4.926959991455078125e+00 8.896349370479583740e-02 1.640245318412780762e+00 3.086413621902465820e+00 4.903107166290283203e+00 2.554412126541137695e+00 3.925235867500305176e-01 1.579697132110595703e+00 3.200136423110961914e+00 1.088911890983581543e+00 1.202146708965301514e-02 4.977566719055175781e+00 3.262858867645263672e+00 8.635002374649047852e-01 3.670197725296020508e+00 1.759631037712097168e+00 2.562442302703857422e+00 2.365634441375732422e+00 2.630064964294433594e+00 4.633241176605224609e+00 2.617094516754150391e+00 1.678441166877746582e+00 4.911949634552001953e+00 3.612446308135986328e+00 3.358073234558105469e+00 4.508848190307617188e+00 3.898344039916992188e+00 1.019610762596130371e+00 1.206185519695281982e-01 2.712555885314941406e+00 3.485356569290161133e+00 3.793733596801757812e+00 4.048211097717285156e+00 1.955750346183776855e+00 5.664185881614685059e-01 4.754172325134277344e+00 4.865857124328613281e+00 3.980507135391235352e+00 2.229186296463012695e+00 2.899913787841796875e+00 2.093100547790527344e+00 7.820539474487304688e-01 3.467376947402954102e+00 5.748510360717773438e-01 4.482659816741943359e+00 1.694017648696899414e+00 4.490538120269775391e+00 2.810730457305908203e+00 2.759212255477905273e+00 3.761520385742187500e+00 3.175822496414184570e+00 1.258956193923950195e+00 3.967725038528442383e+00 2.760136604309082031e+00 3.882098793983459473e-01 2.881469011306762695e+00 3.372371196746826172e+00 3.562865734100341797e+00 4.847568988800048828e+00 1.622067689895629883e+00 2.429651021957397461e+00 4.326522648334503174e-01 3.322216987609863281e+00 4.817368984222412109e+00 3.522042751312255859e+00 4.852582931518554688e+00 5.054086446762084961e-01 1.806958913803100586e+00 2.666172504425048828e+00 1.421477198600769043e+00 2.150290489196777344e+00 3.569155216217041016e+00 3.115826845169067383e+00 2.342622280120849609e+00 3.308499813079833984e+00 9.817401170730590820e-01 4.674479961395263672e+00 3.155994415283203125e+00 3.455253839492797852e+00 6.912648677825927734e-01 1.866355419158935547e+00 6.048041582107543945e-01 3.656589508056640625e+00 4.704319953918457031e+00 1.789488196372985840e+00 1.877278447151184082e+00 1.170508861541748047e+00 7.927078008651733398e-01 4.291887760162353516e+00 2.998806953430175781e+00 2.295487403869628906e+00 2.390818834304809570e+00 2.767183780670166016e+00 1.127105131745338440e-01 3.843564987182617188e+00 2.106852531433105469e+00 3.862553536891937256e-01 1.713943362236022949e+00 3.042240619659423828e+00 2.706919193267822266e+00 1.675145030021667480e+00 3.899536609649658203e+00 4.456632137298583984e+00 3.297755718231201172e-01 3.904870033264160156e+00 1.750943660736083984e+00 1.509489119052886963e-01 5.239962413907051086e-02 2.777469158172607422e+00 2.254951715469360352e+00 7.189750671386718750e-01 3.698788166046142578e+00 1.950737953186035156e+00 3.451822280883789062e+00 1.460586190223693848e+00 3.753971576690673828e+00 4.791754722595214844e+00 3.016483306884765625e+00 2.541243553161621094e+00 1.068838357925415039e+00 4.703846454620361328e+00 4.271902561187744141e+00 4.118814945220947266e+00 3.381735086441040039e+00 1.042247772216796875e+00 3.318834304809570312e+00 2.029787063598632812e+00 1.172952055931091309e+00 1.699966192245483398e+00 4.420902729034423828e+00 3.568846702575683594e+00 2.695403099060058594e+00 2.152618169784545898e+00 2.396769046783447266e+00 4.622972488403320312e+00 3.907556056976318359e+00 2.700369358062744141e+00 4.516964435577392578e+00 1.856140255928039551e+00 4.554067134857177734e+00 4.852283477783203125e+00 2.805157899856567383e+00 4.392381608486175537e-01 9.193706512451171875e-01 4.470138072967529297e+00 3.807995796203613281e+00 7.188320755958557129e-01 4.911870479583740234e+00 4.273834228515625000e+00 3.061906099319458008e+00 2.386949539184570312e+00 2.779678821563720703e+00 1.047160148620605469e+00 1.026936769485473633e+00 4.925940990447998047e+00 3.462557315826416016e+00 4.317617416381835938e+00 3.849741220474243164e+00 4.268209934234619141e+00 2.349247932434082031e+00 4.922600269317626953e+00 3.046955823898315430e+00 4.714734554290771484e+00 2.555109262466430664e+00 4.440024375915527344e+00 6.278353929519653320e-01 4.721958160400390625e+00 2.647153139114379883e+00 1.551238298416137695e+00 2.928059101104736328e+00 4.311677932739257812e+00 1.045680999755859375e+00 1.133702158927917480e+00 1.718711256980895996e+00 5.985620021820068359e-01 3.837171792984008789e+00 7.709912657737731934e-01 3.800742864608764648e+00 2.930008172988891602e+00 8.932381868362426758e-01 2.969529151916503906e+00 2.505087137222290039e+00 2.478983163833618164e+00 3.064168691635131836e+00 3.391089200973510742e+00 1.115278601646423340e+00 3.818213462829589844e+00 3.256591558456420898e+00 3.871711492538452148e+00 2.429667234420776367e+00 1.608017683029174805e+00 4.705280303955078125e+00 1.679850220680236816e+00 1.004506349563598633e+00 3.079743385314941406e+00 3.391700983047485352e+00 3.598704338073730469e+00 3.620751380920410156e+00 5.742039531469345093e-02 9.894695878028869629e-01 4.563190460205078125e+00 4.237246990203857422e+00 4.214048862457275391e+00 3.432668447494506836e+00 3.973118782043457031e+00 9.638953208923339844e-01 1.845587491989135742e+00 3.047346591949462891e+00 5.358290672302246094e-01 1.064535737037658691e+00 1.877107620239257812e+00 3.497728824615478516e+00 7.333970069885253906e-01 2.122480869293212891e+00 2.004717588424682617e+00 4.215803623199462891e+00 2.529238760471343994e-01 4.428348541259765625e+00 1.251620292663574219e+00 2.023068666458129883e+00 4.892462730407714844e+00 4.434763908386230469e+00 8.303579092025756836e-01 1.172377824783325195e+00 1.763664484024047852e+00 4.344186305999755859e+00 2.376158714294433594e+00 4.028768539428710938e+00 1.849222183227539062e+00 2.980750083923339844e+00 4.473452091217041016e+00 9.972700476646423340e-01 6.927353143692016602e-01 8.680373430252075195e-01 1.784483790397644043e+00 2.729215145111083984e+00 4.790281295776367188e+00 3.565056324005126953e+00 2.067399024963378906e+00 4.269868850708007812e+00 4.845851898193359375e+00 2.630187273025512695e+00 7.439243793487548828e-01 3.360016345977783203e+00 2.875704765319824219e+00 4.011686325073242188e+00 2.818393230438232422e+00 1.684769392013549805e+00 1.586464047431945801e+00 1.017018556594848633e+00 4.763281822204589844e+00 2.446252822875976562e+00 2.757236480712890625e+00 2.535701274871826172e+00 3.760254383087158203e+00 2.708597183227539062e+00 6.583517789840698242e-01
1.000000000000000000e+00 1.000000000000000000e+00 1.000108838081359863e+00 1.000000000000000000e+00 1.000000000000000000e+00 1.000000000000000000e+00 9.999265074729919434e-01 9.948319196701049805e-01 1.000000000000000000e+00 9.900699257850646973e-01 9.991378188133239746e-01 1.000000000000000000e+00 1.000000000000000000e+00 1.000000000000000000e+00 1.000000000000000000e+00 1.000000000000000000e+00 9.998932480812072754e-01 1.000000000000000000e+00 9.990371465682983398e-01 9.999442696571350098e-01 1.000065565109252930e+00 1.000000000000000000e+00 1.019321322441101074e+00 8.716314435005187988e-01 1.000000000000000000e+00 1.003151893615722656e+00 1.000000000000000000e+00 1.000000000000000000e+00 1.030264496803283691e+00 1.000000000000000000e+00 1.000000000000000000e+00 1.000000000000000000e+00 1.000000000000000000e+00 1.000713109970092773e+00 9.999911785125732422e-01 1.000000000000000000e+00 1.085869908332824707e+00 9.994806051254272461e-01 1.000000000000000000e+00 1.000474214553833008e+00 1.000000000000000000e+00 1.000000000000000000e+00 9.999158978462219238e-01 1.034864902496337891e+00 1.000559210777282715e+00 1.003272175788879395e+00 1.000000000000000000e+00 1.000000000000000000e+00 1.000000000000000000e+00 1.000000000000000000e+00 9.999948740005493164e-01 9.989488124847412109e-01 1.000000000000000000e+00 9.970042109489440918e-01 7.462324500083923340e-01 9.990234971046447754e-01 1.072916865348815918e+00 1.000000000000000000e+00 1.000000000000000000e+00 1.000000000000000000e+00 1.000000000000000000e+00 9.987643361091613770e-01 1.000000000000000000e+00 1.000000000000000000e+00 9.997336268424987793e-01 1.000000000000000000e+00 9.973270297050476074e-01 9.202757477760314941e-01 9.999727010726928711e-01 1.000000000000000000e+00 1.000000000000000000e+00 1.000000000000000000e+00 1.000000000000000000e+00 1.000365376472473145e+00 9.999898076057434082e-01 1.000000000000000000e+00 1.000000000000000000e+00 1.000000000000000000e+00 1.000000000000000000e+00 1.000000000000000000e+00 1.000000000000000000e+00 1.000000000000000000e+00 1.000000000000000000e+00 9.999217391014099121e-01 9.999952316284179688e-01 1.000232934951782227e+00 1.000000000000000000e+00 9.998636245727539062e-01 1.000000000000000000e+00 1.000000000000000000e+00 1.000000000000000000e+00 1.000000000000000000e+00 1.000000000000000000e+00 5.125490427017211914e-01 1.000000000000000000e+00 9.787066578865051270e-01 9.996596574783325195e-01 1.000000000000000000e+00 1.000005245208740234e+00 1.000000000000000000e+00 1.000000000000000000e+00 1.000224828720092773e+00 6.520173549652099609e-01 1.000000000000000000e+00 1.000076770782470703e+00 1.000000000000000000e+00 9.998929500579833984e-01 1.000000000000000000e+00 7.188325524330139160e-01 1.000000000000000000e+00 1.000000000000000000e+00 1.000364303588867188e+00 1.038538932800292969e+00 1.000000000000000000e+00 9.985763430595397949e-01 1.000000000000000000e+00 1.007332444190979004e+00 1.000000000000000000e+00 1.000000000000000000e+00 9.997278451919555664e-01 9.969800710678100586e-01 1.005854606628417969e+00 1.000000000000000000e+00 1.000000000000000000e+00 6.506571769714355469e-01 1.000000000000000000e+00 1.000000000000000000e+00 1.000000000000000000e+00 1.000045180320739746e+00 1.000000000000000000e+00 1.000000000000000000e+00 1.000000000000000000e+00 1.000000000000000000e+00 5.828952193260192871e-01 7.837638854980468750e-01 1.000000000000000000e+00 9.949539303779602051e-01 4.173138439655303955e-01 1.000000000000000000e+00 9.984629154205322266e-01 1.000378489494323730e+00 1.000000000000000000e+00 1.000000000000000000e+00 1.000000000000000000e+00 1.000000000000000000e+00 9.999942779541015625e-01 1.000000000000000000e+00 1.026970505714416504e+00 1.005438923835754395e+00 1.000000000000000000e+00 1.000000000000000000e+00 1.000000000000000000e+00 1.000137209892272949e+00 1.000000000000000000e+00 1.000000000000000000e+00 1.000000000000000000e+00 9.930496215820312500e-01 1.021807909011840820e+00 1.000000000000000000e+00 1.000000000000000000e+00 1.000000000000000000e+00 1.000000000000000000e+00 1.000000000000000000e+00 1.000000000000000000e+00 9.939995408058166504e-01 1.000119209289550781e+00 1.000000000000000000e+00 1.000000000000000000e+00 9.996516704559326172e-01 9.979944825172424316e-01 9.939246773719787598e-01 9.358165264129638672e-01 1.000255107879638672e+00 1.000000000000000000e+00 1.000000000000000000e+00 1.000263929367065430e+00 1.000000000000000000e+00 1.001514792442321777e+00 1.000255942344665527e+00 1.000132799148559570e+00 1.000272512435913086e+00 1.000000000000000000e+00 9.980599880218505859e-01 1.013139724731445312e+00 6.204288005828857422e-01 9.963945150375366211e-01 6.979570984840393066e-01 1.000000000000000000e+00 1.000625491142272949e+00 1.000062823295593262e+00 9.994783997535705566e-01 9.998152256011962891e-01 6.485144495964050293e-01 9.980406761169433594e-01 1.000048160552978516e+00 1.000000000000000000e+00 1.000000000000000000e+00 9.999755620956420898e-01 1.000000000000000000e+00 9.999905228614807129e-01 1.000000000000000000e+00 9.996879100799560547e-01 1.000628948211669922e+00 1.000000000000000000e+00 1.000000000000000000e+00 1.000000000000000000e+00 1.000000000000000000e+00 1.000000000000000000e+00 9.995333552360534668e-01 5.454594492912292480e-01 1.000156998634338379e+00 7.379656434059143066e-01 1.000000000000000000e+00 1.000000000000000000e+00 1.000000000000000000e+00 1.000111460685729980e+00 9.996346831321716309e-01 1.004601478576660156e+00 1.000000000000000000e+00 1.000000000000000000e+00 1.000000000000000000e+00 1.000000000000000000e+00 7.841175198554992676e-01 1.000000000000000000e+00 1.000000000000000000e+00 1.000000000000000000e+00 1.010860323905944824e+00 1.000000000000000000e+00 1.000593781471252441e+00 1.000000000000000000e+00 1.000000000000000000e+00 1.000000000000000000e+00 1.000182151794433594e+00 1.000000000000000000e+00 1.000000000000000000e+00 9.570750594139099121e-01 9.999590516090393066e-01 9.982150197029113770e-01 1.000000000000000000e+00 1.004552602767944336e+00 1.000000000000000000e+00 1.000000000000000000e+00 1.000000000000000000e+00 1.000000000000000000e+00 9.988924860954284668e-01 9.992502331733703613e-01 9.993129968643188477e-01 1.000000715255737305e+00 1.000000000000000000e+00 1.003041028976440430e+00 1.000000000000000000e+00 9.933887124061584473e-01 1.002332568168640137e+00 1.000000000000000000e+00 1.002972126007080078e+00 1.000000000000000000e+00 1.003457427024841309e+00 1.000000000000000000e+00 1.000000000000000000e+00 9.901996254920959473e-01 1.000000000000000000e+00 1.000000000000000000e+00 1.000000000000000000e+00 1.000036597251892090e+00 1.000070810317993164e+00 1.000000000000000000e+00 1.000000000000000000e+00 7.420141100883483887e-01 1.000000000000000000e+00 9.890426993370056152e-01 1.000000000000000000e+00 1.000000000000000000e+00 1.000544667243957520e+00 9.999197125434875488e-01 1.000000000000000000e+00 1.000000000000000000e+00 3.698622286319732666e-01 1.000000000000000000e+00 1.000000000000000000e+00 1.000000000000000000e+00 1.000000000000000000e+00 9.993094801902770996e-01 1.000000000000000000e+00 1.000000000000000000e+00 1.000137329101562500e+00 9.782118201255798340e-01 9.615594148635864258e-01 9.998332262039184570e-01 1.000000000000000000e+00 9.768778085708618164e-01 1.000000000000000000e+00 1.000000000000000000e+00 1.013753652572631836e+00 1.000000000000000000e+00 1.000000000000000000e+00 1.000000000000000000e+00 1.000110983848571777e+00 1.000000000000000000e+00 1.043141722679138184e+00 1.000000000000000000e+00 1.000177025794982910e+00 9.999904036521911621e-01 1.000000000000000000e+00 1.000000000000000000e+00 1.000000000000000000e+00 9.899924993515014648e-01 9.999858140945434570e-01 9.998543858528137207e-01 1.000000000000000000e+00 1.000000000000000000e+00 1.000000000000000000e+00 1.000765442848205566e+00 1.000000000000000000e+00 1.000000000000000000e+00 1.000000000000000000e+00 9.996258020401000977e-01 1.000000000000000000e+00 1.000000000000000000e+00 1.000000000000000000e+00 1.000000000000000000e+00 9.999970793724060059e-01 1.000000000000000000e+00 1.000003695487976074e+00 1.000000000000000000e+00 9.996459484100341797e-01 1.000000000000000000e+00 1.000000000000000000e+00 1.000000000000000000e+00 1.001188158988952637e+00 1.000000000000000000e+00 1.000000000000000000e+00 1.000000000000000000e+00 1.000000000000000000e+00 8.460440039634704590e-01 1.077087283134460449e+00 8.939660191535949707e-01 1.000000000000000000e+00 1.000000000000000000e+00 9.327149987220764160e-01 1.005811691284179688e+00 9.971790909767150879e-01 9.994310140609741211e-01 9.999773502349853516e-01 1.000000000000000000e+00 1.000000000000000000e+00 1.000000000000000000e+00 1.000939488410949707e+00 7.476264834403991699e-01 1.000198483467102051e+00 1.000914335250854492e+00 9.988706707954406738e-01 9.998661875724792480e-01 1.000041604042053223e+00 1.000000000000000000e+00 9.999923706054687500e-01 9.998744726181030273e-01 9.999413490295410156e-01 9.984980821609497070e-01 1.000000000000000000e+00 1.000000000000000000e+00 1.000000000000000000e+00 1.020942449569702148e+00 1.000000000000000000e+00 6.512758731842041016e-01 1.000000000000000000e+00 1.000000000000000000e+00 9.980654120445251465e-01 1.046096920967102051e+00 9.999591708183288574e-01 1.000000000000000000e+00 9.999768137931823730e-01 1.000004887580871582e+00 9.999958872795104980e-01 9.970392584800720215e-01 6.670960187911987305e-01 1.000000000000000000e+00 1.000091910362243652e+00 1.000000000000000000e+00 1.000000000000000000e+00 1.037089109420776367e+00 1.000011801719665527e+00 1.000000000000000000e+00 1.000000000000000000e+00 9.998072981834411621e-01 9.868002533912658691e-01 1.000000000000000000e+00 1.000092387199401855e+00 1.003920316696166992e+00 1.850647181272506714e-01 1.000000000000000000e+00 1.013097524642944336e+00 1.000000000000000000e+00 1.000000000000000000e+00 2.468158155679702759e-01 1.000000000000000000e+00 1.000204801559448242e+00 1.000157833099365234e+00 9.997501373291015625e-01 1.000000000000000000e+00 1.000000000000000000e+00 1.000000000000000000e+00 1.000011324882507324e+00 1.000000000000000000e+00 9.980136752128601074e-01 1.000000000000000000e+00 1.000000000000000000e+00 1.000000000000000000e+00 1.000000000000000000e+00 1.000047206878662109e+00 1.000000000000000000e+00 1.000000000000000000e+00 9.938359856605529785e-01 1.000003933906555176e+00 1.000000000000000000e+00 1.000000000000000000e+00 1.000000000000000000e+00 1.000000000000000000e+00 1.000000000000000000e+00 9.999545812606811523e-01 1.000599741935729980e+00 1.000000000000000000e+00 6.495910286903381348e-01 1.029703617095947266e+00 1.000000000000000000e+00 1.000000000000000000e+00 1.000000000000000000e+00 1.000000000000000000e+00 6.257122159004211426e-01 1.000054001808166504e+00 9.998303651809692383e-01 9.994847178459167480e-01 1.000038266181945801e+00 1.000284552574157715e+00 9.999087452888488770e-01 1.000000000000000000e+00 9.993672966957092285e-01 1.000000000000000000e+00 1.001396059989929199e+00 1.000000000000000000e+00 1.000133156776428223e+00 1.000000000000000000e+00 1.000000000000000000e+00 1.000103354454040527e+00 9.999754428863525391e-01 1.000000000000000000e+00 6.374527215957641602e-01 1.000015854835510254e+00 1.000000000000000000e+00 1.000000000000000000e+00 1.000000000000000000e+00 9.977550506591796875e-01 9.983748197555541992e-01 1.000913262367248535e+00 9.999746680259704590e-01 1.000000000000000000e+00 1.002387642860412598e+00 1.001933932304382324e+00 1.000001907348632812e+00 9.998757839202880859e-01 1.000000000000000000e+00 9.984992146492004395e-01 1.000000000000000000e+00 1.000000000000000000e+00 9.999522566795349121e-01 1.000000000000000000e+00 1.000139832496643066e+00 9.719789028167724609e-01 1.000000000000000000e+00 1.000000000000000000e+00 1.000175237655639648e+00 1.000000000000000000e+00 1.000000596046447754e+00 1.000000000000000000e+00 1.000000000000000000e+00 1.011516928672790527e+00 1.000095486640930176e+00 1.000000000000000000e+00 1.000710129737854004e+00 9.765828847885131836e-01 1.000097274780273438e+00 1.000042319297790527e+00 1.000201582908630371e+00 9.993669986724853516e-01 9.999249577522277832e-01 1.000000000000000000e+00 1.000252604484558105e+00 1.000000000000000000e+00 9.997687339782714844e-01 9.999995827674865723e-01 1.000000000000000000e+00 9.980989694595336914e-01 1.000000000000000000e+00 9.984102845191955566e-01 1.000000000000000000e+00 1.000000000000000000e+00 1.000000000000000000e+00 9.997706413269042969e-01 1.000000000000000000e+00 1.000168204307556152e+00 1.000000000000000000e+00 1.000000000000000000e+00 9.965937137603759766e-01 9.982649087905883789e-01 1.000000000000000000e+00 1.000000000000000000e+00 1.000000000000000000e+00 8.368968367576599121e-01 1.000000000000000000e+00 1.000000000000000000e+00 1.000000000000000000e+00 1.000000000000000000e+00 1.000000000000000000e+00 1.000000000000000000e+00 1.000000000000000000e+00 1.005657076835632324e+00 1.000268340110778809e+00 1.000069379806518555e+00 9.996368885040283203e-01 1.000000000000000000e+00 1.000000000000000000e+00 1.000000000000000000e+00 1.018984913825988770e+00 1.000028610229492188e+00 9.926475286483764648e-01 1.000000000000000000e+00 9.998936653137207031e-01 1.000000000000000000e+00 1.000000000000000000e+00 1.000437140464782715e+00 1.000000000000000000e+00 7.918729782104492188e-01 9.997811913490295410e-01 1.000000000000000000e+00 1.000000000000000000e+00 1.000000000000000000e+00 1.000000000000000000e+00 1.079869866371154785e+00 1.000000000000000000e+00 1.000000000000000000e+00 1.040543198585510254e+00 1.000000000000000000e+00 9.943958520889282227e-01 1.005161285400390625e+00 9.999987483024597168e-01 1.001947641372680664e+00 1.000000000000000000e+00 1.000000000000000000e+00 1.000000000000000000e+00 1.000386714935302734e+00 1.000000000000000000e+00 1.029333949089050293e+00 1.000000000000000000e+00 4.792127013206481934e-01 1.043589353561401367e+00 1.000000000000000000e+00 1.000000000000000000e+00 9.998306632041931152e-01 1.140308141708374023e+00 1.000000000000000000e+00 1.000000000000000000e+00 1.000000000000000000e+00 9.563062191009521484e-01 1.069211363792419434e+00 1.000000000000000000e+00 1.000000000000000000e+00 1.001107573509216309e+00 9.992530345916748047e-01 7.557483911514282227e-01 1.000000000000000000e+00 9.994961619377136230e-01 1.000000000000000000e+00 4.249190986156463623e-01 1.000041842460632324e+00 1.000040650367736816e+00 1.000000000000000000e+00 1.000000000000000000e+00 1.000000000000000000e+00 1.000000000000000000e+00 1.000000000000000000e+00 9.927262663841247559e-01 1.000530242919921875e+00 1.000000000000000000e+00 1.000000000000000000e+00 1.000000000000000000e+00 1.000017642974853516e+00 1.000000000000000000e+00 1.060702919960021973e+00 1.000000000000000000e+00 1.000000000000000000e+00 1.017367720603942871e+00 1.000000000000000000e+00 9.301209449768066406e-01 9.999982118606567383e-01 1.000067234039306641e+00 1.000000000000000000e+00 1.000183939933776855e+00 1.000000000000000000e+00 1.000000000000000000e+00 1.000000000000000000e+00 1.000089049339294434e+00 9.811808466911315918e-01 1.000000000000000000e+00 1.000000000000000000e+00 1.000294923782348633e+00 1.000000000000000000e+00 1.000000000000000000e+00 9.999766945838928223e-01 1.000001549720764160e+00 1.000000000000000000e+00 9.666179418563842773e-01 1.000000000000000000e+00 1.000000000000000000e+00 9.996365904808044434e-01 1.000000000000000000e+00 1.000000000000000000e+00 1.019692420959472656e+00 1.000000000000000000e+00 9.983983039855957031e-01 1.000079154968261719e+00 9.986010193824768066e-01 1.003920674324035645e+00 1.000000000000000000e+00 1.000000000000000000e+00 1.000000000000000000e+00 1.000000000000000000e+00 1.000000000000000000e+00 1.000000000000000000e+00 9.993199706077575684e-01 1.000000000000000000e+00 1.000000000000000000e+00 1.000000000000000000e+00 1.000000000000000000e+00 1.000000000000000000e+00 1.000000000000000000e+00 1.000000000000000000e+00 1.000000000000000000e+00 1.000000000000000000e+00 1.000000000000000000e+00 1.000000000000000000e+00 1.000323653221130371e+00 1.000000000000000000e+00 1.000000000000000000e+00 1.000544309616088867e+00 1.003947257995605469e+00 9.999829530715942383e-01 1.000000000000000000e+00 1.000000000000000000e+00 1.000000000000000000e+00 1.000000000000000000e+00 1.000000000000000000e+00 1.000000000000000000e+00 1.000000000000000000e+00 1.000000000000000000e+00 9.937976002693176270e-01 1.000000000000000000e+00 1.000000000000000000e+00 1.068273782730102539e+00 1.000000000000000000e+00 1.000000000000000000e+00 6.739418506622314453e-01 1.000000000000000000e+00 1.000000000000000000e+00 1.000212430953979492e+00 9.775381684303283691e-01 1.108870148658752441e+00 1.000068426132202148e+00 1.000000000000000000e+00 9.999711513519287109e-01 1.000000000000000000e+00 9.992940425872802734e-01 1.000000000000000000e+00 9.996535181999206543e-01 1.000000000000000000e+00 1.000039815902709961e+00 -6.822785735130310059e-02 1.000000000000000000e+00 1.000000000000000000e+00 1.000000000000000000e+00 1.000000000000000000e+00 1.000000000000000000e+00 1.000000000000000000e+00 9.999815225601196289e-01 1.000000000000000000e+00 9.998966455459594727e-01 1.000000000000000000e+00 9.999977946281433105e-01 6.751291751861572266e-01 9.974426627159118652e-01 1.001056909561157227e+00 1.000000000000000000e+00 1.000000000000000000e+00 1.000000000000000000e+00 9.998056888580322266e-01 1.000123739242553711e+00 1.000000000000000000e+00 1.000000000000000000e+00 1.000000000000000000e+00 1.000000000000000000e+00 8.435046076774597168e-01 1.000000000000000000e+00 9.998835325241088867e-01 6.652097702026367188e-01 9.987727403640747070e-01 1.000000000000000000e+00 9.995195865631103516e-01 1.000137329101562500e+00 1.000000000000000000e+00 1.000000000000000000e+00 2.743848264217376709e-01 9.999655485153198242e-01 1.000000000000000000e+00 9.999518394470214844e-01 1.000000000000000000e+00 9.992060661315917969e-01 1.000000000000000000e+00 9.973999857902526855e-01 9.987745881080627441e-01 1.000000000000000000e+00 1.000000000000000000e+00 1.000000000000000000e+00 1.000000000000000000e+00 1.000000000000000000e+00 1.000000000000000000e+00 1.000003457069396973e+00 1.017365694046020508e+00 1.000009775161743164e+00 8.214071393013000488e-01 1.000000000000000000e+00 1.000000000000000000e+00 1.000000000000000000e+00 6.728693842887878418e-01 1.000000000000000000e+00 1.000000000000000000e+00 1.000178933143615723e+00 1.000000000000000000e+00 1.000000000000000000e+00 1.000000000000000000e+00 1.022481441497802734e+00 9.985563755035400391e-01 1.000000000000000000e+00 1.000000000000000000e+00 6.446650028228759766e-01 1.000000000000000000e+00 1.000000000000000000e+00 1.002013206481933594e+00 9.996725916862487793e-01 9.689732193946838379e-01 1.000000000000000000e+00 1.005472898483276367e+00 9.122213721275329590e-01 9.997119307518005371e-01 1.000000000000000000e+00 1.002051115036010742e+00 1.001024484634399414e+00 1.000000000000000000e+00 1.000000000000000000e+00 1.000349521636962891e+00 1.000000000000000000e+00 1.000060200691223145e+00 9.999445080757141113e-01 1.000000000000000000e+00 1.000000000000000000e+00 1.000000000000000000e+00 1.000000000000000000e+00 1.000000000000000000e+00 1.000000000000000000e+00 1.000000000000000000e+00 1.000000000000000000e+00 1.000000000000000000e+00 1.000000000000000000e+00 9.993972182273864746e-01 9.985466003417968750e-01 4.687894880771636963e-01 1.000000000000000000e+00 1.000000000000000000e+00 1.000004291534423828e+00 9.683635830879211426e-01 1.060714721679687500e+00 1.000000000000000000e+00 1.000000000000000000e+00 9.999608397483825684e-01 1.000598311424255371e+00 1.000000000000000000e+00 7.411021590232849121e-01 9.963763356208801270e-01 1.019167661666870117e+00 1.000242829322814941e+00 1.000000000000000000e+00 9.999995231628417969e-01 1.000000000000000000e+00 1.000000000000000000e+00 1.000000000000000000e+00 1.000000000000000000e+00 1.000000000000000000e+00 9.997759461402893066e-01 1.000000000000000000e+00 1.000000000000000000e+00 1.115219950675964355e+00 9.936752319335937500e-01 1.000000000000000000e+00 1.000000000000000000e+00 1.000000000000000000e+00 1.000035643577575684e+00 1.000000000000000000e+00 9.986796379089355469e-01 9.991480708122253418e-01 1.000000000000000000e+00 1.000000000000000000e+00 1.000000000000000000e+00 9.995850324630737305e-01 1.000000000000000000e+00 1.000000000000000000e+00 9.999313354492187500e-01 1.000000000000000000e+00 1.000000000000000000e+00 1.000000000000000000e+00 1.000000000000000000e+00 6.019229292869567871e-01 7.750661373138427734e-01 1.000000000000000000e+00 9.812923669815063477e-01 1.000000000000000000e+00 9.998906850814819336e-01 9.032933712005615234e-01 9.998878836631774902e-01 1.000000000000000000e+00 1.000000000000000000e+00 1.000000000000000000e+00 9.744191169738769531e-01 1.000108003616333008e+00 1.000245809555053711e+00 1.000000000000000000e+00 1.000000000000000000e+00 1.000000000000000000e+00 3.459778726100921631e-01 1.000000000000000000e+00 9.976290464401245117e-01 9.999945759773254395e-01 1.000010132789611816e+00 1.059685230255126953e+00 9.722593426704406738e-01 1.000000000000000000e+00 1.000000000000000000e+00 9.999842643737792969e-01 1.000000000000000000e+00 1.000000000000000000e+00 1.017864108085632324e+00 1.000000000000000000e+00 1.000000000000000000e+00 9.991462230682373047e-01 9.996780753135681152e-01 1.000000000000000000e+00 9.767168164253234863e-01 1.000728249549865723e+00 1.000000000000000000e+00 9.178960919380187988e-01 1.000000000000000000e+00 9.999766945838928223e-01 1.000000000000000000e+00 9.343259930610656738e-01 1.000000000000000000e+00 1.000000000000000000e+00 1.001969099044799805e+00 1.000000000000000000e+00 8.304997682571411133e-01 1.000382661819458008e+00 1.000000000000000000e+00 1.000325083732604980e+00 1.000000000000000000e+00 1.002931952476501465e+00 9.999189972877502441e-01 9.998313784599304199e-01 1.000000000000000000e+00 1.000000000000000000e+00 9.675947427749633789e-01 9.999462962150573730e-01 1.000000000000000000e+00 1.000000000000000000e+00 1.000000000000000000e+00 1.000000000000000000e+00 1.000000000000000000e+00 9.956653714179992676e-01 1.119928002357482910e+00 1.000000000000000000e+00 1.000000000000000000e+00 1.000803828239440918e+00 1.000232815742492676e+00 6.605637073516845703e-01 1.000000000000000000e+00 9.077850580215454102e-01 1.000000000000000000e+00 1.000000000000000000e+00 1.000000000000000000e+00 1.000000000000000000e+00 1.000000000000000000e+00 9.118351936340332031e-01 9.999704360961914062e-01 9.990054965019226074e-01 1.000000000000000000e+00 1.000000000000000000e+00 1.000000000000000000e+00 1.000000000000000000e+00 1.000000000000000000e+00 1.000000000000000000e+00 9.954639077186584473e-01 1.071840167045593262e+00 1.000000000000000000e+00 1.000000000000000000e+00 9.992913603782653809e-01 1.000000000000000000e+00 1.000000000000000000e+00 9.999988079071044922e-01 1.000000000000000000e+00 1.000000000000000000e+00 1.032532930374145508e+00 9.198157787322998047e-01 7.379391789436340332e-01 5.081263184547424316e-01 1.000000000000000000e+00 1.000171422958374023e+00 8.009552955627441406e-01 1.000000000000000000e+00 9.998646974563598633e-01 1.000000000000000000e+00 9.017369151115417480e-01 9.925754070281982422e-01 1.000000000000000000e+00 8.548619151115417480e-01 1.009225726127624512e+00 1.000000000000000000e+00 1.000000000000000000e+00 1.000000000000000000e+00 9.997967481613159180e-01 1.000097751617431641e+00 1.000000000000000000e+00 9.999754428863525391e-01 1.000298142433166504e+00 9.999341368675231934e-01 1.000000000000000000e+00 1.000000000000000000e+00 1.000000000000000000e+00 1.014516949653625488e+00 9.973888993263244629e-01 1.010672092437744141e+00 1.000000000000000000e+00 1.000000000000000000e+00 1.000000000000000000e+00 1.000000000000000000e+00 1.000374794006347656e+00 1.000000000000000000e+00 1.000000000000000000e+00 1.000913858413696289e+00 9.668268561363220215e-01 1.000000000000000000e+00 1.000000000000000000e+00 9.999446272850036621e-01 1.000000000000000000e+00 9.999688863754272461e-01 1.000000000000000000e+00 1.000929117202758789e+00 1.000000000000000000e+00 1.002420783042907715e+00 1.000000000000000000e+00 1.000000000000000000e+00 1.000000000000000000e+00 1.043822169303894043e+00 1.000877022743225098e+00 1.000075221061706543e+00 